2996 16
영화 -0.07540751 -0.015464941 -0.037101254 0.03244006 0.00061844895 0.048049174 -0.029259916 0.002613515 -0.04458149 0.05503444 -0.045679364 -0.022667777 -0.047764193 -0.010321413 -0.03914528 0.008355996
다 -0.11937617 0.07227575 0.08257453 -0.11204085 0.038398538 -0.035413858 -0.0931492 0.039270885 -0.062255375 0.071616955 -0.08793703 -0.06812485 -0.053333938 0.089338325 0.08845435 -0.093778975
고 0.0044232113 0.03680249 -0.009843669 0.038000315 -0.00011349775 0.038953416 0.049768597 -0.034711953 -0.026082443 0.018803235 -0.0027686367 0.017096661 0.0180591 -0.0018520493 -0.009808227 0.05807495
하 0.02907853 0.016649779 -0.020681119 -0.05505352 0.031985074 0.03693597 -0.054476302 0.022242468 -0.029064827 -0.0082501285 -0.050834198 -0.027118638 -0.050410107 -0.0014057509 -0.019365758 -0.026390443
을 0.0046464284 0.02084926 -0.014930942 -0.026221436 -0.050507624 0.018826246 -0.020357758 0.023593012 -0.0044546174 -0.021266932 0.044147335 0.047232196 -0.030728744 0.0050686994 -0.017954674 0.004970985
보 0.011317487 0.040530883 0.022953924 0.010523115 0.025661591 -0.03360984 0.030874852 -0.016234374 0.005071359 0.030028695 -0.042911965 0.045873486 0.02775464 -0.02817899 -0.028847376 -0.050820053
.. -0.106954254 0.093405604 0.039388433 -0.06390753 0.019410532 -0.024969723 -0.06153023 0.008200826 -0.11705937 0.10171902 -0.019540248 -0.002595316 -0.034901667 0.059854172 0.09150563 -0.02133997
게 -0.0974726 0.08058846 0.089213185 -0.028862843 0.10668675 -0.053752415 -0.08218534 0.069365926 -0.1214616 0.034302846 -0.07403515 -0.09597851 -0.032622024 0.10799059 0.11301246 -0.08044906
, 0.0537107 -0.04248102 0.028773643 0.038692985 -0.011360622 -0.026053391 -0.03790061 0.013118126 0.032530535 -0.015225234 0.018392684 -0.047507454 -0.03205296 0.00190671 0.013441519 -0.013495169
! 0.11971931 -0.097372904 -0.15506822 0.13557969 -0.10702911 0.15023448 0.17339171 -0.10100567 0.096821725 -0.17234303 0.15105352 0.0864432 0.1622014 -0.08383088 -0.087638885 0.16485457
지 0.014567601 0.044048164 0.04737097 -0.004111296 0.06663486 -0.012680938 0.019794038 0.0438513 0.017958354 0.041220736 -0.06685246 -0.027947793 0.013682828 0.052539203 0.050753023 0.009635685
있 0.05932813 -0.0053102663 0.012119264 0.037787665 -0.045101006 -0.01974421 0.05807978 -0.0015429805 0.004925653 0.035963226 0.019349536 0.046603 0.053035557 -0.04482882 -0.0148629835 -0.014638041
없 -0.04502991 -0.012520511 0.032399025 -0.036560092 0.05419042 0.0006248912 -0.06094845 0.0003326072 0.019652052 0.06070395 -0.045939654 -0.047629517 -0.012306973 -0.0044445917 -0.0063074217 -0.05132665
? -0.09019299 0.065950304 0.05810195 -0.05502117 0.08310085 -0.06666471 -0.08515231 0.09873594 -0.014950389 0.05387905 -0.09678244 -0.08558787 -0.05175874 0.062415816 0.014989332 -0.044465538
좋 -0.003361559 -0.05654646 -0.038608603 0.023296814 0.0029900183 -0.018374529 0.037121307 -0.067503236 0.03746438 0.003698507 -0.017128183 0.0062088175 0.029387318 -0.029789131 -0.05141015 -0.014515998
나 -0.07025661 -0.007403717 0.0093144355 -0.0072786873 -0.02366253 -0.039119832 -0.0600897 0.06327421 0.012003774 0.008713542 -0.06502418 0.014724891 0.008957028 0.0337064 0.0057153497 -0.0019345668
었 0.0023477776 0.036539804 -0.03296059 0.035832513 0.03103115 -0.013015948 0.03142824 -0.019405842 -0.040454533 0.0139478855 -0.03209951 -0.04014073 -0.00038433552 -0.027171835 -0.024264757 -0.0362492
만 -0.067904234 -0.009612202 0.014624767 -0.0002145769 -0.013964422 -0.0027875165 0.001133296 0.08130815 -0.0039746994 0.0047135195 -0.040080365 0.007616304 -0.045442652 -0.008019208 0.035002306 -0.05211644
는데 0.042346977 -0.06546055 0.009846961 -0.01646991 -0.009698549 0.059241377 0.02077388 0.022865767 -0.024477445 0.016541844 0.028141871 -0.007925258 -0.0054470473 0.0099921115 -0.020987015 -0.024539461
너무 0.102976 -0.02360844 -0.006840655 0.094477065 -0.009834653 0.03998468 0.020261742 -0.060662813 0.0806048 -0.08574122 0.054869153 0.06470889 0.095740594 -0.027769519 -0.09471132 0.066119365
봤 0.03881757 -0.044596095 -0.044593852 -0.0038074849 0.01416316 -0.01700005 -0.002357347 0.0153548075 0.034299035 0.022854388 -0.023255207 0.05316715 0.06137828 0.013509439 0.027623992 -0.006327799
안 -0.10379526 0.14470685 0.119363904 -0.08401207 0.08754243 -0.0717358 -0.10683549 0.122801505 -0.092427686 0.06882754 -0.13348843 -0.10658961 -0.10495139 0.1433875 0.07326041 -0.10516879
적 0.034584474 0.01407377 -0.02950828 -0.015294725 -0.0052600913 -0.017490102 0.043929644 0.0074204016 0.07210386 -0.0329608 0.008495696 0.006714951 0.05968346 -0.0018475158 0.011307981 0.040610723
정말 0.2743202 -0.15646562 -0.21372211 0.19905464 -0.15448718 0.2065587 0.17219077 -0.22422285 0.19148612 -0.27403495 0.1975043 0.16491215 0.25434667 -0.17728738 -0.22393808 0.16732799
로 0.015932107 0.009769847 0.058819085 -0.03774401 0.033221826 0.0121497875 0.022915145 -0.016698906 0.03722307 0.018912276 -0.034136996 0.019050332 -0.001768393 0.012228373 0.016117334 -0.047746725
음 -0.029315226 -0.052343123 0.019581622 -0.020069957 -0.053062413 -0.004849819 0.042598 0.012453599 -0.027212258 -0.020927163 0.01637163 -0.02068305 -0.031412542 -0.0060474663 -0.034411848 0.009947368
것 0.041317753 -0.09674509 -0.060411833 0.094598256 -0.039345346 0.0400027 0.113221854 -0.025096526 0.095820725 -0.082172826 0.055346727 0.08980119 0.082727805 -0.03391429 -0.08228823 0.06512055
아 -0.08672485 0.049115717 0.04064605 -0.06788009 0.0050330684 -0.023454651 -0.052373946 0.03924191 -0.07786051 0.11106159 -0.0042189443 -0.018588984 -0.0840031 0.06526038 0.048628267 0.0013922155
네요 0.0015493095 -0.037428208 -0.031331945 -0.039233044 -0.01960262 -0.00704416 0.057753615 0.012428411 -0.039874915 0.037269328 0.026253428 0.025131503 0.053734772 0.019049171 0.032491427 -0.012378622
재밌 -0.021739954 0.02391077 0.018703861 0.01468515 -0.04353074 0.01878812 0.05861254 0.025998423 -0.02800419 -0.042279772 0.029133383 -0.023900338 0.0068576206 -0.023188889 -0.034889434 -0.025730433
어 -0.022422187 0.03523084 0.022376353 -0.05704354 -0.019206442 -0.04804136 -0.025815945 -0.0017896765 0.020416524 -0.04287652 -0.010180419 0.03516792 0.013099564 0.052468084 -0.031198956 -0.0009960105
같 -0.0113107655 0.024332838 0.0016892119 0.024200302 -0.02724126 -0.036320355 0.022122258 -0.04215623 0.022557149 -0.0046434863 0.029726928 0.012924931 -0.031894777 -0.052836668 0.01727436 -0.019607004
점 0.018906003 -0.041237336 0.052410197 0.022526516 -0.016798738 -0.03462408 -0.0038254173 -0.04291835 0.02343311 0.041444078 -0.004514444 -0.008449946 0.02124745 -0.010741607 -0.026521692 -0.042796716
진짜 -0.04399552 -0.02125665 -0.007871709 0.0249822 0.052767813 0.0053895116 -0.014495965 0.0148358205 -0.072539434 0.03035925 -0.04613393 0.035038266 -0.049731225 -0.0028820676 0.014476815 -0.059774175
지만 0.013979974 -0.035158623 0.04769366 0.0148489075 -0.01975729 -0.059051353 -0.01949174 0.03979716 -0.037323374 -0.00036993873 -0.04460805 -0.00358421 -0.04835037 -0.029476402 0.049599968 -0.023019427
했 -0.008572519 -0.0047087297 0.0015588291 -0.03364513 -0.03170854 -0.027641429 0.01879355 0.0075887553 -0.032953788 0.0235474 0.047126044 -0.03595694 0.012951802 -0.03663863 -0.0017058477 0.013057556
에서 -0.046274588 -0.011086354 0.00320356 0.0041088276 -0.013792438 -0.017547492 -0.040925972 -0.015860613 0.028273229 -0.032953415 -0.061062653 -0.05398413 0.015269296 0.05687088 0.046879135 -0.048178848
기 -0.03246386 0.039819352 -0.01832653 -0.040230904 -0.015581309 -0.07699187 -0.081617564 0.007022906 -0.029287841 0.03180511 0.0057094465 0.0039392384 -0.018550776 -0.019192744 0.0069527025 0.009570828
네 -0.0054025063 -0.015578746 -0.018849751 -0.018703518 -0.031643983 -0.046407398 -0.023827208 0.0014023056 -0.032988254 0.029053006 -0.05336565 0.043235123 -0.023420537 0.0009386432 -0.0017721605 0.011981019
않 -0.001159555 -0.02291974 -0.015496302 0.030734707 0.029150255 0.019447919 0.021587746 -0.03482101 -0.020702226 0.03767443 -0.0060301544 0.024470497 0.016846735 0.012706029 -0.009501651 -0.056265738
거 -0.06708828 0.054889277 -0.018390093 -0.059565965 0.03750858 -0.061444 -0.031689752 0.028391033 -0.0035093217 -0.0013083667 -0.00083164446 -0.008155298 0.01429372 -0.023144467 0.043469362 -0.054762762
았 -0.045786083 0.0029248372 -0.036267422 -0.03564427 0.0068435557 0.017991077 0.029353116 0.033514228 -0.0419266 0.010157488 0.006312657 0.02602781 0.015951801 0.0020934567 0.01798186 -0.031246066
수 0.16923755 -0.19553728 -0.16549872 0.21037184 -0.13302357 0.2128228 0.13627453 -0.19591147 0.14997093 -0.20589018 0.21383168 0.10174497 0.13862495 -0.20211454 -0.13595334 0.115948156
되 0.055778075 -0.03964827 -0.041074645 0.034120075 0.013207417 -0.00389368 0.0008876892 0.015225236 -0.0140624475 0.008446553 0.034635123 -0.017792527 0.03092092 -0.063203104 0.020267805 0.00049951184
면 -0.033180382 -0.051463526 0.015567354 -0.0047223754 0.0026234828 0.048664458 0.05974408 0.02425824 -0.009869793 -0.021533597 0.032946724 0.0439994 -0.02730739 0.010987575 -0.06123688 0.040478885
ㅋㅋ 0.08485929 -0.08626647 -0.054326538 0.09783434 -0.09809613 0.07324491 0.08924572 -0.06554665 0.10141853 -0.038298126 0.05943446 0.03716044 0.04076703 -0.09817532 -0.045847323 0.04134854
연기 0.09901921 -0.10972706 -0.11776041 0.15687361 -0.1486444 0.16818003 0.08979344 -0.15727013 0.17618091 -0.1829957 0.0835856 0.16148858 0.18021667 -0.08713008 -0.11971169 0.116092466
말 0.030402044 0.03782928 -0.028352588 -0.015936095 0.01023289 -0.006129981 -0.013156315 -0.039139237 -0.02986792 0.061233666 -0.0452231 0.035077713 0.03491554 -0.038835607 -0.0052558687 0.026205918
인 -0.0103198085 -0.051308382 -0.021408757 -0.013399064 -0.0025757062 0.0032259093 0.04544392 -0.016222047 -0.033901643 0.03851529 -0.03485533 -0.0043132817 0.005488913 -0.013641003 -0.030447653 0.026744664
주 0.020308264 -0.010709964 0.024558552 0.0072058067 -0.011087876 -0.02845711 -0.03125905 0.034080356 -0.025476107 -0.025250154 -0.014539064 -0.052491214 -0.056693774 -0.024737917 0.021528065 0.012609668
최고 0.24724923 -0.21093072 -0.21457542 0.19706061 -0.1985586 0.1756905 0.23180023 -0.19093877 0.22461797 -0.25750387 0.17239702 0.20132974 0.16508707 -0.16309464 -0.17700386 0.1601614
평점 -0.032706432 0.099096775 0.10391997 -0.022008061 0.042339884 -0.036228035 -0.06403361 0.0544141 -0.05708562 0.052727234 -0.031811066 -0.019447848 -0.06811306 0.04542996 0.10274728 -0.055817433
내 -0.03244848 0.057318494 0.014911937 -0.045306493 0.039465003 -0.051235694 -0.041138597 0.02969278 -0.09333648 0.06554237 -0.04266358 -0.056395743 -0.009184447 0.071451776 0.002142015 -0.07365652
~ 0.030724451 -0.0666309 -0.06808642 0.07878692 -0.06505434 0.078223534 0.026128817 -0.03045329 0.09048829 -0.113464 0.07487463 0.03727642 0.075999215 -0.040436566 -0.06292246 0.0047690803
이런 -0.14105342 0.078164436 0.099962756 -0.07015735 0.09439063 -0.061235055 -0.13171819 0.07704863 -0.05680512 0.08990034 -0.13592458 -0.07660507 -0.10407222 0.0876236 0.11995319 -0.06810127
던 -0.0011137256 -0.011512912 0.018052286 0.009290699 0.0027546615 0.002282963 -0.03677638 0.02595775 0.036295004 0.033551194 -0.005499493 -0.030811895 0.014774817 -0.020051925 0.04191348 0.039815936
어요 0.03230505 -0.023806704 -0.00647559 0.049106013 -0.021706391 -0.033524383 -0.036955953 0.03752703 0.014150824 -0.043854333 0.048010025 0.021884572 0.04651178 -0.015862226 -0.010344982 -0.013132203
왜 -0.16629411 0.1716787 0.10106066 -0.16718423 0.1076227 -0.09189526 -0.045356024 0.17659356 -0.08778772 -0.057297695 -0.17772125 -0.17937674 -0.19705983 0.17287415 0.14505641 -0.14748865
할 -0.0729776 0.022127587 0.0017605423 -0.028436057 0.019988019 0.035649955 0.025121909 -0.043252528 0.021915538 0.0688431 0.019482752 0.016588295 -0.05731225 -0.014073739 0.013352114 -0.017420378
겠 0.018554052 -0.024419755 -0.02622066 -0.030547667 0.0064707077 0.012841665 -0.02793407 -0.038894307 -0.018583873 0.027852219 0.00816227 0.02112799 -0.007475708 0.025718572 0.0036514576 -0.018459052
1 -0.036822528 -0.029949948 -0.028985271 -0.043580268 -0.029786654 -0.041134946 -0.006091345 0.022707358 0.012420284 -0.017851967 -0.05320078 -0.054796264 -0.036013782 0.06629803 -0.017649125 -0.060326885
해 0.013807423 -0.0039060751 0.025102489 -0.035334755 0.020124314 0.031677507 -0.031198934 -0.024980223 -0.0216794 0.007548804 -0.037090067 -0.004933397 -0.0045073098 -0.0308764 0.0123165995 0.0114600435
스토리 -0.111417376 0.08717004 0.13280891 -0.08199135 0.14368686 -0.046880987 -0.063275956 0.15159477 -0.11821445 0.085421674 -0.047961827 -0.07834935 -0.1410212 0.1346745 0.062957376 -0.046573896
습니다 -0.016711446 0.00648301 -0.019097371 -0.026743058 0.021172207 -0.02177557 -0.032101594 -0.05380773 0.010856613 -0.05640971 0.006752322 -0.030100543 0.005465774 0.03405193 -0.0068457644 -0.029137038
ㅋㅋㅋ -0.021713821 -0.044580474 -0.035249878 0.014829594 -0.04305993 -0.014171098 0.00904362 -0.0364523 0.0070271585 0.04941392 0.025872877 -0.016583512 -0.03647171 -0.050499193 -0.026958343 -0.023856359
... -0.088215806 0.08585246 0.07683313 -0.054946575 0.023614792 -0.074987315 -0.03159885 0.089528464 -0.08238431 0.07999051 -0.015094541 -0.08149655 -0.0709603 0.07191887 0.06442794 -0.056805823
아니 -0.047895744 0.03542963 0.03597975 -0.019192072 0.044916436 -0.0078065447 -0.05103754 0.03840506 -0.07493554 0.042329703 -0.018840505 0.0045929262 -0.0018875905 0.04143854 0.06683768 -0.084068626
생각 0.058089867 0.018789329 0.0127064595 0.042414397 -0.022224411 -0.019491466 -0.0038531567 -0.0537584 0.0038054902 -0.018287117 -0.028947901 0.061694734 0.03216627 -0.058916587 0.010218725 -0.03292473
더 -0.008512444 -0.018653361 0.010418675 0.03932809 0.012021738 -0.037766792 -0.0177257 -0.03259205 -0.051821288 0.0049313977 0.038957905 -0.025614008 0.03169858 -0.023896428 0.03197223 -0.023194784
그 0.039648995 -0.090448536 -0.07089293 0.011234828 -0.03804327 0.055117246 0.095270365 -0.019903407 0.040629663 -0.10538214 0.09602841 0.013462238 0.041337676 -0.060863953 -0.035413526 0.05366402
드라마 0.04471312 -0.07491698 -0.06478465 0.103836566 -0.054512557 0.07907 0.033636045 -0.04703944 0.094693094 -0.07127957 0.03232359 0.11504171 0.03844386 -0.022076143 -0.021518668 0.02782239
싶 -0.021452116 0.026506398 -0.03510054 0.018747568 -0.025384003 -0.02297748 -0.011415492 0.0021110545 0.0112032145 0.01281426 0.0052614985 0.039432194 -0.029522276 -0.024180194 -0.017248828 0.029975949
사람 -0.07747511 -0.01657161 -0.019734167 -0.009673248 -0.020011427 0.001068679 -0.009774421 0.0491271 -0.07900373 0.027264146 -0.013352723 -0.033087023 -0.07409381 -0.01429873 0.012936047 -0.017895719
듯 -0.08915781 0.012106614 0.03452036 -0.03406795 0.06094124 -0.012956439 -0.07623822 0.066841565 -0.033869255 0.0432802 -0.043251753 0.00409685 -0.0060143284 0.03613053 0.0736196 -0.035365697
때 0.1018025 -0.095799856 -0.015959546 0.03989919 -0.09224999 0.0134829935 0.04570871 -0.025227135 0.11887409 -0.052056026 0.03779775 0.05484809 0.061132 -0.015540804 -0.109833315 0.0421045
감동 0.19936684 -0.1557327 -0.20325567 0.19772476 -0.1887399 0.16805068 0.22520362 -0.14511178 0.21733476 -0.22067368 0.13312924 0.14913602 0.1480478 -0.12669085 -0.19174841 0.15537135
배우 0.022768293 -0.062328957 0.019841377 0.0731566 -0.037813645 0.06788404 -0.0010468018 -0.026705159 0.05612255 -0.022209134 0.016169105 0.050002884 0.034547128 -0.019726051 -0.023091974 0.039038364
함 0.018983956 -0.010443163 -0.012642776 -0.018291524 0.013426782 0.038641647 -0.03269554 0.01610549 -0.025525026 -0.046256587 0.04938408 0.013231684 -0.010789682 -0.023470275 -0.0030582743 0.0009796186
까지 -0.001188701 -0.040452737 -0.053715974 0.007026556 0.03690543 0.037245177 0.054086078 -0.019892106 0.021121934 0.008237689 0.04902934 0.024142917 -0.00012618984 0.038594894 -0.015238359 0.03700226
본 0.17787674 -0.06333903 -0.119101256 0.068844415 -0.13428622 0.1280958 0.15217927 -0.06775526 0.15709695 -0.11834085 0.06495439 0.10106799 0.094428204 -0.12457712 -0.13978726 0.06922506
볼 -0.04054309 0.015604967 -0.04650438 -0.013554019 -0.015823394 -0.03681886 -0.018302858 -0.064135626 0.040521532 -0.024007577 0.023360757 0.06423 0.059348848 -0.057440076 -0.056205433 0.0020604595
내용 -0.08527321 0.049364958 0.10491105 -0.086257145 0.11615822 -0.0866078 -0.10561009 0.09767824 -0.07042297 0.12692352 -0.110883944 -0.110323906 -0.051158365 0.09018698 0.06203742 -0.058918383
보다 -0.10165656 0.09616796 0.107777104 -0.06752026 0.12554048 -0.100719675 -0.0501004 0.14868723 -0.039988045 0.057504255 -0.09925733 -0.059353635 -0.10440839 0.14366594 0.14819469 -0.10979635
만들 -0.05529049 0.08941254 0.020150015 -0.010760965 9.234532e-05 -0.03428855 -0.059928883 0.0313573 -0.098063625 0.06778977 -0.0043720077 -0.0011623423 -0.08102221 0.07404459 0.089336395 -0.019171288
뭐 -0.15731615 0.0939301 0.123949915 -0.111969166 0.08612753 -0.093874276 -0.1066683 0.17645648 -0.07816148 0.0645525 -0.15770821 -0.13482511 -0.13338257 0.09406309 0.079114534 -0.117127255
알 -0.035131484 0.015021331 0.07819971 -0.07867942 0.08060112 -0.081643 -0.07596549 0.07924944 -0.04453526 0.1022027 -0.06985634 -0.079357155 -0.038296703 0.022521678 0.012904078 -0.021735135
감독 -0.06896131 0.11765804 0.13434075 -0.07542385 0.12830168 -0.08794416 -0.10337598 0.08474267 -0.072620325 0.047961555 -0.12515476 -0.121413395 -0.06206319 0.12403423 0.1355115 -0.08059793
라 0.009124908 0.042580556 0.0014652685 -0.0011589923 -0.0050505972 -0.014647361 0.042003643 0.030147297 0.032685503 -0.046004113 0.014820695 0.018192338 0.018729895 0.031848267 0.010111208 -0.009385438
그냥 -0.17198418 0.14825246 0.113415964 -0.15463388 0.18519258 -0.12032068 -0.037509397 0.22801404 -0.040338337 -0.070941076 -0.1610628 -0.16664934 -0.16950336 0.17959154 0.12424361 -0.18652348
재미 -0.10132264 0.063702755 0.078842044 -0.081738286 0.032004595 -0.06932111 -0.11412761 0.07168213 -0.049697913 0.06013964 -0.078270055 -0.06399489 -0.034926146 0.061023917 0.014534818 -0.043815643
중 -0.0067151943 -0.028753307 -0.056928024 0.024729226 -0.038341004 -0.004197682 0.012492473 -0.0018497196 0.05812056 -0.074400045 0.052469026 0.026870139 0.04306665 -0.04555457 -0.005893194 0.055157844
시간 -0.10400842 0.15376157 0.07965142 -0.16686156 0.10394296 -0.12745585 -0.06321207 0.13120157 -0.11398925 0.0015093065 -0.100088835 -0.15868403 -0.13990982 0.11538707 0.13976932 -0.19958472
지루 -0.04764439 0.058082037 0.09079804 -0.117569424 0.11651398 -0.096913286 -0.051594105 0.0549821 -0.07742428 0.09608138 -0.09054734 -0.046456136 -0.12739055 0.05532415 0.03239215 -0.036602587
재미있 0.021803683 0.037586607 0.035582773 0.039667405 -0.025352472 0.050970618 0.041199584 -0.011766299 0.00019885562 0.02784129 0.03433416 -0.03636622 -0.0242204 0.03762083 -0.0094836075 0.013902522
년 -0.03550991 -0.039749216 0.03861959 0.011566663 -0.032776847 0.0053020413 -0.053653937 -0.015567618 0.033588883 -0.0060083107 -0.034937594 -0.028008776 0.0100807985 -0.027070148 0.031647883 0.03272644
였 0.0010487065 -0.0004550591 -0.0012893192 0.006970562 -0.03464464 -0.00069612265 -0.0153460875 -0.043588042 -0.01569717 0.03665835 0.012340941 0.03684667 -0.022514582 0.0042309053 0.03628779 -0.031721547
10 0.011398702 -0.07018632 0.016107406 0.03624761 -0.05996235 0.023873435 0.051826384 -0.006009573 0.027335545 -0.011225823 0.06815174 0.017208958 0.035715006 0.016100626 -0.020379422 -0.013093457
잼 -0.019413859 0.041029133 0.026537184 -0.035297256 0.058162235 -0.053210523 -0.046803687 0.027566195 0.012720226 -0.0042121327 -0.032782204 0.014979226 -0.008773565 0.010145949 -0.024526441 0.033198074
사랑 0.07063286 -0.106787674 -0.039757866 0.062875934 -0.09129193 0.07342633 0.0705973 -0.11261544 0.05724067 -0.060911044 0.09871605 0.04359138 0.113419816 -0.09125215 -0.07796111 0.09748565
냐 0.0034140337 0.029849028 -0.013260165 -0.040714968 0.060571086 0.004022324 0.025637124 -0.006689845 0.030972103 0.008905039 0.009657612 -0.05520992 -0.048197486 -0.0016484284 -0.02124412 -0.024969414
못 -0.14139296 0.062429056 0.07569504 -0.07228421 0.08464798 -0.12287071 -0.09430865 0.112006396 -0.11542731 0.092524834 -0.08695657 -0.060120184 -0.103696495 0.11780501 0.10893742 -0.11516612
재미없 -0.02971625 -0.03642051 -0.021864584 -0.012147526 0.035942417 0.03500674 0.026574738 -0.015700957 0.024939517 -0.037348244 -0.024381023 0.03907054 0.016155506 -0.0058014295 0.016063144 0.022750625
서 -0.014757645 -0.004812043 0.06125141 -0.008112641 0.06863103 -0.068916515 0.0055157337 0.071416676 -0.049372073 0.052413274 -0.033231232 0.010778882 0.01926513 -0.023207223 0.055276964 0.019424912
쓰레기 -0.075793855 0.15299346 0.18472987 -0.09128707 0.23208822 -0.117803454 -0.06127906 0.17258957 -0.08370639 -0.10619936 -0.14002237 -0.14635761 -0.15396374 0.17350203 0.17220002 -0.13976716
2 0.018851036 -0.0193317 -0.0018564931 0.04916134 -0.0013731325 0.064788416 0.009340204 0.008067673 0.007092537 0.014441135 0.03509579 0.0027855611 0.022241676 -0.045076653 0.009514619 0.03238413
라고 -0.049692355 0.05376707 0.051436115 -0.020217681 -0.009194995 0.02858371 -0.0061192056 -0.004358389 0.026269637 0.033278786 0.0077294456 -0.037852585 -0.050902277 0.0036683993 -0.023259187 -0.05263463
번 0.06036829 -0.04441199 -0.08098361 0.07793747 -0.02294133 0.09591617 0.047951963 -0.08195545 0.052408855 -0.059272386 0.07010068 0.023976013 0.05172533 -0.084238835 -0.08401725 0.058164433
야 -0.05109242 0.004305207 0.049614195 -0.030878216 -0.010904267 0.026631672 0.017547255 0.064230576 0.020109156 0.027628258 0.018363146 -0.012021943 -0.039949313 0.02800222 0.027303478 0.026265087
면서 -0.01972177 0.0052967295 -0.04411626 0.001203943 -0.030969441 -0.03050114 -0.025236512 -0.005903505 0.024555717 0.029802237 -0.02129736 0.018608723 -0.03251829 -0.049060762 -0.048831236 0.026743103
다시 0.16907327 -0.19830588 -0.15587938 0.18009028 -0.19517575 0.14252114 0.18480787 -0.14526932 0.18992323 -0.23862013 0.20049077 0.1622968 0.14451109 -0.1249197 -0.21701147 0.12869394
니 -0.049793743 0.027192222 0.0679258 0.008089181 -0.019016873 -0.053399775 -0.08052087 0.012619021 -0.06450833 0.030886665 -0.051342662 -0.044929218 -0.01857505 -0.013114461 -0.01699099 -0.04008058
나오 -0.032730535 0.012617681 0.013705123 0.034976672 0.046413396 -0.023613824 -0.04604901 -0.03920511 -0.04539875 0.009948112 0.035684574 -0.0472185 0.038972724 -0.008716643 -0.044787657 0.0049679503
작품 0.026308808 -0.039880373 -0.048600815 0.02204193 -0.010715005 0.08180691 0.03848993 -0.097103894 0.016536083 -0.053237215 0.07706282 0.008778639 0.012001355 -0.01913163 -0.05509212 0.021650637
이거 -0.040239215 0.052245393 0.0288568 -0.09206415 0.021161413 -0.010267449 -0.03567115 0.009384142 -0.08287402 0.116733775 -0.09136497 -0.06445263 -0.037310947 0.014496158 0.078440085 -0.084997416
하나 -0.09284575 -0.003552636 -0.003978181 -0.08939253 0.09326562 -0.06250327 -0.07526304 0.08095684 -0.06502449 0.017917672 -0.026424158 -0.023384375 -0.08897769 0.054305278 0.04310039 -0.085942455
해서 -0.08483513 0.07109058 -0.0019538002 -0.03721636 -0.00812652 -0.059500746 -0.027512193 0.0012667362 -0.088135675 0.06699049 -0.055106007 -0.08586616 -0.041447956 -0.004576302 0.025727915 -0.080920406
줄 -0.048918664 0.059678137 0.05583846 -0.032311343 0.056682974 -0.046253383 -0.05890615 0.048139878 -0.07272857 0.10855963 -0.054884773 -0.015913706 -0.075855225 0.08413855 0.035181124 -0.08889134
개 -0.12825401 0.14749269 0.068342656 -0.04692367 0.091776475 -0.11125391 -0.04755821 0.15362708 -0.07801962 0.024809096 -0.07135848 -0.059315816 -0.1156874 0.10516773 0.12554784 -0.11243377
끝 -0.06121051 0.08610989 0.02987077 -0.0563051 0.07412747 -0.051819876 -0.05335252 0.049753867 -0.052257147 0.11416371 -0.050166562 -0.09742954 -0.10518926 0.09393071 0.045396715 -0.059161864
남 -0.03161499 0.05406851 0.022744572 -0.055193692 0.050597675 -0.030147381 -0.078446366 -0.012251134 -0.06827264 0.029153032 -0.049882956 -0.059495907 -0.04131722 0.055282526 0.07094252 -0.019672465
정도 -0.10507477 0.06266689 0.0732748 -0.10119012 0.09351274 -0.09581539 -0.07225938 0.026325483 -0.071549825 0.025972914 -0.032669395 -0.025372049 -0.055025987 0.09676465 0.030647976 -0.024746414
마지막 0.16137636 -0.08906532 -0.10580514 0.15426446 -0.10194669 0.10050993 0.121291354 -0.09813662 0.1647049 -0.16092093 0.11711133 0.13321935 0.11882595 -0.15820964 -0.12381778 0.17607796
이건 -0.124385625 0.16898696 0.1124149 -0.14733632 0.12089586 -0.09876634 -0.09841656 0.16466601 -0.062420115 -0.010636527 -0.14232689 -0.20879833 -0.20842665 0.12357901 0.122394346 -0.17661528
임 -0.040141456 -0.0034108907 0.013726251 -0.060406946 0.015718492 -0.035723507 -0.08044266 0.038914766 -0.0048324903 0.0782524 -0.051760852 -0.05980828 -0.040589903 0.034304664 0.0071884682 -0.04814635
액션 0.06093258 -0.049595054 -0.030483728 0.060775712 0.00659215 0.042298503 0.023952654 -0.061569918 -0.0039101853 -0.038801514 0.020720348 0.039948568 0.041247375 -0.04509401 -0.061891288 0.016120896
기대 -0.013782989 -0.027320733 -0.06818045 0.018557176 -0.041059602 0.08016984 0.068800956 -0.0062625767 0.04955604 -0.05508399 0.08276557 0.03583757 0.03441466 -0.0023184207 0.0067501864 0.03219788
분 0.06502077 -0.042068392 0.011189753 0.07382756 0.018451616 -0.0035837851 0.04297569 -0.009690951 0.03397063 0.02682038 -0.012251504 0.028768549 -0.01787428 -0.07300162 -0.05024889 0.04234174
라는 -0.005355757 0.0354027 0.025851266 0.031864937 -0.010419042 -0.05191669 0.026569262 0.013690586 -0.044124715 0.027105324 -0.05353515 -0.01480161 0.0324014 -0.018933885 0.057867106 0.023112493
ㅋ 0.081833996 -0.03836449 -0.030225608 0.023004854 -0.0185341 0.07549515 0.049002867 -0.069913164 0.09975107 -0.10250506 0.0699862 0.10768133 0.103506975 -0.066527374 -0.1018289 0.051581882
3 0.0019703694 -0.025408097 -0.021417173 -0.044840723 0.0061567957 -0.051418867 0.017449614 0.04603599 -0.05353482 0.05331651 0.04174951 0.0233151 -0.049482014 -0.022610977 -0.027564067 -0.005360112
다는 -0.0007516831 0.00037419007 -0.041804876 0.04600708 0.008238405 0.009210486 -0.024535006 0.0149869425 0.027995566 0.00220197 -0.04696587 0.03335561 0.008342227 -0.031183625 -0.025760468 0.038799275
입니다 0.030963765 -0.07353187 -0.009643622 0.04160631 -0.072432816 0.027415004 0.04328036 -0.05407543 0.016608441 -0.06529938 0.07817026 0.0396614 0.10070186 -0.03537813 -0.087712295 0.050952893
건 -0.08108715 0.025628475 0.1168687 -0.10798938 0.071113646 -0.078262396 -0.08853403 0.05252122 -0.10833877 0.11024395 -0.049991567 -0.05461697 -0.08343307 0.09196433 0.08917806 -0.036498852
완전 0.020991733 0.012953694 -0.015952986 -0.031261873 -0.033168208 -0.035670016 0.0056014946 -0.07015486 0.027132358 0.011528859 0.0068956995 0.062115632 -0.0048270463 -0.042647507 -0.04978226 -0.0012224081
많 -0.010595072 0.0067378767 -0.010896765 -0.029145552 -0.0061889514 -0.0063211694 -0.030256022 -0.031076765 0.010243095 0.043283965 0.0128963925 -0.02576077 0.03269184 -0.047129598 -0.037531327 0.00079057366
참 0.056087874 -0.026840813 -0.042865276 0.04938732 -0.07324001 0.09045878 0.014755886 -0.02572044 0.09494442 -0.0546926 0.07569758 0.010038792 0.049767505 -0.011378118 -0.054777034 0.106197916
처음 -0.09354259 0.0321107 0.059491765 -0.025369676 0.026041314 -0.06235421 -0.047123168 0.024390996 -0.09797593 0.10775339 -0.05399279 0.005434893 -0.08733207 0.053825617 0.025184743 -0.015110961
장면 0.060744 -0.033731245 -0.056278612 0.031149518 -0.026528746 0.026723973 0.04151151 0.006582277 0.018346893 0.0035506613 0.023347078 -0.012531419 0.047716707 -0.019885158 -0.061419763 0.02639646
대 -0.035870846 0.049202472 -0.023770252 -0.009067184 -0.015255691 -0.015002377 -0.015516346 0.05267 -0.06635265 0.057891585 -0.022049615 -0.041967455 0.021811549 0.010268284 -0.012958686 -0.03691983
으면 0.025254752 0.006280042 0.007985223 -0.013394415 0.021509055 -0.042410757 0.013212275 0.02014606 -0.013750315 0.018499266 -0.0320462 0.0074999817 -0.0032453425 0.04081812 -0.04153923 0.025504146
다가 0.0302293 0.0033721663 0.0487528 0.04031273 0.049873054 -0.0015344889 -0.0049846503 0.022462854 0.0148757035 0.0056438893 0.046573833 0.031583544 0.01161712 0.008845232 0.026716022 0.03132176
아깝 -0.035816036 0.06377507 0.015153409 -0.09010883 0.08437115 -0.036792476 -0.07149692 0.030807247 -0.05542683 0.06794827 -0.07647351 -0.06619081 -0.034400027 0.0010038442 0.057231657 -0.037312213
지금 0.122433595 -0.08140379 -0.049064104 0.031443425 -0.10605514 0.039800335 0.09671088 -0.117421515 0.057654284 -0.06460256 0.04563893 0.02102523 0.097395435 -0.07883974 -0.06843661 0.025512509
이렇게 -0.06139331 0.02244708 0.061371904 -0.084375866 0.0909544 -0.0106020905 -0.06716816 0.04124416 -0.033469506 0.0911065 -0.0035648965 -0.029694097 -0.008458772 0.05308396 0.079386316 -0.06897211
모르 0.042888474 0.046353232 -0.03536924 0.026148055 0.04101712 -0.032788552 0.016394082 -0.0122946985 -0.037490346 -0.03423009 0.013125848 0.032132242 -0.003630709 0.020919513 0.04806335 0.026068639
편 -0.03744961 -0.0034598827 -0.004793771 0.01219959 -0.048604764 0.04473439 0.023431767 -0.007402095 -0.03545817 0.011330295 0.00070983905 0.056037303 -0.026959402 0.01036207 -0.049689338 0.043633625
' 0.014936074 0.04895789 0.022957595 -0.04052556 -0.043735083 0.002344482 -0.01082108 -0.041376963 0.01365333 -0.0006875148 0.034023385 0.002047832 0.017363241 -0.037391197 0.035992306 0.0034908026
이게 -0.11360816 0.13713944 0.12848806 -0.090584025 0.09706759 -0.1698065 -0.045495857 0.13177168 -0.11355386 0.010271416 -0.08497949 -0.15999675 -0.17076536 0.15269893 0.15106298 -0.18670483
일 -0.05222314 -0.015880216 0.051003996 -0.04693116 0.061816927 0.03154774 -0.063539356 0.036193416 -0.039038695 0.070787616 -0.036974967 -0.052349377 0.007922633 0.052188978 -0.010196813 -0.025950916
돈 -0.05774515 0.14415556 0.085890606 -0.15333171 0.16162051 -0.17101233 -0.12014538 0.12934032 -0.10781244 -0.06550683 -0.0862708 -0.15466636 -0.17864177 0.13980098 0.1460631 -0.12591477
성 -0.021959525 -0.039724864 -0.008954248 -0.035460908 -0.0015649816 0.039983377 -0.0003605545 0.02566322 -0.0050154505 -0.042065237 -0.021613698 -0.0052047456 -0.0226772 0.044895057 0.047644835 -0.01577044
시 -0.031695154 0.033586722 0.01082003 0.035641342 -0.009424362 0.044025272 0.030387873 0.007695394 0.0062841275 -0.053579245 0.057093132 0.015149061 0.059096273 0.02804689 0.03308212 -0.0020850222
이야기 -0.009527528 -0.018558996 -0.008031734 0.07768411 0.0024527395 0.006120573 0.05452201 -0.067904346 0.074965544 -0.013233397 0.01724293 0.016300522 -0.001641723 -0.03996224 -0.07681027 0.0007025366
느낌 -0.05006454 0.022245742 0.001306081 -0.05172815 0.06826405 -0.030121949 -0.08638635 0.0687697 -0.036939237 0.016396696 -0.028052999 -0.017150976 -0.075513415 0.06964026 0.014742586 -0.0040733092
최악 -0.093336925 0.124953374 0.13782121 -0.14550829 0.0956908 -0.106939465 -0.07565618 0.114227146 -0.06877479 0.04737141 -0.115017645 -0.0923569 -0.16199021 0.1112211 0.14394237 -0.08211599
된 0.08167902 -0.05873495 -0.052588236 0.062206388 -0.097194836 0.10601522 0.025144769 -0.096798666 0.03176486 -0.10422106 0.016646216 0.011494153 0.110196136 -0.047086727 -0.079962775 0.042216003
님 0.0047889343 0.014022605 -0.03570342 -0.023476679 0.014306574 -0.04405195 -0.025091853 0.012880511 -0.055076845 -0.03994794 -0.05343737 -0.048544403 0.033723354 0.061730325 0.04948846 -0.022781821
봐도 0.15385064 -0.100732364 -0.117405005 0.14978233 -0.14883766 0.1037651 0.18977782 -0.113428645 0.11059118 -0.14831258 0.0972475 0.111525126 0.19594124 -0.1295587 -0.092992984 0.15767342
어서 0.039650727 0.0134636825 -0.025853476 0.06777704 -0.05612525 -0.00016969148 0.060104452 -0.04308497 0.025459955 -0.05772611 0.06035224 0.013160914 0.07278848 -0.03833256 -0.0353409 -0.014813932
애 0.029461922 0.0013617894 0.04724309 0.029640589 0.0417034 -0.00586514 0.001747624 0.040206414 -0.008954359 0.033279516 -0.014575137 -0.030907525 -0.060197696 0.007921067 -0.019306429 -0.012927218
ㅠㅠ 0.11010782 -0.07446343 -0.14462613 0.08021083 -0.100340635 0.08441668 0.10904938 -0.13211945 0.13410611 -0.0991294 0.096452005 0.08648612 0.14974245 -0.07915278 -0.11319231 0.053890295
전 0.08696575 -0.07633863 -0.02851365 0.018026803 -0.110061534 0.06982438 0.044007782 -0.097458646 0.06531578 -0.060222097 0.02168843 0.023334848 0.024626603 -0.015028309 -0.06440314 0.08348117
다고 -0.044841625 -0.014949597 0.041663077 0.018849459 -0.0021902323 0.030458558 -0.036293425 -0.0340897 -0.045666125 0.025196362 -0.04294909 0.0075695515 -0.019982303 -0.001520358 -0.044397127 0.012603078
이해 -0.09477139 0.08270988 0.0693875 -0.05296627 0.021940233 -0.09981805 -0.043715026 0.06689396 -0.0802378 0.028772682 -0.09942751 -0.04838596 -0.07775884 0.07770156 0.036989495 -0.049134158
넘 0.1537951 -0.10264219 -0.16025533 0.16286032 -0.18577975 0.18877453 0.15783378 -0.16026124 0.15003422 -0.1673871 0.18904427 0.17992707 0.16839951 -0.18818662 -0.18320556 0.16831319
인데 -0.047639884 0.00439497 -0.0052994587 0.020736346 -0.018023409 -0.04785684 -0.026244298 0.0475562 -0.052372586 0.046017785 0.011724793 0.014044578 0.010103426 0.06800299 0.053350303 0.012471977
별로 -0.09378261 0.1609068 0.15250912 -0.1609619 0.12779975 -0.1233583 -0.08527769 0.22129162 -0.026255943 -0.08198175 -0.07811503 -0.16942699 -0.19724151 0.19151923 0.15616068 -0.17188899
여자 -0.05815878 0.008152307 0.04611415 -0.036175214 -0.0027966872 -0.047127582 -0.011529317 0.031061472 -0.046514947 0.07202519 -0.014459602 -0.056118444 -0.076546945 -0.00458236 0.036038186 -0.04097053
이상 -0.08092078 0.017471077 -0.01975926 -0.01982868 0.012830638 -0.041462947 -0.04330275 0.0698041 0.00877735 0.060255144 -0.061835736 -0.003760105 0.0042544184 0.0076855198 0.06744951 0.021007711
명작 0.25799197 -0.19530308 -0.14941001 0.19956326 -0.17555588 0.20596091 0.19924326 -0.15491317 0.17556983 -0.1817012 0.19678853 0.17460649 0.16637018 -0.1786194 -0.12929866 0.20956609
^^ 0.18718362 -0.13178308 -0.116068 0.19332923 -0.10294638 0.17043582 0.15552466 -0.11101047 0.16977873 -0.223159 0.15443203 0.12821808 0.15641418 -0.15667365 -0.13494255 0.11347524
역시 0.15594278 -0.10913736 -0.19667692 0.13878267 -0.14080624 0.16321251 0.19940211 -0.19073862 0.21803705 -0.20306674 0.17129315 0.10939853 0.22345911 -0.13181429 -0.18049632 0.14958578
난 0.11024784 -0.022313291 -0.11302272 0.03827568 -0.04805315 0.06042221 0.056190245 -0.044580054 0.044066157 -0.116219044 0.10239869 0.09710873 0.12122272 -0.085096315 -0.12163938 0.07780801
한국 -0.022883898 0.038541786 0.032530047 -0.014965692 -0.0070427195 0.035395727 -0.037511826 -0.033801626 0.0038808386 0.050631035 0.04028519 -0.034881428 -0.0202739 -0.020736005 0.035904687 0.009851978
그리고 0.104649134 -0.063585214 -0.07276444 0.15295443 -0.10672252 0.08694636 0.13114668 -0.0912207 0.12705825 -0.15967782 0.15364745 0.10173259 0.16834913 -0.13047685 -0.15890718 0.15101048
또 0.054592524 -0.110363424 -0.05416811 0.13327333 -0.13693903 0.05335077 0.09771045 -0.08252623 0.1352806 -0.078422025 0.13780057 0.096331514 0.14130487 -0.12642369 -0.13614336 0.13322484
에게 0.025106404 0.010462086 -0.05717359 -0.010375839 -0.05817022 0.029018791 -0.03405042 -0.035242982 -0.02590017 -0.005754893 -0.005008682 0.053604774 -0.028161261 -0.025766881 0.0030867546 -0.013806565
만든 -0.09473336 0.014590777 0.015279024 -0.06875605 0.09790833 -0.0263798 -0.022225957 0.06931054 -0.114000835 0.05707769 -0.019586686 -0.008611772 -0.05813563 0.05082767 0.08234091 -0.032919865
많이 -0.038934063 -0.024040047 -0.0077949497 0.023754044 -0.005983307 -0.03948191 -0.0017900516 -0.01823486 -0.059136085 0.033210456 -0.0049517923 0.008822126 -0.03055898 0.058590114 -0.007425374 0.020889418
부터 -0.02315044 -0.029540513 0.016258704 -0.032490212 -0.015916435 -0.004141118 -0.022463176 -0.0052777757 0.0060087396 -0.013638451 0.014118938 -0.036409575 -0.046979617 -0.009065214 -0.00942804 -0.018851262
걸 -0.054009557 0.034683477 0.015671873 0.005132083 0.033483144 -0.05903105 -0.017078945 0.0197971 -0.016519625 -0.002508476 0.0063475887 0.014440542 -0.03206495 0.03837024 0.039827783 -0.01121111
는지 -0.0064096823 0.04776151 -0.0028791912 0.023513917 0.026298132 -0.021445943 0.04048976 -0.0042618886 0.02541728 -0.027337516 -0.02043953 0.040314045 0.0027840957 0.027270842 0.02632637 -0.016774893
주인공 -0.09840827 -0.0035896392 0.077305324 -0.049885977 0.011383881 -0.0046322 -0.062064074 0.062478073 -0.07482991 0.042219777 -0.0056794034 -0.075426005 -0.026868667 0.043649185 0.04695993 -0.0065371604
두 0.033728078 -0.0073188664 -0.061040185 0.013428804 -0.019252274 0.042597897 0.08769629 -0.03879894 0.071819454 -0.020252809 0.0394457 0.06469788 0.0025439505 -0.06912314 -0.08283918 0.020464415
우리 0.0008721837 -0.039990023 -0.08857597 0.06332173 -0.013451898 0.065587305 0.031665176 -0.017241042 0.0047626067 -0.07949724 0.078549534 0.044260126 0.038228072 -0.053249687 -0.015477297 0.029123517
합니다 0.011628243 0.014636071 0.02274456 0.028244095 -0.03248952 0.019509168 -0.02280766 0.0021053017 0.03257263 -0.026408028 -0.006719339 -0.016665012 0.05451831 0.0011895543 -0.025824107 0.047137845
받 -0.019156337 -0.007876016 -0.020319892 -0.01729194 0.016925763 0.04374561 0.018619422 0.0315408 -0.047076035 -0.0137810595 -0.0104445 0.026520718 -0.014177848 0.02031963 0.033693317 0.028356824
살 0.038045183 -0.049951646 0.022515334 0.007232548 -0.011169145 -0.02094631 -0.02041446 -0.016669065 0.021489874 -0.052782398 0.029587187 -0.012968317 0.058004577 -0.06355241 -0.06466332 0.044795517
괜찮 0.049237642 0.020056067 -0.005268726 0.06801561 -0.022416549 0.016652808 -0.01993547 0.0036716636 0.009164854 -0.01639046 -0.014971435 0.059146702 -0.0053981342 -0.04978889 -0.026665607 0.033572357
!! 0.12393356 -0.038932666 -0.11372892 0.049802102 -0.114683464 0.047398176 0.07041291 -0.0555684 0.11816793 -0.078653805 0.053121798 0.04485226 0.13375047 -0.12716919 -0.053785812 0.112614624
연출 -0.010609551 0.03630709 0.025535367 -0.06947293 0.05671852 -0.076023385 -0.08191452 0.097960375 -0.032068428 0.06041524 -0.04146746 -0.060485862 -0.050410524 0.015096797 0.09148007 -0.09599052
길 -0.051347915 -0.0077007576 -0.004873057 0.008740381 0.013787774 -0.0010063105 -0.006610485 0.010249179 0.026586443 -0.015676387 -0.02860835 0.00950698 -0.018981932 -0.0057180286 0.05020025 -0.049227323
엔 -0.018135192 0.0069383522 0.0020987366 0.0015543414 -0.02085111 -0.040888503 0.050709065 0.03416194 0.014970179 0.027566055 0.046156935 0.036033385 -0.038401987 0.003187461 -0.015826076 0.041054662
때문 0.009822087 -0.0724324 -0.044255793 0.016267492 -0.05149454 0.033791292 0.046353474 -0.059958845 0.028419543 -0.029685521 0.045635697 0.045625933 0.00619362 -0.046872605 -0.043942027 -0.0017513686
기억 0.002999385 -0.04903993 -0.070370965 0.0031844843 -0.06464528 0.019741163 0.064318694 -0.010499719 0.07155207 -0.012969428 0.06680615 0.059474614 0.042515192 0.003342915 -0.02186697 0.061944887
한다 0.048895888 0.0013684214 -0.029896228 0.007868161 0.03613319 0.025187934 0.00928481 -0.0014031597 -0.014346254 0.025680229 -0.028283477 0.03642564 -0.034666777 -0.047399383 0.031195603 -0.034207664
ㅎㅎ 0.18896562 -0.15271048 -0.1943461 0.140085 -0.18665865 0.14556938 0.14450538 -0.1050955 0.21880831 -0.20220979 0.16091725 0.108720936 0.17148085 -0.16279118 -0.19565722 0.19710605
저 -0.045307536 0.06276335 0.065801844 -0.030023433 0.016949212 -0.01922418 -0.04024418 0.015670756 -0.029706217 0.055673018 -0.043048713 0.03158227 0.028346289 0.04299936 -0.006877249 0.028373301
이나 0.0129363155 0.06327649 0.03991798 -0.0013109505 0.007620122 -0.0053260727 -0.032951817 0.004398931 -0.014134147 -0.011806035 -0.03143918 -0.005426434 0.00332155 0.029276747 0.028921569 0.0064623267
요 0.006891491 -0.023640526 -0.039265938 0.02800087 0.04993811 -0.018653888 -0.03673044 -0.0129985055 -0.03330311 0.018929135 0.021647427 -0.0023167408 0.0054185307 0.022673352 -0.041864835 -0.026571617
꼭 0.26815668 -0.18555291 -0.2285509 0.1909305 -0.14304686 0.22640394 0.22284344 -0.23362671 0.2408331 -0.21995327 0.21015324 0.12872092 0.2087153 -0.1422774 -0.20786029 0.23977868
재 0.055028602 0.0011147615 -0.011062834 0.0030790032 -0.04712977 -0.02080264 -0.022104673 0.024033112 -0.0069972435 -0.004629159 0.01980523 -0.010198438 0.04712557 -0.04896399 0.02057985 -0.0031631307
현실 0.03157432 -0.017244471 -0.00051585736 0.037149567 -0.03846347 0.066392645 0.04412949 -0.02681634 0.059331853 -0.06439414 0.023319805 0.068376295 0.0028136056 -0.017317204 -0.04385382 0.041601624
ㅡㅡ -0.16076052 0.15131752 0.09226868 -0.14103888 0.1726646 -0.095441915 -0.07438709 0.19166255 -0.0904967 -0.026195705 -0.10949695 -0.1376602 -0.16100039 0.13261624 0.14395028 -0.11245051
긴 0.019010931 -0.040486876 -0.03195353 0.0636116 -0.018401526 0.045621555 0.020093294 0.009398659 -0.006721061 0.008519651 -0.019154966 0.06732273 -0.0014940086 -0.058134474 0.01500853 0.016033396
랑 -0.056609016 0.00431044 0.010178044 -0.039341543 -0.009273179 0.014672456 -0.06450142 0.019728515 -0.03741025 -0.021531943 -0.031633593 -0.041740857 -0.025791284 0.028341647 -0.01323294 -0.018169157
며 -0.040898927 0.026362669 -0.0418852 -0.043456532 0.035056006 0.03173551 0.025140502 0.030569538 0.011522878 0.02457453 -0.043275338 -0.049384754 -0.037826613 0.010504258 0.048362453 -0.02339305
무슨 -0.12461769 0.10849811 0.075772405 -0.14463234 0.13120292 -0.17766248 -0.03885417 0.12096709 -0.03539639 -0.011446472 -0.1572761 -0.18192768 -0.19354142 0.16174771 0.16199818 -0.15914407
죽 -0.007377383 -0.032469213 -0.033455912 0.053914152 -0.011719133 0.025386231 -0.0027533383 -0.025761582 0.070527904 -0.039929792 -0.012713439 0.052576154 0.0020683913 -0.027569724 0.01747598 -0.02627942
내내 -0.011205183 -0.007650139 0.03946237 -0.013890333 -0.0329253 0.00591418 -0.013803623 0.04666879 -0.04928768 0.06780523 0.023183672 0.0040837387 -0.056572266 0.057332665 0.033288423 0.011009823
남자 -0.039585162 0.018499177 -0.05017114 -0.03336329 0.02561751 -0.00033219036 0.043896776 -0.015433992 0.043188237 0.018584702 -0.030549051 0.026184645 0.035805464 -0.03933045 -0.039371952 0.033541467
마음 0.1058782 -0.09698576 -0.09928244 0.050536234 -0.07886994 0.09366706 0.09772526 -0.06368849 0.09695962 -0.05338703 0.081803516 0.10019149 0.06710903 -0.09753235 -0.042618178 0.13110436
세요 0.046135712 0.04104444 0.017405841 0.011354733 0.0034706816 0.043742765 0.024960283 -0.040744305 -0.04241785 -0.0094235055 -0.016191222 0.047920752 -0.0013557561 0.03506658 -0.045552876 -0.016597487
결말 -0.019565051 0.0352756 0.077051446 -0.030820735 0.04806265 -0.0039057662 -0.013256877 0.005937658 -0.055804733 0.104902625 -0.032865983 -0.06879922 -0.012895862 0.07618746 0.047144227 -0.054430097
공포 -0.09019434 0.053195458 0.08660955 -0.0407511 0.07837098 -0.06534378 -0.04782671 0.057641327 -0.02611807 0.08259254 -0.09006932 0.011161639 -0.0866891 0.033028595 0.0044988994 -0.054248255
속 0.09002751 -0.06823935 -0.056590136 0.035680667 -0.037415035 0.032608062 0.08531167 -0.009166802 -0.0059147053 -0.06712709 0.045202736 0.04160349 0.011996948 -0.06563636 -0.041593675 0.010000608
인생 0.05672204 -0.07091121 -0.10738117 0.052080028 -0.057519227 0.067524746 0.12579131 -0.12445901 0.09360291 -0.12073524 0.059415914 0.051139064 0.06998556 -0.062169712 -0.07890375 0.04049068
전개 -0.11989805 0.021560976 0.036965597 -0.082212634 0.102814704 -0.0654422 -0.08711361 0.08763894 -0.063120276 0.10276552 -0.07653674 -0.091083184 -0.08737363 0.0941555 0.071900316 -0.109764144
짜증 -0.07526179 0.04326097 0.068752244 -0.07060271 0.105853975 -0.1141372 -0.097737275 0.064861596 -0.041427474 -0.0028275328 -0.084621534 -0.08493943 -0.072051555 0.11904748 0.06755101 -0.047274448
소재 0.038799208 0.038851537 -0.010356451 -0.014429879 0.007808503 0.037764538 -0.011717362 -0.010676527 -0.025925338 0.00596489 -0.016342849 -0.036574356 0.036412593 0.023726782 0.029038075 0.034836233
아서 0.037565272 0.03420267 0.02970075 -0.00956992 -0.025821408 -0.04203018 0.042726982 0.0020824324 -0.04604585 0.0048092236 0.054449417 -0.0060640173 -0.027632358 0.027641624 0.016183618 0.0474128
씨 0.018231563 0.02460599 0.048672643 -0.0044593047 0.014826924 -0.0542052 -0.07416498 -0.019669073 0.0010185502 0.028806068 -0.0066281892 -0.06342555 -0.06749831 0.030328713 0.075603716 -0.028163843
다른 0.031431958 -0.105768345 -0.02673089 0.0825111 -0.091123134 0.031794984 0.040778838 -0.11045144 0.093155034 -0.055300847 0.046405666 0.029716412 0.06654454 -0.03669074 -0.05109303 0.06691495
짱 0.16900186 -0.17357157 -0.11857401 0.13765198 -0.13889416 0.19035105 0.13971058 -0.10226536 0.22806865 -0.20324646 0.12408539 0.09814189 0.14428575 -0.15876542 -0.20263305 0.16033138
아요 -0.049178846 0.00453972 0.027751494 0.020749861 -0.032872412 -0.042473167 -0.04601347 -0.018718433 0.03733482 0.025490668 -0.02798316 -0.0028521025 0.021662999 0.0003940098 -0.017811276 -0.037210148
뿐 -0.07860637 0.014605935 0.01776713 -0.023281232 0.091162935 -0.09494279 -0.05536478 0.067920074 -0.04849643 0.025514483 -0.029027611 -0.05950477 -0.05959091 0.044370677 0.06459527 -0.076642275
~~ 0.059430744 0.0139295515 0.009770132 0.07525241 -0.056464106 -0.015287569 0.056543898 -0.022523783 0.07021923 -0.042517513 0.02570888 0.0069497926 0.058791526 -0.063296616 -0.074231796 0.04114334
필요 0.09860838 -0.030026644 -0.071467966 0.0978586 -0.06041463 0.09580748 0.10296732 -0.09113374 0.03279805 -0.107338354 0.11170878 0.057811175 0.027050363 -0.055933207 -0.034520537 0.021050964
별 -0.123331755 0.10477011 0.14400214 -0.075108714 0.14136127 -0.15216836 -0.027061163 0.110761896 -0.05650096 -0.019612929 -0.0980838 -0.15626211 -0.16018032 0.099641405 0.16064371 -0.14956301
낮 0.02037526 -0.00031544347 0.04740215 0.019956186 -0.019906024 -0.040685054 -0.02089204 -0.0070748106 -0.0036896174 0.029268973 0.014664071 0.03656857 0.0019965912 0.03446492 0.044674538 -0.025524668
오 -0.0046564625 0.008403279 -0.018880911 -0.030546166 0.008598108 -0.025653379 -0.04133034 -0.0069739604 0.0336921 -0.03941521 -0.002799239 -0.03520586 0.038327634 -0.03652297 0.0059163226 -0.03845516
;; -0.13188243 0.0573828 0.0347142 -0.08297355 0.09072393 -0.10962974 -0.083524115 0.10974026 -0.07858261 0.07553953 -0.04010875 -0.09192294 -0.11074043 0.042124916 0.038287513 -0.040463977
은데 -0.017661653 -0.008167982 -0.0019223206 0.02722131 0.045024466 0.017416548 0.035561252 0.040180814 -0.037798453 -0.0067952983 -0.04287697 0.045568038 -0.028804375 -0.04797089 -0.034790635 0.01725861
아이 0.042855095 -0.04464103 -0.049931895 0.011985644 -0.04710968 0.035017226 0.03633955 0.0070964107 0.0017633016 0.032452296 0.043766048 0.012999371 0.06098828 -0.050870236 -0.036725078 -0.016841808
일본 -0.0936704 0.06333486 0.0027340988 -0.080202855 0.054994714 -0.06759441 -0.019576514 0.08831526 -0.033957653 0.064615965 -0.09030271 -0.05091555 -0.095140345 0.09402563 0.064218275 -0.07342105
유치 -0.010303394 0.08315885 0.06790653 -0.008177882 0.07069272 -0.06055113 -0.03973332 0.07291454 -0.05821341 0.02877996 -0.09055682 -0.08356131 -0.07904492 0.049023323 0.063193604 -0.04039184
반전 -0.016905064 -0.044827197 -0.030252595 0.026490847 -0.05625698 0.0009595286 0.07023605 -0.042350695 0.039805982 -0.053810313 0.052225523 0.04571157 0.066046104 -0.024484662 -0.026577078 0.07202393
수준 -0.12879594 0.075943194 0.07583011 -0.115385026 0.11119068 -0.054644544 -0.09939308 0.0852684 -0.09557101 0.07977742 -0.049467277 -0.051750567 -0.11942467 0.09634902 0.09608096 -0.1316695
음악 0.09820197 -0.047182675 -0.06593682 0.07836644 -0.04789318 0.11419595 0.12324216 -0.020402443 0.11832351 -0.045397744 0.0956929 0.018805418 0.058675453 -0.06693558 -0.08186889 0.11316725
다니 -0.010537792 -0.0032223836 -0.0046347007 -0.04900507 -0.045005273 -0.019522442 0.019450042 0.020538557 -0.018836463 -0.03556802 -0.02597717 -0.027428044 -0.040846765 0.045800734 -0.0069595687 -0.017397832
) -0.031465232 -0.020286039 0.041549444 -0.041169558 -0.052023865 0.047195375 -0.04044534 0.031355575 0.042692922 -0.041128624 0.055578955 -0.0058115623 -0.030960925 -0.036211114 0.03356438 0.020750633
맞 -0.0062688873 -0.013482922 0.0528209 -0.007286418 -0.0006069608 0.0022034773 -0.05766369 -0.011999179 -0.038158003 0.01373072 -0.0047588344 -0.052854072 0.019482955 -0.02512362 0.03726377 0.02957575
매력 0.07122843 -0.07560778 -0.09194653 0.017073568 -0.043026663 0.032795496 0.10294936 -0.109013975 0.029253615 -0.01650134 0.1028075 0.044164285 0.020277621 -0.022549676 -0.015610566 0.014083036
가장 0.06794628 -0.1095924 -0.074976936 0.10833701 -0.08189839 0.08412584 0.09661236 -0.110808544 0.10780547 -0.13315687 0.13596891 0.090774044 0.11211917 -0.124890596 -0.043384135 0.12482208
가슴 0.20335114 -0.13385573 -0.1466944 0.18733104 -0.11305876 0.18016098 0.14747438 -0.17606013 0.15011187 -0.11944932 0.09071539 0.10092378 0.09855711 -0.13230178 -0.086176306 0.15156835
인간 0.06383041 -0.059645116 0.023397652 0.06358318 -0.00575724 0.062283058 0.009741185 -0.011855782 -0.021034982 0.01530685 0.029141018 0.00989897 -0.0011886443 0.02719472 -0.0051632947 0.03189488
데 -0.03819793 -0.02547561 -0.03659823 -0.035975832 -0.034766138 0.028697835 0.035201073 0.02902754 0.031722106 -0.047745697 -0.019202305 -0.034289602 -0.0045179464 -0.028466973 0.005756321 0.05340736
웃 -0.02337024 -0.057189394 0.011981058 -0.026921503 -0.026418822 0.040798906 0.060563378 -0.02272665 0.008031891 -0.01800639 -0.018359516 -0.017714884 0.039267674 -0.014873213 -0.010495895 0.051330168
ㄷ 0.013868232 0.010533261 -0.012352021 0.02624134 0.0053552934 0.06261281 0.053000268 -0.008430891 -0.0026540586 -0.06202805 0.0005097004 -0.002750067 -0.015168741 -0.04164334 -0.03370381 0.059083246
높 0.018055927 -0.029998397 -0.0011026263 0.0063825957 -0.012810826 0.009819247 -0.026942074 -0.03565495 -0.029170549 -0.024174202 0.047471117 -0.00084849447 -0.0003577359 0.032887887 -0.003771603 -0.0317315
굿 0.20692787 -0.13916926 -0.16988316 0.15074378 -0.1477579 0.17998181 0.1557574 -0.1882393 0.14307109 -0.17017868 0.1451391 0.07781022 0.16993372 -0.13307434 -0.15066198 0.120509535
인지 0.037271086 -0.00081101566 -0.014908742 -0.023817396 0.009373947 0.04530421 0.016662195 -0.020718522 0.045394458 -0.0010541952 -0.012710179 -0.042291902 0.03298978 0.026055343 -0.04005247 -0.011708883
밋 0.032453645 0.032291923 -0.005723942 -0.04741018 0.012030054 -0.0020256415 -0.041099418 -0.042968977 0.017967712 0.040523004 0.0063971877 0.04459175 -0.044258296 0.017953645 -0.044792738 0.03666513
없이 0.020695927 0.0010796534 0.033144224 -0.043748636 -0.021497888 -0.021458514 -0.049779333 0.03727028 -0.0026349998 -0.03136566 -0.04116293 0.025493376 0.011343068 0.06764657 -0.020101767 0.02567044
ㅠ 0.07556769 -0.024592968 -0.009275987 0.0044765174 -0.022397075 0.05528312 0.07774347 -0.023333354 0.071769215 -0.06816567 0.01876235 0.09342625 0.08688915 -0.020671975 -0.047905706 0.07306517
( -0.00062003953 -0.008358168 0.05041992 0.024121258 -0.026478603 -0.04387516 0.0035385694 0.014209589 0.025919499 -0.028788896 0.019574173 -0.042107068 0.022622412 0.05878651 0.023047827 -0.031238692
만드 0.046405565 -0.004170142 0.029921044 -0.036938526 0.049795892 0.0070828088 -0.049578022 0.03799944 0.014822576 -0.0127110705 -0.014847793 -0.017173994 0.03437351 -0.028642941 -0.032059334 0.03878865
원작 -0.0015363671 0.05271906 0.005836696 -0.015099969 0.04081746 -0.0016311221 -0.06409072 0.0074613327 -0.04817595 0.059618834 -0.0028713099 -0.025559234 -0.10308919 0.0472061 0.042788748 -0.071760304
눈물 0.1706687 -0.13628766 -0.06722039 0.081737295 -0.13465329 0.050426435 0.090424515 -0.06642335 0.1466339 -0.15419929 0.11197445 0.10218059 0.15498397 -0.058384683 -0.0710505 0.048356157
준 -0.015624527 -0.052700058 -0.029188763 0.048928246 -0.008768751 0.022626411 0.010430939 -0.041639667 0.057248347 -0.007928191 0.07101541 0.054758985 0.051482067 -0.067586154 -0.0032986032 0.067891024
보여 -0.040251486 -0.020018065 0.024119236 -0.048792332 0.028176466 -0.024646875 -0.003223507 -0.0006016921 0.0358203 0.03599255 -0.035724744 0.014473419 0.041041348 0.0499055 0.032194633 -0.040093116
노 -0.020141294 -0.019641936 0.015911343 0.009890152 -0.00820688 0.0148377735 0.01723587 0.05263394 -0.055655353 0.039179858 -0.07329877 -0.02918546 -0.011369077 -0.015266596 0.048605595 0.007320569
급 -0.013210705 0.0011528082 -0.0056514335 -0.006847805 -0.003770825 -0.004119943 0.004617538 0.06411532 0.0020668854 0.014097134 -0.05264971 -0.07443164 -0.040867027 -0.016242996 -0.015511813 -0.024033008
용 -0.026072886 -0.011808396 -0.0021138384 7.3608186e-05 0.027392978 0.002135863 -0.028058793 0.05589594 -0.037127435 -0.010048537 -0.030489609 -0.05609895 -0.045679413 0.062648 0.0046852985 0.007605455
인가 -0.01825767 0.06526635 0.017065851 -0.039361995 -0.02628905 0.013276945 -0.050833467 -0.031436406 0.012617307 -0.029886907 -0.029278511 0.029330133 0.019491564 -0.029712271 0.03759424 -0.013070728
을까 -0.022453105 -0.040270817 0.043049287 -0.01086738 -0.017269801 0.018576037 0.038240027 0.017690722 -0.009636868 -0.038242914 -0.021624817 0.04077388 -0.03306979 -0.012953974 -0.022893954 0.048884917
코미디 -0.023398435 0.003440446 0.033402126 -0.055297945 -0.0043107145 -0.06931499 -0.015775675 0.04761421 -0.062033854 0.040663 -0.089040525 -0.027257476 0.0024911633 0.030790417 0.034890726 -0.044468157
찍 -0.036799453 -0.04749893 -0.03769015 0.034531686 0.0072968006 0.008483708 -0.047553252 -0.015950106 0.0047259554 -0.034104362 0.007583104 -0.015019309 0.009426832 0.03593358 0.018313933 0.035011116
화 -0.07712851 0.05928355 0.0019800155 -0.05655955 0.0034412022 -0.08336122 -0.039952904 -0.0017392801 -0.02603557 -0.0057951654 -0.057004377 -0.019385334 0.01397587 0.01846499 0.072902404 0.0065897405
쓰 -0.07237159 0.007249698 -0.0010597156 0.013595486 -0.0019851073 -0.04622757 -0.033175148 -0.016935878 0.01456392 0.04188256 -0.031505212 -0.063338615 -0.0572807 0.057893537 0.024787188 0.009660286
아직 0.060558453 -0.063408405 -0.057785265 0.011434766 -0.05817877 0.06911252 0.05904682 -0.036842383 0.03594524 -0.046365626 0.03067617 -0.014379868 0.06785243 -0.029482432 -0.0661577 0.06730915
모든 0.121862136 -0.055942364 -0.09106694 0.1073143 -0.060674075 0.04613976 0.051193323 -0.05441315 0.091979675 -0.10987509 0.10571788 0.08452585 0.106940605 -0.038097765 -0.02182608 0.040304918
추천 0.09025395 -0.038748927 -0.030757766 0.06280661 -0.06106562 0.015440653 0.0122834025 -0.08317504 0.11237119 -0.035940632 0.08995336 0.014924826 0.09487327 -0.1044647 -0.010445962 0.03970347
5 0.016075613 0.006171877 0.015569559 0.0058172005 -0.024666142 0.012139132 0.022012092 0.009432472 -0.001676732 0.0024404996 -0.036953937 -0.011458657 -0.023708723 0.01284527 0.03639617 -0.049259454
신 -0.030166805 0.0058257836 0.04016613 -0.0241827 0.011400171 -0.047406923 0.0062078005 -0.011624889 -0.07024776 0.07290658 -0.028632468 -0.074568875 -0.06086261 -0.017671242 0.009478094 -0.0017237271
아닌 -0.09207915 0.058201127 0.10296934 -0.12935814 0.073249154 -0.057229847 -0.09120867 0.13317986 -0.0618782 0.043822244 -0.12876159 -0.08717199 -0.13636102 0.12636313 0.096997924 -0.045139723
마 -0.027251218 0.018813943 0.014372788 -0.02748435 0.03424908 0.043422867 0.022574453 0.046827935 0.040607203 -0.032031965 -0.0011894675 0.023192983 -0.04072097 -0.046734802 0.0018465272 -0.047420148
울 0.078863636 -0.028103938 -0.098854475 0.035428148 -0.08109005 0.079304546 0.08080094 -0.030093819 0.031588502 -0.09542251 0.017516356 0.060267348 0.037592016 -0.07263707 -0.025914341 0.005460238
자체 0.03643798 0.0067607667 -0.038284827 0.026593857 0.052709535 0.01122384 -0.02966604 -0.012719704 -0.009296045 0.028616542 -0.00023900901 0.038501512 0.020294828 0.049348675 0.0072896355 0.026919872
4 -0.011062224 -0.008148892 0.047280822 -0.072601385 0.02321597 -0.0038020536 0.0018681161 0.054427005 -0.0288878 0.057228226 -0.059146974 -0.036284506 0.020419803 0.01440299 0.048046667 0.014329887
실망 -0.07861794 0.063359186 0.14416674 -0.0955291 0.124615915 -0.06343551 -0.07656423 0.16003233 -0.038388085 0.029678911 -0.05746839 -0.1130244 -0.16929536 0.12557387 0.060293347 -0.07872813
처럼 0.064925894 -0.036643278 -0.025848716 -0.017415168 0.013317747 -0.011611732 0.027424304 -0.06530869 0.04277951 -0.0059977006 0.03585954 0.043743797 -0.013033021 -0.021690726 0.028255375 0.0172777
여 0.009092143 -0.0058463053 0.041403294 -0.03664418 0.02321571 -0.054971006 -0.008268851 0.038721915 -0.016000988 0.005145558 -0.05225974 0.008149362 -0.033285815 0.014157008 -0.0071633267 0.0016598795
몇 0.01771385 0.0021388612 -0.036335886 -0.023288887 -0.02314079 0.06617848 -0.023820492 -0.03596501 0.0056019085 -0.0005269759 0.047076195 0.06437513 0.014145277 0.0063412273 0.011899092 0.07227561
눈 -0.044107687 0.053395536 0.055658646 -0.04097455 0.043791763 -0.08704564 -0.012412505 0.06361575 -0.08620438 0.072568394 -0.034784164 -0.004149206 -0.042017832 0.07317016 0.068686396 -0.058454894
란 0.024730511 0.024749516 -0.0053264215 -0.040120292 0.043421626 -0.008257376 0.009209156 0.050031405 -0.0596154 0.020059148 -0.0324322 0.014555462 -0.025837269 0.04143757 0.021982955 0.020238275
대한 0.047613025 -0.10543999 -0.03972106 0.05560619 -0.08771702 0.11298773 0.098805204 -0.05574507 0.051535647 -0.09408604 0.10843747 0.034868266 0.09443304 -0.06793781 -0.10225997 0.06715078
는다 -0.033124603 -0.034560584 -0.03194629 0.000121008605 -0.046507455 -0.048717737 -0.013196897 0.030348133 -0.029072702 -0.020317698 0.049075928 -0.016982138 -0.021250999 0.021690156 -0.037502717 0.04711247
스럽 0.046386074 0.008055855 -0.01876396 -0.019637669 -0.0057140477 -0.029489374 -0.04961889 0.006005395 0.00464331 -0.045617174 -0.0083865635 -0.038256384 -0.016615164 -0.014645517 0.036795545 -0.020541597
대박 0.08186084 -0.05067693 -0.10924581 0.12960185 -0.11586796 0.12181172 0.14265662 -0.1057836 0.14970854 -0.14203 0.13091542 0.09440648 0.108538434 -0.055433404 -0.12999089 0.10573658
죠 -0.033405814 0.03624316 -0.037277907 0.03296396 -0.004241017 0.0020843958 -0.017769393 -0.017987953 -0.031249696 0.038345143 0.023678595 -0.03313911 -0.032492906 -0.014359072 0.00461276 0.035065006
몰입 -0.01838448 0.019849151 -0.040674686 0.020865893 0.026216503 -0.01845878 -0.026697569 -0.016559223 -0.036348883 0.010386502 0.012250054 -0.0071135852 -0.016422816 0.032046236 0.042692356 -0.015081068
캐릭터 -0.0101972725 0.04372192 -0.023167135 -0.011155504 0.046188243 0.02906762 -0.019020261 0.031026477 0.028846044 0.004282015 -0.028698208 -0.03956122 0.010998004 -0.045943636 0.00078390806 0.018496502
모두 0.053178158 -0.09748687 -0.13464595 0.070334755 -0.10763484 0.052337866 0.076167434 -0.087777354 0.11542696 -0.13854155 0.14283971 0.07388519 0.1080137 -0.08553882 -0.1420856 0.07807053
솔직히 -0.13980073 0.10061554 0.15069868 -0.09520925 0.12690426 -0.07263189 -0.07401308 0.16945283 -0.053042114 -0.021341398 -0.07672825 -0.13686337 -0.16365013 0.1008522 0.15054455 -0.10354448
그런 0.06690859 -0.012834129 -0.048218444 0.04162287 -0.06015111 0.004371799 -0.011628841 -0.084275186 0.00671915 -0.024985606 0.008712904 0.03768784 0.03713055 -0.015680557 -0.030749528 0.037388116
나라 -0.04337542 0.011495716 0.007067372 -0.016056392 0.02800701 0.0152825555 0.0025562132 -0.015361741 0.00889924 -0.017197639 0.005172268 -0.05612086 -0.021531202 0.0028494648 0.020022148 -0.025179785
건지 -0.056833934 0.08244886 0.03181998 -0.016671814 0.094774984 -0.059650164 -0.025624042 0.038160138 -0.08036745 0.07986675 -0.08207085 -0.0226197 -0.07358901 0.09598653 0.09252485 -0.10253518
가족 0.059792526 0.005497468 -0.049335003 0.077103995 -0.053600367 0.077253304 0.008837224 -0.018509 0.058264136 -0.030038925 0.014766779 0.0011983599 0.021343458 -0.0821095 -0.0014478471 -0.013541298
될 -0.0438433 0.04037781 -0.0005947573 -0.004161481 0.014000294 0.04381929 -0.0007450733 0.04198802 0.032015223 0.034251787 -0.029438 0.008465805 0.010648218 0.037124462 0.047337543 -0.026346775
다면 -0.024082484 -0.04773212 -0.035710428 -0.029624946 -0.047300108 -0.03668567 -0.0050443253 0.00036218512 -0.0036542004 -0.041612063 -0.019193606 -0.0053876834 0.015528333 0.009672729 -0.05095278 0.035986282
아주 0.07963305 -0.03528857 0.0013764692 0.00010667188 -0.07640524 0.075752415 0.09377143 -0.03385995 0.06032215 -0.09160612 0.06826537 0.04662109 0.040488616 -0.0439027 -0.018876752 0.06976896
ㅎ 0.14451483 -0.0698419 -0.075191244 0.11211444 -0.14828503 0.08506605 0.18125005 -0.14475928 0.10592165 -0.13080259 0.100220084 0.080510594 0.16902043 -0.13035254 -0.14785048 0.08069214
; -0.05322919 -0.0039567393 0.0050782 -0.0359258 0.032459132 -0.063651 -0.07429459 0.019757653 -0.084521964 0.07656667 -0.093264095 -0.049433455 -0.044437435 0.044092264 0.07061442 -0.06978493
연기력 0.0048676427 -0.010592144 -0.022586098 0.046420403 -0.0043734964 0.03266343 0.022815792 -0.010394264 0.06906899 0.0033382108 -0.0014653176 0.0036477367 0.016289148 0.021980325 0.0010344246 0.014570015
여운 0.07630349 -0.07952002 -0.03356587 0.06562596 -0.09727366 0.05205696 0.08522085 -0.09048122 0.11978035 -0.10629788 0.11594339 0.07480812 0.09448007 -0.11536763 -0.059829183 0.06857113
그래도 0.100395225 -0.07771294 -0.087969966 0.122819185 -0.055165987 0.114399694 0.12887998 -0.055663437 0.1708591 -0.13935676 0.08668121 0.08545311 0.119917914 -0.09930003 -0.12972988 0.05815622
시리즈 0.061352205 -0.03611422 -0.011128592 0.057363372 -0.019219408 0.06387991 0.01241893 -0.047294017 0.052514445 -0.035896126 0.06756422 0.06957718 0.01743949 -0.03919483 0.007899928 -0.003900862
- -0.082306385 0.004410759 -0.006775664 -0.016273068 0.02261691 -0.025483793 0.0047274046 0.08509909 -0.079624265 0.06556509 -0.07687897 0.014278333 0.00697513 0.07344473 -0.011463941 0.0026207904
모습 0.0567034 -0.080204144 -0.01841249 0.03049425 -0.08439462 0.051082764 0.020956993 -0.08209629 0.05167639 -0.10449973 0.040807586 0.0150913345 0.05082172 -0.052445672 -0.039763052 0.02705647
전혀 -0.091665134 0.13349764 0.04754207 -0.12644584 0.12341269 -0.10346057 -0.12718943 0.115144394 -0.12989074 0.030163888 -0.1471824 -0.09506161 -0.09312136 0.13108607 0.09315623 -0.14519241
뭔가 -0.052375875 0.08996573 0.092557415 -0.089748904 0.0052818437 -0.030424701 -0.021539055 0.027621252 -0.084229074 0.10909175 -0.07922639 -0.05172946 -0.029143557 0.024803646 0.049217105 -0.034585707
후 -0.021893518 -0.02382025 0.04636171 0.01846095 0.013142261 -0.011966166 -0.033204615 -0.017555272 -0.04134506 0.023941854 -0.0392897 -0.039346404 0.011501483 0.019409873 0.02298065 -0.026322778
계속 0.081756346 -0.06507996 -0.06981867 0.08685829 -0.07983275 0.08682563 0.09610507 -0.09798305 0.028991621 -0.10997105 0.074451365 0.040707 0.01859208 -0.055843174 -0.013795632 0.018238192
근데 0.04695472 -0.035026792 0.0279741 0.009885786 -0.045860242 0.029852487 -0.034269657 -0.027179979 0.047242202 -0.0578833 -0.020986045 0.04381621 -0.0015354597 -0.027561836 -0.036610164 0.05777355
표현 0.025306249 -0.00708357 -0.05898216 0.07406898 0.013979996 0.0110638 0.037525948 -0.0028582497 0.04356929 -0.003321118 0.07465176 0.047697235 0.008549924 -0.031541586 -0.01974628 0.045808878
"" 0.04196454 -0.009932323 0.036783084 0.013498688 0.00046085773 -0.007937207 0.03376084 -0.0013053397 0.009243264 0.035176948 -0.011348846 -0.034002893 -0.0075287535 -0.033865437 0.021224061 0.029951021
작 0.03374346 0.00087542797 0.038945675 0.03548158 0.008319877 0.009659699 0.017161392 0.0019836172 -0.007616725 0.0028456645 -0.0037918834 0.022744201 0.02120592 0.04369003 -0.007242773 -0.0380894
극장 -0.0647202 0.057067517 0.035381615 -0.071321115 0.056475163 -0.029648203 -0.08789342 0.092348576 -0.03236431 0.08819009 -0.079133496 -0.07076894 -0.0215962 0.065239735 0.013413849 -0.013881778
공감 0.052773885 -0.0016037187 0.003332838 -0.020149741 -0.029226916 0.05880654 0.013317902 0.0100588575 -0.016395673 -0.00711718 0.0010812491 0.04186616 0.0223939 -0.002174454 0.02641527 0.047197375
0 -0.052481547 0.03718872 0.018479196 -0.02777828 0.0799185 0.004753632 -0.013792881 0.066876866 -0.0739035 0.035261143 -0.07724344 0.0020282688 -0.051478952 -0.0044514 0.05054397 -0.055314112
비 0.024413358 -0.0032795973 0.040241845 -0.01956849 -0.0137166185 0.032966062 0.05311431 -0.051367063 -0.03615604 -0.04779539 -0.018078852 0.04519141 -0.03157464 -0.025237013 0.02822058 0.01242054
먹 -0.0053408965 0.019034896 0.04553337 -0.01279068 -0.016530026 -0.014996849 -0.0068409443 0.047406066 0.02048475 0.01516955 0.034146633 0.009891987 0.011392556 -0.0020152703 -0.03893752 -0.022061635
7 -0.017838877 -0.06172328 -0.05673735 0.04879961 -0.056339715 0.043434463 0.053525586 0.008170393 0.0128796585 -0.03524111 0.057903875 0.012092879 0.003117551 0.004436072 -0.055262543 -0.031524308
이랑 -0.008681924 -0.008398924 0.043612678 0.030924082 0.013301072 0.0142801115 -0.019119833 0.045616362 -0.027400386 0.045296364 -0.0014432366 -0.052913286 -0.045989517 -0.030382818 -0.0070500644 -0.016967416
된다 0.017657962 -0.019757587 0.0017660989 -0.0020002872 -0.010096162 0.05079493 0.049625773 -0.0128289 0.0040626465 -0.061574794 -0.027266592 0.014126634 0.025467321 -0.05930764 0.0146042425 -0.0379433
이걸 -0.07800978 0.099011675 0.071838126 -0.11877645 0.078512244 -0.15983345 -0.03565992 0.10646815 -0.08186137 0.01509643 -0.15218742 -0.16770296 -0.17438637 0.12553711 0.14327174 -0.10238801
대사 0.032890502 -0.003486466 -0.03750237 0.06566416 -0.057394 -0.012136441 0.010012522 -0.024974622 -0.022495965 0.016729234 0.043939926 0.066205546 0.07161959 -0.0671305 0.018026264 0.030104773
제목 -0.022219865 0.046873428 0.04063668 -0.009365291 0.037544373 -0.04653263 0.018798746 0.046006713 0.008756685 0.022517784 -0.072413884 0.01986486 -0.039586674 0.019093644 0.03138629 -0.052656606
그렇 0.014746252 0.010627843 -0.020802164 0.012188386 -0.006476164 0.02549341 0.04712837 0.013845589 0.02439532 -0.035218775 0.03374258 -0.03772136 -0.001082968 -0.036518168 -0.046315826 0.02630334
대단 0.0413415 0.014157411 0.005337992 0.03246511 0.011145029 0.037015975 -0.014384533 -0.03548324 0.080780596 -0.081136994 0.042094715 0.06660639 0.07909248 -0.026514536 -0.056479305 0.008546504
개봉 -0.007449524 0.050471697 -0.008822642 -0.057977546 0.045422655 -0.038239524 -0.058782555 0.014257993 0.02961174 0.056624092 -0.060455687 0.006788003 0.024020445 -0.012814913 0.055517003 0.027394326
부분 0.026507007 -0.0075709107 -0.019752841 -0.04994389 0.0416892 -0.0058089164 -0.043364946 -0.008947312 -0.010230889 0.034866944 -0.035680197 0.042622566 -0.034166448 -0.043271568 0.005129199 -0.024718318
진 -0.017805226 -0.020221826 -0.025242276 -0.006526 -0.006141064 -0.048542473 -0.04384394 0.05237301 -0.055936154 -0.01972886 0.013265482 0.041452106 0.0147410715 -0.033940572 0.023364337 -0.038150936
OO -0.13524705 0.06258903 0.10857473 -0.08068093 0.12386002 -0.08177675 -0.094668664 0.12647259 -0.08408762 0.032793827 -0.12579656 -0.14271785 -0.12974136 0.13132349 0.06569772 -0.0991022
기분 -0.04491579 0.014916795 0.03260237 0.0075194915 0.04147344 -0.08484348 -0.011039195 0.05019815 -0.031662077 0.04022417 -0.09011908 -0.019318776 -0.0323587 -0.010893402 0.06296298 -0.034772314
제 0.0028851917 -0.005512771 0.013368784 0.011982447 0.05077325 -0.057642147 -0.06053971 0.042932194 -0.03409081 -0.016772684 -0.062013455 -0.049822096 -0.04259566 -0.02244918 0.046336863 0.008891661
이제 -0.09880189 0.045135397 0.010605486 -0.03578606 0.07316021 -0.035815764 -0.07721217 0.10858703 -0.09832534 0.040644374 -0.028730193 -0.06310589 -0.052790187 0.08934228 0.04236556 -0.031423137
치 -0.013815181 -0.04598329 0.017814295 0.010299866 -0.037776474 0.0033269902 -0.043855693 -0.043986745 -0.014754366 -0.022369478 -0.019652354 -0.0038033905 0.05278273 0.0035768296 -0.046342902 0.026330765
진심 -0.04575038 0.019956538 -0.0005962644 -0.05749653 0.0039415043 -0.04771172 -0.050420567 0.023540564 -0.039188076 0.11410543 -0.10024877 -0.01401104 -0.056630727 0.06551067 0.050195668 -0.024193686
바 -0.06158473 0.012598065 -0.026743509 0.019005528 -0.026553228 -0.019360278 -0.0594566 -0.0052451724 -0.05596786 0.05010705 -0.049258314 0.014816654 -0.015721712 0.029995404 -0.030878061 0.0017451494
해도 -0.059673112 0.030774467 0.026130324 -0.080589436 -0.010996781 -0.029873671 -0.041138362 0.025535328 -0.0029428103 -0.009647897 -0.027331844 0.012810024 -0.0056320764 0.020011526 0.049980875 0.00307001
작가 -0.047796123 0.0793234 0.10069778 -0.030325536 0.0592879 -0.0803695 -0.026999792 0.077064656 -0.036028665 0.11385989 -0.045678236 -0.06810102 -0.11547199 0.02170011 0.117251575 -0.058228776
타임 -0.035661705 0.03361235 -0.0438909 0.051345516 0.02910961 0.01656989 0.002997522 -0.027833454 -0.03042481 0.013387579 -0.033127733 0.064642735 -0.028127752 -0.01826392 -0.015395492 0.011505049
아쉽 0.03768569 0.030496191 0.02584804 0.053162027 -0.019475684 0.015710076 0.042266842 -0.009370992 0.054510023 -0.07283724 0.032287844 0.02936623 -0.007248042 -0.005571563 0.0201861 0.05105288
어디 0.028465306 -0.021477284 0.008816487 0.00975046 0.003396557 -0.029572448 -0.07138322 0.06333588 0.015616537 0.080248475 0.02304599 -0.010976181 0.0014536653 0.053693157 0.036167167 -0.05956741
" -0.023997856 0.03832418 0.030472923 0.03140806 -0.02357378 0.026160035 0.045597065 0.020713378 0.006151162 0.0047236793 0.024993602 -0.043561745 -0.03333353 -0.03534069 0.023102943 -0.025058223
물 0.004369434 -0.037473157 0.044531014 0.007728939 0.004804307 0.019183116 0.031063367 -0.0033985209 0.024027003 -0.0031230964 -0.017998742 -0.032189123 0.009246183 -0.005968904 0.020292912 -0.003955598
삶 0.013069466 0.008879764 -0.030479535 0.0021753851 -0.07324064 0.04641141 -0.0026006564 -0.023729153 0.040464025 -0.022635406 0.037629273 0.034898125 0.069882296 0.005938704 0.0127278585 0.033881683
나왔 -0.048235465 -0.042466532 0.02659351 0.019378733 -0.009843349 -0.03870388 -0.008349836 -0.034997333 0.04697943 0.036682907 0.018620383 0.030083168 0.03701115 0.00268998 0.030626189 -0.010871746
친구 -0.0023407948 0.02683987 -0.0067780837 0.05940447 -0.037754502 -0.013800814 -0.018074889 -0.013067622 0.052502047 0.011769803 0.013439434 0.041159276 -0.02443782 -0.0015724167 -0.041153956 -0.01980618
웃기 -0.050998785 -0.008496999 -0.041902486 0.007040207 0.036621034 0.017700745 0.036726084 -0.034307297 0.0011999261 0.031572346 0.02852374 -0.03295016 -0.029128639 -0.025071923 0.018946398 -0.013263974
놓 0.007244684 0.032438684 -0.027954077 -0.028760457 -0.019706702 0.0039305463 0.02186397 -0.020691872 0.0013319962 -0.02303989 0.0027575493 -0.0037274584 0.011927176 0.040068436 -0.012260415 -0.01083523
/ -0.017758952 0.013764024 0.0052410266 -0.049570568 -0.002068073 -0.016293313 -0.04513541 -0.0057547744 0.011035186 0.072636895 -0.012701635 0.00092032866 -0.07913425 0.03763899 -0.010616311 -0.0190815
조금 -0.011285873 0.028502997 -0.0072456035 -0.019914608 -0.050391182 -0.021260211 -0.037480813 -0.034358963 0.049277216 -0.037070885 0.01954537 0.03796988 0.00437326 -0.03418568 0.035075292 0.050163858
막장 -0.07432905 0.08888816 0.04694422 -0.047385305 0.076130964 -0.12325391 -0.1268017 0.07840042 -0.07284199 0.108854055 -0.118697606 -0.074379385 -0.11705425 0.076204866 0.116920896 -0.08098824
8 0.0077496385 -0.043788176 0.014638482 -0.007560433 -0.024919467 0.044506427 0.044273034 -0.039866842 0.01747456 -0.06353508 0.048956316 -0.019901207 -0.01331765 -0.030707493 -0.020024555 0.008247722
보이 0.022938319 0.013392149 0.015415278 -0.024434773 -0.033243597 -0.00822602 0.01908521 -0.027184606 0.030453438 0.01916569 -0.04614299 0.049113493 0.04161227 -0.0025009385 0.027443277 0.017000651
딱 -0.05187417 0.048993517 0.03306654 -0.04967846 0.08051197 -0.12131124 -0.07883064 0.12306837 -0.09909315 0.1060136 -0.08267895 -0.1172959 -0.048410542 0.043314055 0.031589262 -0.08203867
잔잔 -0.0292583 0.0040558022 -0.027982557 0.025116477 0.03148323 -0.0568999 0.016889978 0.022876646 0.023848724 -0.021885766 -0.04535353 0.009806219 -0.04937371 0.06482601 0.031251777 -0.032290157
싫 0.04788083 0.033292506 -0.0074853776 -0.019527981 -0.04094112 0.009116668 0.060055222 -0.042274874 -0.018814672 0.012121351 0.035490293 -0.0077318605 0.016624331 0.006974357 0.031810027 -0.008515033
구 -0.0070736473 0.012508419 0.04366895 -0.008060718 -0.008364922 0.03012683 -0.026836084 0.023956213 0.0006828919 0.04218091 0.006150521 -0.027701987 0.040562492 0.030881586 -0.01801798 -0.025158811
요즘 0.09712007 -0.09271512 0.0018543089 0.05255265 -0.031587545 0.05591995 0.066503026 -0.082875445 0.035493422 -0.010727615 0.0083709415 0.025090473 0.092607856 -0.045923717 -0.049588513 0.04088021
중간 -0.011302576 0.07908267 0.07839376 -0.030875105 0.08814271 -0.09807788 -0.03153622 0.011548985 -0.027508048 0.04343723 -0.034391094 -0.02628338 -0.009802052 0.031030068 0.026544135 -0.010080036
찾 0.034758274 0.039870474 0.021023143 0.00680406 0.00474032 0.035143483 0.026369538 -0.003484629 0.018149626 0.035010073 0.047122862 -0.005936183 0.007137131 0.03174218 0.044865135 0.024737384
봐야 0.055179168 -0.011185071 -0.011084964 0.03337358 -0.067831576 0.091796055 0.07532886 -0.04310199 0.103620455 -0.04487596 0.0449398 0.063592605 0.087403335 -0.0993887 -0.10434217 0.082343385
가지 -0.064304546 0.04299657 0.046472136 -0.08077134 0.08652795 -0.005521558 -0.019738292 0.07643894 -0.092197925 0.0018879191 -0.04605813 -0.024541438 -0.08968158 0.08173703 0.08469707 -0.09035409
씬 -0.029676378 -0.033105377 0.043208636 0.023865635 -0.028797422 -0.028205434 0.0059619923 -0.05430745 0.002165955 -0.005677175 0.032381304 0.038777463 0.012474924 -0.027788702 0.015456886 -0.037278894
영상 0.015494797 -0.042333115 0.014835785 0.038715947 0.011683361 -0.028466897 -0.04576031 -0.02531325 -0.0042750263 0.012271126 -0.024174446 0.02071326 0.0036539184 -0.017596731 0.05082946 -0.00211676
긴장감 0.028837807 -0.08377208 -0.023021307 0.020080417 -0.07359153 0.07202819 0.034628164 -0.079193205 0.022982832 -0.09195231 0.018537275 0.05591379 0.0052357926 -0.043218978 -0.046752278 0.014639212
같이 0.03905419 -0.0063836705 -0.08811489 0.05291879 -0.042548902 0.025601922 0.063015714 -0.08224104 0.07926522 -0.06719851 0.005218433 0.07164477 0.056127515 -0.073318765 -0.02876937 0.06729447
라도 -0.01685146 0.041813046 -0.016035337 -0.0158541 0.0058427593 0.033481136 -0.0051288214 -0.019942176 0.04787902 0.005500479 0.016849969 0.021884583 -0.0058807028 -0.0145619325 -0.023489749 -0.0068336995
.... 0.0030395235 0.072724134 -0.0011352258 -0.03563332 0.002237605 -0.0703294 -0.027307237 0.048760653 -0.02306852 0.037255313 -0.07637067 -0.0034883132 0.004228435 -0.016875423 0.03730006 0.018591858
믿 0.025801983 0.0018528923 -0.020168627 0.034401942 -0.021882856 0.0013579354 -0.011252545 -0.045530286 -0.007511258 -0.048369553 0.028296147 0.020909969 -0.005348146 0.047464613 -0.040231563 0.033869516
스릴러 -0.00070161145 0.053146917 0.008022191 0.0007266763 -0.011293141 0.02553807 -0.018139316 -0.02263615 -0.047787964 0.03908597 -0.023430038 0.002128619 -0.030008666 0.05220259 -0.022606721 0.021324309
아까운 -0.12932362 0.10714838 0.10658027 -0.13247277 0.16872385 -0.14392999 -0.09924319 0.1658436 -0.0690429 -0.075241245 -0.15856783 -0.14725618 -0.21098512 0.19655213 0.17695795 -0.17392087
부족 -0.07350608 0.059808187 0.03950789 -0.03957547 0.07871341 -0.04670974 -0.07212517 0.065963395 -0.022598645 0.09365145 -0.099252544 -0.08468859 -0.067006595 0.114766866 0.031971894 -0.117756404
억지 -0.1135037 0.055472955 0.10315124 -0.05793246 0.14219879 -0.11632718 -0.039131373 0.112332016 -0.09325605 0.08994007 -0.075381845 -0.114779666 -0.08583179 0.119154684 0.085509904 -0.07611658
노래 0.032581486 -0.035764202 -0.07572589 0.08771017 -0.024216056 0.09242276 0.039125875 -0.026186768 0.069266334 -0.090313815 0.020055132 0.034262594 0.06058293 -0.10446 -0.070287496 0.07484272
특히 0.14326346 -0.044204853 -0.06321023 0.048049774 -0.06991431 0.10815576 0.13205603 -0.09478801 0.116213106 -0.07592806 0.10967368 0.07391551 0.107786104 -0.038148105 -0.123402104 0.11737733
구나 -0.021230299 -0.011212173 0.016752051 -0.064305335 0.07773154 -0.008645628 -0.06326116 0.046056487 -0.03511255 0.07794536 -0.06607768 -0.025088362 -0.0032482683 0.051070005 0.033573527 -0.061393756
점수 -0.03954395 0.02594059 0.051306218 -0.08928326 0.053362615 -0.03959728 -0.0028329769 0.025152067 -0.08322004 0.038061213 -0.08412021 -0.059032228 -0.10881453 0.024907246 0.092602685 -0.07926744
개인 -0.002539299 0.0058353036 -0.02283518 0.0028482385 -0.000682909 -0.034898173 0.026369747 -0.01656033 -0.029868802 0.013155573 0.010157706 -0.010022845 -0.053409934 -0.006943127 -0.0062652994 -0.01835725
이유 -0.038870294 -0.011933258 0.0011625043 0.03003389 0.043275673 -0.039697103 -0.016525857 0.011322383 -0.009485053 0.018716477 -0.065621585 0.01934179 -0.051992234 0.018694326 -0.008327352 -0.038890004
시작 0.08733667 -0.05819666 -0.03873653 0.036935043 -0.035649523 -0.0010119113 0.059433177 -0.06633577 0.00997428 -0.09002936 0.033186864 0.024407335 0.046746485 -0.049606387 -0.009339132 0.031749137
라면 0.0051861247 -0.03587636 -0.028347574 0.03201608 0.029592289 0.010890871 0.033874992 -0.028512867 0.045006357 0.03787609 -0.0020593365 0.023457656 0.056073043 -0.033735503 -0.025982535 0.024616448
만큼 -0.0038353994 -0.026082272 0.021815693 0.02995669 -0.05426747 0.01602866 0.034274954 -0.005796769 0.0012609507 -0.018561792 -0.0036257515 0.040497 0.045558292 0.005117964 -0.060649578 0.013305879
제대로 -0.040930003 0.026182495 0.024029488 -0.044635996 0.023811845 -0.029619738 -0.048105303 0.05781088 -0.045266792 0.017216476 -0.016698776 -0.05476013 -0.04954853 -5.5696895e-05 0.043643568 -0.09101341
한테 -0.049380485 -0.0016795734 -0.035611954 0.0016806818 0.0051799593 -0.038061295 0.0048246155 0.0063433326 -0.05219364 -0.037732296 -0.037830986 0.016760986 -0.05366004 -0.015381952 -0.022000542 -0.030035857
잇 0.04591716 0.029612528 -0.0066105314 0.04131064 -0.05120845 0.021043377 0.029088842 -0.054736923 -0.0058734734 0.011541559 -0.006367336 0.008746518 0.02174235 0.010513797 0.008717998 0.03013759
날 0.012861553 0.00963174 -0.052849364 0.040052306 -0.021810092 0.032095127 0.039241828 -0.024506444 0.010563578 0.022935161 0.04452383 0.015031946 -0.025564266 0.034260835 0.0026329875 0.06025938
나름 0.141082 -0.17748152 -0.11122707 0.112178706 -0.11406108 0.1467295 0.17184706 -0.14064036 0.17324495 -0.17842908 0.11251848 0.079545915 0.13204025 -0.15087669 -0.16940446 0.17551455
ㅜㅜ 0.04609672 -0.0663507 -0.038583126 0.058213823 -0.023571676 0.03985026 0.029796511 -0.07678711 0.03846481 -0.053457566 0.034486406 0.0013935335 0.07927505 -0.04666757 -0.03175051 -0.009385251
시대 0.012864684 -0.014808999 -0.0026719146 -0.039720666 -0.032980867 0.017980209 0.00548473 0.0019356777 0.010997526 -0.029377494 0.010623669 0.004575786 0.034918714 -0.03851189 -0.010271719 -0.036527947
사 -0.015557218 0.044988394 0.020022787 0.004919351 -0.017025713 -0.045798592 -0.03523852 -0.0029407262 -0.055550016 0.04724871 -0.048969515 0.011949706 -0.0026692683 -0.011272061 0.05103384 0.02562019
명 0.06616978 -0.050589334 -0.035477675 0.026458174 -0.05943967 -0.015268229 0.06962698 -0.059697397 -0.004110382 -0.02906807 0.00091265544 0.047781393 -0.020860383 -0.031243026 -0.012857942 0.041423082
제일 0.06533289 -0.010740552 -0.072414115 0.055790715 0.008458408 0.0057343543 0.0069899606 -0.055068076 0.07144458 -0.0109028015 0.0003278192 0.020335626 0.026537336 -0.0829999 -0.042710084 0.028145975
아름다운 0.25373146 -0.20533454 -0.17019778 0.20193355 -0.14173014 0.2320683 0.23338358 -0.15203331 0.19551398 -0.2001048 0.19017005 0.1937053 0.22370706 -0.16359185 -0.16301529 0.13748758
어떻게 0.0009422319 0.02172368 0.05771122 -0.03981336 0.058512144 -0.02860327 -0.050825857 0.008797673 -0.04007237 0.07552177 -0.047931746 -0.08107342 -0.017613132 0.09208863 -0.005424569 -0.027632007
해요 0.08133241 -0.03395469 0.0061560944 0.027435137 -0.059741355 0.039369326 -0.002263375 -0.056550343 0.036702838 -0.04020188 0.042931844 0.06840319 0.062566735 -0.080606565 -0.080703504 0.040091183
하지만 0.009560024 -0.029356673 -0.015659261 0.024763636 0.022131642 0.022151269 0.029881028 -0.067994855 0.059910562 -0.0583849 0.028270993 -0.009837705 0.070912175 0.027662748 -0.056028143 -0.0022233056
당시 0.071617655 -0.0063831024 -0.00069247186 0.038748607 -0.07851394 0.020630121 0.067623004 -0.032553285 0.017598657 -0.05819133 0.082494676 0.020126626 0.062436946 -0.054531366 -0.024783503 0.041284543
무섭 0.0018241227 -0.0525783 -0.009982338 -0.014935001 -0.026458444 -0.016619954 -0.00077547244 0.004859664 0.021067368 -0.0036911536 0.010513212 0.008889998 -0.03091885 0.0037429358 -0.025809316 0.049166217
차라리 -0.0963767 0.12575158 0.15660442 -0.11456027 0.21195799 -0.16028869 -0.08903766 0.20732051 -0.059042916 -0.1365887 -0.1468739 -0.16048838 -0.19683488 0.1903749 0.11583188 -0.15657037
이것 -0.010901048 0.02944235 0.03894717 0.023251802 0.05133045 -0.002672332 -0.031168777 -0.014773775 -0.005170015 0.018458614 -0.011202053 -0.010591873 -0.029679045 0.020611364 0.015758883 -0.014072246
려고 -0.039357997 0.030009221 -0.014945337 -0.0043376796 -0.02150248 0.020047454 0.0038673468 0.016828375 -0.034032818 0.046153247 -0.022896279 0.021693373 -0.050658137 0.0052105314 0.009649493 -0.0036841098
엔딩 0.028727744 -0.034238268 0.035220128 -0.02546207 0.038559314 0.04875402 0.025050772 -0.005333339 -0.043529738 -0.023305707 0.05413772 0.032007154 -0.011133467 -0.03777616 0.03299557 0.024870412
오랜만 -0.05593551 0.030378954 -0.014005784 -0.057638377 0.0296414 0.036379904 0.0073148706 0.0032868169 -0.035444237 0.031748123 0.029794268 0.011238784 -0.028426541 -0.021785863 0.05126797 -0.004949094
니까 -0.022313833 0.010727484 -0.0042546117 -0.055064525 0.0415742 -0.0028313797 0.040540926 0.04256919 0.016836328 0.03656583 0.033240754 0.012771399 -0.023542754 0.0067475555 -0.010255824 -0.0003673515
봄 0.01375219 0.014174315 0.015226242 -0.015659282 -0.033794243 0.033809487 0.013316344 -0.047224283 0.05277659 0.008049766 0.015458673 0.057211787 0.0010544208 0.017405847 -0.06947909 0.0049979845
의미 -0.020897392 -0.025369383 0.02840357 -0.00091299706 0.008967465 0.038388822 0.0085023865 -0.040652994 0.028084274 -0.033252284 0.026287341 -0.04405371 0.04062442 -0.0070212376 -0.011525516 -0.03173832
나온 -0.08507951 0.027788823 0.07551871 0.0045880713 0.04243086 -0.062863395 -0.06901724 0.009342144 -0.076327875 0.08397956 -0.07665749 -0.074864075 -0.053405095 0.012469781 -0.007870335 -0.08695097
세상 0.061516922 -0.03669414 -0.061291102 0.0483753 -0.022482796 0.03512834 0.024559047 0.024092218 0.048814423 -0.015633091 0.06323453 0.06585809 -0.013851953 -0.03429285 0.020739269 0.02596536
봐 -0.011125949 0.01908483 0.040568303 0.024432499 0.01828717 0.030601762 -0.001547901 -0.0011478742 -0.023964575 0.017410161 0.011979036 0.016699923 -0.032955464 -0.051703796 -0.047626477 -0.016518084
따뜻 -0.02125231 0.014467303 -0.04208374 0.014110591 0.042665366 -0.042331647 0.017818842 -0.02990513 0.02497485 -0.04922706 -0.022340108 0.025966112 0.038474333 0.027736675 0.01950698 0.024324719
세 -0.02148613 0.01590969 0.02098476 0.0070333653 -0.028800787 -0.03680414 0.018803762 0.015363816 -0.011062271 0.030695766 0.057872027 -0.010614038 -0.009909557 0.0073193004 0.0033177685 0.005755199
팬 0.04548498 -0.02930873 -0.058864098 0.005088696 -0.07387889 0.020162206 0.05635997 -0.01226653 0.06157326 -0.042025894 0.074997835 0.026468536 -0.0016930855 -0.08294728 -0.035501327 0.044336166
훌륭 0.022784332 -0.02740948 -0.059217308 0.040116772 -0.05841353 -0.018731177 0.014651875 -0.02020612 0.056399327 -0.037269644 0.05155099 0.033523425 0.010003601 -0.00346425 -0.0019622853 0.029220922
9 -0.01630244 -0.03180729 -0.027715774 -0.013650157 0.011926403 0.07378383 0.0072270604 -0.027058939 0.041090965 -0.04785864 0.054027483 0.077659704 0.028583938 -0.08155509 -0.023528323 0.062496554
절대 -0.13235183 0.1226777 0.060918942 -0.07206647 0.07058417 -0.123059705 -0.11845488 0.08953248 -0.043334056 0.052737337 -0.03743025 -0.09569115 -0.10999519 0.06405271 0.09207428 -0.06577045
못하 0.025764678 -0.044531453 0.028073218 -0.011477709 0.041132722 -0.0060909167 -0.022434175 0.040437568 0.018046107 -0.0012897849 -0.0038324967 -0.012988232 -0.021837546 0.037094954 0.031089935 0.017102327
놈 0.013825279 -0.011751078 0.04976844 -0.012002341 0.02254804 -0.049489003 -0.06021225 0.06440352 -0.06584952 -0.012670814 -0.05919195 0.0062331934 -0.02713919 -0.019202964 0.031645447 -0.06907256
강추 0.17459354 -0.06641104 -0.09834164 0.07179703 -0.123906694 0.062099744 0.072781466 -0.10635302 0.17372626 -0.13047773 0.06733957 0.14248948 0.15086658 -0.1468625 -0.13127385 0.08622362
느끼 -0.016845677 -0.0023870058 0.038355015 0.0043367855 -0.03169601 0.022380533 0.014693703 0.03217889 -0.021658586 -0.018293254 -0.012124933 0.025743071 -0.04357117 -0.018708749 0.025791803 -0.01612679
욕 -0.110055536 0.05699385 0.03821826 -0.053708166 0.10821197 -0.09938568 -0.011368968 0.075545065 -0.08137421 0.05832784 -0.024887819 -0.03815424 -0.054006618 0.049541727 0.05561218 -0.11304891
감 -0.024432782 0.019484691 -0.037163164 0.0005106098 0.045882788 -0.055785235 -0.056121986 0.028654493 0.036814637 -0.03494191 -0.009261752 -0.027161874 0.033526056 0.01338086 -0.01795155 -0.026410805
빼 -0.019528007 0.0338971 -0.057334032 -0.024420014 0.010638085 0.054928873 0.0010262964 0.0016677972 0.015670488 0.0329312 -0.03540976 0.0161183 0.060506452 -0.02954306 -0.022100985 0.021865016
너무나 0.04985001 -0.064164385 -0.01051286 0.0047812145 -0.087984346 0.064427085 0.08744731 -0.059965715 0.0698974 -0.05000395 0.057428036 -0.0064772153 0.013740798 -0.07533905 -0.069210246 0.065525
전쟁 -0.06246955 0.00051463407 -0.03564314 -0.012367595 0.052325297 -0.042221043 0.021013169 0.057167757 0.015358209 0.06990958 -0.029625818 0.03380182 -0.04865026 -0.031933196 0.053149424 -0.019698462
됨 -0.007510275 -0.021289725 -0.030669995 0.015720218 -0.0665874 -0.024329169 0.0116228955 -0.001771759 0.060005166 -0.023155266 0.012286512 0.006617937 -0.01811541 0.031029591 -0.0007598068 0.06432109
어야 -0.03552108 -0.027238464 -0.011799991 -0.0118427165 0.019518945 0.032430235 0.037224043 0.026237693 -0.0072562806 0.023346495 -0.00870036 -0.007823061 -0.032275394 0.011082746 0.008121587 0.017799828
해야 0.02791703 0.04322794 -0.047164466 -0.039100815 -0.011107293 -0.013703131 0.029327776 0.0122144865 -0.025749583 0.034318477 -0.024651458 -0.002507523 0.0014290967 -0.02282639 0.0053766635 0.0186769
던데 -0.0030788407 0.033107463 -0.0078798905 -0.003752064 -0.020107735 -0.028973354 0.01756275 0.021544542 -0.047921825 0.020064663 -0.04276594 0.025401149 -0.03674383 -0.037047185 0.034696806 -0.030211627
도대체 -0.15144783 0.16576213 0.10412508 -0.065809146 0.090942495 -0.11493658 -0.08786461 0.123471744 -0.08629996 -0.030065414 -0.1573727 -0.13202696 -0.17095406 0.15201798 0.116301686 -0.115914665
무엇 0.046076868 -0.027170181 -0.033590905 -0.018462736 0.04326503 -0.040341325 0.047178175 0.011100977 0.029487338 0.046806205 0.0327974 0.0043061916 0.030108396 0.020901293 -0.025348898 0.03452404
답답 -0.027872497 0.009100245 0.087393455 -0.06949168 0.04467867 -0.045091003 -0.059378665 0.050273445 -0.025580334 0.050915442 -0.06457935 -0.04883765 -0.09774934 0.04438355 0.04147824 -0.018022234
준다 -0.010784977 -0.008371731 0.022160826 -0.06510139 0.033171777 -0.046493996 -0.084754445 0.08637289 -0.017157964 0.0010972428 -0.08857107 -0.04870905 -0.071972705 0.012746061 -0.009948171 0.007684804
ㅡ -0.103557624 0.057475716 0.05628935 -0.007825692 0.04732891 -0.03535869 -0.007808662 0.017588142 -0.0547819 0.030504048 -0.047291577 -0.033203978 -0.10879532 0.0917396 0.06710963 -0.09721255
드 0.02858898 -0.04798198 -0.058602877 0.07730392 -0.0036928183 0.09590682 0.0668967 -0.076434754 0.055507064 -0.04597533 0.06987571 0.050673883 -0.005162329 -0.08637319 -0.06984046 0.031074801
마다 0.076983646 -0.05748964 -0.05607326 0.056479957 -0.052923586 0.034725867 0.049013443 -0.018352699 0.0042333 -0.08448488 0.057393365 0.081940204 0.03622517 -0.049477138 -0.018010238 0.0007263036
설정 -0.006145978 0.034784377 0.003600054 -0.05364066 0.057451334 -0.0010681959 -0.02314629 0.06211684 -0.092929386 0.08933799 -0.075804725 -0.058906075 -0.0064064786 0.016587332 0.020889144 -0.010690313
답 0.01116329 0.028084211 -0.009960061 -0.011576102 -0.033292852 -0.03628579 0.036772575 -0.02738521 -0.04041492 0.013854021 0.010168409 -0.044149533 0.024681738 -0.029842151 0.027479034 0.012065599
그저 -0.078138776 0.053191666 0.057015374 -0.09764995 0.15086995 -0.06489159 -0.037987594 0.0765384 -0.13788752 0.05705335 -0.09307118 -0.1482033 -0.15244566 0.07448533 0.054325484 -0.09526973
6 -0.029585812 -0.021128515 -0.035202805 0.0038967356 0.02140238 -0.023403933 0.032715164 -0.025786923 0.045775708 0.03460045 -0.014576261 0.03634527 0.043648735 0.018198457 -0.0013629677 -0.03286484
어도 0.038964357 -0.02358446 -0.041906096 -0.0074309595 0.0040181167 -0.0015042312 -0.003811039 0.026470136 0.01966757 -0.04899886 0.032958243 -0.01600964 0.029882636 0.04946712 0.0054636374 -0.029816259
형 -0.022397812 0.011398001 0.011887388 -0.028399205 -0.008718525 -0.017157827 0.013393431 0.034422047 -0.033899616 0.027933216 -0.030963112 -0.009729417 0.024335612 0.024753256 -0.036433782 0.01776583
신선 -0.0011767842 -0.041417606 -0.039600186 0.06470887 0.004264973 0.062334348 -0.022061283 -0.019652406 -0.018614905 0.024024311 -0.009838663 -0.009193713 -0.008544564 0.027599446 -0.022196222 0.05603759
감정 -0.024238173 0.020536294 0.015952272 0.040956628 -0.008320704 -0.00063696783 0.05163677 -0.026791593 0.010958506 -0.024949402 0.003676013 -0.037521113 -0.032255735 -0.016153578 0.009884659 -0.01961334
흥미 0.012828174 -0.004441245 0.007637896 0.037036255 0.0036496304 -0.021472225 -0.037288945 0.03741684 0.019698912 -0.017387697 0.0052674557 0.0027089524 -0.050923184 0.014005018 -0.015236065 0.039923064
글 0.027405057 -0.014430187 -0.016255595 -0.011491082 0.0110902805 -0.009209281 -0.057134353 0.009081173 -0.0029537436 0.02366271 0.02151194 -0.039874386 0.027446859 0.045433022 -0.021382244 0.008794104
미국 -0.01697107 0.052924335 -0.016296342 -0.050169244 0.060412638 -0.0020617102 -0.013094491 0.050833695 0.016244803 0.02035858 -0.058129795 -0.010890473 0.022959145 0.007590251 0.03459435 -0.026375163
뻔 -0.056765623 0.036061756 0.06358123 -0.059908092 0.05903989 -0.062113926 -0.06498589 0.03959399 -0.050034046 0.08147712 -0.05549839 -0.0591255 -0.016736245 0.020505162 0.03648966 -0.014679683
엄청 0.12202125 -0.07883317 -0.067052364 0.11047686 -0.0907091 0.0832589 0.046652954 -0.108203314 0.046164252 -0.11160893 0.044803567 0.10758416 0.06223215 -0.081570774 -0.10209211 0.05105569
관객 -0.08663587 0.038650647 0.041790582 -0.053653512 0.045727905 -0.011970361 -0.032954473 0.061042074 -0.02113747 0.09296278 -0.018869886 -0.039817233 -0.024632076 -0.0027265393 0.044582274 -0.014445172
행복 0.04521314 -0.04000963 -0.08472395 0.009668581 -0.084833235 0.04293878 0.06714159 -0.0018620947 0.07728825 -0.026476847 0.025216365 0.06605475 0.055509713 -0.056813575 0.0033751598 0.05978925
시절 0.034785666 -0.018033294 -0.040655755 -0.009378047 0.0036510497 0.03250279 -0.02061569 -0.022780098 0.007478714 0.010405007 -0.00818611 0.06301997 0.058771737 -0.05240133 0.019911619 -0.004404591
더라 0.004480075 0.0057536587 -0.019521868 0.025850166 -0.049830925 0.014703933 -0.03211192 -0.003409516 -0.012920033 0.0069583654 0.00071901083 -0.04939213 0.0453321 -0.008305393 0.003632199 0.047131624
만화 0.06246063 -0.035894647 0.014299576 0.05143614 0.014204933 0.036973894 0.04921557 -0.06709406 -0.013302407 -0.074508004 0.060540527 0.03989369 0.010697004 -0.030366506 -0.060411107 0.05445298
수작 0.19484363 -0.117464215 -0.117855795 0.14935659 -0.080194816 0.15923148 0.10049757 -0.09966632 0.18265273 -0.16582684 0.111248575 0.10319983 0.17112473 -0.14415404 -0.17198274 0.09621783
군 0.059068833 -0.027588837 -0.05824908 0.034296237 -0.057034303 -0.014325824 -0.015463278 -0.040114876 0.011820658 -0.0016267052 0.014425623 0.056813758 0.014059116 -0.013364654 0.0041703414 -0.006076756
앞 -0.046448816 0.031286847 -0.040075034 0.009291577 0.022890022 -0.024923844 -0.0005831087 -0.021081783 -0.013203455 0.016152475 0.04756162 0.009657818 0.035751276 -0.043032695 -0.04364283 -0.03905545
자신 -0.026917825 0.032104813 0.002078196 -0.007808196 -0.052161094 0.00705716 -0.02774837 0.017300924 -0.023039097 -0.016868217 0.04028995 -0.032172173 0.04748249 0.031780977 -0.03390627 0.011756015
슬프 -0.0023806207 -0.032087553 0.00049290806 -0.04117789 -0.04166318 0.04426154 0.046838943 -3.3974648e-06 0.023293827 -0.0036337264 0.0070576295 -0.03601118 0.041635606 -0.013142455 0.040273298 -0.03255047
라니 -0.00090500823 0.012332917 -0.027321817 0.008955201 0.048169333 -0.00709556 0.011759139 -0.01978516 -0.017147271 0.0120595675 0.021310639 0.0037098082 0.0027244198 -0.010404546 0.031445622 -0.038086016
배경 -0.012789082 -0.025926804 -0.01551757 -0.036249828 -0.053262446 -0.021420084 -0.006868965 -0.06479878 -0.023327833 -0.020706816 -0.001580922 0.050779253 0.018637873 -0.062252752 -0.005651736 0.029952917
허접 -0.02688457 0.04584744 0.029631587 -0.03687986 0.059749465 -0.028585074 -0.08923983 0.08268208 -0.11262211 0.07208565 -0.07777261 -0.0758203 -0.038341 0.04912342 0.040153198 -0.10019895
초반 -0.029189022 0.05759688 0.045118503 -0.037047956 0.05765586 -0.049412843 -0.0339177 0.08270065 -0.10749771 0.048829667 -0.085876435 -0.05887034 -0.00832132 0.0003831112 0.09676831 -0.02448299
질 0.005153235 -0.029561995 0.05865184 -0.0551763 0.052881576 0.010339581 -0.055855323 0.011174838 0.029003225 0.016559111 -0.009338781 0.029249096 0.025968233 0.05841647 -0.0014139111 -0.0060640546
어색 -0.07028499 -0.017121866 0.034273528 0.016712604 -0.015067378 -0.034744322 -0.0028929948 0.05843028 -0.016433358 0.023793617 0.01185969 0.02019453 0.003137028 -0.0026050885 -0.020125085 -0.02290302
시나리오 -0.08676392 0.08420365 0.045361184 -0.0064783404 0.04276602 -0.031607304 -0.073733225 0.071912326 -0.030401904 0.10496626 -0.013147317 -0.008167626 -0.039498694 0.0129699875 0.022408225 -0.07791444
사실 -0.07909275 0.048878957 0.000801648 -0.06710622 0.04805191 0.018283822 -0.06891819 -0.008062601 0.008921714 0.033273976 -0.026819719 -0.03193379 0.013394255 0.0023205255 0.043977793 -0.010767332
웃음 -0.024567584 -0.028193768 -0.01611617 0.0025354228 0.042262163 -0.06672838 -0.004442926 0.020739056 -0.031592224 0.015184908 0.0094936555 0.020789856 -0.010802713 -0.014994144 0.0011397386 -0.046467993
첨 -0.03623958 0.0696889 0.002351027 -0.0085311495 0.0504717 -0.048073284 -0.029066715 -0.011174872 -0.07636025 -0.0034837648 0.005303665 0.0043581743 -0.010142303 0.054901946 0.014712052 -0.0075719366
분위기 0.002569149 -0.033405084 0.0012522523 0.008692309 -0.076164454 0.0379656 0.04694257 -0.080073684 0.030479139 -0.068054326 0.055386193 0.06497317 0.062243454 -0.031999603 -0.08178497 0.06468365
소름 0.14549622 -0.07893579 -0.042775523 0.046205178 -0.06519719 0.05695344 0.055267494 -0.063951984 0.05672843 -0.085335426 0.05356824 0.10892285 0.09989592 -0.117508054 -0.08100794 0.090195
멋진 0.17957763 -0.11185861 -0.18865554 0.14700322 -0.17914358 0.1572591 0.18461908 -0.10954469 0.14848664 -0.1553462 0.14442934 0.16326268 0.1591722 -0.09424664 -0.19709182 0.12360022
추억 0.08003587 -0.07383777 -0.055040445 0.040787116 -0.05031196 0.078560956 0.0024248997 -0.06835094 0.083165586 -0.0052012503 0.043456823 0.018297775 0.019281017 -0.068244584 -0.022769988 0.005237154
머 -0.06275891 0.0902143 0.014916617 -0.07783781 0.01486229 -0.03916591 -0.064193204 0.039627608 -0.10198661 0.093442306 -0.042134274 -0.043791685 -0.06753799 0.038682412 0.07765758 -0.026520725
멋있 0.02393813 -0.029344952 0.012992296 0.049555335 0.044277165 0.00045852736 0.025148284 -0.024494028 0.048763122 0.022915903 -0.04603225 0.038771678 -0.019187784 0.015859041 -0.014408112 -0.028224064
힘들 -0.032428008 0.0009375595 0.030910445 -0.00378823 -0.04648982 -0.019812271 0.039195437 -0.02598054 0.010994196 -0.022590654 0.006499493 -0.011659948 -0.02584272 0.03807693 0.0241585 -0.018925466
정신 0.009400618 0.0072186207 -0.014655204 -0.021904528 -0.0024116735 -0.017373698 -0.021903098 0.022081975 -0.077804394 0.015798243 0.006033653 -0.024109833 -0.054834366 0.06926228 0.046387155 -0.0050615445
캐스팅 0.008995028 0.05718835 -0.010237725 -0.03394633 -0.0099501135 0.017285256 -0.048931018 0.06182976 -0.062365636 0.02266475 -0.00034914986 -0.0065745497 -0.015081374 -0.010172288 -0.022109047 -0.046771493
등 0.043644536 0.011621675 -0.03454311 0.023220893 0.03509157 0.020656737 -0.004705173 -0.019238383 -0.030481255 0.0019777173 0.019058488 -0.03549683 0.02487555 0.018228948 0.02870512 0.0009164863
밖에 -0.035566613 -0.03346697 -0.00455336 0.044204246 -0.009953872 0.048532054 -0.041997656 -0.054905273 0.0054501416 0.013295389 0.02425278 -0.0085552465 -0.012767752 -0.022905953 0.022974355 0.054675415
OOO -0.11646453 0.09528605 0.08681183 -0.07879681 0.12893069 -0.096936725 -0.042778526 0.0994899 -0.041439403 0.07712197 -0.12570885 -0.07670995 -0.13106154 0.084874794 0.09583087 -0.054132976
결국 -0.067523755 0.052568417 0.083064735 -0.054447085 0.10241266 -0.094554566 -0.089599505 0.09427115 -0.009708454 0.10380622 -0.009370582 -0.035342317 -0.0124861505 0.023920797 0.042536933 -0.031239098
봐서 0.06363392 -0.029121824 0.0007776911 -0.029160058 -0.023508238 0.017951353 0.037058666 -0.018257793 0.042885367 -0.0028442205 -0.03041165 -0.0014854341 0.0006784607 0.023045471 -0.042352952 -0.0044706296
류 -0.016360054 -0.0069871736 0.037700564 -0.022949839 0.041734803 0.018317588 -0.002563687 0.019284341 -0.025009787 -0.0031018069 0.03389682 0.02993919 0.0032826085 -0.040283274 0.03011818 -0.014228895
오늘 0.081457034 -0.07328428 -0.085409746 0.07427977 -0.07905851 0.112962075 0.045276977 -0.09329893 0.10188897 -0.044875495 0.059411563 0.044692263 0.032599293 -0.050599035 -0.07074206 0.04860546
졸작 -0.063646495 0.13689478 0.15229312 -0.07259821 0.15893675 -0.09782199 -0.12160916 0.18368067 -0.09160131 0.026244666 -0.12914498 -0.09889633 -0.09050681 0.13752379 0.10148449 -0.078792386
낫 -0.008237745 -0.029528346 -0.011591532 -0.039355066 0.006364045 -0.011527939 0.035508122 0.03949599 -0.0073379376 -0.025495594 -0.009000653 -0.016929736 -0.049239315 -0.00881386 -0.015570639 -0.052176762
킬링 -0.017231582 0.0081383735 0.062640056 -0.0096464325 -0.020507146 -0.0074766898 0.023173014 0.019545523 -0.020846788 0.0012607479 -0.011660955 -0.0042324206 -0.017468432 0.01684606 0.05026284 -0.06689904
역사 0.03314536 -0.031308874 -0.0043699606 -0.024874853 0.014392484 0.006087528 0.039949574 -0.029521644 0.062321063 0.017024955 0.015011595 -0.00040870238 -0.0103025045 0.020841215 -0.053918004 0.014965799
함께 0.14871463 -0.10755965 -0.11199433 0.07549241 -0.12607671 0.09794827 0.12807508 -0.1596991 0.17432128 -0.09539576 0.08493452 0.08532755 0.092492886 -0.15379678 -0.07738309 0.081809536
잡 0.0013622949 -0.03806385 0.030175034 0.058213055 0.01931166 0.03349147 0.0018133615 0.032485582 0.015872216 -0.04846108 0.06082124 -0.019804876 0.04629786 -0.00454743 -0.044806536 0.014235735
엄마 0.005853521 -0.006307817 -0.04066993 -0.04527706 0.046592686 0.031553328 -0.006737124 -0.050515536 -0.009794345 -0.00014723057 -0.050472565 0.025898885 0.014965053 0.028089207 0.04765039 0.031123582
이딴 -0.13417122 0.1078435 0.12543635 -0.12524618 0.13234729 -0.116238795 -0.060953084 0.147122 -0.063287914 0.009427156 -0.143514 -0.13945967 -0.11324457 0.15629408 0.14317347 -0.07975571
한데 0.003892356 0.03847444 0.019067103 -0.003944913 0.012581865 0.005824677 -0.03779244 0.041114822 -0.00982262 -0.0050400435 -0.036574945 -0.04150458 -0.03645314 0.015757414 0.06941543 0.021466987
20 -0.017942283 0.046686742 -0.036028 0.03931195 -0.0071356804 0.011201913 0.041893337 -0.005663766 0.011454492 0.009721402 0.0005622653 7.376191e-05 0.046902917 0.0418478 -0.0028409823 -0.03075446
집 0.010955337 -0.016456956 -0.019767273 -0.020566931 0.004773546 0.030381702 -0.017059479 0.0017447517 -0.032662246 0.034972824 -0.025580334 0.014568415 -0.04043634 -0.042443667 0.016631879 0.038567927
구성 -0.03716607 0.014533824 0.026849134 -0.030104851 -0.0029220365 0.026128314 0.020929353 -0.013849026 0.0042097797 0.006703297 0.013593128 0.0031597808 -0.060145725 0.05164721 -0.03519779 0.032037772
문제 -0.049055777 0.014197912 -0.01968303 -0.03480536 -0.010258 0.027217116 0.019284908 0.037658185 -0.010440077 0.058689818 -0.07012027 -0.042239968 -0.0122245625 0.028363045 0.013127795 0.008150705
뭘 -0.09186035 0.145371 0.12297684 -0.06306821 0.114938445 -0.09645185 -0.08791414 0.101064965 -0.108443365 0.06072033 -0.11082269 -0.12291287 -0.12508307 0.055568866 0.119723596 -0.15371051
나요 -0.023225388 -0.058236282 -0.032880634 0.051855106 -0.06337971 -0.020872595 0.013067363 -0.037535295 0.053800512 -0.017555699 0.034263745 0.065601654 0.06179282 -0.03233685 -0.017847711 0.055118404
뻔한 -0.1326754 0.10173746 0.09748728 -0.10674189 0.07347919 -0.1426169 -0.10978857 0.15900606 -0.11726605 0.00048843864 -0.062478695 -0.06972408 -0.15410528 0.09417689 0.14240232 -0.11494025
스러운 -0.046443976 0.0016619505 -0.028904218 -0.02928849 -0.044768617 -0.02363967 0.012509102 0.039553322 -0.037722416 -0.039460078 -0.046306472 -0.0052699493 -0.016460076 0.04269328 -0.047266178 -0.0020419837
