2996 16
영화 0.15646945 -0.33470777 0.06525932 0.123238064 -0.33834535 -0.5947779 -0.23626375 0.18438107 -0.002647768 0.36720255 -0.19606677 -0.3115722 -0.23711386 -0.3673952 0.15253158 0.07346508
다 0.23135825 0.106125586 -0.096605346 -0.099375576 -0.21347366 -0.21160534 0.049573503 0.18411967 -0.09600045 -0.011542165 -0.15995878 -0.21298268 0.01795269 0.082744576 -0.08418961 -0.12952316
고 -0.08430923 -0.18784091 0.09586212 0.16528165 0.081590146 0.028833972 -0.18478605 -0.08260214 0.17507537 0.13905753 0.07068406 0.066422135 -0.20524424 -0.21060285 0.119330905 0.19148283
하 0.19282553 0.045204688 -0.09250584 -0.0132718645 -0.17977904 -0.20535362 0.043812998 0.122832835 -0.0503052 0.006968429 -0.098864086 -0.1571441 0.03998363 0.008479125 -0.070158854 -0.12206539
을 -0.032262474 0.043872476 0.0008840824 0.022043113 0.055193853 0.13920878 0.025333293 -0.006926042 0.06978372 -0.02488358 0.04409725 0.123433515 -0.021756781 0.015041134 0.005268639 0.036241908
보 -0.042503223 0.061454266 0.06573469 0.06596581 0.030199418 0.04024477 -0.01827953 -0.07549842 0.07132528 -0.053814657 0.08012224 0.063093215 -0.058671676 0.06061797 0.06532475 -0.015889054
.. 0.2945243 -0.023237836 -0.11615867 -0.0032620635 -0.2733973 -0.31018582 0.023079906 0.3049051 -0.172878 -0.036365118 -0.20697935 -0.31078818 -0.0013186506 0.010881218 -0.08117883 -0.04040645
게 0.20606856 0.07386885 -0.16246735 -0.13232993 -0.122801736 -0.07157559 0.13633142 0.2546531 -0.15606998 -0.04229976 -0.20982283 -0.18432535 0.14466178 0.093194395 -0.09735492 -0.096664526
, 0.025784642 -0.14968462 0.023596965 0.09330116 -0.12943538 -0.15070808 -0.16409943 0.07812988 -0.028033298 0.2153173 -0.038749944 -0.08574624 -0.071836665 -0.18905555 0.041899864 0.034242257
! -0.17814341 -0.18495066 0.22714038 0.116524585 0.17628156 0.22547397 -0.16557355 -0.2068776 0.20958494 0.18511568 0.18131803 0.15948752 -0.1554268 -0.16245535 0.22614841 0.2658725
지 0.029231314 0.20025373 -0.17123169 -0.20419636 0.045606352 0.08270999 0.20214924 0.050518226 -0.14411657 -0.18752229 -0.07720597 -0.014507124 0.18336792 0.22891168 -0.16638358 -0.17692976
있 -0.16005479 -0.09815768 0.1334599 0.106737584 0.17666432 0.18061627 -0.10639407 -0.22478049 0.1910414 0.087595284 0.16797683 0.16167878 -0.1870705 -0.10520753 0.1724142 0.12531917
없 0.05934981 0.27220622 -0.17260364 -0.17974177 0.03689147 0.05911207 0.23299307 0.10825212 -0.19631456 -0.24996251 -0.080505826 0.07034676 0.25241253 0.22729564 -0.2498941 -0.18089904
? 0.043488506 0.110808946 -0.10849944 -0.062518746 -0.05125991 -0.068125375 0.15322219 0.044219844 -0.05203616 -0.09437492 -0.018392611 -0.05430914 0.12187902 0.09569864 -0.10677324 -0.18555054
좋 -0.23308595 0.005930421 0.15532267 0.08930987 0.21702942 0.23536104 -0.07394397 -0.15832643 0.14906715 -0.01749286 0.22561918 0.23082079 -0.09668638 0.034685224 0.18945676 0.1970569
나 0.08482209 -0.07309259 0.055379406 0.03997232 -0.09635118 -0.24626689 -0.1524639 0.032796733 0.016041996 0.11130577 -0.0018213714 -0.062471107 -0.07874781 -0.13179424 0.04899289 0.10751101
었 0.05872337 0.08891987 -0.15757866 -0.10412192 -0.053548343 -0.012994235 0.11029592 0.13980989 -0.15581086 -0.16044103 -0.10982667 -0.056767978 0.083120115 0.1197722 -0.08057629 -0.104580715
만 0.12625843 0.16671996 -0.15663977 -0.1662728 -0.095266804 -0.06348923 0.113742925 0.15865836 -0.119144194 -0.0734913 -0.104654744 -0.10023065 0.10019629 0.10020971 -0.14346367 -0.124295466
는데 -0.03582034 -0.14706497 0.025958812 0.05514007 0.027973304 -0.05170617 -0.13988109 0.008972821 0.03974742 0.21066397 0.05600378 0.0051679234 -0.1008537 -0.19095224 0.08754677 0.1478169
너무 0.06620305 -0.2614606 0.06218975 0.16064031 -0.10027658 -0.22655484 -0.22750703 0.054033708 -0.026241701 0.31346527 -0.038788855 -0.16729197 -0.21687293 -0.27995053 0.14793661 0.0984421
봤 -0.25908864 0.041009415 0.17745948 0.19855213 0.2457827 0.21977802 0.015430543 -0.23071079 0.20201531 -0.018839365 0.21471788 0.27501458 -0.13974178 0.024511358 0.22442256 0.16507465
안 0.21456677 0.20518532 -0.13962299 -0.13146994 -0.061915394 0.031983208 0.22771306 0.2371105 -0.23711473 -0.18198146 -0.2102359 -0.1142462 0.22170936 0.23043853 -0.17278214 -0.2016446
적 -0.19545166 -0.11766044 0.20926704 0.14537759 0.18278097 0.09761045 -0.15319404 -0.21390674 0.2116248 0.07057022 0.15431342 0.15808146 -0.18320271 -0.09023408 0.20965543 0.17798989
정말 -0.21851562 -0.3317669 0.27981633 0.26899666 0.24666208 0.27201122 -0.3176812 -0.27776992 0.196291 0.30149135 0.15511547 0.23083039 -0.27363747 -0.2950414 0.33174866 0.39193574
로 -0.021005647 0.20021631 -0.21315485 -0.19330333 0.15586974 0.14272657 0.22272447 0.048806135 -0.16790645 -0.24620998 -0.08925223 0.119015045 0.24842633 0.21847072 -0.19528809 -0.18428837
음 -0.041384857 -0.018558621 0.013438564 0.09142688 0.038613737 0.08565185 -0.03751392 -0.07297146 0.030032381 0.05006641 0.07378448 0.022703545 -0.04093296 -0.07478246 0.053732343 0.056417044
것 0.022965254 -0.30294308 0.08265105 0.2161901 0.012396329 -0.058263455 -0.24054155 -0.021099517 0.12703341 0.27896398 -0.014955409 -0.009157274 -0.19051135 -0.34394392 0.16084597 0.207711
아 0.32415116 0.063533925 -0.09719069 -0.017428352 -0.25168502 -0.31911236 0.0033843182 0.26378983 -0.16840263 0.013189343 -0.26046216 -0.25388417 0.018853676 0.04880958 -0.099255435 -0.11594991
네요 -0.15619372 -0.077807136 0.16272116 0.1331108 0.1942483 0.17659464 -0.01586656 -0.18649665 0.122790255 -0.04219459 0.17127737 0.18888046 -0.11826078 -0.019795272 0.12816651 0.17702796
재밌 -0.17650734 -0.09586289 0.12131949 0.090969995 0.22978428 0.215547 -0.08638553 -0.22869718 0.15367573 0.059609797 0.20248716 0.23271215 -0.08379685 -0.09989538 0.16336018 0.10872195
어 0.14479426 0.051978525 -0.089451656 -0.09272947 -0.15092413 -0.12888764 -0.0037482511 0.10234995 -0.07158483 -0.03949766 -0.12328537 -0.1392591 0.009182051 0.030140439 -0.04296594 -0.06651472
같 -0.1615542 -0.031293143 0.12966354 0.119150266 0.14624351 0.20019588 -0.01353932 -0.19367263 0.14631106 -0.0067378636 0.16733651 0.18938462 -0.07347464 0.0558362 0.1920382 0.12806956
점 -0.021898018 -0.110565 0.051849294 0.031170128 0.006276946 0.009302868 -0.034002982 0.015544719 0.07006885 0.03741299 0.00989246 0.011334986 -0.09960073 -0.0453283 0.08141273 0.028868094
진짜 0.08401624 -0.25291336 0.040056393 0.11466622 -0.1370368 -0.24701138 -0.19886197 0.026788212 0.020499758 0.24519603 -0.0022348408 -0.17821822 -0.15360989 -0.17556253 0.08482347 0.065807335
지만 -0.03519801 0.19329531 -0.16546933 -0.18716264 0.12983975 0.13074005 0.17220463 0.079383336 -0.17365734 -0.18242845 -0.0630264 0.05971205 0.19075125 0.2054278 -0.16050297 -0.21716183
했 0.04518595 -0.03579719 0.035134744 0.005814232 -0.016992915 0.047879722 0.0069322586 -0.023155713 0.03551117 -0.037913274 0.0027834661 0.00027931854 0.04592191 -0.029838074 0.045775805 0.025256727
에서 0.063264534 -0.13522841 0.0053519662 0.073447786 -0.07083083 -0.05935194 -0.08243108 -0.019703746 0.03432127 0.14922297 -0.020988151 -0.008654812 -0.047110844 -0.12458402 0.014262798 0.037152603
기 -0.06523035 0.39585385 -0.33853257 -0.3596908 0.19820741 0.27385467 0.35188973 0.010368195 -0.32938012 -0.3791936 -0.029504612 0.19710553 0.41480708 0.42797318 -0.43729475 -0.3803306
네 0.035008002 0.009752177 -0.027026968 -0.00312909 -0.06389484 -0.08167152 0.01394428 0.034394592 0.0054441984 0.03222948 -0.082264476 -0.03071064 -0.0079449555 -0.04696948 0.017593166 -0.019451853
않 0.09009652 0.08673448 -0.102513105 -0.101416446 0.17200589 0.1263757 0.08866103 0.08593701 -0.13186793 -0.11938157 -0.04959051 0.117871635 0.09259033 0.14253402 -0.13997276 -0.08678763
거 0.18115082 0.042359006 -0.13441946 -0.07184923 -0.1707599 -0.17175032 0.027593756 0.21867271 -0.0809482 -0.034413792 -0.19281429 -0.18001276 0.078383945 0.02980432 -0.11000151 -0.10818498
았 -0.047210168 -0.03548596 -0.019653654 0.029666256 0.02683815 -0.033042707 -0.0006425008 0.010142218 0.0354445 -0.015113771 0.022169817 0.029794779 -0.0037750117 0.041875567 0.033149805 0.045592915
수 -0.1954791 -0.3235484 0.24597378 0.2720315 0.23656166 0.28494194 -0.2679594 -0.27028808 0.2531241 0.23344131 0.1822867 0.19111937 -0.2771846 -0.30428103 0.2719299 0.2990354
되 -0.25990406 -0.028536491 0.21768248 0.08605935 0.26706982 0.23041919 -0.06490416 -0.2342998 0.25819337 0.018837525 0.18569958 0.25399324 -0.12340889 -0.026999177 0.21303594 0.21957996
면 -0.12231082 -0.05874494 0.15758574 0.10466215 0.20157662 0.10423324 -0.024784822 -0.19830652 0.17038655 -0.0070013087 0.13482353 0.14208557 -0.15328231 -0.031211337 0.1421416 0.10606196
ㅋㅋ -0.12013492 -0.27069715 0.13666905 0.17558497 0.0063313064 0.03267323 -0.18602322 -0.12725434 0.085314676 0.24140994 0.027770469 0.00536633 -0.16561 -0.25476778 0.21264744 0.20431645
연기 -0.078360274 -0.3123304 0.18426003 0.24387002 0.09086676 0.21207727 -0.2261401 -0.19826631 0.16611776 0.22395134 0.14362839 0.08102024 -0.27619773 -0.29206434 0.23869754 0.23874786
말 0.055363946 -0.1787154 0.00043066588 0.06697048 -0.18438376 -0.2047421 -0.06945218 0.13194121 -0.029936466 0.16967285 -0.07282629 -0.13516694 -0.11982493 -0.13176599 0.046107233 0.06665324
인 0.017419733 -0.11249915 0.02160278 0.048355546 0.020129826 -0.019314557 -0.07825652 -0.0028202578 0.09345424 0.13891087 0.037184447 -0.049796198 -0.13269798 -0.08543283 0.11695159 0.057869714
주 -0.042698286 0.35877985 -0.3081698 -0.2923318 0.09942993 0.23972154 0.38970914 0.03725567 -0.26679987 -0.35262287 -0.049832545 0.16896196 0.29804233 0.4054109 -0.35418537 -0.35137144
최고 -0.4537722 -0.16329823 0.32598385 0.22998601 0.47788307 0.56549996 -0.15532759 -0.5133501 0.33346406 0.05558477 0.3191948 0.4201311 -0.20884185 -0.13179414 0.39231056 0.44158617
평점 0.07865419 0.05002409 -0.032777835 -0.012158767 -0.093094565 -0.14042202 0.047689144 0.10319332 -0.050706785 -0.10414075 -0.021436919 -0.09873483 0.011255584 0.07797234 -0.08439926 -0.10570179
내 0.015057432 -0.19308224 0.07870666 0.087584786 -0.21414262 -0.32833776 -0.15507604 0.028962644 0.0317934 0.10588316 -0.023525018 -0.12585278 -0.092836596 -0.17316778 0.11385272 0.08924023
~ -0.0038776207 -0.2540143 0.06419021 0.0883346 0.061152305 0.012888238 -0.13919616 -0.06639508 0.12689492 0.18421632 0.076642424 0.08063945 -0.12178917 -0.16795515 0.16113241 0.123684876
이런 0.36623782 0.05304444 -0.20939375 -0.07971377 -0.26204064 -0.24058188 0.036097314 0.37563387 -0.27210167 -0.023590626 -0.2646476 -0.2738141 0.10759088 0.063786685 -0.17375478 -0.18517412
던 0.068105236 0.13490297 -0.11413852 -0.044186983 -0.07599114 -0.038236268 0.09880206 0.051312383 -0.10032133 -0.09306376 -0.07725628 -0.08166535 0.12114572 0.06525569 -0.07385691 -0.12001675
어요 -0.004146792 -0.011342704 -0.03236842 0.02820338 0.008364737 -0.011914812 -0.048785437 0.048830334 0.021160115 0.040658858 -0.045009222 -0.045411017 0.029394772 -0.0050273053 0.034848813 0.007982768
왜 0.27430627 0.15661107 -0.17396949 -0.20368738 -0.08655697 -0.0934688 0.206814 0.38425708 -0.28122282 -0.16206954 -0.23262472 -0.15282634 0.1621739 0.24675441 -0.16960022 -0.20507003
할 0.18635367 -0.006178724 -0.09572182 -0.026421016 -0.27734435 -0.2688504 0.014939859 0.1753278 -0.14151692 0.03989462 -0.16005322 -0.23596895 0.044650476 -0.051527396 -0.018629346 -0.049718324
겠 -0.01349159 -0.094307296 0.08095609 0.097151615 0.06962421 0.023348492 -0.07251178 -0.08219536 0.021820437 0.040181138 0.085912816 0.075936 -0.07910657 -0.096391365 0.06802201 0.067840986
1 0.04280381 0.119512 -0.027156465 -0.08782618 -0.04670759 -0.0149389235 0.041657377 0.084827915 -0.1074908 -0.105760016 0.004536733 -0.06877248 0.053786542 0.04577885 -0.051461745 -0.086139746
해 -0.046921626 -0.13743356 0.031622753 0.08638306 -0.051983222 -0.021325007 -0.14519046 -0.018676693 0.023120675 0.14605705 0.008675931 -0.035515625 -0.15253496 -0.12409612 0.08189215 0.047575954
스토리 0.16524923 0.1530123 -0.14071748 -0.104708105 -0.11317228 -0.11362343 0.11119762 0.317469 -0.23512053 -0.11467184 -0.21044181 -0.15199517 0.1963095 0.18098351 -0.23302905 -0.23768163
습니다 -0.0923078 -0.14943704 0.10626463 0.095925495 0.124864355 0.14735398 -0.10133389 -0.15323453 0.13606858 0.11262593 0.09042384 0.090136416 -0.084724136 -0.13529189 0.13280173 0.16639574
ㅋㅋㅋ 0.030326981 -0.16529042 -0.01516868 0.06016379 -0.16458464 -0.1428179 -0.07042974 0.06834039 0.015817164 0.12071541 -0.068066224 -0.107115254 -0.08660692 -0.14300624 0.055634454 -0.0057765427
... 0.20384389 0.024944317 -0.092925385 -0.1100003 -0.23329747 -0.2835227 0.030222468 0.2651777 -0.15346897 -0.02419788 -0.16342139 -0.22145633 0.09142895 0.100046545 -0.10676589 -0.08400863
아니 0.19317883 0.11358339 -0.15152258 -0.06290134 -0.18528946 -0.16760615 0.047205288 0.26857686 -0.14727792 -0.056702185 -0.14130224 -0.21795936 0.09867564 0.1198999 -0.13496146 -0.16686791
생각 -0.03965269 -0.15485924 0.07521359 0.10363056 0.039911732 -0.029726235 -0.16680138 -0.058403254 0.082535364 0.21620466 0.005306066 0.0064920005 -0.17495368 -0.17362395 0.1272802 0.18576354
더 0.01731909 -0.22865547 0.12879467 0.112677515 -0.034996178 -0.19039802 -0.16588393 -0.009829612 0.0853735 0.2427181 -0.01882935 -0.032684345 -0.123919465 -0.22629893 0.11376468 0.12004348
그 0.0058296137 -0.26697308 0.06397875 0.13066186 -0.076888375 -0.031834606 -0.2444646 0.03320584 0.096454576 0.34063393 -0.022692615 0.013069905 -0.20363283 -0.29864904 0.13502929 0.14966771
드라마 0.014729559 -0.3456948 0.12352513 0.22021058 -0.08198718 -0.02752026 -0.25954494 -0.066140324 0.105149 0.23914415 -0.021276385 0.0040050847 -0.20400143 -0.30764395 0.1570682 0.226921
싶 0.10688678 0.090664916 -0.14114688 -0.08354227 -0.07942111 -0.072843276 0.16908167 0.11690626 -0.09263659 -0.12543854 -0.10074526 -0.11725823 0.08517062 0.11503894 -0.107118495 -0.08103992
사람 0.089303784 0.073072836 -0.03938278 -0.09964548 -0.093148835 -0.08848277 0.040372223 0.13722315 -0.04877371 -0.028258821 -0.061375782 -0.12345817 0.06149028 0.09865369 -0.061702907 -0.09577574
듯 0.1736223 0.112542294 -0.11027553 -0.032955002 -0.15455227 -0.19713864 0.075198956 0.16579698 -0.15316598 -0.033052653 -0.09285171 -0.14622402 0.10343237 0.061165757 -0.08766776 -0.12853107
때 -0.12759545 -0.18619932 0.17930047 0.20684679 0.13755816 0.12617382 -0.14205323 -0.15475504 0.1635141 0.18363756 0.15686925 0.14160267 -0.17539789 -0.18009582 0.16251089 0.19902518
감동 -0.3376749 -0.22236408 0.38251743 0.31127155 0.32102013 0.48991248 -0.13832517 -0.44972548 0.3701074 0.07259773 0.36384133 0.38547146 -0.19920164 -0.20687251 0.37451977 0.48048148
배우 0.060245197 -0.047488745 -0.010155092 -0.020017942 -0.08343163 -0.08408423 -0.08511808 0.05329291 -0.013965741 0.09494955 -0.063781105 -0.06550921 6.393077e-05 -0.09789333 0.03802443 -0.02812079
함 0.012257722 -0.18404196 0.019466164 0.038533363 -0.032556575 -0.13228384 -0.14573573 0.05695367 0.046645448 0.20887531 0.023419885 -0.04991935 -0.06883099 -0.16294251 0.07915771 0.07255615
까지 0.049849685 -0.23649038 -0.030997671 0.052547894 -0.1517093 -0.19301164 -0.18041919 0.119023874 0.02077306 0.20288806 -0.11659096 -0.09351367 -0.14978552 -0.18052632 0.03314109 0.089321315
본 -0.12056379 -0.40544802 0.15409738 0.2880335 0.10139634 0.06564654 -0.35419372 -0.1484381 0.17701861 0.32320964 0.10415202 0.10546611 -0.23660402 -0.32254547 0.23298548 0.2726308
볼 0.15940993 -0.07547838 0.015745465 -0.026009686 -0.24538045 -0.25221637 -0.09923982 0.106747925 -0.028597904 0.072804846 -0.080555804 -0.2259968 0.0149292 -0.08964295 -0.030889861 -0.03914363
내용 0.17365013 0.18581375 -0.2263585 -0.17429838 -0.14129224 -0.13103895 0.2019486 0.2419529 -0.3525615 -0.1428188 -0.19298983 -0.17433766 0.19993185 0.1502372 -0.21417725 -0.29994327
보다 0.23792352 0.2139441 -0.23088363 -0.12976319 -0.10449053 0.054511845 0.22621943 0.23021543 -0.28015363 -0.22736333 -0.2617743 -0.12228702 0.14934784 0.24071886 -0.18058647 -0.20445335
만들 0.038032208 0.29358077 -0.26009548 -0.2159383 0.019034667 0.06112477 0.21512827 0.1331936 -0.21885793 -0.23334438 -0.07342883 0.05615644 0.28222203 0.31178245 -0.26106998 -0.26666465
뭐 0.18076812 0.32566294 -0.35627222 -0.26386583 -0.0410587 0.076686636 0.22205836 0.2939648 -0.39806747 -0.24977219 -0.19019887 -0.051297996 0.30770746 0.2608643 -0.33349046 -0.38627616
알 0.16472371 0.16271527 -0.26260284 -0.1464492 -0.15525956 -0.13047181 0.1508035 0.2660095 -0.22175275 -0.10701501 -0.16429754 -0.12261563 0.123314016 0.13248156 -0.23995875 -0.19513017
감독 0.20016617 0.23695788 -0.3374988 -0.19703169 -0.05873781 -0.005614355 0.20785539 0.3061109 -0.44831663 -0.2584925 -0.23328947 -0.039892346 0.24585876 0.22982077 -0.23182262 -0.29861686
라 3.933438e-05 -0.10459796 0.07163816 0.112397276 -0.11634564 -0.117027745 -0.10983304 0.0954502 -0.030222954 0.1485571 -0.0665662 -0.06768032 -0.10525116 -0.1433195 0.06668198 0.04773153
그냥 0.1913487 0.24230771 -0.25620562 -0.18041545 -0.06713818 0.1052975 0.2721197 0.3181421 -0.27185363 -0.24165714 -0.30379137 -0.063654095 0.27419487 0.22662239 -0.21123517 -0.24947032
재미 0.16236821 0.14347473 -0.16977544 -0.19825307 -0.11352623 -0.16385852 0.1620224 0.2787756 -0.30507588 -0.12255367 -0.17906828 -0.16442114 0.15560564 0.13651139 -0.20984341 -0.1923249
중 0.014902465 -0.255132 0.07680693 0.10059267 -0.096501626 -0.07298095 -0.16513059 0.030891612 0.062675744 0.21575586 -0.005260722 -0.06252041 -0.18105663 -0.28135678 0.11539493 0.100073494
시간 0.22591645 0.3204618 -0.3143954 -0.28596476 -0.07902253 0.11901607 0.28613004 0.315202 -0.37365088 -0.2533443 -0.26989812 -0.0036503565 0.26751775 0.31388563 -0.31181645 -0.3191783
지루 -0.053909816 0.33895957 -0.24989572 -0.26750463 0.18468566 0.23627967 0.23919299 -0.05623083 -0.25536847 -0.28095627 -0.008216187 0.09870389 0.25298196 0.32606807 -0.30338812 -0.3210174
재미있 -0.11127474 -0.058017008 0.12767582 0.12919727 0.15841646 0.18541606 -0.09961962 -0.09214768 0.101578966 0.027060844 0.13021362 0.13895997 -0.058438975 -0.13599758 0.10753903 0.14878218
년 -0.055432897 -0.046922453 0.058005646 -0.0050346763 0.062127892 -0.005358817 -0.014209226 -0.003090152 0.0084735425 -0.027420435 0.06671723 0.03023065 0.0053080367 -0.027255697 0.06577883 0.04301264
였 0.016452562 -0.046544816 -0.040625345 -0.047089603 -0.0027263872 -0.005239643 0.018544737 0.016606119 0.010294389 -0.049929895 0.043708336 -0.0015390031 -0.028045261 0.03141539 0.038282204 -0.014438845
10 -0.13228928 -0.10061486 0.08940327 0.080008335 0.11595616 0.12924962 -0.09037627 -0.13224466 0.058685556 0.04961385 0.1058763 0.08050342 -0.0675123 -0.06672602 0.04670707 0.08873483
잼 0.21672074 -0.004148141 -0.04193938 -0.051781878 -0.2801758 -0.21728691 0.055859365 0.17002012 -0.12946446 0.002452189 -0.16950189 -0.29220226 0.04015357 -0.019451996 -0.109770425 -0.052647714
사랑 -0.19281968 -0.16238812 0.21510097 0.21301717 0.21830547 0.20353118 -0.16727583 -0.2358281 0.26000667 0.15695201 0.19505523 0.2080942 -0.15941244 -0.18756968 0.336892 0.31920815
냐 0.017812291 0.15986517 -0.094582245 -0.16239654 -0.0075727343 0.10204714 0.121866815 0.07277106 -0.07693938 -0.10415219 -0.03771918 -0.016152928 0.12935191 0.15712303 -0.15992688 -0.10703599
못 0.12699309 0.20371988 -0.10938943 -0.13510355 -0.0038188903 0.065843314 0.13162267 0.1057835 -0.06057913 -0.12734565 -0.057097122 -0.0137881385 0.1562114 0.16448186 -0.1588917 -0.12599045
재미없 0.17237547 0.14660498 -0.1450271 -0.16374522 -0.10975985 -0.0679256 0.12189911 0.1521704 -0.07996098 -0.10824591 -0.15108787 -0.07817758 0.116990454 0.08092195 -0.12887062 -0.09778574
서 0.15853463 0.033047933 -0.10994618 -0.04592588 -0.19206809 -0.16573972 0.07179954 0.19385436 -0.11063693 -0.016404025 -0.14122558 -0.21897174 0.08242853 0.048727114 -0.077859335 -0.05820184
쓰레기 0.058897942 0.56097984 -0.340992 -0.37771153 0.13357992 0.43380904 0.36901972 0.23720804 -0.36813655 -0.44823766 -0.2601671 0.16159701 0.36858526 0.442996 -0.4267978 -0.5216223
2 -0.15114674 -0.19289577 0.1844631 0.11682889 0.1340407 0.10810116 -0.10535061 -0.10595559 0.100951985 0.108807325 0.12799051 0.1467422 -0.117070034 -0.11809707 0.18514463 0.19381693
라고 -0.06165796 0.08087788 -0.07699293 -0.10737051 0.03905279 0.1293474 0.09938937 -0.04664879 -0.062302206 -0.05528449 0.039807897 0.015291536 0.060980268 0.054386158 -0.09345887 -0.02219598
번 -0.17029613 -0.24043697 0.15968989 0.23681214 0.09352729 0.16651525 -0.21915294 -0.20488347 0.20397355 0.18169326 0.1836397 0.12485421 -0.19420633 -0.21523868 0.23987833 0.24636224
야 0.09675706 -0.010770834 -0.004861174 -0.056209803 -0.13986188 -0.12370287 0.017383462 0.12729463 -0.05293654 -0.02370793 -0.055986926 -0.15167291 0.03861958 0.029331323 -0.029420173 -0.042754225
면서 -0.040991057 0.043902505 -0.015847065 -0.027628934 -0.033070672 0.0069047697 -0.014473595 -0.03413836 0.0027009621 0.0353346 -0.041543473 0.03192622 0.000187397 -0.0074773915 -0.03061887 0.017284099
다시 -0.27678198 -0.3094798 0.2913561 0.28338403 0.27566233 0.3691729 -0.25750542 -0.3004878 0.22741508 0.23845112 0.25010642 0.26674318 -0.3236344 -0.31142578 0.40352264 0.41041505
니 0.12844686 0.09724113 -0.15974267 -0.087974094 -0.10940731 -0.099670164 0.10362852 0.13714415 -0.10197282 -0.1180871 -0.11592269 -0.067296244 0.117795415 0.061195593 -0.1458129 -0.16042517
나오 0.03577305 0.033187572 -0.028441941 0.04229195 0.04393932 0.032531526 -0.040000547 0.02077135 0.006238736 0.03449491 0.0039234273 -0.013824262 -0.0121792555 -0.0074689016 0.045091223 -0.04362155
작품 0.017113313 -0.28481737 0.0728608 0.13660027 -0.00394037 -0.058340054 -0.24555974 0.030366108 0.017034344 0.22271271 -0.02790273 -0.016877161 -0.11903997 -0.24440084 0.07388532 0.07590149
이거 0.22110514 0.011097595 -0.1261128 -0.091426164 -0.2853483 -0.25438738 0.004900738 0.2607495 -0.11160346 -0.035224445 -0.27085155 -0.31248474 0.08256196 0.052117635 -0.06882654 -0.07147549
하나 0.20447944 0.06809007 -0.14374223 -0.083200976 -0.20902413 -0.1505314 0.040451847 0.28604656 -0.09444348 -0.035269782 -0.18428512 -0.21788384 0.08200109 0.090673484 -0.048711687 -0.08543958
해서 0.15663795 0.15905632 -0.14363283 -0.16988721 -0.08405024 -0.036373135 0.16483666 0.24224526 -0.1886142 -0.14632499 -0.20408426 -0.15025549 0.09117138 0.11535535 -0.12941691 -0.1762315
줄 0.04803201 0.08772781 -0.018800749 -0.037438247 -0.03319762 -0.09754487 0.08538408 0.028982589 -0.06468009 -0.015579955 -0.00047313966 -0.0066999537 0.037997723 0.050190944 -0.03193718 -0.05344916
개 0.1778545 0.27469814 -0.28794712 -0.19355702 0.0121881645 0.12600137 0.22712167 0.23470436 -0.35544544 -0.28314894 -0.19697903 0.0032747523 0.29804745 0.27844325 -0.2548676 -0.31847578
끝 0.008512408 0.3353905 -0.23702109 -0.20351517 0.11014003 0.12330603 0.24741812 0.11723894 -0.22380364 -0.23532894 -0.08465587 0.01992302 0.25671887 0.30924922 -0.306971 -0.30136326
남 0.18624382 0.04703001 6.2898034e-05 -0.052065425 -0.20561801 -0.19612229 0.035938133 0.11426154 -0.063782856 0.014109674 -0.15028295 -0.19633986 0.04950721 0.034711607 -0.06928325 -0.033066314
정도 0.2774445 0.08527848 -0.11518627 -0.066004924 -0.24829522 -0.22091644 0.045514654 0.3628919 -0.24134937 -0.0076608057 -0.29665852 -0.29544538 0.04189625 0.020919114 -0.13158756 -0.11917326
마지막 -0.19490623 -0.32498565 0.18766528 0.24255984 0.18359174 0.23866668 -0.22599345 -0.2621202 0.22330621 0.1838708 0.19422641 0.2098418 -0.31193015 -0.2595516 0.3116785 0.3010168
이건 0.23861982 0.21705605 -0.26758087 -0.25240755 -0.005429958 0.20088473 0.27743855 0.34200466 -0.28425804 -0.25097573 -0.33470792 -0.020196466 0.25707403 0.24226199 -0.2471985 -0.29591262
임 0.2302463 0.15939425 -0.14523892 -0.12125951 -0.11613764 -0.16683996 0.10299497 0.2559442 -0.18231474 -0.106123865 -0.1597364 -0.16215912 0.109965935 0.09036741 -0.18541032 -0.21573344
액션 -0.043311574 -0.21634151 0.09171769 0.15208773 -0.03229232 -0.031007739 -0.20808865 -0.01524104 0.07048518 0.2501487 0.034368858 -0.05043795 -0.17430252 -0.24414727 0.0916779 0.08925849
기대 -0.11948698 -0.05215753 0.09445648 0.042456422 0.109354846 0.113073714 -0.02725941 -0.15895092 0.099394396 0.07645639 0.11380823 0.12688471 -0.096341036 0.0012434399 0.09959018 0.102015756
분 -0.039051767 -0.19710901 0.10455334 0.12337474 0.022685507 0.020403024 -0.12409469 0.021645905 0.07842256 0.14202163 -0.010755861 0.016552893 -0.1267919 -0.20946 0.13272499 0.05574528
라는 0.12912722 -0.0899671 -0.060648598 -0.043159295 -0.24043852 -0.26877573 -0.065538906 0.12946506 -0.02167162 0.057941332 -0.093109466 -0.18632439 -0.017567711 0.0003102586 -0.021976098 -0.04598841
ㅋ -0.04080573 -0.21486779 0.088002466 0.14888111 -0.008829349 -0.008366386 -0.22429816 -0.071811855 0.13117999 0.2287503 0.030590888 -0.01768658 -0.21305571 -0.28246406 0.1895832 0.1926127
3 0.09386741 -0.09570672 0.027160417 -0.006862914 -0.07076586 -0.1949103 -0.09826233 0.04733867 -0.0056670443 0.10784816 -0.073982276 -0.097091876 -0.06438345 -0.05974784 0.06869953 0.023024097
다는 0.00542823 0.009044694 -0.016008772 -0.04831809 0.07469481 0.06579233 0.06427469 -0.052648544 -0.051031638 0.024141196 -0.005270595 0.017921297 0.023971993 0.011800682 0.01355661 0.026043423
입니다 -0.14045003 -0.11018386 0.15188617 0.111589245 0.19048658 0.18371864 -0.10172959 -0.11509846 0.10112807 0.0770165 0.15160236 0.117560394 -0.05544064 -0.1096734 0.1335419 0.12231936
건 0.1961925 0.13872914 -0.19083177 -0.12808682 -0.08316364 -0.09624427 0.19339284 0.25153866 -0.16294228 -0.1837181 -0.14371376 -0.11277809 0.1632742 0.115407035 -0.1890657 -0.24108003
완전 0.054693114 -0.20888372 0.059226636 0.10160261 -0.04818281 -0.19396265 -0.14948994 0.014200506 0.0514881 0.2688414 -0.012713538 -0.049285863 -0.08429886 -0.19639961 0.0654358 0.13165803
많 0.017158363 0.026230041 0.0460116 0.007064473 -0.006834388 -0.012332581 -0.002106905 0.001724314 0.0137789585 0.028678302 -0.015774526 0.04207046 -0.030062199 0.024131749 -0.0471321 -0.021964729
참 -0.032150418 -0.24103871 0.120806 0.15857656 0.033743497 -0.035645917 -0.2183928 -0.065989606 0.108217135 0.28154808 0.02159428 -0.007451406 -0.21552163 -0.24028814 0.17883515 0.20062347
처음 0.2828963 0.028342258 -0.11782855 -0.063712746 -0.2968127 -0.3138402 -0.017695818 0.25597855 -0.15837549 0.014929822 -0.17905954 -0.33539718 0.05636494 -0.029534675 -0.022227151 -0.029936362
장면 0.055767216 -0.20300607 0.0813516 0.15653539 -0.056491148 -0.08821411 -0.18846084 -0.015431354 0.0070053153 0.26218984 -0.0026933367 -0.04783374 -0.16689774 -0.1980074 0.053307317 0.12670782
대 -0.004234024 -0.05308035 0.00044513645 -0.04720803 -0.029133517 -0.0694954 0.015598574 0.08563393 -0.023452695 -0.016382454 -0.07454532 -0.061525814 0.03350207 0.0015123956 0.03843818 0.034108788
으면 -0.033255555 0.028911818 0.039592315 -0.04884653 0.03349525 -0.0079838745 0.049095858 0.010659326 -0.035123706 -0.04059895 -0.024943173 -0.040588558 -0.04170059 0.04117075 -0.0042008385 0.036898997
다가 0.056914475 -0.06849643 -0.024830395 0.020037677 -0.17984404 -0.21360901 -0.06703297 0.052376933 -0.011904835 0.06765417 -0.06491098 -0.10552843 -0.02350925 -0.13234837 0.060272243 0.0011937855
아깝 -0.051917892 0.34819755 -0.26861775 -0.33847702 0.15633593 0.13498056 0.3661909 -0.008151362 -0.29791987 -0.34689945 -0.029989265 0.12466674 0.27956182 0.3176821 -0.32661715 -0.39494923
지금 -0.080618456 -0.2609911 0.15400442 0.16753736 0.1360424 0.1410186 -0.21629322 -0.077702954 0.14678445 0.18983467 0.12456685 0.10085761 -0.2348905 -0.1812259 0.2160079 0.2340947
이렇게 0.180798 0.004531135 -0.073175 -0.059545808 -0.22550996 -0.11834672 0.04898923 0.21752338 -0.10302296 -0.07864077 -0.1683178 -0.19393153 0.018717231 0.016519751 -0.07061824 -0.057600435
모르 -0.014349926 -0.031276632 0.034040954 0.0026057959 0.03207164 -0.01893506 -0.015981447 -0.03819226 -0.0067124143 -0.042857982 0.03180212 0.046315778 -0.02304932 0.04102372 -0.049161196 -0.02200904
편 0.13005039 -0.12180796 0.03976299 0.03414102 -0.18449418 -0.2477925 -0.020898217 0.11483196 0.006362003 0.13707393 -0.05530117 -0.13501123 -0.012769839 -0.07520277 -0.0114118485 -0.0042233863
' 0.055827625 -0.09138901 0.06590606 0.021657554 -0.0719222 -0.09244141 -0.06499632 0.0019648508 0.05757148 0.082542405 -0.06569002 -0.032194052 -0.06940243 -0.07364321 0.07215321 0.075603284
이게 0.20291583 0.18893722 -0.14279523 -0.1140921 -0.05334408 0.06630329 0.19137362 0.284672 -0.1584249 -0.23774303 -0.24746667 -0.056838077 0.18049966 0.1738413 -0.20901172 -0.2214836
일 0.020117749 0.10050968 -0.011733592 -0.040354915 0.0784172 0.024438849 0.03950649 0.017631136 -0.011905138 -0.06947062 0.031322822 0.05568683 0.056991495 0.083672196 -0.091312736 -0.079077005
돈 0.08851907 0.41101724 -0.30673 -0.30734673 0.014636286 0.16492212 0.3334997 0.23369475 -0.36120048 -0.32594496 -0.21395564 0.052820705 0.29401267 0.38049582 -0.30616185 -0.3689524
성 0.050670892 0.13964115 -0.14078529 -0.14491153 -0.0032913242 0.044768687 0.15402855 0.056598045 -0.16439897 -0.14200714 -0.060660806 0.02209335 0.14957613 0.19219524 -0.15737723 -0.11965277
시 -0.010625807 -0.21629822 0.06717995 0.1355695 -0.042552855 -0.0036417686 -0.14475718 -0.043310124 0.030478992 0.14027491 0.033294994 -0.0011717184 -0.085971616 -0.17919822 0.06988194 0.07749782
이야기 0.043727573 -0.22765097 -0.02123516 0.043762095 -0.114418015 -0.13958772 -0.1705346 0.04563162 0.006865649 0.2725302 -0.0990279 -0.092056826 -0.07729071 -0.24902509 0.11237232 0.04623975
느낌 0.23063864 0.04250212 -0.12684315 -0.062170368 -0.28016913 -0.3235676 -0.042690795 0.26451448 -0.12171158 -0.03392547 -0.22272867 -0.30111417 0.018327136 0.008465583 -0.018667042 -0.025754979
최악 -0.03291431 0.5258397 -0.36802337 -0.43647406 0.19204372 0.4303722 0.4146046 0.04371441 -0.40705997 -0.4458766 -0.114689514 0.23719193 0.41314152 0.47487774 -0.50497264 -0.5574108
된 -0.07444746 -0.23038419 0.1970241 0.22266145 0.07773432 0.12940632 -0.2092905 -0.104071625 0.17726512 0.22168714 0.15460537 0.06780641 -0.21026158 -0.19905089 0.21223664 0.2148652
님 0.04389588 0.17879133 -0.099087834 -0.18386126 0.043200534 0.060203023 0.1839137 0.041959647 -0.1109735 -0.17294514 -0.11871677 0.0066563617 0.10467929 0.19820781 -0.15089992 -0.1975302
봐도 -0.24194326 -0.26288888 0.2734805 0.25841382 0.21638598 0.21816133 -0.23925254 -0.2662613 0.2975659 0.18640721 0.24296603 0.24138196 -0.21599516 -0.23165923 0.37823096 0.40684864
어서 -0.10442424 -0.116585836 0.063868776 0.0726271 0.08226304 0.029408438 -0.15995048 -0.09108625 0.058982614 0.0861436 0.018030161 0.08245427 -0.094741665 -0.09120033 0.14162628 0.07282452
애 0.004046475 0.20105979 -0.15503852 -0.15719502 0.07478133 0.14661965 0.19392046 0.03662799 -0.15827826 -0.22402757 -0.06977735 0.038622085 0.12184348 0.21783668 -0.13100477 -0.1283801
ㅠㅠ -0.114554994 -0.19575542 0.15931901 0.18977569 0.11963221 0.14186871 -0.1561894 -0.13197331 0.094536476 0.20813362 0.12193982 0.1297591 -0.22300792 -0.25928172 0.15968587 0.21052094
전 -0.06952626 -0.1932608 0.16221887 0.21802478 0.1384665 0.12628265 -0.1879137 -0.14546217 0.15586342 0.22159311 0.14546272 0.069866315 -0.20881689 -0.17896418 0.26461637 0.2424786
다고 -0.039962042 0.01416019 -0.041838896 0.02344716 0.045089725 -0.031703435 0.043902878 -0.014751971 -0.049702656 -0.03549198 0.0038052686 -0.047704436 0.003092669 -0.028359665 -0.04187373 0.023793291
이해 0.17416026 0.13708578 -0.14751028 -0.078771025 -0.19176285 -0.13002418 0.14761752 0.27580914 -0.20999654 -0.11771665 -0.25458783 -0.2161948 0.11992832 0.08047532 -0.094655015 -0.11810558
넘 -0.21222149 -0.29996735 0.2628448 0.27051273 0.25522095 0.30953154 -0.26328567 -0.20044103 0.19850148 0.25276563 0.19359908 0.24433167 -0.29636854 -0.26344308 0.31691775 0.3222696
인데 0.060041618 0.16408974 -0.0785526 -0.12466008 0.05133599 0.014334234 0.10910963 0.08703324 -0.06796647 -0.10115634 -0.010901433 0.045668665 0.062405977 0.14210673 -0.12090436 -0.108892746
별로 0.08715443 0.37629944 -0.24219233 -0.24421363 0.10903441 0.23889947 0.29624188 0.21490046 -0.2221617 -0.35586095 -0.18940666 0.12825051 0.32830688 0.33173352 -0.31660858 -0.34353408
여자 0.1651466 0.12667131 -0.1347428 -0.06487545 -0.115548976 -0.09503977 0.12806213 0.14265633 -0.09526472 -0.10163039 -0.16803125 -0.14988478 0.11999995 0.08328043 -0.09817061 -0.15864182
이상 0.21674113 0.07460934 -0.1310611 -0.08694111 -0.19937873 -0.22064367 0.057276145 0.31690067 -0.27025637 -0.056639098 -0.25136587 -0.22782882 0.13197441 0.08722105 -0.15724011 -0.18443681
명작 -0.4359687 -0.0865946 0.3342018 0.27014777 0.4297229 0.53881526 -0.14199528 -0.4859926 0.39967272 0.036723606 0.41435084 0.44715992 -0.20613962 -0.11029794 0.41817448 0.41492745
^^ -0.34020615 -0.16270848 0.21595928 0.20858654 0.2789492 0.37295964 -0.14597136 -0.36211276 0.27660477 0.10846871 0.22348253 0.285934 -0.16810495 -0.12027999 0.30244055 0.3381645
역시 -0.24410671 -0.31722397 0.17396656 0.25155675 0.2505673 0.24919678 -0.26096818 -0.25340423 0.2647766 0.23198906 0.18383461 0.26228163 -0.24174792 -0.33349192 0.3446119 0.35048437
난 -0.15028128 -0.18434885 0.13443696 0.12527479 0.0771006 0.1293171 -0.1269197 -0.12759027 0.15327232 0.12277515 0.049647827 0.108108774 -0.17257527 -0.15633824 0.14542435 0.1910263
한국 0.03372398 -0.09875531 0.039432812 -0.004186921 -0.07020954 -0.13800935 -0.031180557 0.0075184386 -0.03936804 0.09298097 -0.020699518 -0.1413674 -0.07512522 -0.1362125 -0.008925525 0.051125288
그리고 -0.17385778 -0.31813145 0.20883515 0.3060015 0.17034978 0.13628577 -0.26521048 -0.12709455 0.2329839 0.2934676 0.11858612 0.10748452 -0.2693807 -0.34460068 0.30783513 0.31930327
또 -0.12541163 -0.3307214 0.11292667 0.2184519 0.034049045 0.10760989 -0.31086135 -0.07286737 0.1506824 0.24863736 0.07306972 0.1121779 -0.22765203 -0.26113275 0.19332764 0.24640995
에게 -0.038013615 -0.1777194 0.021374226 0.1330337 0.015188666 -0.035182342 -0.14481464 -0.033899635 0.054149546 0.18916425 0.06567997 0.023824127 -0.11613604 -0.09233666 0.12773348 0.04556849
만든 0.25946012 0.06155793 -0.14501806 -0.10124549 -0.2765418 -0.34266648 0.091400854 0.35866746 -0.24344021 -0.045445584 -0.22574052 -0.25842306 0.09356683 0.029452134 -0.12677774 -0.14683586
많이 0.09755942 -0.17002815 0.007061932 0.062330652 -0.19823688 -0.28778422 -0.0894912 0.0663972 -0.0018550714 0.20047584 -0.09105613 -0.19056904 -0.14416465 -0.12702952 0.105936565 0.038980804
부터 0.094908625 0.040724866 -0.012956202 -0.009590591 -0.24222398 -0.26358166 0.017838849 0.08539644 -0.066361524 0.009403366 -0.12910551 -0.18056296 -0.024034632 -0.03481998 0.00034167073 -0.08372958
걸 0.17508714 0.015452307 -0.085621476 0.025821947 -0.24141139 -0.28308076 -0.009497609 0.24858788 -0.060412828 -0.00552968 -0.20569286 -0.27838972 0.0129093 -0.03792473 -0.06874642 -0.07087984
는지 0.019959878 -0.030167699 0.032728467 0.03380293 -0.04798031 0.004065942 0.00046639517 -0.0068527088 -0.028996944 0.02288388 0.0022424832 0.016789842 0.029377293 0.022428546 -0.028674174 -0.020008827
주인공 0.2327266 0.10426478 -0.14441112 -0.1160438 -0.15381265 -0.18225366 0.058800645 0.23475912 -0.20007609 -0.0846001 -0.22968535 -0.13534205 0.08008286 0.11679585 -0.18504573 -0.19647732
두 -0.11767886 -0.1592877 0.101622544 0.11672867 0.122470334 0.09529129 -0.08546791 -0.07547269 0.086592846 0.11320419 0.0865872 0.11081466 -0.13360474 -0.1336116 0.10065528 0.13486467
우리 -0.15320867 -0.19639526 0.13918367 0.2068527 0.1437039 0.13460065 -0.18648049 -0.17735845 0.19096503 0.120413154 0.101286575 0.13237469 -0.14985725 -0.18283153 0.19386983 0.20197548
합니다 0.05322963 -0.12280378 0.030691411 0.017204871 -0.14151752 -0.20279506 -0.14963289 0.018085856 0.023147598 0.1397534 -0.088896275 -0.09606608 -0.054323543 -0.095249645 0.057411026 0.044090442
받 0.041646052 0.0092641 -0.04890733 -0.020098079 -0.028930092 -0.041360974 -0.042173944 -0.025179708 -0.008363962 -0.0033318996 0.04903206 0.011477351 0.012942899 -0.032214 0.013513956 -0.037689567
살 -0.068797424 -0.02097418 0.043302603 0.009201235 0.08781554 0.09888972 0.016374819 -0.05203019 0.12091169 0.034396425 0.0561715 0.10761129 -0.07022503 -0.050480936 0.03068201 0.111990266
괜찮 -0.16404456 0.06676221 0.17828003 0.09353488 0.17255384 0.21170022 -0.01692943 -0.2259321 0.21060938 -0.085502476 0.14319974 0.19820254 -0.089276746 0.07634232 0.15459988 0.20404075
!! -0.20272595 -0.26356575 0.23928814 0.24359292 0.106345326 0.14161192 -0.18004502 -0.22709444 0.21372719 0.11627629 0.105831906 0.14408152 -0.15343384 -0.22055925 0.19671108 0.24881004
연출 0.16228579 0.1892055 -0.22980535 -0.16063164 -0.13453838 -0.1178806 0.11501765 0.29756144 -0.23012733 -0.13522334 -0.16752142 -0.115477234 0.112154804 0.16644996 -0.22640246 -0.20317069
길 -0.03913889 -0.09192339 0.09682823 0.022739414 -0.07065505 -0.13218507 -0.10130546 0.0024093124 0.04518241 0.06755305 0.04236188 -0.032941345 -0.060772862 -0.1082287 0.07231566 0.059251614
엔 -0.026001198 -0.09500814 0.049260337 0.06744721 0.026319858 0.012128815 -0.022101263 -0.056256853 0.04369643 0.029854454 0.028999515 0.045731183 -0.01142295 -0.082153365 0.060221255 -0.016468348
때문 -0.21173248 -0.12141163 0.17330821 0.088857226 0.20418124 0.202988 -0.06843841 -0.16150744 0.1389919 0.034159962 0.20122486 0.19076017 -0.1791886 -0.11433922 0.12413514 0.17579383
기억 0.08119502 -0.06029808 0.008143698 0.03530489 -0.057279877 -0.09504639 -0.051205087 0.022158854 -0.003155327 0.088814095 -0.05440851 -0.04767341 -0.0098923035 -0.083652206 0.06800777 0.026364561
한다 0.060636558 -0.025622401 -0.003930275 0.05475843 -0.13246831 -0.0888445 0.021814259 0.049975015 0.018525094 0.08020261 -0.061501816 -0.08928458 -0.035001863 -0.02466981 -0.0059086797 -0.013574454
ㅎㅎ -0.289874 -0.22103001 0.31582683 0.22932713 0.24908736 0.310776 -0.14041872 -0.27603117 0.268371 0.17749578 0.2824045 0.28973326 -0.16706006 -0.24232985 0.28966254 0.3651072
저 0.2399791 -0.072834104 -0.040901583 0.050847594 -0.34408686 -0.44467375 -0.1006893 0.20531853 -0.034228355 0.050461646 -0.1083696 -0.35214603 -0.021950476 -0.03676438 0.04590998 -0.020613153
이나 0.02952008 0.25840223 -0.2110625 -0.176732 0.057357654 0.072537415 0.22895953 0.0601697 -0.19752882 -0.17524642 -0.1261406 0.027674554 0.17182188 0.20242214 -0.22504707 -0.1950456
요 0.0056507103 -0.027067898 0.0417305 0.019582603 -0.038442645 -0.038362574 -0.090924434 0.036619715 -0.04098618 0.026082393 0.005190792 -0.026174575 -0.02934315 -0.05955179 0.049034264 0.04363742
꼭 -0.33088934 -0.3506248 0.36090994 0.38294384 0.3623828 0.45919672 -0.22977158 -0.41184765 0.34752047 0.15353878 0.25519007 0.35463277 -0.3550406 -0.28919438 0.45904464 0.44928855
재 -0.08700648 -0.14129592 0.08861804 0.072823934 -0.00314985 -0.033092063 -0.18748757 -0.015034737 0.033659644 0.17731804 0.07581399 -0.0114267925 -0.14464217 -0.14721715 0.12957734 0.06450128
현실 -0.15634473 -0.12258412 0.20191273 0.11259022 0.17124857 0.18869445 -0.108533435 -0.21825352 0.1897614 0.038800508 0.13690656 0.18298255 -0.108576275 -0.0213 0.21059322 0.14753766
ㅡㅡ 0.11180936 0.4044088 -0.3135799 -0.27208465 0.023498015 0.2206114 0.35320327 0.22619316 -0.28380188 -0.301525 -0.21357836 0.067342855 0.25183126 0.39311865 -0.35673127 -0.36752638
긴 -0.13087836 -0.18810518 0.2051125 0.17049034 0.17615002 0.13261469 -0.12244629 -0.123853765 0.14924239 0.09959653 0.14878106 0.1119228 -0.17304267 -0.11567243 0.21603452 0.20279676
랑 -0.017790142 0.25864547 -0.17887683 -0.23200585 0.07687201 0.08337714 0.19131887 0.05254828 -0.15984833 -0.15883976 -0.05997321 0.056692336 0.22616896 0.18611285 -0.16380095 -0.22468574
며 0.075845756 0.18602198 -0.12635435 -0.10919273 0.13151702 0.17336582 0.11555143 0.11360844 -0.13972542 -0.16333969 -0.086323515 0.10724727 0.16925232 0.119884 -0.1241484 -0.16315062
무슨 0.1685078 0.3606883 -0.35325915 -0.2722881 0.025365457 0.14313406 0.26351136 0.3082132 -0.36476892 -0.2858632 -0.29432487 -0.011329012 0.24579784 0.27464342 -0.30022192 -0.36823943
죽 -0.2280906 -0.003493151 0.23514837 0.1282146 0.18949474 0.2570664 -0.06332644 -0.2610707 0.22403754 -0.051972196 0.22118197 0.25528276 -0.08498199 -0.030730058 0.18467323 0.17637202
내내 0.08780289 -0.1109291 -0.02909788 0.038674414 -0.2844055 -0.41457346 -0.0778215 0.13808286 -0.030316876 0.17270431 -0.066284865 -0.18766184 -0.057225853 -0.10584393 0.08497977 0.020719055
남자 0.116625056 0.0011262649 -0.104473434 -0.031620562 -0.05391973 -0.054841027 0.068376325 0.11345009 -0.03139182 -0.038429596 -0.12281551 -0.046163224 0.035564136 0.022340031 -0.014513591 -0.07907903
마음 -0.32295418 -0.044848938 0.35896102 0.23501797 0.30161667 0.30065173 -0.10760487 -0.37175876 0.34524336 0.035674263 0.31438553 0.33318406 -0.17860304 -0.023547875 0.29418898 0.37135458
세요 0.026148725 -0.02399906 0.03473674 0.0247388 -0.048474967 0.034704033 0.040538777 0.049358536 -0.037625432 0.020386565 -0.023196459 -0.009106636 0.049219158 0.008368682 -0.008126069 -0.008745182
결말 0.26672947 0.08710492 -0.16770563 -0.11920301 -0.13224408 -0.1790951 0.06366636 0.3148187 -0.20043786 -0.077955075 -0.17816979 -0.22058104 0.104010545 0.090437815 -0.15238538 -0.18280508
공포 0.13229488 0.15286566 -0.116254225 -0.14012775 -0.13556945 -0.07694228 0.15889558 0.15237227 -0.20813991 -0.10408741 -0.1041035 -0.1546744 0.0922328 0.1367252 -0.19208093 -0.16258962
속 -0.042430572 -0.22680011 0.08042945 0.12737742 0.019184113 0.08516604 -0.17211458 -0.10866727 0.04755214 0.12632436 0.08529196 0.033489212 -0.14194243 -0.15629964 0.10092484 0.1550118
인생 -0.17169951 -0.27356413 0.15116091 0.22110717 0.18781397 0.14105716 -0.2595105 -0.1476167 0.15610883 0.18807253 0.12702776 0.15945897 -0.24393703 -0.21921334 0.27835783 0.23721318
전개 0.101032004 0.25918457 -0.29508442 -0.20118701 -0.06933802 -0.02702341 0.23689315 0.15887268 -0.32203463 -0.24910128 -0.20326746 -0.028395139 0.21990629 0.284337 -0.2830103 -0.25945422
짜증 -0.012469579 0.47758728 -0.38688636 -0.39301774 0.1436695 0.17417848 0.40826213 0.05672055 -0.43076667 -0.35490102 -0.02777293 0.14144173 0.33276463 0.4055638 -0.47922692 -0.44584185
소재 0.011466032 0.0131919235 0.028132409 -0.06942444 0.017127603 0.050145403 0.0459563 -0.0048828945 -0.013574135 -0.0085432 -0.0002868968 0.06636504 0.041155826 0.08176678 -0.0029644254 0.015104422
아서 -0.089662075 -0.04323777 0.12484811 0.14782847 0.17081656 0.13972369 -0.024690332 -0.16559088 0.109363236 0.038887937 0.16236638 0.14447595 -0.07386724 -0.038463425 0.13617739 0.13918445
씨 0.26152435 0.07504474 -0.14994897 -0.14190781 -0.1536824 -0.21217759 0.039283168 0.2534351 -0.23639566 -0.06860847 -0.22205791 -0.19336508 0.05235067 0.088593446 -0.17239504 -0.16390909
다른 -0.0853045 -0.28275028 0.051564235 0.17391318 -0.0062598987 0.060899917 -0.24389745 -0.09456825 0.10394907 0.25289822 0.09393074 0.05195039 -0.17695798 -0.24455018 0.121721804 0.16610236
짱 -0.45612767 -0.047845352 0.41768035 0.2188778 0.4718361 0.5271289 -0.1169869 -0.5672845 0.4597188 -0.03366727 0.39346832 0.49795258 -0.13686731 -0.0027201313 0.40799168 0.43578273
아요 0.10385258 0.16931553 -0.09096538 -0.16162372 -0.0052833646 0.11008799 0.15108527 0.06417911 -0.14071964 -0.10624202 -0.04535061 0.01970469 0.16634439 0.10006615 -0.15249035 -0.12657796
뿐 0.14039955 0.19862393 -0.17433494 -0.09661978 -0.10821659 -0.06699553 0.14943752 0.10287289 -0.13786197 -0.08386876 -0.114368394 -0.06990491 0.11950222 0.19155866 -0.1807012 -0.18650223
~~ -0.071494944 -0.21724111 0.08058192 0.18324019 -0.0014694493 0.04622409 -0.20388006 -0.09748244 0.12713724 0.21031703 0.0923913 0.04913248 -0.19139197 -0.20223913 0.11828165 0.13027684
필요 -0.17583376 -0.18205345 0.25224817 0.22602642 0.16279815 0.26368475 -0.09141603 -0.26263008 0.23003887 0.06460705 0.18695459 0.19892488 -0.14203684 -0.08377714 0.26816154 0.20986947
별 0.086896196 0.24171908 -0.20233153 -0.22846165 -0.009139703 0.11428647 0.2631204 0.276264 -0.18828182 -0.23066774 -0.19258463 0.012835158 0.2548591 0.2587188 -0.26339805 -0.32138005
낮 0.060123965 0.09106911 -0.018579956 -0.04152806 -0.10513901 -0.08797374 0.0326389 0.079218425 -0.11671395 -0.032414984 -0.09434741 -0.08452679 0.019823438 0.04469983 -0.050479293 -0.089507684
오 0.011532102 -0.1108927 0.036656983 0.09344532 0.013523817 0.03253111 -0.083482176 -0.07977175 0.05783723 0.106086485 0.073604085 0.0046387822 -0.02428492 -0.05375888 0.013543318 0.10630945
;; 0.19179276 0.21985815 -0.27393928 -0.21622685 -0.10535791 -0.0824235 0.12939252 0.2194694 -0.23457426 -0.13615204 -0.17660753 -0.15188497 0.16757981 0.17717789 -0.19658904 -0.24727695
은데 -0.041385613 0.008104324 -0.03200028 -0.044371832 -0.0056142695 -0.040823627 0.03923854 0.046620082 0.04103936 -0.010679863 0.035373177 -0.009341884 -0.0030740015 -0.039016604 0.030464862 0.04754572
아이 0.056846663 -0.11920401 -0.014127748 0.07571045 -0.07406034 -0.11930564 -0.1144642 0.026396975 0.039498378 0.14468858 -0.03374436 -0.099397965 -0.007777916 -0.100512974 0.03963676 0.06514511
일본 0.18725826 0.1354274 -0.20338722 -0.14732824 -0.075078905 -0.03674059 0.1406589 0.21592745 -0.23690999 -0.14648661 -0.24428816 -0.10102106 0.18361208 0.17668287 -0.1614982 -0.26146418
유치 -0.0043680687 0.35986382 -0.22337303 -0.30422592 0.14294915 0.21598738 0.2504267 0.039307307 -0.25227237 -0.2906792 0.028596295 0.10046726 0.28697002 0.34861138 -0.31996304 -0.2904303
반전 -0.051053077 -0.25412765 0.14242202 0.15748392 0.023373814 -0.008183867 -0.18786855 -0.035137147 0.04195509 0.1384852 0.07309401 0.019312594 -0.16330995 -0.18654543 0.1773858 0.19802839
수준 0.06740737 0.29722422 -0.16379385 -0.22202775 -0.026632732 0.05845807 0.19138359 0.12938036 -0.16386907 -0.25320038 -0.12891445 -0.034898024 0.21450594 0.24000092 -0.23992874 -0.31349948
음악 -0.23490086 -0.11066591 0.24972156 0.16728728 0.28539756 0.26711676 -0.030385606 -0.34220552 0.23212074 0.03319275 0.29868487 0.3224125 -0.148885 -0.07929833 0.16765419 0.2756137
다니 0.0057175867 -0.041273333 -0.04144802 -0.01781515 0.0042774454 0.04834838 -0.04250443 0.030409228 -0.018979942 -0.0005646832 0.040721122 -0.022509862 0.0023863688 -0.023118723 0.029558185 -0.0098346695
) -0.0042615943 -0.17720895 0.058257315 0.09231484 -0.010638033 -0.008777704 -0.15151437 -0.048974533 0.08423907 0.12906282 0.008411398 0.04847075 -0.067305565 -0.08616979 0.08915023 0.09260935
맞 0.086467475 0.16557488 -0.14333092 -0.11752463 0.02040776 0.05355599 0.17570764 0.04796653 -0.14305514 -0.18462527 -0.08317569 -0.007918802 0.14339723 0.15011674 -0.13767888 -0.1579985
매력 -0.1405436 -0.13998902 0.15188833 0.20500137 0.17283057 0.21927696 -0.14178264 -0.19310912 0.20374085 0.040204413 0.21112184 0.21196865 -0.15428822 -0.09229422 0.15358569 0.18331969
가장 -0.15449014 -0.24351498 0.13724114 0.21978779 0.07329183 0.17333215 -0.16949178 -0.1349575 0.10862473 0.2402081 0.14016895 0.14760138 -0.1869137 -0.21962886 0.17636329 0.2123529
가슴 -0.34690583 -0.14256637 0.315974 0.29557893 0.40049273 0.35960242 -0.121011764 -0.42734328 0.3581964 0.02459525 0.29428685 0.40686333 -0.16475254 -0.10124397 0.40243623 0.42391017
인간 -0.09588989 -0.14574377 0.13089202 0.1772708 0.054482076 0.065923996 -0.14123912 -0.10424826 0.10271982 0.13298121 0.13520849 0.09934949 -0.11671601 -0.16243896 0.17595476 0.20461522
데 -0.033821214 -0.11090373 0.03929139 0.11271227 0.0005038828 -0.02305449 -0.110024825 -0.013669146 0.012236708 0.07623191 0.0019913365 0.042713515 -0.09885739 -0.10489336 0.07241979 0.048497245
웃 -0.11077346 -0.0783735 0.17608254 0.1269988 0.18375051 0.11614992 -0.049104664 -0.12595801 0.13523582 0.03274306 0.18425864 0.1266809 -0.092323236 -0.017950244 0.106279634 0.13501807
ㄷ -0.04472126 -0.089936934 0.10737452 0.082689635 0.0658127 0.0935282 -0.061525904 -0.078738466 0.038285565 0.045477144 0.03875966 0.08824928 -0.019211555 -0.07799399 0.036997277 0.0751247
높 -0.03125762 0.023811784 0.017432835 -0.0016948208 0.046033416 -0.037970603 -0.00953114 -0.024440432 -0.029812587 0.022509757 -0.046028804 0.03776074 -0.031897414 0.034652594 -0.0111351125 0.042868827
굿 -0.36583695 -0.16971135 0.34750104 0.18672106 0.37832302 0.45471025 -0.083896555 -0.37232462 0.32292163 0.0787211 0.3601428 0.4294943 -0.2330504 -0.07821471 0.34571478 0.4280217
인지 -0.090570025 -0.0064170873 0.053961366 0.062548004 0.10862493 0.05832475 -0.012044981 -0.038379543 0.10398414 0.031877395 0.053848702 0.06585528 -0.0096717 0.036372956 0.09406045 0.057589754
밋 0.044428717 0.017890226 -0.023201657 0.0027707703 0.022711705 -0.014261175 -0.027225984 0.03531367 0.025310721 0.047661018 -0.0018571727 0.0066264756 -0.022484852 -0.018443666 -0.014658559 -0.024398362
없이 -0.0017348925 0.019646317 -0.032666635 0.041159935 -0.026694577 -0.024196682 -0.00040294646 -0.034093484 0.010798552 0.01489794 -0.0049948907 0.006869344 0.01189468 -0.035514265 0.034841347 0.027207052
ㅠ -0.055422615 -0.14102633 0.084602185 0.07120519 0.02915158 0.050888043 -0.17743944 -0.072908424 0.022717344 0.128526 0.02388866 -0.015309497 -0.10200794 -0.118006006 0.12428874 0.08058732
( 0.07707002 0.13261092 -0.18040353 -0.1441327 -0.021152727 0.021742065 0.12891321 0.13767387 -0.18953535 -0.19003919 -0.07473513 -0.060385995 0.14698897 0.16524291 -0.17140065 -0.16707622
만드 -0.03907572 0.035151515 0.0030922405 -0.0027297623 -0.008823048 0.043375682 0.024365928 -0.023810316 -0.003783226 0.04419769 -0.022962952 0.0014890917 -0.0065531246 -0.037649415 0.030546758 -0.018366076
원작 0.038990635 0.16438648 -0.10592926 -0.07900551 0.05137451 -0.019784523 0.12103068 -0.012082087 -0.13072895 -0.12942348 -0.021603765 0.028750548 0.11245736 0.15716246 -0.10495334 -0.108087584
눈물 -0.24073124 -0.18503548 0.2667722 0.20179966 0.2605724 0.34385788 -0.10018887 -0.34912926 0.26979485 0.0659005 0.24687485 0.25079617 -0.21291818 -0.09229321 0.2658261 0.321114
준 0.016161716 -0.044510413 0.014377487 0.025995536 -0.04475464 0.01175229 -0.019090718 -0.014334705 -0.016260127 0.012049297 0.0016319437 -0.02247277 -0.016672177 -0.00584263 -0.008478722 0.040618274
보여 0.029493332 -0.11738902 -0.0035517602 0.067139395 -0.074457295 -0.19850813 -0.12309864 0.013523042 -0.024326313 0.11052176 -0.079285875 -0.083379865 -0.119493335 -0.08746581 0.040785883 0.0032083339
노 -0.07278171 0.35215783 -0.29235864 -0.33600706 0.1547255 0.2799801 0.31052384 0.05892469 -0.2693167 -0.38265678 0.014534969 0.11739862 0.30761662 0.34210593 -0.34436244 -0.35187337
급 0.07808562 0.110617734 -0.10043262 -0.08974638 -0.03391256 0.031954747 0.099709265 0.0018628608 -0.0442452 -0.13332954 -0.027150577 -0.045325346 0.081266314 0.14569499 -0.12382145 -0.115301274
용 -0.0071142516 0.16838251 -0.08439593 -0.16274077 0.04130801 0.112414755 0.18166433 0.09760958 -0.09278906 -0.15893504 -0.05726852 0.04520894 0.14444073 0.13956611 -0.12245344 -0.15712956
인가 0.10390085 0.15079138 -0.16916038 -0.120712034 0.05919712 0.06195995 0.18651615 0.073805235 -0.12939233 -0.17617097 -0.14446856 -0.03154013 0.19334313 0.1376196 -0.22066212 -0.21358134
을까 0.003401436 -0.038098074 0.031997446 -0.0031918064 0.03499547 0.022965837 0.048988257 -0.010142624 -0.030690385 0.023782577 -0.0011474602 0.02589256 0.023389075 0.006750893 0.0391665 -0.025580764
코미디 0.11354032 0.037200373 -0.03948951 -0.06981238 -0.23696272 -0.20111883 0.03045102 0.14590643 -0.030732397 0.027144065 -0.13897127 -0.20274243 0.047423676 0.029166296 -0.031562414 -0.0834369
찍 0.031607833 0.015608821 0.048944686 -0.043379046 0.04940111 -0.013222776 0.023687754 -0.047671486 -0.033279374 0.03630853 0.03160787 0.043292318 -0.034609187 0.023299698 0.009911679 -0.045635976
화 0.16095906 0.17324507 -0.1972462 -0.12510377 -0.10268442 -0.14153723 0.13398667 0.20376901 -0.16000462 -0.11241728 -0.1508702 -0.14434858 0.1563808 0.19221309 -0.15753245 -0.21189956
쓰 0.09358394 0.15724616 -0.10432654 -0.16883536 -0.07058979 -0.022437446 0.07946156 0.14364745 -0.103880405 -0.099953435 -0.13032848 -0.074946806 0.14731154 0.09531163 -0.09363102 -0.13382438
아직 -0.015147966 -0.07462033 0.075594775 0.0258217 0.053839765 0.029094867 -0.10156381 -0.02630596 0.060304716 0.098431505 0.086137384 0.011103053 -0.11726587 -0.08215132 0.057619892 0.07707983
모든 -0.13592024 -0.22702743 0.17158888 0.14194071 0.087364234 0.08511433 -0.22672552 -0.09400837 0.15159778 0.15975025 0.101443686 0.09844485 -0.23676977 -0.2319581 0.15536128 0.23699741
추천 -0.09376737 -0.206917 0.20014395 0.1794507 0.13398416 0.07243969 -0.15711774 -0.18181968 0.16509911 0.12442674 0.11746059 0.111163445 -0.170016 -0.18623814 0.22941223 0.19404788
5 0.08213475 0.08052963 -0.14639997 -0.0739996 -0.11878745 -0.085394695 0.06049942 0.12791103 -0.13280086 -0.049601432 -0.13458908 -0.111175545 0.058509704 0.06523198 -0.051635556 -0.09485001
신 0.2214482 0.044514474 -0.14125958 -0.05534075 -0.16992532 -0.15449731 0.039227515 0.17284268 -0.14949471 -0.08586443 -0.21094175 -0.22476141 0.09600779 0.09353492 -0.060520757 -0.053031348
아닌 0.26470795 0.07420156 -0.12363195 -0.106798984 -0.18802941 -0.1326689 0.055611465 0.36503398 -0.16676706 -0.08298415 -0.32269576 -0.27177277 0.097185776 0.07542395 -0.06784661 -0.11367306
마 0.14905624 -0.09840456 0.0036925145 0.050473988 -0.1642764 -0.25003797 -0.012279206 0.08557385 -0.014216567 0.05522155 -0.10886363 -0.13078433 -0.028840048 -0.053352665 0.03851528 0.026806455
울 -0.45119438 0.004851679 0.3258856 0.20740335 0.38949263 0.40530097 0.030817274 -0.42877576 0.4422428 -0.13418351 0.4034481 0.43048158 -0.16482842 0.121931314 0.32073188 0.33232737
자체 0.23185283 -0.118355624 -0.020438798 0.016618043 -0.31023717 -0.44142377 -0.10298239 0.21475865 -0.10667766 0.07840117 -0.2017527 -0.34942728 -0.0478811 -0.112918295 -0.035009842 -0.021020943
4 0.13336617 0.087408505 -0.18111008 -0.16145223 -0.051572584 -0.07903161 0.15716499 0.13780239 -0.124675505 -0.07608739 -0.16375667 -0.12685736 0.10743992 0.1525585 -0.11896347 -0.12223426
실망 -0.04277903 0.4683832 -0.3818026 -0.34816104 0.13836099 0.2934363 0.35930824 0.087990165 -0.41362464 -0.36862087 -0.12294075 0.15442967 0.38956472 0.40007567 -0.4056952 -0.46804708
처럼 -0.058046486 -0.05573529 0.01507937 0.06963671 0.07609604 0.15881282 0.0072047045 -0.11210553 0.07076834 0.037716847 0.040191166 0.10191021 -0.051782798 -0.047584258 0.027975442 0.09563329
여 0.10613001 0.1498156 -0.13180576 -0.14934346 -0.04140609 -0.0019488436 0.1470057 0.12596403 -0.1908739 -0.18235888 -0.098878145 -0.024240281 0.13267578 0.12705544 -0.16872816 -0.15333551
몇 -0.10142935 -0.27201945 0.13037771 0.14706819 0.016300026 0.059099782 -0.16759011 -0.07209424 0.16196851 0.24152479 0.04928462 0.018076768 -0.22894253 -0.23744881 0.22954535 0.2250643
눈 0.22193532 0.14221618 -0.12735415 -0.12491852 -0.10822895 -0.12963839 0.07450331 0.2164827 -0.16397479 -0.14084223 -0.20167197 -0.1279513 0.14782917 0.14049977 -0.16442737 -0.14280084
란 0.16914433 0.055457745 -0.13261208 -0.09110969 -0.11248931 -0.18569525 0.04123462 0.16313832 -0.07769063 -0.075228125 -0.11800071 -0.20163327 0.10400209 0.049149126 -0.069857 -0.06124424
대한 -0.0064630965 -0.20285128 0.057970654 0.14103802 -0.004858296 0.016380418 -0.17607296 -0.07140312 0.036557086 0.1937462 0.061902527 0.0454437 -0.13315563 -0.22139688 0.046078246 0.12625983
는다 0.0101900585 0.032627713 -0.038342834 0.044997577 -0.046159577 -0.024077905 -0.045355845 -0.045592595 0.03468379 0.011144053 -0.040430866 -0.017105795 -0.038457096 0.036074553 -0.0055153966 -0.03942766
스럽 0.047615502 -0.019614672 0.030561078 -0.020023203 -0.0069348104 -0.046019983 -0.034784354 -0.011633493 -0.012266409 0.038872454 -0.020002067 0.00071474165 0.020223472 -0.048417807 0.025178123 0.0026515834
대박 -0.20334703 -0.21581924 0.20865421 0.14364655 0.21614328 0.29884058 -0.17594384 -0.2831703 0.2175706 0.052693088 0.23144087 0.2711974 -0.12855302 -0.09831482 0.19821553 0.19183585
죠 -0.12872426 -0.10066518 0.15440363 0.108445846 0.13570337 0.17384577 -0.07584592 -0.18192363 0.10839113 -0.008846601 0.14873709 0.10930926 -0.089175075 -0.08917997 0.06952287 0.121212535
몰입 0.05783096 0.014211755 -0.02653289 -0.10119417 -0.14914809 -0.094473965 0.06867379 0.08038863 -0.045087792 -0.06306093 -0.12286658 -0.1309705 0.04690736 0.06438039 -0.07869903 -0.08375255
캐릭터 0.1566046 -0.015575259 -0.029104084 -0.06993439 -0.16267571 -0.23039107 0.036907893 0.118273966 -0.048597723 0.01950993 -0.09878058 -0.1778554 0.0066986247 -0.03196137 -0.10294778 -0.09954132
모두 -0.11110675 -0.22085646 0.1555546 0.15957862 0.08193729 0.15094802 -0.16561821 -0.12460819 0.11937812 0.17409177 0.13029563 0.14975017 -0.13040581 -0.2321031 0.16057189 0.17802005
솔직히 0.20366694 0.19661008 -0.1607587 -0.10503062 -0.014434804 0.08273102 0.17010288 0.3395385 -0.14382736 -0.14738595 -0.3035946 -0.08674845 0.18295455 0.19824943 -0.18010981 -0.1858833
그런 -0.035113044 -0.28334376 0.082026534 0.15971611 0.011695249 0.041417625 -0.1907505 -0.07688928 0.060805026 0.2598048 0.08547707 -0.0079069715 -0.14430146 -0.23239598 0.14890887 0.16530807
나라 0.040247057 0.021967677 0.03407136 -0.011206822 -0.06252529 -0.039389513 0.026330587 0.0023309507 -0.014609054 -0.04778304 0.025774501 -0.038191047 0.050898995 0.044981305 -0.0089556435 -0.052859984
건지 -0.00061196805 0.45428067 -0.3885341 -0.37471798 0.14770204 0.20273024 0.34056172 0.019419571 -0.36042306 -0.39376342 -0.0014719237 0.15050685 0.37717095 0.39442518 -0.42995602 -0.40121692
가족 -0.1051845 -0.1590455 0.10277309 0.16541418 0.073108375 0.08992869 -0.16636877 -0.082222685 0.08253797 0.20913912 0.10278788 0.0063010077 -0.16098852 -0.23476152 0.13387063 0.13177411
될 0.16678728 -0.123551905 0.0053213853 0.0532766 -0.25427142 -0.32774276 -0.07174404 0.13249129 -0.09161092 0.09299955 -0.07439958 -0.21773566 -0.043337476 -0.09627858 0.01798543 0.015783109
다면 -0.17328693 -0.090294704 0.12813735 0.08318985 0.18164077 0.19351214 -0.040501606 -0.12704864 0.13586001 0.03623769 0.20159037 0.18757556 -0.06431142 -0.06556324 0.10588005 0.15234461
아주 0.009423144 -0.19265614 0.11271019 0.12087681 0.055147257 -0.04850881 -0.14293346 -0.057366565 0.07462637 0.15723938 -0.015733892 0.012509281 -0.1512086 -0.19634248 0.13617271 0.10535126
ㅎ -0.17746425 -0.25661945 0.20040047 0.20955992 0.16112597 0.22551319 -0.16519596 -0.19294378 0.18923102 0.18342109 0.21651654 0.24848162 -0.19777429 -0.16776387 0.24370933 0.29107988
; 0.12629019 0.18381928 -0.1789786 -0.17742662 -0.11043247 -0.073192954 0.15913357 0.20703326 -0.23654409 -0.14491788 -0.1534137 -0.07133699 0.18800668 0.16902505 -0.1994946 -0.16177545
연기력 -0.028366527 -0.18761095 0.04001342 0.1369516 -0.06684773 -0.12248212 -0.1458715 -0.005580968 0.07518002 0.17873788 -0.021597698 -0.09774545 -0.10334555 -0.14998305 0.07081314 0.10439683
여운 -0.51358616 0.06484985 0.44019935 0.2038059 0.44327936 0.48616555 -0.0077773407 -0.54006016 0.43788412 -0.1316121 0.46535382 0.48274532 -0.096202545 0.0879704 0.3249598 0.43098116
그래도 -0.10150897 -0.21849346 0.09398359 0.22164564 0.07321022 0.11204466 -0.27252105 -0.1322177 0.088161826 0.1808178 0.06684717 0.15100357 -0.2540978 -0.20109925 0.19594613 0.23647594
시리즈 -0.09826911 -0.18824123 0.08909656 0.11225738 0.025180707 0.018530605 -0.14082891 -0.049033467 0.13321097 0.1844668 0.08065127 0.029821424 -0.1615544 -0.20514819 0.1449327 0.16166785
- 0.13091111 0.088277325 -0.068630956 -0.054894865 -0.22746152 -0.23803645 -0.009296716 0.17857304 -0.06930557 -0.07631198 -0.0964264 -0.18305017 0.007632871 0.020861177 -0.025459329 -0.03129259
모습 -0.10412933 -0.15533626 0.17941783 0.16959998 0.10966016 0.16400854 -0.14598453 -0.19856234 0.17793587 0.18862396 0.10747929 0.15779495 -0.20555438 -0.17363368 0.16491051 0.22185592
전혀 0.1216882 0.20852226 -0.11206104 -0.13753453 -0.057466686 0.032624494 0.1747262 0.2892044 -0.15707895 -0.19097716 -0.23560044 -0.048872396 0.22698177 0.22269244 -0.20344566 -0.20639801
뭔가 0.1628516 0.10843528 -0.19938417 -0.090082206 -0.120001696 -0.09764059 0.110376425 0.16129221 -0.20659803 -0.11832066 -0.20978586 -0.103024244 0.12562238 0.082765624 -0.1045359 -0.18741994
후 0.005080405 -0.0078337975 -0.031855237 0.01556442 -0.0942754 -0.11290493 -0.021297442 -0.008255334 0.038905688 -0.0008348868 -0.02861994 -0.066001914 -0.033303868 0.033784796 -0.025624778 -0.016427252
계속 -0.021192173 -0.36321136 0.060051102 0.19204393 -0.04047498 -0.052545283 -0.30091304 -0.011944441 0.11849716 0.31558666 0.035837483 -0.0040634368 -0.26729852 -0.28792888 0.181598 0.1561938
근데 -0.0075700064 -0.28304595 0.09113448 0.08710447 -0.06145634 -0.062950656 -0.1772021 0.0075897053 0.04112999 0.2640516 0.04654972 -0.044410404 -0.18160246 -0.21379964 0.14016813 0.17217113
표현 -0.11082384 -0.21762557 0.20021006 0.14260557 0.11229242 0.14800471 -0.10123815 -0.18058419 0.20964871 0.116415836 0.1916916 0.1677238 -0.15822893 -0.1308173 0.24071506 0.21048781
"" -0.052844007 -0.005517734 0.013455904 -0.029761873 0.0052675623 0.078335434 -0.019520313 0.013427108 0.008627596 -0.05661227 0.035026412 -0.021863014 0.020543931 -0.0056637623 -0.02878149 -0.033515815
작 -0.033717398 -0.0068044616 0.009737632 -0.0012197017 0.042964675 0.07934501 0.022144936 0.008965138 0.00034756094 -0.044020653 0.061227594 0.0012313016 -0.013141965 -0.031983726 -0.0032043445 -0.017804796
극장 0.07754177 0.21466877 -0.20566842 -0.21850687 0.073238075 0.1114656 0.20416254 0.096624315 -0.24339609 -0.18496157 -0.13360703 0.008054228 0.24614789 0.25304374 -0.26351696 -0.27585787
공감 0.010987806 -0.07765697 -0.0078213215 0.045037545 -0.030344237 -0.012464392 -0.077765636 0.008375351 0.009845985 0.078859046 -0.02254847 0.0064689093 -0.049546447 -0.04386686 -0.019923255 -0.013961961
0 -0.048547007 0.3459824 -0.3129226 -0.26029444 0.1089415 0.17077492 0.3314191 0.05933612 -0.27013633 -0.29744816 -0.038529307 0.06733088 0.23945345 0.30923972 -0.2709733 -0.3234686
비 -0.14257626 -0.07138969 0.08415086 0.05668208 0.08124247 0.11563525 -0.08562279 -0.056127284 0.05095408 0.042971294 0.09980857 0.12030301 -0.09553163 -0.065715514 0.094602644 0.10823966
먹 -0.009803139 0.030642044 0.005072139 0.024944093 -0.026080763 -0.028460324 -0.007870842 -0.047210492 0.03603102 -0.04512 -0.04951879 0.0029230602 0.04692414 0.020562496 0.0435266 0.03587934
7 -0.18435715 -0.021672858 0.16022983 0.08942232 0.17303754 0.12362713 -0.05545234 -0.18499655 0.13334766 0.02175977 0.14528029 0.13970068 -0.119710386 -0.047215495 0.1367871 0.14192237
이랑 0.09647232 0.027551439 -0.05893648 -0.091046855 -0.116343886 -0.2051489 0.05878658 0.14118977 -0.11012735 -0.088124335 -0.09977222 -0.1717357 0.07312964 0.083580285 -0.04956177 -0.1018856
된다 -0.05019983 -0.1671093 0.040192418 0.119294174 0.008577193 -0.040701274 -0.07687607 -0.010179736 0.07710748 0.14538446 0.016315103 -0.022484438 -0.116085686 -0.16579998 0.117994554 0.03996488
이걸 0.08881472 0.29055345 -0.26830262 -0.21729153 0.10382202 0.1413211 0.32058948 0.20277964 -0.1896436 -0.29540056 -0.15656292 0.030455288 0.2654289 0.2759369 -0.3166953 -0.33924174
대사 0.057757564 -0.23236702 0.017255627 0.07881546 -0.08377183 -0.11485102 -0.1757343 0.024911696 0.02350532 0.25073388 -0.054901313 -0.08967348 -0.12732956 -0.2604712 0.058104277 0.048650544
제목 0.1963098 0.09512248 -0.08493943 -0.07635271 -0.07887108 -0.066923946 0.08433622 0.21922247 -0.14739452 -0.06401528 -0.19111148 -0.12580511 0.06624243 0.060439687 -0.13364184 -0.07362258
그렇 -0.03510077 -0.0153087005 0.04045112 -0.03631129 -0.0055515394 -0.022317613 -0.044039525 -0.009419739 -0.037223898 0.008175027 -0.045259167 0.03559548 -0.023673762 -0.021607721 -0.013299026 0.013493363
대단 -0.21309316 -0.06689011 0.13254668 0.159084 0.21731356 0.17053421 -0.014805011 -0.18286519 0.18218252 -0.019574761 0.18563919 0.20893559 -0.11553553 -0.06143594 0.1164959 0.19793217
개봉 0.13235939 0.11093349 -0.14199546 -0.09931495 -0.09129181 -0.09292076 0.107300796 0.16675508 -0.20001401 -0.11373813 -0.16113652 -0.18492848 0.15213612 0.090392455 -0.12399827 -0.17423892
부분 0.18248774 -0.08752345 -0.02513745 -0.019242927 -0.23995852 -0.31502587 -0.023925304 0.1747587 -0.088062726 0.10245935 -0.15646583 -0.22844927 0.0054769437 -0.07898178 0.011008506 -0.041037392
진 0.022283286 -0.138858 0.053257897 0.015848186 -0.10502031 -0.055496287 -0.07749316 -0.035145115 0.049505636 0.093261614 0.0019560696 -0.06970607 -0.079553485 -0.14590278 0.07181134 0.030460704
OO 0.046674274 0.37357545 -0.330501 -0.29761764 0.01588777 0.18847421 0.3465842 0.17032056 -0.329572 -0.34544188 -0.18607034 0.044563733 0.32848805 0.35380265 -0.34719393 -0.3949224
기분 0.22539817 0.04758219 -0.05060928 -0.08181518 -0.26039025 -0.15491207 0.060093276 0.31658533 -0.11785028 0.003258739 -0.23141666 -0.21935436 0.060199235 0.058705363 -0.061522286 -0.098953374
제 -0.029995315 -0.16871718 0.10267788 0.108934395 -0.054029614 -0.11925447 -0.15514685 0.009122274 0.0163411 0.16492337 -0.0071516903 -0.059717152 -0.11179462 -0.1605007 0.06502051 0.07975121
이제 0.061240807 0.11903005 -0.04325914 -0.065517716 -0.03495497 -0.020565914 0.12664005 0.11063411 -0.090114355 -0.07810171 -0.057793703 -0.06577637 0.07757648 0.15741749 -0.12983125 -0.14048712
치 0.025826966 -0.04766519 -0.038088575 0.04814665 -0.1509902 -0.18689643 -0.034477226 0.10826864 -0.03918719 0.10367463 -0.062067844 -0.14318016 -0.019535642 -0.096606866 0.048407055 0.036058787
진심 0.25889736 0.06694515 -0.04340087 -0.073543236 -0.18905129 -0.22805351 0.053786125 0.3103754 -0.17677674 -0.056538932 -0.19898684 -0.23543681 0.03084824 0.058995772 -0.06872676 -0.10906983
바 0.028625824 -0.073681585 -0.043656986 0.049682196 -0.08840857 -0.0437696 -0.09528541 0.052593756 -0.050188273 0.04731091 -0.023413045 -0.096496984 -0.07634868 -0.097747765 0.047824647 -0.009440102
해도 0.2295783 -0.014322467 -0.08671358 0.036686942 -0.30237454 -0.29374614 -0.05793482 0.18907225 -0.047609426 0.025383849 -0.2180603 -0.32579416 0.0076967883 0.010218697 -0.018848246 -0.04993837
작가 0.06823903 0.3359551 -0.24504855 -0.24208905 0.11710985 0.08139028 0.23330459 0.12960133 -0.28285754 -0.2388401 -0.15051156 0.02291499 0.2810187 0.3009705 -0.32215217 -0.27859423
타임 -0.15111281 -0.06432864 0.13958007 0.117461585 0.1469061 0.13334577 -0.080559045 -0.18094403 0.1825037 -0.012981003 0.178855 0.2044881 -0.139937 -0.06292618 0.10907695 0.12898028
아쉽 -0.015337266 -0.19882582 0.036420807 0.06302161 0.05851927 0.00024474756 -0.15322617 -0.02398696 0.07256285 0.09391157 0.046608105 -0.013895204 -0.076941736 -0.172193 0.10509705 0.05612152
어디 0.19316964 0.049397852 -0.14857218 -0.10473222 -0.12296916 -0.06960612 0.08421695 0.18504247 -0.1476623 -0.08096969 -0.1279717 -0.18066359 0.07114505 0.07104147 -0.08896235 -0.11456514
" 0.0059374794 -0.011411689 0.042860974 -0.032383192 0.026991975 0.026865851 0.026278865 -0.020822668 0.03627635 -0.04040595 -0.008369528 0.014150273 -0.0184327 0.043325815 0.04538283 -0.0052413456
물 0.12970883 -0.016376927 -0.02404527 -0.06632187 -0.114671625 -0.19561084 0.03221103 0.1462172 -0.11969826 0.016757336 -0.13457873 -0.12053213 0.07306972 0.02017319 -0.015625432 -0.011005026
삶 -0.10935312 -0.13668133 0.13293752 0.08891459 0.1654712 0.21342872 -0.109635204 -0.1876105 0.1826311 0.06589192 0.13001245 0.10024758 -0.11217641 -0.1058508 0.1548186 0.14534816
나왔 -0.041720163 0.028993968 0.0071257725 -0.0041441806 0.014589999 0.03476696 -0.018223416 0.044923592 -0.046177663 -0.017028641 0.043460798 0.045707647 0.021868277 0.024956752 -0.04044894 -0.008794785
친구 -0.09714514 -0.13292082 0.078887224 0.086584754 0.048462898 0.080169514 -0.10186563 -0.022954324 0.08111018 0.09097111 0.043526094 0.026620131 -0.11365469 -0.1321623 0.06035264 0.13371669
웃기 0.13271408 0.045175057 -0.0562048 -0.040362693 -0.12998167 -0.11634149 0.024092238 0.14251544 -0.11223811 -0.060869858 -0.109951645 -0.09580043 0.08166929 0.017895387 -0.05452525 -0.052142296
놓 -0.036356114 -0.016843032 -0.019192493 -0.026298786 -0.0043967143 0.028148856 0.009239972 -0.020411123 0.0034389272 -0.04218304 -0.020332957 0.038404133 -0.038008966 0.03516927 -0.0076419227 0.022423793
/ 0.19271684 0.037119295 -0.10546042 -0.13363273 -0.16790324 -0.09444322 0.11603429 0.24775037 -0.11445545 -0.0657407 -0.22427928 -0.18503779 0.0983112 0.052023783 -0.1033212 -0.089848615
조금 -0.09754152 0.020026937 0.04468977 0.012533683 0.07599687 0.07263961 -0.004805342 -0.016055636 0.063753545 0.014187657 0.046669167 0.044709686 -0.051836804 -0.032107495 0.023352066 0.013393265
막장 0.032620396 0.40124026 -0.28425914 -0.31822947 0.09687195 0.13187465 0.3057761 0.15829045 -0.39023438 -0.3648861 -0.16491711 0.08813317 0.2855269 0.3717527 -0.36905426 -0.41966975
8 -0.16281958 -0.077339604 0.19228348 0.15849139 0.22327498 0.22949855 -0.06690507 -0.17549248 0.1425697 0.0912156 0.14763324 0.23724014 -0.122840695 -0.07620403 0.13900098 0.1912704
보이 -0.04991731 -0.06427436 0.0638642 0.06692426 0.11257696 0.10570418 -0.033194106 -0.054212224 0.07771537 0.09601491 0.02951798 0.09034488 -0.086954065 -0.05810525 0.04845789 0.120388106
딱 0.26347366 0.1734104 -0.23508498 -0.11584252 -0.10012196 -0.10042269 0.15212703 0.29135656 -0.3460525 -0.08456434 -0.2146657 -0.1998674 0.1956876 0.15691923 -0.18680148 -0.25060397
잔잔 0.0332662 0.19020389 -0.21643116 -0.17963175 0.027110096 0.11998057 0.22331963 0.018690784 -0.22484154 -0.22043246 -0.055097844 0.010186447 0.20860538 0.1900499 -0.22138052 -0.17079586
싫 -0.15436143 -0.053489342 0.17491902 0.12122894 0.10104794 0.1352339 -0.021733126 -0.12859638 0.09286912 0.01780276 0.163456 0.12153444 -0.076472975 -0.06387321 0.14029437 0.11922616
구 -0.0032910258 -0.05372284 0.042814113 0.011526629 -0.018432334 0.024941342 -0.06577661 -0.052300554 0.044186484 0.08262568 -0.03171597 0.051033128 -0.074521884 -0.04962688 0.013790616 0.050277535
요즘 -0.108306475 -0.19869658 0.20918055 0.17694783 0.11031971 0.12114291 -0.1452872 -0.16750522 0.12588394 0.16114978 0.11127645 0.12359607 -0.21686538 -0.15337273 0.17232227 0.19923045
중간 0.19730264 0.0725618 -0.14378911 -0.10732279 -0.24735823 -0.19174238 0.039092213 0.2738523 -0.1876432 -0.05158718 -0.28331324 -0.22843216 0.06807837 0.0882039 -0.10691108 -0.078727536
찾 0.022037122 0.0016457662 -0.012140416 -0.019672716 0.013286833 -0.030171944 -0.010981046 0.0027372353 -0.04432733 -0.01690793 0.017662432 -0.037822686 -0.04875368 -0.041155566 -0.01103903 0.025155615
봐야 -0.14587986 -0.20091605 0.23552962 0.19918646 0.13644849 0.11716996 -0.17651238 -0.21956512 0.16079134 0.1097175 0.14046241 0.17182134 -0.1329551 -0.19832085 0.2726156 0.19588004
가지 0.2563081 0.034225427 -0.15038618 -0.021794345 -0.2504565 -0.19369128 0.03452887 0.33862093 -0.2603701 -0.06741128 -0.27610683 -0.30126542 0.027724152 0.06302323 -0.13873583 -0.13129808
씬 -0.084902786 -0.12899144 0.0563901 0.13992739 0.054810688 -0.038613927 -0.16173433 -0.054139238 0.090336956 0.08039644 0.005570842 -0.00036636306 -0.06851637 -0.12834007 0.12595107 0.10501218
영상 0.11300625 -0.0317105 -0.06944802 0.04601927 -0.21337523 -0.23998438 -0.04457767 0.17485724 -0.03753869 0.103536025 -0.08479491 -0.19759308 -0.04733204 -0.019369557 0.008211588 -0.023696711
긴장감 -0.089473315 -0.12685016 0.14181586 0.0843372 0.090998635 0.10095049 -0.11816202 -0.08726451 0.09413085 0.11371361 0.14004733 0.074452944 -0.17322445 -0.18834996 0.117136866 0.1076097
같이 -0.083882906 -0.20084073 0.075643264 0.11927556 0.054020163 0.0051347422 -0.20930892 -0.033230856 0.07931283 0.25529727 0.066195615 0.012830775 -0.14093421 -0.19803634 0.103715666 0.11305386
라도 -0.13785797 -0.014518871 0.050534207 0.0559116 0.08966895 0.14139754 0.009518517 -0.08118286 0.05679962 0.0076165777 0.0740955 0.05971943 -0.027296975 -0.014556424 0.08152871 0.030120475
.... 0.06499484 0.04633902 0.006200417 -0.047881424 -0.1401973 -0.10697925 -0.0071482076 0.026425075 -0.04248627 0.010057211 -0.09144233 -0.07441422 -0.045110654 0.03351865 -0.061413206 0.004230745
믿 -0.033577524 -0.041364037 0.019728612 0.010899734 0.016945306 -0.04090655 0.014578436 0.044385206 0.049026404 0.042973366 0.0013347641 -0.016673267 0.0059764013 0.027156327 0.026993047 -0.01922977
스릴러 0.13512275 -0.021466693 -0.052927017 0.062097512 -0.19473559 -0.38058636 -0.09759323 0.12622459 -0.050908796 0.10130918 -0.0770904 -0.15934423 -0.05540025 -0.021172812 -0.023793902 -0.002085763
아까운 0.112543695 0.49264348 -0.43390507 -0.3183167 0.1153246 0.2883023 0.38009176 0.24698895 -0.46361247 -0.41390607 -0.23618743 0.09665292 0.38786197 0.4757658 -0.42759243 -0.5044694
부족 -0.047272887 0.29667512 -0.2950034 -0.2770658 0.09543768 0.13581133 0.2591974 0.098446965 -0.27817053 -0.28799358 -0.067236595 0.095852986 0.27632305 0.31862792 -0.28823787 -0.2948065
억지 0.004052277 0.4192542 -0.33287224 -0.2892823 0.1383313 0.2383812 0.33075812 0.117340766 -0.2899987 -0.36347824 -0.040645383 0.13498835 0.3321971 0.36206952 -0.32804286 -0.39968696
노래 -0.12531956 -0.22546701 0.15592285 0.1468461 0.14741994 0.15309575 -0.14098372 -0.16758242 0.14267227 0.13695163 0.16151081 0.13143732 -0.18356666 -0.12616228 0.22407626 0.19250602
특히 -0.16650844 -0.32326612 0.19851981 0.21839754 0.08991073 0.17606246 -0.27213648 -0.119696975 0.13900644 0.26460895 0.10181133 0.15836065 -0.19760963 -0.25462654 0.3137078 0.2995656
구나 -0.03834293 0.3286796 -0.23138636 -0.24384984 0.113503166 0.16622359 0.28673005 -0.02320668 -0.28880942 -0.29237363 -0.035825614 0.09026183 0.2594179 0.30230436 -0.29085472 -0.3229503
점수 0.13160871 0.17712882 -0.17752612 -0.08698529 -0.049168706 -0.017634548 0.18215093 0.13984054 -0.13074885 -0.18410766 -0.1424339 -0.0461213 0.084204614 0.12618215 -0.13057628 -0.19858582
개인 0.112973206 0.18059121 -0.12633789 -0.12791087 -0.1286636 -0.054167442 0.12670515 0.117451824 -0.19896244 -0.13213298 -0.17706522 -0.11981289 0.107018135 0.11921521 -0.14281006 -0.15084432
이유 0.09206019 0.01042784 -0.05418233 -0.0981019 -0.1913183 -0.20476346 -0.0074564004 0.13171156 -0.13303398 -0.0070879543 -0.07072723 -0.12314601 0.039063435 0.042349644 -0.025812447 -0.08471846
시작 -0.077917054 -0.19844127 0.048606027 0.1599833 0.058021467 0.03852993 -0.19346744 -0.026670149 0.08033814 0.2245119 0.072522864 0.00025203935 -0.13507816 -0.2244027 0.17172042 0.14433569
라면 0.13406323 -0.040118698 -0.04572709 -0.037512243 -0.1713202 -0.2186909 0.021648495 0.1378887 -0.012260294 0.0682986 -0.11953076 -0.18982127 0.030677034 -0.051004335 -0.02546202 -0.033884943
만큼 -0.044413324 -0.27061337 0.12097633 0.12385433 0.029337509 0.024625817 -0.16354683 -0.06502726 0.03362359 0.19771913 0.014610609 0.035512626 -0.14416671 -0.21930374 0.16239104 0.1528178
제대로 0.21374732 0.0146832885 -0.13159819 -0.09935134 -0.21926773 -0.2907591 0.064059146 0.20164242 -0.11532175 -0.011871358 -0.14028387 -0.27389434 0.100539625 0.09115659 -0.106380224 -0.051572084
한테 0.12148984 0.065585405 -0.069263384 -0.01231322 -0.17192844 -0.18510404 0.03873233 0.18802632 -0.085279115 -0.065555684 -0.14414434 -0.18106419 0.05911568 0.017923214 -0.04968951 -0.055427913
잇 -0.18482786 -0.010497624 0.21643624 0.13471399 0.19023566 0.23573004 -0.029599028 -0.2593128 0.23184827 -0.05586213 0.18842228 0.21804687 -0.13215338 0.031768344 0.10451399 0.10192702
날 -0.003117542 -0.096053496 0.09936687 0.08970033 0.06009541 0.045674395 -0.08554048 -0.0016954478 0.03509473 0.069632344 0.028408935 -0.0068840818 -0.040466875 -0.1260351 0.084436186 0.1057581
나름 -0.18853422 -0.26383644 0.18572007 0.25053036 0.21883227 0.30758682 -0.20793371 -0.25253433 0.19909272 0.22033162 0.16301222 0.24509153 -0.26489726 -0.19260207 0.32536685 0.30655915
ㅜㅜ 0.040417958 -0.18774325 0.094008684 0.10582132 -0.026069548 -0.024791535 -0.19635393 0.03872121 0.061651465 0.22047786 0.044969864 -0.00023872101 -0.18971446 -0.21050331 0.08062749 0.106323995
시대 -0.015370344 -0.10881632 0.023229074 0.039316647 -0.023058362 -5.4055185e-05 -0.100035995 0.035170056 0.06524411 0.11388336 -0.033866342 -0.054398656 -0.008250973 -0.08774326 0.03067891 0.088337846
사 0.13643011 0.1204566 -0.045160428 -0.094632775 -0.13222897 -0.033565614 0.08546268 0.10446178 -0.067811005 -0.062452633 -0.13426617 -0.097118855 0.071289435 0.05441548 -0.03327995 -0.067405604
명 -0.033382155 -0.12140601 0.049889985 0.09625462 -0.01649473 -0.07503157 -0.10323282 -0.027348066 0.06994884 0.13392925 0.0052563 -0.041654903 -0.07503129 -0.18935111 0.083027914 0.103411004
제일 -0.04465689 -0.062052254 0.06913793 0.059462678 -0.024836367 -0.0023187583 -0.09032997 -0.021242868 0.073460296 0.056804646 0.01281359 0.055650458 -0.005021804 -0.05212563 0.014600059 0.05462206
아름다운 -0.42613372 -0.2445145 0.39895794 0.34387037 0.43906188 0.53341955 -0.19699137 -0.50478995 0.4266524 0.1033951 0.33532274 0.4333409 -0.27570012 -0.20539914 0.48890617 0.521273
어떻게 0.17136547 0.049876 -0.03586488 -0.081625886 -0.2184443 -0.15645047 0.048422374 0.15306713 -0.12007211 -0.037320975 -0.17589623 -0.17250147 0.07398509 0.0997403 -0.077794224 -0.107012995
해요 -0.16818202 -0.06990775 0.2526348 0.1054297 0.19780274 0.20567802 -0.010869727 -0.25320578 0.2201343 -0.020285094 0.2500038 0.19721167 -0.1387947 -0.05002616 0.16522878 0.22213848
하지만 -0.010075814 -0.070292115 0.032678034 0.050631285 -0.022990523 -0.07960255 -0.06297418 -0.0019433625 0.0348942 0.11741231 -0.06698648 -0.018995726 -0.058454253 -0.0610567 0.052700385 0.06538708
당시 -0.12765774 -0.1757366 0.1395795 0.2146295 0.071122855 0.08033894 -0.16046794 -0.1098462 0.14977689 0.13717207 0.15015583 0.13203688 -0.25844428 -0.15459377 0.20776355 0.22067727
무섭 -0.09801566 -0.056092575 0.15773115 0.0829931 0.15595448 0.107351646 -0.07928943 -0.096716546 0.13098714 0.12833765 0.10419228 0.13707276 -0.101374745 -0.1159133 0.09355707 0.11967198
차라리 -0.049780823 0.6356743 -0.52822167 -0.4494854 0.2627352 0.35189214 0.48106474 0.109287746 -0.5084187 -0.49231717 -0.13924398 0.22457333 0.5202342 0.5859141 -0.5825028 -0.63176197
이것 -0.005375331 0.027122168 0.012924646 0.017106986 -0.035797894 -0.03514587 0.004448978 0.04363976 -0.030059341 0.029600142 0.006860685 -0.0567466 0.0074836793 0.050396886 0.041907024 -0.023570064
려고 -0.013256456 0.20837496 -0.22859381 -0.18832369 0.039886065 0.093665555 0.14058642 -0.06448751 -0.19182865 -0.23043407 -0.0018982033 0.03468493 0.17919688 0.17929636 -0.20304808 -0.18131222
엔딩 -0.09081185 -0.16226847 0.14244457 0.112031944 0.06819146 0.05756735 -0.16971117 -0.17601763 0.14075898 0.110468954 0.11528873 0.09453831 -0.15595132 -0.10750959 0.17056552 0.2215398
오랜만 0.11226614 0.050110597 -0.06263041 -0.12116151 -0.017089522 -0.0059585045 0.11898119 0.08479748 -0.12977093 -0.086202584 -0.0643573 -6.6568275e-05 0.10437689 0.11323823 -0.059476793 -0.077688366
니까 0.038105216 0.19233422 -0.17993122 -0.091974765 0.061546285 0.036915295 0.13907719 0.0599531 -0.10522108 -0.1559427 -0.06667148 0.0018009252 0.11013838 0.1390429 -0.16909893 -0.17556198
봄 -0.047725216 -0.13278475 0.077611215 0.090598054 0.046812404 0.031930294 -0.11284289 -0.021143358 0.09553881 0.1556108 0.027489563 0.042349454 -0.14210092 -0.17719473 0.14397569 0.11646167
의미 0.20282958 -0.015805222 -0.07349679 -0.06488376 -0.22765872 -0.29204327 -0.049534895 0.20424862 -0.09621656 0.052311454 -0.22226459 -0.2666458 -0.038910966 0.016590888 -0.063641444 0.008057525
나온 0.27051577 0.012624513 -0.14246923 -0.035369035 -0.32337415 -0.3027661 0.029319584 0.2891902 -0.14762986 0.018260343 -0.24568304 -0.25575092 0.08918133 0.046412773 -0.09807096 -0.08009119
세상 -0.17659454 -0.011283847 0.16004391 0.13093288 0.26432878 0.2120339 -0.0105382325 -0.2182173 0.22473715 -0.0066739335 0.16169968 0.17812529 -0.069007605 -0.006777131 0.21533372 0.17128314
봐 0.018156277 -0.11532691 0.021939965 0.10602767 -0.0935264 -0.06742247 -0.06390941 0.001974802 0.062745005 0.07742053 0.0027914874 0.005643334 -0.07086064 -0.12659666 0.04232508 0.099028945
따뜻 0.029688153 -0.03406644 0.025882851 -0.018437542 0.019231174 0.013324354 -0.023306025 0.02361438 0.027417962 0.00043859333 -0.039672185 0.030718956 -0.014627971 -0.008236028 -0.036374617 -0.04650588
세 -0.041160394 -0.13251421 0.027191091 0.08716456 -0.056052282 -0.08223528 -0.11786972 -0.07141503 0.017946469 0.15881446 0.0070609055 -0.042691704 -0.15038727 -0.15710297 0.14474633 0.08896229
팬 -0.19761786 -0.10222088 0.11320199 0.14233604 0.20800862 0.13904081 -0.039445993 -0.1542711 0.19608687 0.047924098 0.11473222 0.12409979 -0.06924946 -0.080356 0.09209641 0.18961746
훌륭 -0.13572155 -0.081974514 0.107392736 0.090728246 0.16915382 0.13245659 -0.068509996 -0.18246199 0.12933603 -0.015842568 0.17639269 0.14298938 -0.13704227 -0.015651174 0.18284592 0.14389701
9 -0.3727211 0.038980197 0.29890656 0.17470205 0.39272207 0.3625948 0.0067471727 -0.39317098 0.3091273 -0.11499338 0.2877456 0.33137742 -0.10799033 -0.019549077 0.20261182 0.31168053
절대 0.270436 0.11464489 -0.18933557 -0.17409016 -0.15740483 -0.05901941 0.1693204 0.31303027 -0.24296762 -0.12502527 -0.1910732 -0.13194971 0.17370376 0.16173644 -0.1234581 -0.1508065
못하 -0.04936538 -0.048021283 0.04101267 -0.0059129 -0.026299167 0.015267719 -0.012946188 0.03596175 -0.0014538281 -0.04233867 0.023790214 -0.012581967 0.0134433545 -0.045882035 0.04460882 -0.012861349
놈 -0.013156474 0.21258953 -0.235356 -0.16973506 0.04289181 0.14225136 0.24406287 0.07993432 -0.22858825 -0.25149608 -0.019323241 0.013150201 0.20694846 0.23960307 -0.1739447 -0.2238323
강추 -0.29261464 -0.13053115 0.30110148 0.20270497 0.29051206 0.35149246 -0.12598608 -0.3653612 0.31275657 0.08487035 0.24836193 0.28773612 -0.20104806 -0.086574145 0.27448255 0.35584834
느끼 0.08184343 0.029819047 -0.06211456 -0.05561417 -0.08822421 -0.08153001 0.053697802 0.09781151 -0.028854523 0.033015616 -0.09026472 -0.036983628 0.006088154 0.015595317 -0.036013883 0.018327443
욕 0.038061038 0.3807696 -0.34533882 -0.3010779 0.11493304 0.17930563 0.31287882 0.06867323 -0.32996526 -0.38078064 -0.084436744 0.04197023 0.3171502 0.32615724 -0.3667178 -0.379677
감 0.02976208 -0.022236682 -0.04599748 0.027564581 -0.045237932 -0.11456789 -0.011887771 0.047491748 0.0015064857 -0.013216378 -0.11079485 -0.097641364 -0.0169159 -0.048363145 -0.01624617 0.013351141
빼 -0.16034554 -0.08186742 0.092432454 0.08327539 0.19228889 0.1364648 -0.025753511 -0.19567971 0.16610318 0.022707583 0.17721629 0.14058872 -0.126975 -0.01547674 0.16253513 0.14404859
너무나 0.017329037 -0.2741944 0.057321273 0.12876259 0.049204458 0.06661819 -0.2658163 -0.02065894 0.1110308 0.21957532 0.059163194 0.06853223 -0.17351806 -0.26294264 0.14971985 0.18725023
전쟁 -0.041151013 -0.025828589 0.02863268 0.0644712 -0.027925659 -0.046103373 0.0042531407 -0.01771555 0.061716117 0.02900194 -0.011204464 -0.020694254 -0.024603788 -0.0017460699 0.025205823 0.050899155
됨 -0.12286333 -0.15823402 0.16788231 0.17342636 0.09124756 0.11512361 -0.13626525 -0.069132715 0.14662272 0.09446596 0.074996255 0.12522548 -0.13240497 -0.10393886 0.105666466 0.15423809
어야 -0.0038593896 0.0072615035 -0.019782364 0.02653626 0.018197168 0.034044538 -0.042986333 -0.025327219 0.007381033 0.008131195 -0.034622323 0.03369068 -0.0036018975 0.046431486 -0.008119248 0.0048735365
해야 0.1400404 0.076273315 -0.12772131 -0.056430936 -0.06958339 -0.08996836 0.082310036 0.1433565 -0.15298356 -0.08359365 -0.19425932 -0.13643311 0.11592651 0.08133023 -0.11562401 -0.09344999
던데 -0.008415557 -0.04997083 0.03276303 -0.037111007 0.017613385 0.008229397 -0.031658426 0.035391036 0.034980062 0.041092787 -0.013123892 -0.012284599 0.047343064 -0.035503913 0.038685534 0.022780191
도대체 0.11198856 0.38712475 -0.2741469 -0.29987335 0.1316629 0.24315694 0.33971435 0.17584923 -0.34092396 -0.29809418 -0.14348891 0.0342743 0.34478462 0.3922624 -0.3647195 -0.42008612
무엇 0.04670373 -0.06693072 0.023872286 0.01257619 -0.07008769 -0.0431747 -0.05483236 -0.013386032 -0.023579182 0.06942961 -0.06005216 -0.0266116 -0.02686199 -0.067608394 0.05820909 0.051468596
답답 -0.10907694 0.50426656 -0.3218312 -0.356942 0.20645437 0.3370661 0.40729606 -0.0184583 -0.34536722 -0.4540084 -0.06485096 0.20615207 0.3474563 0.4646418 -0.4006905 -0.46010238
준다 0.22998847 0.02119658 -0.12921664 -0.11393071 -0.17870943 -0.22201172 0.058085386 0.2401573 -0.11655826 -0.020571666 -0.16231705 -0.18251675 0.07022887 0.027297013 -0.13702482 -0.16038087
ㅡ 0.14322147 0.20751022 -0.13984343 -0.15950929 -0.040085573 0.006400415 0.1769557 0.194407 -0.14028572 -0.13840565 -0.15904567 -0.07095333 0.18234715 0.119679935 -0.1634452 -0.17198306
드 -0.1806679 -0.13503534 0.18037714 0.15996425 0.19118969 0.23764046 -0.1614963 -0.21390504 0.27049056 0.043756694 0.1790555 0.2225329 -0.13805911 -0.08539693 0.22532359 0.26969844
마다 -0.26653644 -0.029738836 0.2916195 0.20129617 0.29153106 0.2774164 -0.08272782 -0.2810893 0.26544085 0.0050474037 0.23649886 0.2766079 -0.17312394 -0.054935914 0.2738209 0.3178218
설정 0.057025626 0.3858374 -0.32515004 -0.3237983 0.10400524 0.10639932 0.28986487 0.1425982 -0.32681113 -0.28784475 -0.06699354 0.081611924 0.33869013 0.34552073 -0.40427428 -0.3653779
답 0.065412074 0.039316837 -0.04391322 -0.034189116 -0.16859652 -0.14084724 0.02905018 0.08418453 -0.10880845 -0.057612658 -0.13159713 -0.17518355 0.06087594 -0.021796936 -0.07840796 -0.05260752
그저 0.2107903 0.16207208 -0.14202665 -0.14190704 -0.08596916 -0.02585261 0.19957198 0.25834277 -0.30084884 -0.13158925 -0.24240567 -0.16117916 0.15956688 0.20374605 -0.15867385 -0.17208959
6 0.03827819 -0.10526107 0.033048544 0.030282125 -0.1312121 -0.18280333 -0.018967152 0.086564414 -0.05986093 0.0699143 -0.0171781 -0.09788944 -0.036358226 -0.07620713 -0.018720582 0.029004334
어도 -0.004158698 0.041271877 -0.034658752 -0.00084846094 -0.0135494955 0.04702704 -0.007151507 0.024181593 0.037239242 0.033396613 -0.023167944 -0.026338637 0.015603486 0.04423188 0.010515261 -0.022112621
형 -0.03614248 0.06592 -0.061188046 -0.0058395676 0.038610484 0.058993388 0.045352586 0.00803865 0.028858833 -0.056996677 0.03688352 0.025842113 0.08144764 0.044983294 -0.0014129186 -0.008018492
신선 -0.031940687 -0.0042334413 0.03427619 -0.022564426 0.033452902 0.12970416 0.00755608 -0.008925627 -0.0053710095 0.053317815 0.07694457 0.036023304 -0.04020147 -0.052754056 0.01927139 0.019445231
감정 0.043750763 -0.14117512 0.047833275 0.09173893 -0.037062325 -0.03286893 -0.09284428 0.0086072385 0.040920604 0.1016383 -0.035666607 -0.049692076 -0.024977552 -0.13018177 0.057001885 0.030197682
흥미 0.13504195 -0.04553028 -0.0055466583 0.06344732 -0.21096072 -0.2732745 -0.12069853 0.15898405 -0.03034217 0.09555979 -0.12088584 -0.2639464 -0.033011217 -0.06916652 0.05537985 0.06610828
글 0.12235787 0.04645387 -0.11745084 -0.009811473 -0.15715271 -0.16834393 -0.028798837 0.14814152 -0.083337024 -0.016163612 -0.1301467 -0.16064347 0.038800266 0.0064763115 -0.083133504 -0.0035485318
미국 0.111761235 0.056325935 -0.084989466 -0.06745542 -0.14321734 -0.21349761 0.017787207 0.08159899 -0.08133184 0.03195957 -0.11978115 -0.12116515 -0.023209622 0.05441057 -0.044725943 -0.022671936
뻔 -0.0055650044 0.23579024 -0.17250763 -0.19357018 0.013011003 0.07425018 0.21609367 0.05579699 -0.17288019 -0.1511094 -0.09482265 0.0069363704 0.20181727 0.19221579 -0.16539851 -0.24574007
엄청 -0.09760419 -0.24746348 0.14352736 0.10760809 0.05494002 0.10670053 -0.19762467 -0.08167296 0.13471813 0.14678426 0.05477238 0.11261766 -0.1881259 -0.22842214 0.13817193 0.20139202
관객 0.06768232 0.24441549 -0.29092366 -0.26513243 0.10908393 0.07703186 0.20878127 0.1502554 -0.21621144 -0.24957713 -0.111706644 -0.0010011594 0.25572494 0.22074835 -0.24500783 -0.23826116
행복 -0.3360514 0.042180274 0.35001767 0.20726833 0.34600496 0.39074695 -0.029634606 -0.37938964 0.35964614 -0.118758544 0.31372675 0.3650808 -0.09990272 -0.023082938 0.30234712 0.27992043
시절 -0.13121186 -0.11184254 0.20711586 0.08726786 0.12576298 0.11970875 -0.05192033 -0.12809491 0.11052051 0.04213048 0.16221395 0.15915269 -0.15694535 -0.11967495 0.15124777 0.21617743
더라 0.039173093 0.02113438 -0.0024571307 0.019291129 -0.014659893 -0.023537671 -0.03396865 -0.022645378 -0.01936599 0.004291795 -0.0012982488 0.0035590641 0.03923979 0.049373258 0.04138967 0.0010718331
만화 -0.0062020323 -0.22111614 0.044207573 0.045561314 0.021127079 0.052219577 -0.13736066 -0.02152167 0.06130767 0.2001312 0.04382953 0.06742428 -0.10731412 -0.18611376 0.072590694 0.09448706
수작 -0.41500282 -0.048020694 0.376794 0.2129202 0.5136325 0.53643525 -0.04287549 -0.47397226 0.37756482 -0.045912478 0.41971382 0.45775253 -0.12603554 8.872105e-05 0.29822007 0.41616264
군 -0.04174808 -0.16012777 0.09236459 0.088937856 0.07102356 0.06778007 -0.110572495 -0.031820364 0.08634323 0.083355255 0.019363165 0.065591164 -0.13688414 -0.07212433 0.1251733 0.14254732
앞 0.045156144 -0.055883043 -0.044284653 0.024763081 -0.02152728 -0.06670881 -0.01645062 0.04386731 -0.04045572 0.017724613 -0.018873706 0.026809242 -0.020424835 -0.04997548 0.029835956 0.03240854
자신 -0.08614705 -0.09100597 0.11147382 0.0853149 0.06285059 0.12910305 -0.06009207 -0.13782491 0.10048024 0.05152069 0.07989402 0.064525165 -0.07622997 -0.04665572 0.0521416 0.07866068
슬프 -0.037760247 0.03916545 -0.04583892 -0.03263227 -0.04536886 -0.047240924 0.002220668 0.038474705 -0.02814783 0.012149166 0.016058933 0.0018008724 0.03105804 -0.036468852 0.03340448 0.020636324
라니 -0.002970239 -0.04715259 -0.009905319 -0.04604432 -0.08315638 -0.038518395 -0.0033121696 0.005609558 0.0073449193 0.03945038 0.013680132 -0.06730134 -0.04586444 -0.029137809 0.028899113 -0.0020291843
배경 -0.11705907 -0.17753871 0.13580963 0.114294715 0.08524826 0.07168626 -0.17747366 -0.09668835 0.108106665 0.110678375 0.10925778 0.09886459 -0.16477905 -0.09518201 0.114579745 0.17912215
허접 -0.03127639 0.3790868 -0.2861826 -0.28458288 0.12927985 0.21741788 0.29525924 -0.036563337 -0.26464325 -0.32821292 0.021698056 0.089123495 0.27581844 0.36681598 -0.32135627 -0.28301394
초반 0.09891351 0.25513652 -0.20513527 -0.21177845 -0.018720467 0.025491387 0.21259892 0.16884097 -0.21927917 -0.19682206 -0.14409281 -0.0082252985 0.20421945 0.18658906 -0.23018466 -0.24756528
질 0.10643142 0.16546132 -0.11671391 -0.1151923 -0.066473916 -0.030171864 0.14065306 0.21635814 -0.1791526 -0.07990684 -0.17433517 -0.08562269 0.10796679 0.13666052 -0.15778837 -0.1771099
어색 0.025190184 0.21546753 -0.22410388 -0.22956045 0.10069498 0.066495426 0.21747574 0.06902646 -0.18953063 -0.2372597 -0.017295785 0.0919195 0.16837183 0.24895725 -0.16064987 -0.20261884
시나리오 0.13512939 0.1454185 -0.14183575 -0.16977723 -0.04952056 -0.04380287 0.17956305 0.15177372 -0.23731104 -0.11571009 -0.16218543 -0.10494943 0.16131006 0.1852642 -0.13682191 -0.21537876
사실 0.19373317 -0.09172938 -0.02886626 -0.022012878 -0.32384223 -0.36192062 -0.04729684 0.18685377 -0.08424847 0.08389474 -0.1385071 -0.300917 0.0058871917 -0.09831823 -0.012040425 0.029994255
웃음 0.029385494 9.3785566e-05 0.054456353 0.03867696 -0.05956295 -0.12636286 -0.052945577 -0.0067598885 -0.0101960115 0.08016746 0.01052604 0.00899789 -0.08371326 -0.051141042 0.034613427 0.024352262
첨 0.12432473 0.18514252 -0.1676026 -0.15147305 -0.08287669 0.0076210485 0.15927552 0.13515751 -0.26562843 -0.2021443 -0.15433143 -0.052861635 0.15466832 0.17162924 -0.17640567 -0.18009995
분위기 -0.08550812 -0.021904072 0.07470584 0.01542696 0.00886234 -0.0047988268 -0.08325553 -0.03763107 0.046756934 0.095124826 0.01862491 0.081925124 -0.031286217 -0.031073552 0.0267542 0.039323974
소름 -0.31865484 -0.14729033 0.2348406 0.17687497 0.32608756 0.3620585 -0.06419398 -0.28845352 0.26024413 0.034869917 0.2832721 0.29641128 -0.16035007 -0.10934538 0.24764837 0.26678127
멋진 -0.36380842 -0.25997967 0.29496032 0.3095502 0.36253473 0.38353956 -0.1846332 -0.41850257 0.36325976 0.09573667 0.3345156 0.34220007 -0.2716676 -0.19676207 0.39485216 0.45041856
추억 -0.09521447 -0.040390044 0.11256712 0.07662179 0.1308426 0.21369383 -0.034107964 -0.13801426 0.12950628 -0.006912678 0.12516212 0.17999476 -0.08051392 -0.07467378 0.13682586 0.12824148
머 -0.011533449 0.36915517 -0.30639064 -0.31414375 0.10376514 0.16292064 0.28159568 0.04118414 -0.26163584 -0.31204972 -0.10450441 0.11617327 0.3225409 0.3906916 -0.35916144 -0.3666574
멋있 -0.030430103 0.027246248 0.037159372 -0.029907335 -0.020280218 -0.049738776 -0.0012574084 -0.0434245 0.01924998 0.011883818 0.00017131492 -0.032912612 0.015779328 0.040675428 0.036953304 0.029652629
힘들 -0.04496527 0.08613823 -0.05452078 -0.055695765 0.107182175 0.115348995 0.088938445 0.015105701 0.004615653 -0.07215281 0.054218795 0.07733126 -0.0032558043 0.038458318 -0.081856765 -0.061109167
정신 0.13063547 0.1648087 -0.16454038 -0.20613255 -0.036359657 -0.093218856 0.1731038 0.14268412 -0.23452988 -0.168812 -0.1337441 -0.056614768 0.12707365 0.1667673 -0.23599856 -0.18580326
캐스팅 0.1936371 0.08167013 -0.18277386 -0.0818544 -0.09358309 -0.10782261 0.10488255 0.22430854 -0.1906428 -0.14547183 -0.17904419 -0.113586046 0.14294411 0.07658474 -0.122890405 -0.18060513
등 -0.021935545 -0.107360795 -0.016209804 -0.015098818 -0.030256305 -0.010092722 -0.0998923 -0.023442166 0.013545502 0.049148396 0.033710685 -0.034715943 -0.05366309 -0.05982463 -0.0060220277 0.067809135
밖에 0.056144904 -0.1433527 0.107056655 0.11537483 -0.17011796 -0.27683818 -0.112817675 0.0706708 0.013255332 0.1389266 0.023782017 -0.13481508 -0.095390126 -0.13566497 0.13527857 0.13016395
OOO 0.12595314 0.28506997 -0.29267502 -0.25654647 0.058741175 0.0960521 0.25961244 0.15336494 -0.312592 -0.2576284 -0.100876756 -0.003104386 0.24347083 0.26276994 -0.27484947 -0.36052448
결국 0.2662668 0.044191886 -0.14492165 -0.035632584 -0.17428568 -0.2612719 0.0278495 0.24054071 -0.18732744 -0.04401668 -0.24522337 -0.22460425 0.07702621 0.044995178 -0.10446315 -0.1126844
봐서 -0.035654634 -0.023164198 -0.024034586 -0.020434214 -0.01584208 0.00020997177 -0.06830637 0.0026556249 -0.017670024 0.01591361 0.04724018 -0.047320075 -0.053942896 -0.04201155 0.009991923 -0.009592132
류 0.17281917 0.09183102 -0.090787694 -0.07621898 -0.15337265 -0.058097873 0.13146603 0.17923814 -0.1668683 -0.06659025 -0.15355775 -0.0882579 0.13829458 0.08810194 -0.14162233 -0.15746847
오늘 -0.21982948 -0.08458824 0.16032887 0.1475642 0.1782154 0.16595317 -0.058999963 -0.19377841 0.21441585 0.07751926 0.1667154 0.2388967 -0.1246159 -0.0895209 0.16583087 0.15491597
졸작 -0.047325425 0.64192575 -0.400373 -0.450639 0.26790768 0.40219852 0.5103488 0.0496533 -0.36181262 -0.4914616 -0.072568834 0.23847821 0.4263875 0.580119 -0.5480141 -0.57322246
낫 0.034670014 0.054688733 -0.022466777 0.0054533537 -0.07632517 -0.155071 0.0376896 0.08960064 -0.07206556 -0.030912887 -0.046605058 -0.12019006 0.06285319 0.038792092 0.013012333 -0.07691561
킬링 0.11385354 0.17931405 -0.11635038 -0.12572321 -0.029723091 -0.015943868 0.08585689 0.12061958 -0.11915128 -0.09539417 -0.077039964 -0.018748542 0.10322485 0.15761776 -0.17045912 -0.15347955
역사 0.11921414 0.065356374 -0.078093275 -0.07425494 -0.0036682615 -0.028387198 0.05026195 0.066373415 -0.08951316 -0.12269191 -0.11279858 0.0023552796 0.11318962 0.1189837 -0.12274514 -0.05906992
함께 -0.31661043 -0.21584044 0.29775438 0.3021594 0.32349193 0.3033911 -0.14361353 -0.25476515 0.30944076 0.065047845 0.24712384 0.3050681 -0.24959843 -0.15575686 0.29470035 0.38096184
잡 -0.13444257 -0.019086111 0.124925524 0.10489799 0.1458815 0.17439166 -0.07087243 -0.14060283 0.16541864 0.014309801 0.11993824 0.13537233 -0.14311382 -0.083190836 0.09303377 0.10691201
엄마 -0.0703927 0.034408774 0.028390707 -0.005501778 0.04179603 0.07578484 0.07146253 -0.030087695 -0.012604008 -0.01281573 0.0029163323 -0.0058382303 0.021555414 0.03971471 -0.0014906251 -0.049313545
이딴 -0.20134339 0.6098201 -0.51796585 -0.492769 0.35820636 0.46881446 0.52730286 0.009960959 -0.46650186 -0.60480887 -0.011030325 0.28124964 0.5666975 0.58102053 -0.624402 -0.6144833
한데 0.083171844 -0.012369739 -0.07641811 -0.08514072 -0.15912506 -0.097231366 0.019651353 0.13384198 -0.09711337 -0.04728222 -0.045587845 -0.07284047 0.033716746 -0.016172104 -0.02922605 -0.09711909
20 -0.0772516 -0.024546435 0.07730748 0.03474982 0.14771672 0.117235295 -0.0937077 -0.08259 0.06933699 0.01851133 0.13063589 0.15199926 -0.024270665 -0.0051328684 0.12276477 0.045474675
집 -0.01401309 -0.109898955 0.06173859 0.06774053 0.0057965405 -0.01939885 -0.15886639 -0.0018133023 0.03333568 0.1328069 -0.017324694 -0.014884305 -0.077883005 -0.17193477 0.06869554 0.09496897
구성 0.06555225 -0.008186675 0.0047251163 0.0026298685 -0.18235373 -0.16565695 -0.0004450865 0.07465066 -0.03389812 0.06167255 -0.11000061 -0.13944101 -0.009364676 -0.02052918 -0.022886535 0.019440383
문제 0.1307319 0.03387447 -0.090622775 -0.01833463 -0.21681668 -0.16600285 0.041822497 0.14320727 -0.13437332 -0.013251801 -0.102011286 -0.22305967 0.041959926 0.06872609 -0.09882052 -0.064197995
뭘 0.080654725 0.31609875 -0.23574844 -0.215845 0.033739988 0.06325692 0.25121707 0.17315057 -0.27927905 -0.28803262 -0.16430262 -0.04116281 0.30682242 0.26649085 -0.30978012 -0.32064617
나요 -0.19448628 -0.036991626 0.18264692 0.08108518 0.18518183 0.1906912 -0.080228254 -0.17401001 0.15716806 -0.0012267207 0.15872125 0.23626515 -0.13802923 -1.4630159e-05 0.20442975 0.12424643
뻔한 0.14208186 0.30988157 -0.24093154 -0.23907739 0.002475951 0.12697206 0.24181822 0.30956715 -0.29202297 -0.27994198 -0.29749924 0.009986395 0.24461415 0.30422604 -0.22593206 -0.2740665
스러운 -0.025320498 -0.17850003 0.020778181 0.107672036 -0.05647248 -0.08970739 -0.14130734 -0.016544152 0.027419198 0.17747311 -0.035727955 -0.006566796 -0.14761284 -0.11735223 0.044084795 0.112363644
어이없 -0.016890515 -0.0064922683 0.047875095 -0.014831841 -0.03326597 -0.027818693 -0.034829676 -0.03437008 -0.00847448 -0.03245418 -0.024940455 0.0348943 -0.0018177405 -0.009860754 0.027430002 0.033006202
제발 0.13502136 0.18575451 -0.16112602 -0.10782642 -0.067037515 -0.0331834 0.10988175 0.12175231 -0.13909842 -0.1548468 -0.107014745 -0.01002198 0.18086956 0.16602051 -0.11955484 -0.16316926
뭔 0.07388536 0.37479925 -0.33641037 -0.33687708 0.057786085 0.1972347 0.34278387 0.21068546 -0.367187 -0.32493898 -0.18576685 0.042917404 0.34938172 0.38264573 -0.33235386 -0.3917805
러 -0.1318073 -0.09016784 0.095679656 0.13775648 0.14128867 0.11314395 -0.08631486 -0.102492735 0.09455506 -0.01893973 0.11577618 0.14046572 -0.109693 -0.043020643 0.1641293 0.16420352
~~~ -0.06429519 -0.11635203 0.09763939 0.058288623 -0.007000584 0.01371381 -0.11881857 -0.06932693 0.0689834 0.09309979 0.062869355 -0.02350019 -0.062268212 -0.14553906 0.05042542 0.12368431
위해 0.053785533 0.01760096 -0.02558662 0.040545665 -0.12900257 -0.15790634 -0.02460569 0.066019796 -0.0058454634 -0.008078983 -0.039649945 -0.1317759 0.023245273 0.020760315 0.026195696 0.0011028924
간 0.024121145 0.15426297 -0.06753033 -0.112616606 -0.010513615 0.03695073 0.14479578 0.012545081 -0.08096765 -0.11203055 -0.05773644 -0.07310137 0.09984254 0.090515636 -0.06843596 -0.08623731
아무리 0.1299076 0.28421068 -0.34090406 -0.24651983 -0.01710514 0.07914141 0.29670885 0.18418586 -0.38319355 -0.30498332 -0.18642049 0.027224204 0.25932068 0.32235026 -0.3324237 -0.32711866
잊 0.014815334 -0.003245078 -0.016305137 -0.00660304 0.026633713 -0.015891217 -0.026269376 0.032856297 0.049221847 0.04307795 -0.011301767 0.036852274 -0.0138525255 0.02442589 0.046691265 0.018021192
버리 0.0077936277 -0.015033029 0.034390237 -0.0088508725 -0.026567841 0.01973616 -0.024388766 0.007012509 0.03779317 -0.034424685 -0.038645685 0.015632275 -0.036233306 0.03255466 -0.0015284792 -0.0098439455
난다 0.06643815 0.08527394 -0.035405032 -0.033249985 0.043423686 0.029079607 0.12987871 0.050374072 -0.05617224 -0.042499643 -0.04980305 0.028583705 0.08759094 0.10068031 -0.06474711 -0.11878734
소리 0.104220435 0.21976046 -0.21454206 -0.19476964 -0.010891375 0.009458162 0.21448794 0.23952872 -0.324969 -0.22574733 -0.1865503 -0.058279566 0.1927388 0.25257805 -0.22854833 -0.24166942
어릴 -0.37405917 0.0285222 0.3314375 0.22548154 0.39181218 0.35984054 0.033781573 -0.4276033 0.3789737 -0.033487488 0.36251286 0.35505334 -0.09461139 0.0018706438 0.37387112 0.3562389
어떤 -0.0818223 -0.2649068 0.07288315 0.20534964 0.08162475 0.09320773 -0.18798034 -0.024571495 0.10212101 0.24014558 0.09464925 0.06429957 -0.17904219 -0.26387483 0.17406133 0.19479679
코믹 0.108580396 -0.07936554 0.03004743 -0.005494996 -0.26081482 -0.3208908 -0.054510273 0.09320144 -0.04162467 0.022037867 -0.1375551 -0.19790035 -0.03336286 -0.0866684 -0.02075486 0.02227875
주연 0.10102 0.16457935 -0.15220343 -0.09698559 0.044894017 0.036224768 0.15089235 0.10805524 -0.18367271 -0.11866522 -0.1628498 -0.0025134264 0.1230614 0.14806522 -0.13302465 -0.18523596
완벽 -0.4033047 -0.040102106 0.32123506 0.17072658 0.399217 0.4940479 0.0071160668 -0.4320539 0.41655222 -0.090335265 0.36368945 0.42842418 -0.11277391 0.015787976 0.30377594 0.3038758
포스터 0.08392027 0.033204947 -0.063858755 -0.056364886 -0.037567466 -0.12578699 0.044452604 0.10770845 -0.016821686 -0.022148907 -0.09693871 -0.09140541 0.095874555 0.077527754 -0.017399367 -0.07285446
맘 -0.0796264 -0.09007705 0.046610128 0.07248553 0.08453614 0.04126021 -0.13349995 -0.019819658 0.11439748 0.1021367 0.042513914 0.08084431 -0.0814841 -0.17188936 0.1414815 0.056569137
