2996 16
영화 -0.2365166 0.02389301 -0.22280887 -0.030073596 -0.0688155 0.45305225 -0.13635668 -0.03140618 0.14379299 0.019885369 -0.023031652 0.17325373 0.13261513 -0.17057641 0.057479817 -0.121470556
다 0.049567405 -0.012988356 0.01948761 -0.0076004756 -0.148638 0.20661438 -0.1806819 0.06983485 0.07152287 -0.102603465 0.032630377 0.32898661 -0.063311905 0.0102224015 0.17152415 -0.15238245
고 -0.19449091 0.24151975 -0.12500757 -0.19775587 0.149375 0.0060763326 0.15431912 -0.12731864 0.15522505 0.18341565 -0.18656977 -0.14712642 0.16596974 -0.14668545 -0.15720111 0.19055964
하 -0.0044718273 -0.05321717 0.038836073 0.10682613 -0.07891525 -0.023629747 -0.09235042 -0.1572999 -0.053586073 -0.07702245 0.01776556 0.10780254 -0.0026031185 0.029215619 -0.11269942 -0.06905268
을 -0.078502394 0.054292157 -0.13134281 -0.08248283 0.0432974 0.10820935 0.108174026 -0.040595286 0.116602115 0.030389493 -0.016663944 -0.02745391 0.09076681 -0.07477475 0.009862073 0.021778068
보 0.07785173 0.013520863 0.074295536 -0.11929493 0.10249881 -0.13928083 0.089464314 0.02613297 -0.101372994 0.071462244 -0.06078424 -0.09678295 0.07226732 -0.025201852 -0.046746057 0.075987376
.. -0.0065652747 -0.05923382 -0.08618119 0.053736728 -0.023233872 0.14097665 -0.07686387 -0.09924152 -0.040344786 0.007312827 0.0023355854 0.055478126 0.050769754 0.021268949 -0.0131092975 -0.06278902
게 0.0694013 -0.10851524 0.11331108 0.10377127 -0.1818629 0.007025133 -0.18628466 0.022781111 -0.11978155 -0.10379097 0.10062513 0.36792564 -0.15352057 0.13511558 -0.019805236 -0.1935515
, -0.12464289 0.04683557 -0.091687635 0.041366003 0.14479975 0.052041817 -0.04784717 -0.21330062 0.050337773 0.0065083364 -0.11941214 0.048447274 0.10059641 -0.13382442 -0.11898845 -0.009120723
! -0.25454026 0.23975839 -0.29265532 -0.23732753 0.2985757 0.29625547 0.187339 0.15518408 0.19440311 0.19985041 -0.19240506 -0.19256012 0.19556047 -0.20559949 0.2732796 0.20269139
지 0.26322752 -0.07093184 0.1420209 0.017545396 -0.2330112 -0.094749086 -0.1648453 0.46355906 -0.051163223 -0.14730395 0.18804944 0.06442431 -0.20374453 0.24142636 0.48333898 -0.16257519
있 -0.15395647 0.2505889 -0.049400706 -0.24898435 0.23505801 -0.10125274 0.22255132 -0.117585704 0.18835871 0.21752511 -0.23177797 -0.27550507 0.13289738 -0.1270103 -0.21731104 0.18209995
없 0.19702765 -0.18371682 0.16443658 0.2033732 -0.21643232 -0.0979772 -0.21546283 0.06950702 -0.1604346 -0.24003017 0.15946662 0.23724076 -0.14606634 0.12653421 0.13188927 -0.21193384
? 0.10852177 -0.045883536 0.09322948 0.0033092017 -0.16477199 0.029241038 -0.10849853 0.048657555 -0.068443 -0.06804443 0.0669224 0.011953139 -0.12539867 0.057758477 0.08623113 -0.07765695
좋 -0.15728056 0.17535684 -0.12275351 -0.14725472 0.17500891 0.0012622386 0.23946163 0.08206802 0.089740254 0.18917798 -0.21813948 -0.19145149 0.18663017 -0.15256077 0.06805519 0.22511384
나 -0.115533315 0.06600298 -0.21581665 -0.06004975 0.056696888 0.18088198 0.082285404 -0.0063156057 0.13293546 0.12256529 -0.12910634 -0.044183265 0.14279798 -0.15481278 0.025898732 0.08699424
었 0.03193413 -0.13826254 -0.03808754 0.11846903 -0.15512079 0.10631779 -0.08437808 0.07578613 -0.03112819 -0.09183487 0.07415275 0.14589547 -0.07565115 0.074528016 0.12651531 -0.09688754
만 0.15214974 -0.1015212 0.114530034 0.08030302 -0.11799197 -0.03484675 -0.1527865 0.14319153 -0.12790856 -0.17320342 0.11990034 0.30933887 -0.09434537 0.13340613 0.15258723 -0.18804792
는데 -0.103826106 0.10314883 -0.18086118 -0.13330606 0.0823721 0.15990572 0.093302466 -0.09659061 0.12604089 0.07656573 -0.10385803 -0.06691041 0.16926521 -0.094728164 -0.08650691 0.029921401
너무 -0.51845473 0.0729281 -0.5527039 -0.050065868 0.13091514 0.4324601 -0.09768382 -0.18180177 0.4137496 0.075199276 -0.1723213 -0.0068700835 0.27991116 -0.3109564 -0.033597715 0.035016682
봤 -0.13732305 0.26791793 -0.050691135 -0.22368051 0.21189085 -0.15679103 0.26732388 -0.10574421 0.14624974 0.20284963 -0.28629765 -0.2647074 0.24314989 -0.23910587 -0.18483064 0.24129178
안 0.34317765 -0.4421361 0.33900857 0.43367848 -0.41733512 -0.25885212 -0.42395404 0.30748665 -0.33573332 -0.3685147 0.368512 0.5419015 -0.30359566 0.37586057 0.27359417 -0.42138013
적 -0.13006027 0.009333839 0.030782038 -0.03599995 0.28915256 -0.30252862 0.20257431 -0.26395458 -0.05576044 0.09988033 -0.09044228 -0.18939193 0.1510389 -0.12059083 -0.39477894 0.15795353
정말 -0.3238992 0.061544742 0.00440587 0.0864546 0.6264879 -0.6274426 0.51612526 -0.5799392 -0.08598092 0.38084656 -0.36687085 -0.56513435 0.35670507 -0.3243539 -0.76682127 0.5034459
로 0.12222912 -0.13699147 0.19371179 0.18837477 -0.21853629 -0.2191161 -0.20830375 -0.0225064 -0.1368346 -0.20718178 0.12855355 0.17060734 -0.16444318 0.21267469 0.01520401 -0.15079801
음 -0.014118642 0.037195284 0.06155362 -0.036105417 0.15375258 -0.10967168 0.15243079 -0.2017125 -0.029031938 0.06726274 -0.049361773 -0.10936392 0.12954487 -0.054667193 -0.20874222 0.05294505
것 -0.20802732 0.00029717718 -0.11056686 0.052794226 0.2633037 0.105431445 0.0061694663 -0.2616608 0.032142658 0.10565104 -0.17350592 -0.04695413 0.20405526 -0.23259546 -0.2344736 0.081711404
아 -0.0040408317 0.012054877 -0.097777314 0.03562054 -0.07613265 0.22632165 -0.088399135 0.008583138 0.07901551 -0.027330497 0.045446895 0.16575876 0.033602796 -0.052039508 0.085470095 -0.087010786
네요 -0.086040124 0.13277224 -0.0100627765 -0.16080958 0.11913116 -0.10699989 0.13707133 -0.15981963 0.119465806 0.1401675 -0.12102892 -0.1493203 0.09800142 -0.076355115 -0.15232782 0.18652362
재밌 -0.19875093 0.1534569 -0.15246996 -0.1367941 0.18866563 0.09876167 0.1634589 0.17206377 0.0998213 0.1439182 -0.20796318 -0.1981437 0.12783939 -0.12714753 0.18163052 0.21338734
어 -0.019354915 -0.00538376 -0.015598094 0.06842926 -0.06262446 0.1404629 -0.07931905 0.098898344 -0.0027606974 -0.04722404 0.048959658 0.17103928 -0.074087754 -0.016495707 0.12683526 -0.06153465
같 -0.16574377 0.17610608 -0.1251549 -0.13406296 0.15599152 -0.08784123 0.16537942 0.08692867 0.07600277 0.18353719 -0.21462825 -0.20924836 0.13097045 -0.0988078 0.054878782 0.1466602
점 -0.053654835 0.0032735153 -0.017304912 0.037634406 0.043801162 -0.0697763 0.083228685 -0.13244522 -0.0264777 -0.020069104 -0.06760806 -0.06981054 0.079178415 0.008664893 -0.18076575 0.034945883
진짜 -0.2310674 -0.00065833994 -0.081439525 0.0970415 0.20824869 0.08318529 -0.11240072 -0.4054612 -0.0012731045 0.04545332 -0.12734519 0.15955113 0.2350732 -0.12715767 -0.39230403 -0.058874164
지만 0.19995503 -0.13834986 0.16735455 0.21462096 -0.17597048 -0.15334073 -0.18655273 0.20046826 -0.15390444 -0.19635054 0.16653809 0.12421645 -0.21057957 0.1611904 0.15598819 -0.21941096
했 0.020045463 -0.0046523586 -0.008056842 0.012277294 0.017617729 0.010986865 0.048841383 0.043161485 0.0024295337 0.021229114 0.023455087 0.041028228 0.03550795 -0.023346711 -0.024929905 -0.0025154352
에서 -0.10431977 0.111762404 -0.10721862 -0.05184578 0.115782246 0.101573795 0.009035449 -0.10874162 0.13512704 0.101057924 -0.033980466 -0.06624237 0.09187762 -0.076986104 -0.059973244 0.061903454
기 0.28981578 -0.25767004 0.3337418 0.21302496 -0.36266252 -0.23034865 -0.3390917 0.058931574 -0.2209819 -0.29263997 0.29805183 0.21766296 -0.2949243 0.2653052 0.08996704 -0.33964178
네 -0.029926311 -0.007375788 0.005584532 -0.012573924 0.016802734 -0.020010732 0.0027990048 0.025655631 -0.0011729291 0.033639364 -0.05224649 -0.01655028 -0.008703678 -0.049264174 -0.0085938135 0.020237185
않 0.08742434 -0.09405177 0.124627195 0.07736245 -0.095367506 -0.1192693 -0.09010905 0.14462474 -0.12054228 -0.12512694 0.09098144 0.049321372 -0.111576535 0.10165693 0.14194143 -0.14462017
거 0.011421192 -0.016329093 -0.011011554 0.05671442 -0.07218999 0.1710373 -0.11702216 0.10603847 -0.018507628 -0.034691747 0.10202848 0.14553279 -0.06510697 0.06664956 0.15602414 -0.07305385
았 -0.04554336 -0.04825014 0.028103258 -0.012330495 -0.0074454434 -0.006054938 -0.02805152 -0.014375795 0.008876406 0.02172723 -0.005104065 0.01213944 -0.008825801 -0.03243035 0.035255227 -0.013358545
수 -0.4574778 0.5343854 -0.39407954 -0.38507223 0.5464356 -0.52356607 0.7308693 -0.37221244 0.25425157 0.49599934 -0.5295667 -0.7883884 0.42444444 -0.40930682 -0.48707023 0.67523044
되 -0.15319751 0.13469669 -0.116918065 -0.12196072 0.24084193 0.031736236 0.21096718 0.07803036 0.1659142 0.11167304 -0.21770321 -0.20167485 0.18139443 -0.13478628 0.036448922 0.15283133
면 -0.04721635 0.23904078 0.032153286 -0.25676844 0.22038254 -0.0855499 0.18993336 -0.09164194 0.03106915 0.22715703 -0.24837561 -0.18079406 0.2080795 -0.15953688 -0.19581042 0.20001012
ㅋㅋ -0.18764324 0.06994577 -0.23809314 -0.1047416 0.030616216 0.38995188 -0.034612387 0.047042847 0.08142076 0.1059274 -0.11970192 -0.014462788 0.13018663 -0.1692958 0.1090996 0.0016853791
연기 -0.33318612 0.20400433 -0.12167935 -0.2172707 0.48867896 0.02966162 0.3834585 -0.06486736 0.17374584 0.29284906 -0.36011893 -0.3247371 0.32311 -0.28251263 -0.14707091 0.31008425
말 -0.1530689 0.0509468 -0.2605417 -0.09475081 0.054218028 0.2906295 -0.01711761 -0.04633962 0.1207979 0.08615534 -0.033196144 0.045317467 0.12754323 -0.10809215 0.036680948 -0.026750078
인 -0.044038344 -0.015617086 -0.044648413 0.05312988 0.050586205 0.09668087 0.054028567 -0.20148495 -0.023109151 -0.0048393244 -0.049274005 0.05880734 0.050535943 -0.080437355 -0.19373842 -0.035158698
주 0.3360931 -0.36625376 0.3083733 0.39286 -0.29882014 -0.297701 -0.36710253 0.35974902 -0.3660888 -0.2986724 0.30871227 0.34779957 -0.2809639 0.323749 0.2754074 -0.37223738
최고 -0.4251385 0.44774178 -0.3698889 -0.39984056 0.78175426 0.14526199 0.8034684 0.34229088 0.36638728 0.4797131 -0.564683 -0.7101849 0.47022158 -0.47308952 0.23554301 0.5616062
평점 0.105721846 -0.030625772 0.016908316 -0.055884045 -0.19012226 0.07045041 -0.12650706 0.18246366 -0.016172966 -0.059839807 0.08839935 0.07991735 -0.06259845 0.07747496 0.2575577 -0.079551384
내 -0.20509362 -0.012766474 -0.08811774 0.13033763 0.14834462 0.06706887 0.023233175 -0.5122476 -0.054510627 0.019144615 -0.054036263 0.022016728 0.18002881 -0.10157594 -0.32221955 0.002662498
~ -0.16197975 0.11587457 -0.15103914 -0.10290892 0.17725365 0.19491649 0.098189145 0.056042366 0.14040536 0.10606827 -0.1257202 -0.081325166 0.19591102 -0.121493846 0.044764664 0.07727819
이런 0.012675804 -0.031776343 -0.06976602 0.08206097 -0.08776152 0.23404333 -0.17125398 -0.058586903 -0.008577646 -0.08190816 0.032536708 0.4631441 -0.024231017 -0.008150159 0.061228495 -0.16093136
던 0.100739054 -0.03537327 0.035919674 0.07458779 -0.037480462 -0.026150202 -0.104202285 0.029421197 -0.09007709 -0.10734826 0.056828063 0.12664273 -0.07669744 0.08433287 0.047308743 -0.11311911
어요 -0.03374355 0.005649425 0.016132507 0.029173758 0.034459863 -0.046254396 -0.04204613 0.027445126 -0.03416114 -0.02381133 0.043788936 -0.037551988 0.031554464 -0.039611258 -0.02626331 0.023752902
왜 0.12917426 -0.18745416 0.06282392 0.13912882 -0.17673184 0.0071163587 -0.2708161 0.061642736 -0.08180673 -0.20683715 0.167568 0.7883728 -0.2125284 0.1737413 0.08447926 -0.27648288
할 -0.08990993 -0.016835827 -0.15660277 0.01186974 -0.1145197 0.2810169 -0.16852367 0.09700879 0.074799314 0.016171772 -0.021457916 0.086011134 -0.03714995 -0.039459597 0.120730445 -0.12623547
겠 -0.14072827 0.07014343 -0.06679346 -0.111788906 0.05449962 0.07014061 0.031133235 -0.15029258 0.12631966 0.082505845 -0.051604748 -0.06996884 0.06705089 -0.077690616 -0.12471564 0.104356945
1 0.09801148 -0.04796789 0.039757688 0.053979807 -0.098500304 -0.050791524 -0.05191072 -0.11725924 -0.048012875 -0.101760745 0.10707623 0.11546418 -0.104188494 0.08543446 -0.113153175 -0.061229963
해 -0.04503601 -0.036008637 0.032420803 0.04337953 0.09615828 -0.05045414 0.0027921184 -0.3301604 -0.082627006 0.033278484 -0.050932802 0.028747553 0.06319209 -0.10431239 -0.27745602 -0.04050984
스토리 0.10709144 -0.10716363 0.058183737 0.14836468 -0.1475406 -0.027681574 -0.18443583 -0.08147308 -0.07406961 -0.11035237 0.108447775 0.2038565 -0.101732105 0.06980092 -0.032438334 -0.1766294
습니다 -0.06907067 0.1596211 -0.06840923 -0.11018774 0.14362058 -0.1068834 0.18097615 -0.1292514 0.09276749 0.14232972 -0.18343806 -0.122044325 0.15244895 -0.077157 -0.18301187 0.17072737
ㅋㅋㅋ -0.06500916 0.039573297 -0.12168163 0.0263732 -0.06320346 0.1565973 -0.019641792 0.0395094 0.054693747 0.021812137 -0.06729448 0.0134846 0.066726536 -0.008569156 0.06801478 -0.06280462
... -0.0023343635 -0.049596265 -0.031412333 0.0028919603 -0.04308364 0.031136133 -0.06830499 -0.11799203 -0.010451323 -0.012362324 0.043373898 0.14174592 0.020573568 0.029961476 -0.06327497 -0.060814846
아니 0.07957613 -0.09506548 0.045932394 0.07536994 -0.03963184 -0.022134565 -0.16796322 0.056373704 -0.081500255 -0.07738138 0.120566964 0.2940485 -0.08780643 0.08828781 0.06004184 -0.12759562
생각 -0.19884309 0.1592907 -0.188446 -0.113730595 0.1727401 0.12956855 0.17558779 -0.00059985585 0.08557509 0.0951229 -0.19166091 -0.1515518 0.21923558 -0.16499427 0.09707062 0.15177765
더 -0.24376892 -0.10906566 -0.04281223 0.1947772 0.13100989 -0.0023628573 -0.055925477 -0.6058794 -0.09084889 0.083940364 -0.10241861 0.015133465 0.18218137 -0.18087268 -0.47571358 0.03292888
그 -0.5622972 0.15398777 -0.37374076 -0.11450149 0.14501223 0.17922889 0.032658856 -0.34905618 0.60320765 0.1428821 -0.19130847 -0.102931075 0.3700762 -0.36193588 -0.06789257 0.10148092
드라마 -0.2643092 0.1413628 -0.25114045 -0.1052531 0.09975644 0.4567285 0.029713662 0.04603976 0.13916723 0.070920564 -0.08987517 0.037811708 0.171096 -0.2100105 0.14240898 0.009812052
싶 0.10854453 -0.17767519 0.15118222 0.14994451 -0.1410148 0.0053562964 -0.17486914 0.11764809 -0.16433653 -0.16423388 0.17705294 0.13439892 -0.17638128 0.16508308 0.12426573 -0.11957549
사람 0.06939679 -0.050776724 0.018904576 -0.05385426 -0.10396727 0.09446634 -0.09547139 0.1519889 0.036594328 -0.0767367 0.031527936 0.11283352 -0.020657713 0.0503555 0.23766607 -0.04939171
듯 0.042853534 -0.047363218 0.021458775 0.03286755 0.0058448403 0.013321368 -0.0863702 -0.12912677 0.010023208 -0.097473234 0.0020423832 0.07414955 0.018917048 -0.024189174 -0.059013654 -0.11510084
때 -0.15307912 0.02831048 0.07901725 -0.007673704 0.43264273 -0.37222886 0.23345152 -0.42631117 -0.05290793 0.16663502 -0.23371777 -0.31489202 0.28382784 -0.15514456 -0.4772258 0.23643039
감동 -0.43620205 0.37906063 -0.27967188 -0.37788752 0.7633263 0.068528965 0.6567105 0.24560574 0.3419746 0.47313845 -0.52347004 -0.64186805 0.41958353 -0.3923471 0.18744704 0.5571935
배우 -0.13285774 0.06726508 -0.076090954 -0.05130719 0.10235517 0.18106309 -0.019050997 -0.055624995 0.09598539 0.08241135 -0.03802758 -0.04388152 0.0580713 -0.11420544 0.03388927 0.07216891
함 -0.070926525 0.038090356 -0.055629157 -0.06325354 0.064799085 0.16129418 0.010360287 0.005208623 0.053171396 0.07733061 -0.09293129 -0.037290588 0.08235657 -0.085610494 -0.022883639 0.057247434
까지 -0.15067682 0.07902351 -0.2730576 -0.07836316 0.029407019 0.24649367 -0.004441997 0.0036244704 0.086257175 0.080620855 -0.119722776 0.05232691 0.105823636 -0.15411195 0.099840984 -0.020586096
본 -0.5174164 0.21799672 -0.33427483 -0.14292057 0.35776252 0.029135127 0.2768103 -0.26916227 0.2874316 0.3720294 -0.45446536 -0.41892165 0.46592197 -0.40640965 -0.24436444 0.36072043
볼 -0.34436578 0.009631222 -0.40740472 0.08043965 0.02604802 0.3703719 -0.0600208 -0.13387379 0.23381348 0.06794547 -0.091126725 0.077042975 0.1067515 -0.13894549 0.008345058 0.02257823
내용 0.17451999 -0.08287205 0.13196151 0.07372272 -0.25037086 -0.03414631 -0.17996141 0.013215717 -0.08893362 -0.14420739 0.13274243 0.23078333 -0.18818979 0.15549113 0.034003723 -0.13684587
보다 0.18360962 -0.19549267 0.15980849 0.1186965 -0.2980418 -0.035096113 -0.22395082 0.15304774 -0.119933486 -0.16346733 0.23424245 0.30157962 -0.22118497 0.22497277 0.15199529 -0.24180745
만들 0.26787218 -0.35326374 0.31944153 0.3336493 -0.2903861 -0.25618637 -0.29480314 0.32368284 -0.32018766 -0.27770126 0.26194534 0.29043332 -0.25637105 0.31735224 0.36084387 -0.33984503
뭐 0.32359722 -0.101871885 0.16465801 0.022618903 -0.48704103 -0.076863 -0.27012327 0.56183547 -0.07774698 -0.22159512 0.2722442 0.12490076 -0.32740805 0.33731577 0.5347581 -0.15897666
알 0.09001863 -0.14584501 0.013676022 0.22483587 -0.13050316 -0.011151061 -0.20866044 -0.17467694 -0.124659896 -0.121057875 0.102907084 0.3480411 -0.065460466 0.039757557 -0.08868068 -0.23974411
감독 0.29770687 -0.0869733 0.05002739 -0.0012124762 -0.3942887 0.029401656 -0.12973242 0.5799565 -0.02328216 -0.16259338 0.2509293 -0.003181854 -0.2549253 0.26474428 0.6190195 -0.10002071
라 -0.122708336 0.12533079 -0.16629072 -0.06697189 0.074457295 0.22081932 0.010435493 -0.04886726 0.14022578 0.08240017 -0.1088405 0.035437256 0.06984732 -0.07017526 -0.019466544 0.05320208
그냥 0.43960345 -0.2621139 0.26034787 0.08695667 -0.50856626 -0.14645872 -0.28911307 0.58002704 -0.14104928 -0.35604826 0.45896587 0.17022721 -0.41395774 0.43505433 0.6299585 -0.3029878
재미 0.12496583 0.07264339 -0.085154004 -0.1195966 -0.31688458 0.1760083 -0.121249914 0.5353278 0.08620138 0.023878042 0.08804092 0.025047887 -0.16227691 0.049123537 0.54827726 -0.056090035
중 -0.23706198 0.0464999 -0.04356581 0.008059997 0.19641739 0.017604893 0.11345103 -0.41333166 0.015247848 0.07808633 -0.1563491 -0.09391127 0.20514801 -0.14851439 -0.36535576 0.16188605
시간 0.40074065 -0.16264664 0.20408179 0.12019939 -0.51378363 -0.13775693 -0.24638285 0.48453903 -0.1349904 -0.3139702 0.41088948 0.16531967 -0.39896768 0.3760154 0.4998855 -0.2678433
지루 0.32599005 -0.22129165 0.24798411 0.19424538 -0.38607478 -0.3030012 -0.33394036 -0.009000421 -0.26948056 -0.27461123 0.31111264 0.21341443 -0.35996664 0.33423153 -0.03523982 -0.2814341
재미있 -0.1046611 0.12767038 -0.09475304 -0.11171397 0.17121118 0.13986784 0.17410159 0.121121734 0.10844082 0.1593034 -0.16598545 -0.07578207 0.105325535 -0.07783845 0.16432121 0.15035923
년 -0.03823215 0.009909645 -0.047310714 -0.050140336 -0.04730904 -0.0039678817 0.018095272 0.10249054 0.041054234 0.062322237 0.029446362 0.0074327257 0.055847492 0.009021192 0.028618341 0.034656726
였 0.03607369 -0.049666524 -0.017931543 0.04432093 0.030555177 0.035924386 0.030388523 -0.005915951 -0.0036755577 0.022058118 0.0019130595 0.046361517 -0.027208626 0.002434574 0.013364974 0.017198417
10 -0.15977903 0.13810441 -0.16876306 -0.1704729 0.21128489 0.05488665 0.16124998 0.08434485 0.12696502 0.16883504 -0.22190166 -0.22588038 0.12271985 -0.1399291 0.044279445 0.20351286
잼 -0.03791855 0.045044087 -0.13662864 -0.07868665 -0.05251077 0.2583529 -0.03298745 0.16537295 0.11322086 0.06392166 -0.0019236454 0.05003641 0.053369522 -0.053928174 0.18329746 -0.057295784
사랑 -0.30960208 0.20056973 -0.19899262 -0.20497128 0.44908136 -0.05095325 0.36634856 0.107369855 0.17321254 0.270312 -0.29477924 -0.36969438 0.31929743 -0.24269223 0.002931704 0.32809353
냐 0.20308079 -0.13913773 0.16964439 0.11550634 -0.16935231 -0.12840953 -0.16075923 0.08596023 -0.1319018 -0.16206622 0.16813911 0.16015197 -0.19824447 0.15437964 0.0822715 -0.17144862
못 0.30526516 -0.41559446 0.41460443 0.35186678 -0.3301589 -0.3075511 -0.4339003 0.26295367 -0.32985184 -0.37428102 0.3763154 0.45365804 -0.38121778 0.3670028 0.29337743 -0.4142904
재미없 -0.04909313 -0.14055379 -0.023404475 0.08031378 -0.16005588 0.08097441 -0.16044578 0.0714672 0.058718257 -0.14208837 0.08451345 0.14758487 -0.116537176 0.05249118 0.14490347 -0.08313241
서 -0.044051543 -0.02675064 -0.12461776 0.089942575 -0.04074295 0.2584998 -0.09664375 -0.05047972 0.06808028 -0.023997687 -0.029672444 0.12010756 0.032482237 -0.032414272 -0.02999716 -0.067379676
쓰레기 0.59255564 -0.47147557 0.56299263 0.40822887 -0.69057524 -0.42267907 -0.52310115 0.14708659 -0.3648025 -0.4199539 0.5307296 0.4926303 -0.6275767 0.5534384 0.20344964 -0.45892066
2 -0.11088292 -0.00979852 0.019466255 -0.036051787 0.2828815 -0.2089383 0.15606304 -0.25601047 -0.06620285 0.0444787 -0.15262827 -0.14084557 0.16616832 -0.11540392 -0.28206268 0.12294247
라고 0.15489814 0.0031841365 0.1111772 -0.03530421 -0.07196133 -0.09593363 -0.05924668 0.24836153 0.0040961597 -0.04544347 0.031254318 -0.04767836 -0.14681804 0.08039929 0.28065193 0.0032571442
번 -0.30022332 0.34388632 -0.21005812 -0.45509177 0.35099673 -0.21466446 0.38421345 -0.19833098 0.3194567 0.40359366 -0.3981262 -0.46873534 0.27024636 -0.25103185 -0.29484496 0.42951757
야 0.06680242 -0.10321758 0.08869283 0.14315619 -0.036597185 -0.11962774 -0.09819407 0.11972952 -0.09794094 -0.09940225 0.075692445 0.13845803 -0.050683748 0.12766416 0.085813776 -0.06638612
면서 0.017046127 0.028535452 0.027142707 -0.0406965 0.009264447 -0.011671413 0.041110467 0.008692931 -0.0055673346 0.009803571 -0.013311423 0.0038663521 -0.046460547 0.0071657896 0.041378465 0.044884536
다시 -0.42187512 0.2739195 -0.22699687 -0.19108629 0.63957775 -0.516189 0.68351454 -0.37970743 0.09450072 0.419622 -0.48630056 -0.6392897 0.39862412 -0.41836688 -0.5524918 0.5517079
니 0.14139852 0.002140623 0.01092031 0.00050561933 -0.19376725 0.10986844 -0.060519576 0.29384407 -0.033319395 -0.047684666 0.09185697 0.037171002 -0.07062441 0.061757192 0.34592837 -0.035017777
나오 -0.015713822 0.040034425 -0.02489828 -0.033129573 -0.0041305423 0.023065839 0.029586796 0.035072137 0.025133673 -0.018862665 0.02597579 -0.027410222 0.04556947 0.04956745 0.007138431 -0.03905357
작품 -0.12592982 0.039019324 -0.13590606 -0.06842456 0.042275805 0.21255347 -0.01205103 0.075884975 0.10910936 0.045232955 -0.09216679 -0.0038694513 0.0420633 -0.08457425 0.09842029 0.062209398
이거 0.047972642 -0.09024097 0.017086616 0.1558211 0.0040845694 0.05613414 -0.20406283 -0.15224105 -0.088345505 -0.121453956 0.04635391 0.3049404 -0.0013607958 -0.018403089 -0.19827925 -0.1880832
하나 0.026531197 0.007857313 -0.06369123 -0.020850075 -0.1634505 0.13085301 -0.12946373 0.02732528 0.05276528 -0.020880762 0.09234479 0.064548776 -0.07225054 0.038262315 0.14915717 -0.08899636
해서 0.038989976 -0.15285435 0.06406922 0.09250259 -0.15995483 -0.01401687 -0.1824727 0.03989629 -0.10504695 -0.15241717 0.097349264 0.2804335 -0.08032327 0.12229871 0.13386604 -0.12630092
줄 0.031629253 -0.024636785 0.019527748 0.075855225 -0.14592077 -0.005320189 -0.14912215 -0.058687456 -0.049472786 -0.056107957 0.10673691 0.08450389 -0.09083896 0.10592025 -0.011122891 -0.14381427
개 0.44840088 -0.3746311 0.42509326 0.3227275 -0.51408553 -0.2919458 -0.48567697 0.22914624 -0.3672103 -0.44960037 0.48755148 0.40069398 -0.46704477 0.4500238 0.25406325 -0.48893696
끝 0.24690677 -0.120885655 0.17176098 0.1434391 -0.2448835 -0.16153121 -0.1811344 -0.0018909058 -0.12467179 -0.13104205 0.19515464 0.21613577 -0.23700562 0.23388848 0.00023583902 -0.20557007
남 0.040803015 -0.055095784 -0.0024217633 0.08303508 -0.07040542 -0.0017254816 -0.11388552 -0.11754953 -0.05409763 -0.033744577 0.050571688 0.05910711 0.0079074055 -0.0017175443 -0.18834148 -0.080765195
정도 0.057713408 -0.07355001 0.038261253 0.08950095 -0.07934431 0.08542754 -0.08256885 -0.18373495 -0.030540716 -0.0318037 0.043441918 0.15685302 -0.06017322 -0.0064844256 -0.13839653 -0.08470744
마지막 -0.300767 0.21660163 -0.19671454 -0.12659842 0.56470174 -0.49951744 0.6048084 -0.39908955 0.1178865 0.3936462 -0.44977942 -0.58814716 0.34268704 -0.35657573 -0.5446097 0.5522199
이건 0.43231642 -0.28641155 0.3271903 0.052529924 -0.558566 -0.23674576 -0.31101835 0.586961 -0.18177518 -0.35971114 0.4108312 0.1974793 -0.51301473 0.41209266 0.580233 -0.3830551
임 0.1240396 -0.15050556 0.12445572 0.1628764 -0.16516834 -0.10952112 -0.21930547 -0.31437743 -0.18967855 -0.18416409 0.17718825 0.31886396 -0.15630879 0.1281072 -0.3454754 -0.21850155
액션 -0.15516222 0.05893481 -0.02157239 0.011971845 0.18423273 0.0673941 0.060513977 -0.15525484 0.06956088 0.08875996 -0.084338434 -0.01730749 0.15362684 -0.16053031 -0.16938393 0.041385934
기대 -0.17972322 0.17750353 -0.10576216 -0.1476213 0.39853704 -0.14493771 0.3473353 -0.059310183 0.11251273 0.25119683 -0.27846697 -0.34616658 0.23889326 -0.22573945 -0.2166922 0.32614505
분 -0.20487468 0.19265181 -0.17168589 -0.1262546 0.19226702 0.20739079 0.097300075 0.18645474 0.19930777 0.21155913 -0.18656231 -0.15672696 0.15670486 -0.25429067 0.11476944 0.21048823
라는 -0.12694308 0.023763025 -0.21190874 -0.007542399 -0.0045958543 0.3774602 -0.09275131 -0.14623418 0.057201058 0.0010125518 -0.018193146 0.09841671 0.041720055 -0.09236519 0.022274708 -0.03876188
ㅋ -0.1329073 0.12032131 -0.17738695 -0.035550684 0.038591173 0.36931196 0.04449365 0.14846535 0.13777712 0.09439471 -0.10551847 -0.0138944145 0.09398626 -0.1313339 0.20205781 0.0071039
3 -0.14214091 0.10517294 -0.10569279 -0.12799866 0.043589205 0.11806552 0.122801915 0.076313905 0.12228475 0.0764384 -0.102602154 -0.054809637 0.051720746 -0.05749245 0.088072196 0.07333028
다는 -0.06864453 0.04858699 -0.13553694 -0.11794139 0.068765625 0.0712126 0.09405053 -0.084189035 0.06460589 0.113452025 -0.059402775 -0.062345754 0.1037495 -0.08045827 -0.0714531 0.029382214
입니다 -0.18234548 0.18038327 -0.12901701 -0.15707436 0.24419011 0.13185713 0.21740511 0.11315815 0.12789695 0.1413692 -0.19159563 -0.20443545 0.1888615 -0.18186267 0.09311434 0.23670408
건 0.1613473 -0.12315084 0.08730095 0.19426659 -0.18635537 -0.03333753 -0.15905045 0.091313295 -0.16673186 -0.14394271 0.15961142 0.4618624 -0.15744174 0.17046684 0.13581416 -0.22063704
완전 -0.2788836 -0.020751478 -0.0446651 0.14373647 0.18674816 0.032068714 -0.008027087 -0.54438186 0.010835232 0.07000797 -0.15168078 -0.046056382 0.25564328 -0.17119879 -0.45835286 0.0948611
많 -0.04107084 0.01141436 0.013373841 -0.005293358 -0.029046714 0.02627096 -0.025257682 0.00034134462 -0.00027173758 0.0008449331 -0.04834775 -0.015663195 0.027134981 -0.023452306 -0.01658832 -0.044671632
참 -0.27494985 0.004635193 -0.07611232 0.030306978 0.29839486 -0.14879833 0.069527656 -0.39647418 -0.052721106 0.06605967 -0.1864124 -0.092131555 0.2024419 -0.14728715 -0.44022152 0.13435492
처음 -0.009053353 -0.020416193 -0.024219334 0.06933132 -0.045627806 -0.031288974 -0.022914372 -0.22903043 -0.064206995 -0.042824157 0.080250196 0.13373296 0.007962777 0.017596422 -0.25172806 -0.088488616
장면 -0.19073276 0.06135468 -0.2320874 -0.1395637 0.19942103 0.24452539 0.11462652 0.057251368 0.13744093 0.094604224 -0.09902119 -0.11526975 0.18741569 -0.15113102 0.16352205 0.13137415
대 -0.04589575 -0.060980882 -0.008478483 0.04358607 0.048815623 0.12505528 -0.11775766 -0.1416403 0.012355555 -0.071359605 0.0077338717 0.14039887 -0.0022007297 -0.008571589 -0.0872104 -0.08749188
으면 -0.043727577 -0.03669448 -0.04113246 0.010976661 -0.049702562 -0.00082238764 -0.02043277 0.017648172 -0.013638198 0.0068049803 -0.022787893 -0.018981887 0.0031770244 0.021208141 -0.012124013 -0.043241706
다가 -0.043594144 0.019871665 -0.14296567 -0.014542562 0.07744664 0.10903028 0.045909103 -0.13495855 0.034576654 0.032236673 -0.06573699 0.019651754 0.0865296 -0.03586212 -0.122488 0.0005542133
아깝 0.30621415 -0.28703207 0.25073802 0.26505777 -0.35314983 -0.27638805 -0.3512027 -0.25171533 -0.24286334 -0.30936733 0.32582262 0.27139077 -0.23240207 0.24970572 -0.3261503 -0.3446578
지금 -0.28570113 0.19067025 -0.11301836 -0.0946658 0.39779398 -0.5007915 0.4344047 -0.42270336 -0.009649788 0.29809594 -0.3820639 -0.45951536 0.34386587 -0.31226748 -0.49971724 0.44042373
이렇게 -0.0145731345 -0.05017322 0.013844394 0.10034902 -0.033704985 0.017306622 -0.17220974 -0.03386325 -0.050667558 -0.07778675 0.072488494 0.15332963 -0.005456815 0.021033233 0.073707536 -0.031798583
모르 0.041609418 0.0076248646 0.024243187 0.041543785 -0.045322668 0.024271715 -0.04419395 0.030467514 0.04947592 -0.0014349706 -0.0050272234 0.010941625 0.027703214 0.048553895 -0.005868029 0.015432384
편 -0.031508442 -0.062304884 0.020678332 0.07356627 0.057032067 0.036725093 -0.02732349 -0.097481444 -0.033831052 -0.04758523 -0.015312259 0.06799606 0.057199225 -0.019906178 -0.08954471 0.009635658
' -0.06460143 0.013311761 -0.004206592 0.058122635 0.048313506 -0.07698866 0.021785058 -0.1821883 -0.05938475 0.005428149 0.028519629 0.019487198 0.0043607657 -0.020558773 -0.2481911 -0.044448696
이게 0.49478918 -0.32749397 0.3890619 0.19646847 -0.5518865 -0.29077217 -0.40245095 0.37786263 -0.302844 -0.3591287 0.5004715 0.30132723 -0.4206654 0.42529 0.41875976 -0.409041
일 0.024576245 0.014750525 0.026323002 -0.018919325 -0.070023365 0.013211701 -0.0009481488 0.16018303 -0.011083703 -0.00636419 -0.02094495 0.002358281 -0.06600205 0.0030588068 0.22549576 -0.0058764666
돈 0.5189155 -0.5127518 0.46165553 0.40172333 -0.5660587 -0.41958266 -0.5601376 0.35837018 -0.3718229 -0.48922879 0.5767783 0.5694746 -0.4582547 0.5095654 0.40686676 -0.54483986
성 0.11453529 -0.080787204 0.11511086 0.07673094 -0.12418575 -0.10482442 -0.078755 0.15917265 -0.114558175 -0.15674902 0.11234816 0.09949592 -0.1425693 0.16792996 0.066596925 -0.1443578
시 -0.120154545 0.13467872 -0.14158054 -0.12590834 0.12100492 0.18163273 0.13806392 0.091712415 0.14815697 0.12107735 -0.13685946 -0.0721122 0.14959662 -0.17016064 0.040171616 0.12644242
이야기 -0.14778252 0.059861764 -0.19074789 -0.042298146 0.014657438 0.29821646 -0.010451273 0.13185842 0.09667191 0.057876736 -0.114345126 -0.00905329 0.06528636 -0.10345151 0.2421931 0.062052533
느낌 -0.01769541 -0.044862844 0.011976399 0.0077406787 0.032498606 0.07763363 -0.015702398 -0.13214487 -0.06766712 -0.060195424 -0.011266305 0.040754873 0.013459032 0.02513096 -0.117816254 -0.056505937
최악 0.41819325 -0.38135895 0.42367673 0.27939844 -0.57847524 -0.3381138 -0.37253413 -0.05823214 -0.34491727 -0.36103484 0.4021644 0.33291906 -0.46810403 0.3757301 -0.079063214 -0.32884282
된 -0.33097866 0.37399727 -0.3071794 -0.3826297 0.2933219 -0.23211296 0.4576007 -0.2779828 0.41661438 0.34186852 -0.31903535 -0.41915846 0.2909172 -0.30363196 -0.30347648 0.39786392
님 0.19658348 -0.1837672 0.15325789 0.1660405 -0.17935912 -0.17954914 -0.22080006 0.14387889 -0.15751012 -0.12963869 0.20327556 0.1816957 -0.19384481 0.15837543 0.15987207 -0.13098623
봐도 -0.39816913 0.5865827 -0.40829363 -0.6500329 0.5827676 -0.4059679 0.6852443 -0.29258317 0.50138277 0.51892996 -0.49700496 -0.7217108 0.38733327 -0.37834588 -0.4026374 0.6133101
어서 -0.14140052 0.17221399 -0.03405075 -0.24075954 0.16231029 -0.09213485 0.15962958 -0.118188016 0.17264067 0.1663107 -0.21859482 -0.17895049 0.1343656 -0.16567212 -0.20074598 0.23291741
애 0.16333887 -0.052090943 0.13517752 0.05847385 -0.2216447 -0.077979326 -0.14935789 0.34798685 -0.0832491 -0.029991603 0.07757353 0.040700924 -0.12643401 0.1728289 0.37866694 -0.044851746
ㅠㅠ -0.19978827 0.11144263 -0.19699484 -0.10810566 0.1346383 0.2011467 0.091609865 0.07634292 0.15988638 0.10766937 -0.17040357 -0.0946495 0.106104545 -0.13481767 0.050848138 0.06678692
전 -0.27286112 0.21645425 -0.10655235 -0.12847887 0.4731865 -0.12623274 0.28156915 -0.19231611 0.07390721 0.2568755 -0.32405663 -0.38775733 0.3453635 -0.2783965 -0.3689361 0.31516477
다고 -0.0015900135 0.0035224333 0.04391673 -0.045921315 0.014965463 -0.027622927 0.046547618 0.047957305 0.024592493 0.01533499 -0.030958867 -0.038052786 -0.03847914 -0.0065772645 -0.02476939 0.0306159
이해 0.1659288 -0.13729328 0.07163345 0.14218865 -0.15220694 -0.034438163 -0.2401463 0.058065955 -0.12866075 -0.17830805 0.14440717 0.35994792 -0.13892847 0.099142715 0.123889625 -0.19623137
넘 -0.46637392 0.74353385 -0.49979877 -0.6898768 0.5845473 -0.41934365 0.79668856 -0.20418885 0.5892906 0.49434027 -0.56030184 -0.7885439 0.45823267 -0.3757468 -0.40150535 0.63594157
인데 0.19112894 -0.1320946 0.20322812 0.17569512 -0.14946996 -0.15612681 -0.17160389 0.12722234 -0.14348891 -0.16771393 0.12901422 0.16776924 -0.18217072 0.14950475 0.10024095 -0.20148976
별로 0.4992395 -0.39114892 0.5163859 0.38210717 -0.67863625 -0.42864528 -0.5059704 0.13517977 -0.33210525 -0.46664372 0.51639867 0.38072592 -0.5419559 0.47597542 0.16314334 -0.45892835
여자 0.06945679 -0.022387307 0.026006803 0.045388184 -0.15824652 0.07821117 -0.12092908 0.20062596 0.024210049 -0.028424827 0.05974413 0.056161765 -0.10262313 0.0747264 0.17203364 -0.032770116
이상 0.044573076 -0.03631391 -0.0025082468 -0.02601972 -0.16456239 0.19771631 -0.14106259 0.191539 0.010802091 -0.056578584 0.07412898 0.09796308 -0.03592932 0.015733652 0.17274709 -0.117065206
명작 -0.40380234 0.38519576 -0.34839582 -0.46885213 0.7735084 0.1584218 0.75886685 0.32253894 0.3601996 0.40389255 -0.54463327 -0.6299655 0.4843376 -0.4316599 0.30675843 0.53359896
^^ -0.29852748 0.36023572 -0.3249446 -0.3763632 0.48571903 0.26070377 0.4844722 0.253505 0.2860116 0.35042116 -0.35868788 -0.42041022 0.35537773 -0.35106966 0.29639426 0.39932972
역시 -0.42839485 0.3012278 -0.26154634 -0.2786208 0.686542 -0.30237392 0.71046567 -0.29201123 0.15945607 0.47097045 -0.52142996 -0.72998893 0.47326067 -0.38748544 -0.39284348 0.6267506
난 -0.23327571 0.10294175 0.05365786 0.015848342 0.4353209 -0.5811348 0.35035643 -0.52711457 -0.14063953 0.260699 -0.28857478 -0.37811878 0.2712717 -0.22082713 -0.7378709 0.39545733
한국 -0.13977394 -0.044495836 -0.12487208 0.05814115 0.0765312 0.12924345 -0.040996864 -0.35517773 -0.035036582 0.010666031 -0.051559024 0.048127923 0.13112041 -0.04803619 -0.23450437 -0.05879733
그리고 -0.383663 0.34799328 -0.2732086 -0.19048022 0.49107203 -0.329512 0.49306867 -0.38788182 0.13280305 0.42708367 -0.47490788 -0.6296752 0.4546354 -0.42647344 -0.4107562 0.5402304
또 -0.29150474 0.15177542 -0.13940522 -0.07209686 0.24174662 -0.1236226 0.18958037 -0.45393184 0.13699642 0.15570715 -0.2484444 -0.30701584 0.2740484 -0.29746827 -0.4688381 0.224896
에게 -0.10348617 0.09613043 -0.14810151 -0.10975345 0.10006411 0.049628742 0.13702604 -0.14762676 0.16995582 0.14636472 -0.13579842 -0.14710432 0.14958835 -0.091945924 -0.11060752 0.07304959
만든 -0.031151725 0.008025093 -0.08307495 -0.018984608 -0.067498185 0.29988578 -0.17829733 -0.0030871117 0.011758086 -0.031959698 0.051290397 0.3748845 -0.024766847 -0.0038318331 0.09554954 -0.1594999
많이 -0.1737393 -0.12130873 -0.021790965 0.1999152 0.074715115 0.10915179 -0.06130535 -0.52714324 -0.025964541 -0.0074814702 -0.053346124 0.10367962 0.14226484 -0.072138116 -0.42596593 0.009821583
부터 -0.002975181 -0.06320612 -0.05359838 0.0785625 0.0052695763 0.12333659 -0.042380475 -0.08951615 -0.027294092 -0.052019138 -0.028472116 0.18378393 0.01388524 -0.059845615 -0.015816478 -0.096748725
걸 -0.025098894 -0.019561522 -0.11452264 0.11006224 -0.018680839 0.27746496 -0.10755476 -0.15139937 -0.042293567 -0.08343245 0.0492117 0.19862498 0.039488878 0.011473104 -0.12475083 -0.1358517
는지 -0.010016691 0.02722254 0.01478168 -0.012146555 0.038324643 0.034053016 -0.0033034682 0.04841033 -0.027027106 0.044075582 -0.04755981 -0.026367093 0.015609298 -0.040402222 -0.004580807 -0.008229744
주인공 0.001843497 -0.06860361 0.032724522 0.057795383 -0.07262961 0.0646321 -0.14848736 0.10809219 -0.019825224 -0.016906438 0.095599055 0.13362102 -0.006696339 0.034976434 0.17999437 -0.10894651
두 -0.19575143 0.3760003 -0.12045985 -0.4023028 0.38272288 -0.39184707 0.43468302 -0.33201107 0.18099955 0.39004657 -0.30623388 -0.5156854 0.25546932 -0.22865179 -0.42442667 0.39554474
우리 -0.18575174 0.09300287 0.017653398 -0.0661228 0.45149043 -0.30761632 0.34712958 -0.27576047 0.029419348 0.21801685 -0.33220783 -0.37208116 0.32293183 -0.24390674 -0.42353585 0.30514258
합니다 -0.040486332 0.083036914 -0.076413095 -0.039569877 0.07983346 0.23864073 0.025169225 0.030684588 0.097867265 0.07603417 -0.005946338 -0.045308635 0.074872784 -0.106771156 0.061382942 0.00028511928
받 0.02878872 0.049372423 0.00835092 -0.011331201 -0.002067458 -0.009088028 -0.0039270744 0.04868089 0.041113403 -0.043756377 0.010191642 0.03874637 -0.01580266 -0.016980778 0.032985393 -0.036128927
살 -0.11138933 0.14772406 0.057317175 -0.13082421 0.19969848 -0.16593744 0.22785555 -0.10876957 -0.0043437504 0.19212131 -0.16140783 -0.26642734 0.067794554 -0.11737267 -0.20366229 0.18075173
괜찮 -0.11099525 0.16181399 -0.091352895 -0.17686239 0.18783686 -0.01549121 0.25337783 0.15954381 0.10422778 0.17200972 -0.18008886 -0.21558414 0.18524618 -0.08181195 0.06801195 0.16942163
!! -0.2259313 0.1550296 -0.22212432 -0.16782884 0.19852641 0.28969035 0.22159548 0.17845692 0.18235296 0.17643248 -0.18568514 -0.17820255 0.19070646 -0.19986509 0.23118345 0.13769734
연출 0.10488185 -0.09220349 0.07103529 0.06796197 -0.17135905 -0.052785214 -0.18010296 -0.06494708 -0.10595519 -0.0743214 0.1186042 0.17163503 -0.11802804 0.08050758 0.024919102 -0.08271915
길 -0.0537231 0.07938893 -0.12048132 -0.05306098 0.030501453 0.11846853 0.056179162 0.0114791235 0.04904378 0.10584835 -0.05775033 -0.09485948 0.05888051 -0.08131618 0.05790287 0.06347612
엔 -0.10997318 0.12706083 -0.1674264 -0.15956835 0.069807 0.112375386 0.1262807 0.00047956538 0.12167198 0.14148974 -0.1204608 -0.075167514 0.0564646 -0.13439609 -0.05847872 0.1321744
때문 -0.2081638 0.18207315 -0.15384173 -0.18379977 0.21972689 0.1530029 0.22178863 0.14533336 0.19336867 0.19330728 -0.23555532 -0.17058569 0.18929307 -0.15964115 0.18524118 0.23974487
기억 -0.21630187 0.17468765 -0.21882847 -0.13630979 0.17217517 0.32600424 0.13946162 0.29047027 0.16882335 0.14377281 -0.16784357 -0.091910884 0.16256507 -0.14973915 0.37488624 0.08495387
한다 -0.057781268 -0.018138587 -0.038729034 -0.055341426 -0.008747543 0.024633875 0.012451456 0.08150275 0.008392364 -0.025697626 0.0034949104 -0.0712007 0.06517581 -0.07927366 0.051631622 0.019467292
ㅎㅎ -0.30132464 0.25188357 -0.23651452 -0.26174867 0.34725112 0.14583166 0.33377194 0.1673268 0.23451279 0.22269586 -0.2717329 -0.36181793 0.30429834 -0.20198444 0.104651876 0.29398322
저 -0.10553336 0.06764157 -0.24323317 0.027530674 0.025935862 0.3647675 -0.08370903 -0.07979584 0.1372573 0.058837928 -0.0029990708 0.05908374 0.051055115 -0.12605146 -0.082857534 0.00873328
이나 0.22632772 -0.15569803 0.14657776 0.22694802 -0.16539991 -0.17859028 -0.22081782 0.20616122 -0.18909264 -0.23078033 0.15482901 0.23076223 -0.20789112 0.16266792 0.22759593 -0.25403094
요 -0.023911156 -0.080120645 -0.004068863 0.019663692 0.04765872 -0.0829776 0.042278796 -0.16884704 -0.044553947 0.019918744 0.042157214 0.056603815 -0.020296864 -0.016008325 -0.225774 -0.023148749
꼭 -0.49387667 0.48824003 -0.30212632 -0.24899615 0.6935256 -0.37701407 0.852081 -0.2585093 0.17899449 0.6017654 -0.6317845 -0.82407707 0.52074176 -0.47712576 -0.4690505 0.7719421
재 -0.11876646 0.15632531 -0.22166198 -0.15698898 0.061676156 0.20495586 0.12356158 -0.099474065 0.27119103 0.14314672 -0.09294984 -0.078180976 0.12237351 -0.16790417 -0.04657666 0.08339965
현실 -0.18105571 0.18905008 -0.19990599 -0.2434766 0.34545988 0.038989794 0.3103623 0.19517952 0.18180217 0.22747628 -0.2094826 -0.25589904 0.20654233 -0.20736393 0.08910252 0.25822422
ㅡㅡ 0.32231253 -0.22414467 0.2676445 0.18270539 -0.31772077 -0.18037595 -0.22717108 0.06396984 -0.20577012 -0.19438519 0.28622442 0.17593017 -0.3487143 0.2731791 0.117530234 -0.18527955
긴 -0.16917576 0.279473 -0.07690133 -0.39912754 0.3792203 -0.23899548 0.4331441 -0.29957592 0.20559922 0.25996554 -0.34689826 -0.40431452 0.19577198 -0.21670991 -0.35836717 0.33991173
랑 0.19101962 -0.19919059 0.16684219 0.20280057 -0.15944016 -0.22628899 -0.21630907 0.17871834 -0.22801335 -0.22490957 0.26088592 0.16673762 -0.17923719 0.25505573 0.15256512 -0.22752935
며 0.12682761 -0.17984274 0.11992413 0.18923539 -0.17627281 -0.13544837 -0.16140254 0.16194929 -0.18762179 -0.15687676 0.13396592 0.071869835 -0.12378285 0.11939715 0.117880456 -0.18827651
무슨 0.47044146 -0.3231476 0.35822967 0.11824475 -0.55196846 -0.22852004 -0.38243082 0.49672404 -0.25997156 -0.32016027 0.425696 0.29103217 -0.4626094 0.42036685 0.58235157 -0.3810458
죽 -0.14863122 0.21308745 -0.037678823 -0.24899252 0.26587492 -0.28308088 0.30437347 -0.09649023 0.19891128 0.25329465 -0.20878474 -0.28898767 0.22049019 -0.20536056 -0.16710691 0.31971428
내내 -0.14273238 0.068291545 -0.21414444 0.0024115602 0.028128156 0.4888088 -0.07632602 -0.20898372 0.0640503 -0.01889983 -0.032447845 0.18367065 0.02888326 -0.082388334 -0.08188128 -0.026563156
남자 0.057378065 0.0042652274 0.02111809 0.014944942 -0.008308154 0.01890938 -0.09033618 0.07481625 0.01594214 0.01889783 0.025775628 0.047762 -0.033661496 -0.016176753 0.0733629 -0.011779141
마음 -0.16628118 0.091728896 0.026763473 -0.053250268 0.55571914 -0.3802464 0.33550295 -0.3135244 -0.015496063 0.16749786 -0.29490182 -0.27045155 0.2589644 -0.15392306 -0.43107256 0.3286936
세요 0.036795687 -0.018851269 0.03147011 -0.033822834 0.04417524 -0.0487231 0.03190433 0.0051028244 -0.028194845 -0.008140206 -0.014858387 -0.026195442 0.029670682 0.0033318177 -0.040451862 0.033262346
결말 0.04389839 -0.048072174 0.050568566 0.07980857 -0.15490234 0.026108649 -0.065586865 -0.01657381 0.012654028 -0.018015666 0.09089811 0.08859226 -0.08798419 0.08493998 0.10687238 -0.11407357
공포 0.13927609 -0.035024345 0.0033934833 0.008338693 -0.16729078 0.008108665 -0.07541802 0.23499997 0.013181509 -0.08877979 0.06620274 0.050592672 -0.1359624 0.07685858 0.2249439 -0.10015902
속 -0.28536558 0.25246614 -0.1803078 -0.32461274 0.24593781 -0.059378933 0.29203716 -0.19027811 0.32579228 0.30268052 -0.26558033 -0.24886471 0.2177221 -0.19143754 -0.17460419 0.3079287
인생 -0.34872887 0.24099466 -0.20097074 -0.2489667 0.53215337 0.0020781732 0.37719044 0.020923594 0.24741952 0.31765398 -0.42708308 -0.35595813 0.38751334 -0.28496698 -0.09799238 0.3712742
전개 0.19186516 -0.13510355 0.1850725 0.08909071 -0.32043213 -0.090814784 -0.21040568 0.008179028 -0.08761203 -0.1987256 0.21007623 0.15765303 -0.24704318 0.19378625 0.025191095 -0.14600842
짜증 0.452362 -0.3830934 0.47302836 0.40557516 -0.5564171 -0.38816077 -0.45767614 -0.035407983 -0.31338972 -0.3655322 0.460829 0.43753386 -0.50311416 0.39318565 -0.05863972 -0.39048076
소재 0.022758393 -0.06468678 0.12128713 0.07530425 -0.083436936 -0.07852256 -0.095427 -0.051160708 -0.032555327 -0.030836368 0.0867528 0.0755877 -0.054624513 0.049302306 -0.033422478 -0.08848093
아서 -0.11457318 0.13422011 -0.049371317 -0.19159043 0.19037312 -0.07752303 0.14065994 -0.15734428 0.1360754 0.11330262 -0.1715879 -0.14182715 0.13982946 -0.11754431 -0.12818778 0.13010153
씨 0.051866315 -0.14255248 0.079536766 0.1783012 -0.16740239 -0.028572448 -0.15220043 -0.09952139 -0.0812005 -0.19710562 0.15064277 0.23513973 -0.10705706 0.09486175 -0.08327594 -0.23520583
다른 -0.29544854 0.28082433 -0.21175216 -0.13641322 0.29986623 -0.006628812 0.29985595 -0.12873365 0.25650772 0.2481838 -0.33095625 -0.2588545 0.26732662 -0.28576127 -0.18397376 0.26278287
짱 -0.38200295 0.34231848 -0.29632196 -0.38987064 0.7669731 0.101606146 0.688021 0.28472018 0.33863637 0.3845011 -0.50350106 -0.6606103 0.45680925 -0.39737678 0.1886626 0.525333
아요 0.17245562 -0.19057441 0.13832183 0.16266836 -0.15814017 -0.18334968 -0.169356 0.19061215 -0.16114151 -0.1802038 0.11906142 0.14453334 -0.14478871 0.13781762 0.10173186 -0.10760988
뿐 0.122576244 -0.07276629 0.08527669 0.03632108 -0.09773844 -0.054808438 -0.072369196 -0.02375313 -0.053682704 -0.11526371 0.054740757 0.1192999 -0.105889775 0.092488304 -0.012687588 -0.055873856
~~ -0.17252575 0.14488912 -0.10870113 -0.072902136 0.13935986 0.19800091 0.15595381 0.03224743 0.117143214 0.10276964 -0.10133207 -0.11513469 0.10786739 -0.1395962 0.13260902 0.1007678
필요 -0.14521217 0.11229493 -0.022840148 -0.08946362 0.41785023 -0.22376874 0.30113485 -0.21141921 0.05458534 0.18260093 -0.2831533 -0.29819012 0.23245925 -0.24998423 -0.2664416 0.24908732
별 0.4480644 -0.24367173 0.34718734 0.11755991 -0.40609387 -0.2199095 -0.37922847 0.5449306 -0.16696306 -0.25378302 0.3960988 0.2026409 -0.36028457 0.34237176 0.59151435 -0.27003834
낮 0.023569146 -0.07160069 0.054685615 0.025288768 -0.026950363 0.049809303 -0.050965603 0.049529407 0.012462902 -0.028686598 0.035453837 0.0482405 -0.046180498 0.023920683 0.05260413 -0.036275525
오 -0.03587099 0.016832605 0.023841742 0.028059509 0.13075575 -0.07211047 0.1101845 -0.22940296 -0.022674628 0.03399048 -0.0355054 -0.11259952 0.09209244 -0.09496506 -0.20553598 0.094110966
;; 0.07452309 -0.11924428 0.07223081 0.08151598 -0.15950891 -0.03079925 -0.16296043 -0.032677267 -0.044835214 -0.09434112 0.071592815 0.074618034 -0.0703137 0.0724167 -0.049316086 -0.14902523
은데 -0.024189843 -0.029199673 -0.024155378 0.005569935 -0.03250233 0.03453121 0.008494876 -0.00839176 0.014740419 0.035334934 -0.044399764 -0.04501014 0.028566789 0.047084738 0.03305999 0.037171517
아이 -0.08873955 0.07753732 -0.07991149 -0.026919696 0.063500844 0.1069788 -0.0045446497 -0.15839626 0.02340701 0.018252224 -0.070345186 0.020725043 0.09571508 -0.09579775 -0.043054927 0.06330834
일본 0.13879158 -0.16288546 0.16729854 0.119059876 -0.21318546 -0.12464149 -0.29338938 0.07964293 -0.17412077 -0.22886105 0.17876819 0.32919964 -0.22423661 0.13818443 0.08624142 -0.1987568
유치 0.27158713 -0.17508973 0.2692484 0.15776886 -0.35187367 -0.2191546 -0.29889363 0.08747903 -0.14146523 -0.2392403 0.3094902 0.13869199 -0.2743818 0.25971377 0.10434215 -0.18602835
반전 -0.13891183 0.12046864 -0.12172412 -0.106331065 0.19216917 -0.013966325 0.10672395 -0.10730691 0.0461057 0.1414045 -0.09138001 -0.10415596 0.12238657 -0.097918205 -0.13451268 0.08350663
수준 0.2580749 -0.19976771 0.21119907 0.092756204 -0.30357656 -0.15545727 -0.25221643 0.10005001 -0.13934536 -0.16956292 0.20838593 0.1387816 -0.2302088 0.19298942 0.13639566 -0.16903043
음악 -0.25561672 0.19217001 -0.08274751 -0.158535 0.5186227 -0.22000436 0.33596268 -0.1274232 0.049062464 0.2692241 -0.31386077 -0.4248346 0.30591005 -0.2126721 -0.2728591 0.36209336
다니 -0.04550301 0.04873171 0.007954728 0.047155384 0.032822814 -0.015971921 -0.0042955168 -0.010178208 -0.04397453 0.019781742 0.036844578 0.04677004 0.015756372 0.01657689 0.003282033 -0.040325224
) -0.053856317 0.023100857 -0.044073086 -0.09938861 0.062254746 0.079800144 0.03859342 0.019284954 0.05118846 0.10834187 -0.03608879 -0.10298855 0.12080738 -0.10050784 0.060499415 0.05127604
맞 0.14310674 -0.13312651 0.18095213 0.14631818 -0.17020114 -0.13125198 -0.102456555 0.1578923 -0.19101888 -0.15878348 0.17507665 0.11138136 -0.16227603 0.20640378 0.17307965 -0.105376415
매력 -0.24464695 0.28622642 -0.21724638 -0.2835824 0.36690554 0.086635455 0.40624854 0.15983178 0.24353522 0.2709953 -0.2850912 -0.35596436 0.31674027 -0.21994135 0.12500374 0.34794015
가장 -0.29178992 0.430235 -0.23569134 -0.4641447 0.4774845 -0.49996236 0.5673892 -0.37801075 0.28014278 0.41093335 -0.43247518 -0.5895082 0.2780225 -0.31242076 -0.48139066 0.52244866
가슴 -0.37591597 0.334601 -0.19761884 -0.29132095 0.6480947 -0.30167922 0.72070163 -0.16142783 0.20239519 0.46920437 -0.57915336 -0.7146114 0.485696 -0.3912324 -0.39165267 0.6583291
인간 -0.18904427 0.12745617 -0.17676769 -0.1915474 0.26225457 0.029856801 0.25761697 -0.016013056 0.14845608 0.16987464 -0.24893597 -0.20936438 0.19940564 -0.21746764 -0.0047420636 0.1870617
데 -0.11985757 0.16340978 -0.113091104 -0.1095272 0.17725758 0.05456161 0.20482384 0.001457861 0.15379834 0.14250097 -0.15536925 -0.14211258 0.16631162 -0.10933696 -0.010873232 0.115924045
웃 -0.12630817 0.14678036 -0.022364056 -0.16161218 0.119524226 -0.08872825 0.1302049 -0.06694292 0.07743803 0.10446354 -0.15095529 -0.14177312 0.08091773 -0.16402252 -0.16965774 0.14576147
ㄷ -0.16147205 0.1541716 -0.10413223 -0.12809983 0.16353899 0.10115083 0.15482965 0.14923353 0.061199702 0.12451274 -0.14067006 -0.08540664 0.08394865 -0.0931811 0.19424295 0.13524786
높 0.014600266 0.023991141 0.041355196 -0.03611114 0.039598215 0.04133338 0.027781595 0.014429819 0.023076657 0.047575008 -0.0023561604 -0.03968532 -0.0123307705 0.018912915 0.0043030754 -0.014806174
굿 -0.41985807 0.37100956 -0.3132178 -0.37991196 0.67440486 0.1406339 0.64945245 0.32961857 0.32478005 0.38670263 -0.5051075 -0.5449026 0.4693806 -0.35568786 0.27239886 0.5102008
인지 -0.06451617 0.15770525 0.067172185 -0.10831063 0.15470882 -0.15643403 0.13086991 -0.08656598 0.052184522 0.111528456 -0.14058755 -0.19714262 0.06261108 -0.11664825 -0.07704516 0.17729436
밋 -0.020221984 -0.00456189 0.0020877495 0.04549152 -0.0278759 0.0320015 -0.0270316 -0.017559934 -0.046064686 -0.002219271 -0.04745221 -0.026143266 -0.0060854927 0.01592416 0.03640667 0.036183286
없이 -0.061224535 0.007462794 -0.017048188 0.025487663 0.056056358 -0.0768638 0.028722316 -0.23844846 -0.022858135 0.03031992 -0.054120786 0.016217489 0.03015946 -0.039818816 -0.2119676 -0.04736829
ㅠ -0.11243631 0.046199642 -0.1748767 -0.10035942 0.09898594 0.17383066 0.1182364 0.07446574 0.14571324 0.03714738 -0.09012394 -0.067842886 0.0835149 -0.08724189 0.074343145 0.07624864
( 0.089548446 -0.112696044 0.14411679 0.17711593 -0.124925256 -0.08419748 -0.15301876 -0.110067226 -0.16005583 -0.18893929 0.1180673 0.18694653 -0.18292424 0.1458537 -0.13385256 -0.20205857
만드 -0.037940193 -0.037112355 -0.043659043 -0.008028828 0.018025424 0.0372752 0.020108286 -0.025845313 0.0423182 0.02924129 0.0078050606 0.04349036 -0.049674965 0.011695623 0.015716229 0.0065606833
원작 0.08751413 -0.025021007 0.014071354 -0.021613264 -0.21969661 -0.025957778 -0.07451825 0.32351062 -0.040691715 -0.09700325 0.10898902 -0.032757286 -0.12603267 0.1271304 0.32156032 -0.024196098
눈물 -0.22008832 0.15967214 -0.048468117 -0.13821454 0.57473236 -0.16164257 0.38369715 -0.11501194 0.06791218 0.299856 -0.32397452 -0.38872457 0.31078395 -0.28950256 -0.23460124 0.41722196
준 -0.27283713 0.0996331 -0.2614489 -0.10872865 0.08947254 0.15866567 0.00998053 -0.11909427 0.31366062 0.11280652 -0.1573763 -0.08381976 0.14835232 -0.21261953 -0.04529684 0.086451314
보여 -0.13494767 0.07464293 -0.09910181 -0.05086849 0.032775734 0.19244176 0.009074553 -0.0877156 0.08136423 -0.0015640403 -0.06117751 0.008830798 0.114032194 -0.11699251 -0.08774171 0.008891913
노 0.33839026 -0.2086398 0.24155185 0.22549598 -0.31604308 -0.28017408 -0.27396405 0.111643694 -0.22185908 -0.21468101 0.3233497 0.22767946 -0.2810442 0.2843305 0.11547618 -0.22630692
급 0.15350775 -0.116131485 0.06422822 0.048534162 -0.1260959 -0.085118696 -0.046444617 0.12676196 -0.09953489 -0.097174644 0.08749593 0.05658602 -0.15384583 0.097976014 0.16580911 -0.06636519
용 0.2749773 -0.2902116 0.24655141 0.3112536 -0.25931907 -0.24048112 -0.2564929 0.27400693 -0.26061928 -0.18833898 0.24613066 0.23868306 -0.26962358 0.26797614 0.24977067 -0.22270614
인가 0.20954706 -0.21125671 0.13601194 0.21916482 -0.2072315 -0.19927938 -0.17528611 -0.026784608 -0.15837212 -0.21576524 0.1766249 0.21946938 -0.2215735 0.16776593 -0.024763139 -0.16908185
을까 0.04037411 0.0046133623 0.039037038 0.012452733 -0.0007645264 -0.021437455 0.014211897 0.022413421 -0.0041929 -0.028985072 0.033528235 -9.630993e-05 0.0051729195 0.027020607 -0.045810975 0.03379898
코미디 0.050042603 -0.107520506 0.00071586313 0.13199918 5.9828286e-05 0.0039442135 -0.061502628 -0.18033579 -0.10919091 -0.020384872 0.015732514 0.15524913 0.005214688 -0.0054598036 -0.20427896 -0.080473825
찍 -0.040906787 -0.035007894 0.036275912 0.004505921 0.041596185 0.013221908 -0.0043365583 -0.026431441 -0.026687836 0.004752539 -0.034300327 0.040775243 0.019463446 -0.02409929 0.026013684 0.03767654
화 0.16019532 -0.21363786 0.1560254 0.13025217 -0.19408777 -0.110806964 -0.25341627 0.029437633 -0.16631997 -0.22459146 0.19660254 0.19174726 -0.1849371 0.13886133 0.06624964 -0.21290822
쓰 0.12750852 -0.16610457 0.09707029 0.10730987 -0.18116893 -0.05251274 -0.1738743 -0.08162519 -0.092571415 -0.17870168 0.1953613 0.18909082 -0.1592061 0.13812234 -0.080378965 -0.14473335
아직 -0.17001672 0.22571816 -0.06666998 -0.21185942 0.2635957 -0.123831555 0.32267728 -0.1608955 0.07450225 0.17812474 -0.17136936 -0.25289 0.14022651 -0.16429248 -0.20457302 0.25736606
모든 -0.30433518 0.48436213 -0.29830667 -0.44838804 0.4352404 -0.45569843 0.5302673 -0.3401555 0.27859536 0.43672583 -0.41877633 -0.5423983 0.35783762 -0.27940825 -0.44327813 0.42646617
추천 -0.19261284 0.10321358 -0.1980806 -0.12907702 0.1932141 0.21106866 0.1659801 0.108625144 0.15014032 0.09511662 -0.11568662 -0.17607388 0.2178331 -0.19780381 0.0523393 0.1363349
5 0.046769526 0.062018275 -0.06821166 -0.0651594 -0.09930594 0.049234595 -0.07436597 0.15887913 0.08562342 -0.032777008 0.043315984 0.013904202 -0.07752286 0.015272156 0.23561732 0.010092532
신 -0.013762741 -0.059358906 0.011176597 0.056447234 -0.08111655 0.09935715 -0.08758693 -0.054545965 0.01829966 -0.059051793 0.07191921 0.18112974 -0.045500863 0.03104537 0.05401524 -0.08660692
아닌 0.034039687 -0.12112281 0.06005284 0.17358413 -0.046983726 -0.023378478 -0.18034148 -0.27215648 -0.11551949 -0.1234962 0.09182929 0.37827694 -0.054564197 0.12191332 -0.2503874 -0.22842418
마 0.008464154 -0.027467482 -0.023241911 0.10125289 -0.059678894 0.0013409593 -0.14063212 -0.17475565 -0.01973124 -0.08774441 0.025795499 0.14249924 0.041931078 -0.023099082 -0.16356537 -0.09012248
울 -0.25639948 0.42266032 -0.17657962 -0.50030386 0.4078255 -0.447734 0.4845674 -0.1780373 0.290696 0.42199254 -0.38873696 -0.4909011 0.34193602 -0.3343767 -0.32854566 0.49049953
자체 -0.062320385 0.024170412 -0.092912555 -0.058343437 0.0120198475 0.10614771 -0.041566066 0.03886343 0.07255844 -0.044126183 0.008727064 0.046406984 0.007461443 -0.019809488 0.12339971 -9.2666436e-05
4 0.15659824 -0.12684469 0.119740136 0.19359739 -0.10789733 -0.0986764 -0.22571534 -0.1293819 -0.11411562 -0.13422559 0.15364993 0.27867875 -0.10328289 0.12838484 -0.1558757 -0.20064814
실망 0.44176432 -0.45210853 0.50104815 0.44163245 -0.57506186 -0.45742765 -0.5341852 -0.24463183 -0.40789738 -0.40252686 0.4630433 0.51680887 -0.47279757 0.46566856 -0.22856446 -0.44775507
처럼 -0.08867094 0.056244012 -0.016875567 -0.09128413 0.1731434 -0.13897401 0.10516799 -0.20062797 -0.02500666 0.059398282 -0.09163568 -0.14045268 0.16143124 -0.13369164 -0.24659373 0.13340835
여 0.09532044 -0.20363961 0.14096072 0.202233 -0.101319216 -0.07345229 -0.18990295 0.17159234 -0.18645406 -0.122328594 0.11912969 0.17240506 -0.12527636 0.10003089 0.16202918 -0.20101854
몇 -0.26871613 0.19155455 -0.18955529 -0.18875094 0.20836973 -0.066712014 0.18545136 -0.2869446 0.1806188 0.15757903 -0.23825759 -0.27897772 0.24934322 -0.23599406 -0.2916051 0.26855177
눈 0.20501873 -0.17838654 0.1862825 0.17919223 -0.25453198 -0.07912088 -0.24276887 0.13292436 -0.11812683 -0.19930623 0.27327287 0.3152679 -0.22061415 0.17280631 0.1327773 -0.21976885
란 0.0757059 -0.09663953 0.02830286 0.16333906 -0.059037317 0.0006263808 -0.089541525 0.03815294 -0.06798245 -0.104659565 0.13405481 0.17379461 -0.07525705 0.08386655 0.11939616 -0.12627839
대한 -0.36891973 0.37915534 -0.2964846 -0.3082016 0.34973016 -0.20316522 0.38926667 -0.23296677 0.32046124 0.3911451 -0.36741126 -0.3822589 0.33053407 -0.2888963 -0.3539291 0.37014547
는다 -0.01457436 -0.024738073 0.027726863 0.027835514 0.016039457 0.03038514 0.015691806 -0.023354758 -0.006609749 -0.014689647 -0.028727783 0.031098213 0.033169094 -0.01100998 0.04076947 0.029964719
스럽 -0.033109628 -0.005099334 0.033765327 -0.04441389 0.022221867 -0.022731697 -0.010639023 -0.034566533 0.049369525 5.58272e-05 -0.0154921785 -0.04807247 -0.015037965 -0.035309255 -0.014303576 0.00045950338
대박 -0.22877619 0.22743563 -0.13465278 -0.23120803 0.51817334 -0.118842505 0.38584775 0.031543218 0.15620281 0.21393825 -0.33255985 -0.34051895 0.25505164 -0.27035952 -0.096429594 0.33584267
죠 -0.1519442 0.18977511 -0.037204195 -0.11057528 0.124318235 -0.13161787 0.19272947 -0.11065522 0.08768993 0.10455984 -0.19240697 -0.19574763 0.11351835 -0.11461138 -0.19807515 0.1667651
몰입 -0.0057004713 0.05373586 -0.09905963 -0.042631824 -0.06724728 0.18821537 -0.03162812 0.22363499 0.09580748 -0.002506206 -0.014873235 0.012319096 -0.048199248 0.042965177 0.3091719 -0.006294077
캐릭터 -0.030672397 0.022028478 0.00532611 0.029531682 -0.018906238 0.0578632 -0.084948175 0.022954952 -0.035327036 -0.038746238 0.009875289 0.048009522 0.0077120806 0.016493773 0.02164307 -0.085214324
모두 -0.3749839 0.43513045 -0.2854279 -0.4589474 0.44397008 -0.45100695 0.5340422 -0.22571684 0.3430528 0.43971354 -0.47337407 -0.60929394 0.38314745 -0.37295714 -0.4089544 0.4764458
솔직히 0.44840643 -0.39539889 0.41914478 0.38059416 -0.40164164 -0.36435348 -0.47705287 0.35034588 -0.35873657 -0.42433742 0.38731503 0.44986087 -0.4468304 0.39054674 0.2779713 -0.42547172
그런 -0.26450494 0.06259809 -0.19653015 -0.037576158 0.24009712 0.08627181 0.00031827326 -0.30040306 0.11880394 0.09929637 -0.18304464 0.013366036 0.30185103 -0.23619714 -0.21451598 0.13255365
나라 0.0054378007 -0.16585533 0.12853627 0.14327592 -0.07878992 -0.08252221 -0.20000409 -0.31215498 -0.1886206 -0.100067884 0.13849704 0.20175914 -0.03175732 0.05956797 -0.22656864 -0.20326823
건지 0.40938953 -0.33680192 0.36634475 0.29835626 -0.47122732 -0.35826135 -0.43379113 0.017036164 -0.324734 -0.32229012 0.3794305 0.3590336 -0.3857841 0.3089068 0.03215015 -0.37004325
가족 -0.24806936 0.20893691 -0.21426922 -0.17043483 0.2527488 0.0047942065 0.22285561 -0.04796843 0.14106807 0.18785304 -0.21961205 -0.2643701 0.25926128 -0.2823741 -0.117052965 0.27807584
될 -0.1317689 0.055624086 -0.16585074 0.020175148 0.013186702 0.4135995 -0.08183624 -0.06704228 0.14761956 0.028564217 0.00352974 0.13861863 0.021005616 -0.10876827 0.023218457 -0.06919044
다면 -0.07451594 0.14427343 -0.030625846 -0.20958498 0.17475943 -0.11508469 0.1855644 -0.08133473 0.08854706 0.16440223 -0.17699942 -0.18468669 0.094499156 -0.16354512 -0.18669692 0.17747197
아주 -0.2839987 0.08069646 -0.12025218 -0.007933098 0.23002377 -0.030995766 0.0746278 -0.3109095 0.092197984 0.1816439 -0.23527987 -0.09379503 0.25637275 -0.24924141 -0.24267532 0.17454605
ㅎ -0.24492913 0.16604276 -0.30166984 -0.17765732 0.17356652 0.29876834 0.22360982 0.17899379 0.20918526 0.2080234 -0.27440766 -0.2182655 0.2726286 -0.25530985 0.2349529 0.18239436
; 0.12604406 -0.041617434 0.04114952 0.11828936 -0.15605494 -0.10284273 -0.15981922 -0.026758978 -0.05466314 -0.049407214 0.14189117 0.1392259 -0.088617414 0.074485496 0.009287895 -0.12021869
연기력 -0.14970922 0.030384675 -0.11761116 -0.023306405 0.12434003 0.113187745 0.0521885 -0.034233928 0.121963665 0.07569611 -0.07184174 -0.038947906 0.18033466 -0.12133563 -0.07438758 0.034652486
여운 -0.23292722 0.32692656 -0.21727534 -0.30300528 0.5536488 0.060660657 0.52810764 0.15110065 0.21154805 0.29014304 -0.33245158 -0.47161773 0.3127206 -0.29281923 0.13261399 0.4092789
그래도 -0.28732672 0.240041 -0.083459854 -0.13478221 0.42440796 -0.3234528 0.43211448 -0.28073555 0.10139028 0.31420875 -0.31824392 -0.40784773 0.3333782 -0.2497328 -0.41491583 0.39378843
시리즈 -0.16220786 0.050005972 -0.060865905 -0.054787923 0.2453231 0.058673497 0.11073485 -0.020038797 0.09266913 0.10365803 -0.09856015 -0.13072884 0.18828166 -0.11835496 -0.06870436 0.10663455
- 0.03764533 -0.06121537 0.043348733 0.022958511 0.018528054 -0.036750026 -0.106261626 -0.097240075 -0.04881767 -0.08928524 0.028149778 0.06617965 -0.06731728 -0.017333461 -0.13412137 -0.050737984
모습 -0.28061047 0.21015313 -0.17110763 -0.22237782 0.39678276 0.10815336 0.41102502 0.1820741 0.20348641 0.2351458 -0.35871038 -0.3589427 0.3353687 -0.23399533 0.09220376 0.37514463
전혀 0.37081257 -0.39343843 0.32906073 0.33949852 -0.3568879 -0.21412452 -0.3799623 0.3866369 -0.37055305 -0.39837015 0.3666057 0.56219363 -0.3372875 0.34500182 0.3612676 -0.35444382
뭔가 0.043628186 -0.11579756 0.10773123 0.12725088 -0.08065444 0.0059181037 -0.2009647 0.070854165 -0.12067399 -0.10782446 0.068129 0.30895627 -0.049398363 0.09462591 0.13984263 -0.1875764
후 -0.030640012 0.017214812 -0.040103056 -0.036911324 0.07005554 -0.010334416 0.09134193 -0.04323132 -0.020504814 0.07049242 -0.06137701 -0.09921966 0.054781657 -0.056170847 -0.07287181 0.07743948
계속 -0.51172304 0.14053409 -0.52280533 -0.16238259 0.082453 0.11511209 0.09163301 -0.3190127 0.61114055 0.10016685 -0.22047433 -0.14988129 0.2634735 -0.25334895 -0.09922063 0.16292039
근데 -0.20432338 0.08648779 -0.21840918 -0.04484558 0.10967373 0.07708293 0.06908698 -0.3687805 0.1497134 0.1031101 -0.058994286 -0.10154325 0.17275375 -0.09852295 -0.21222283 0.04183422
표현 -0.1195561 0.15212063 -0.0860128 -0.12386976 0.29559293 -0.017359804 0.27216592 0.04047841 0.076861426 0.13086331 -0.22971228 -0.19043696 0.2026615 -0.12864509 -0.07848215 0.21786219
"" -0.022854242 -0.027130462 0.046497565 0.011254746 -0.033095293 -0.09870711 0.0076957424 0.029272774 0.00055995473 -0.05917145 0.034603614 0.021864973 -0.023394087 0.00432263 0.018868852 0.02500127
작 -0.0044585876 -0.060192246 0.07075442 0.13841973 -0.0030161305 -0.110486075 -0.028253008 -0.28570524 -0.113473184 -0.055923395 0.03953934 0.15247925 -0.007194721 0.02274798 -0.33879945 -0.090519026
극장 0.23422572 -0.27970612 0.25574437 0.20538732 -0.28285024 -0.16283858 -0.28680137 0.119955115 -0.20547107 -0.24396655 0.28556114 0.2226202 -0.24328516 0.2259143 0.13010897 -0.2513512
공감 -0.1597406 0.12765478 -0.1737535 -0.1226656 0.09999644 0.24643257 0.13038062 0.2604641 0.14226057 0.08568342 -0.104066156 -0.119166605 0.081112176 -0.119064376 0.37809592 0.11319442
0 0.20147271 -0.1221343 0.21229365 0.16357921 -0.3163087 -0.17941193 -0.23304968 0.05411334 -0.17553927 -0.1684105 0.24625723 0.16606851 -0.26294374 0.21206184 0.097916424 -0.14348948
비 -0.140625 0.15269198 0.06035478 -0.19988343 0.19703662 -0.07441408 0.2557622 -0.14371364 0.086116105 0.16364034 -0.14537 -0.26686063 0.14636412 -0.13090564 -0.208451 0.17324166
먹 -0.02554667 0.038938228 0.029066984 -0.045503058 -0.047454476 -0.029854465 -0.045358326 0.04889438 -0.03834908 0.02136055 -0.03880327 0.038897548 0.01774602 0.0062375776 0.0014993548 0.035314586
7 -0.14645672 0.116337456 -0.051360454 -0.114229456 0.17266485 -0.025225336 0.12649609 -0.05056681 0.1512485 0.10588876 -0.13957141 -0.14229783 0.13419028 -0.11592411 -0.09111547 0.13238741
이랑 -0.045177102 -0.011674622 -0.033397276 0.05081632 0.017625708 0.20859043 -0.07824767 0.0007834392 0.081679106 -0.0185032 0.04475277 0.15763372 -0.03620973 0.013113817 -0.026359474 -0.09690437
된다 -0.07914761 0.028969638 -0.059526592 -0.096871845 0.061640956 0.06539411 0.09923078 0.031091385 0.06716182 0.06424903 -0.086870156 -0.07441885 0.114877015 -0.033268537 0.055261686 0.041833855
이걸 0.50741625 -0.5293761 0.55066085 0.5810894 -0.42900923 -0.43401006 -0.5714886 0.44229293 -0.50213856 -0.4057358 0.4533733 0.6034817 -0.4668894 0.4318731 0.47098163 -0.49624318
대사 -0.1461918 0.047119617 -0.10158952 0.0015204713 0.22339317 0.08613761 0.063102506 -0.14744666 0.023829993 0.08304215 -0.067085385 -0.009662558 0.1886601 -0.07127562 -0.1917264 0.035599764
제목 0.055684622 -0.076606326 0.031126864 0.06407211 -0.1367895 -0.054821815 -0.08206915 0.16609363 -0.056582835 -0.051157396 0.06403922 0.09995595 -0.12327543 0.09292958 0.15932655 -0.036089744
그렇 -0.028426755 0.01468977 0.0039908774 0.024735738 0.04729909 -0.030271305 -0.02121873 -0.028391922 -0.017677914 -0.016944598 0.003939651 -0.0070136413 0.02858058 -0.03280393 -0.0035849698 0.021660257
대단 -0.13320869 0.13951567 -0.13586396 -0.17934263 0.19696712 0.106557034 0.18652685 0.18347308 0.12562904 0.20187809 -0.20557156 -0.21868642 0.1797085 -0.16271618 0.17314081 0.24890599
개봉 0.11920644 -0.0821331 0.14204055 0.08743081 -0.088146105 -0.043341313 -0.16885151 0.13891974 -0.06853152 -0.15399548 0.13022244 0.14827669 -0.13894708 0.075513035 0.098463155 -0.12840442
부분 -0.059234396 0.0052403063 -0.061456755 0.048498143 0.01763722 0.0083761625 -0.008863941 -0.14641187 0.0034528938 -0.059631445 0.0037533415 0.070426986 0.06406812 -0.06330781 -0.13156457 -0.040303335
진 -0.051310435 -0.07679973 0.10107441 0.15475783 0.07164863 -0.10715138 -0.06560585 -0.42320216 -0.13787004 -0.018087436 0.020235652 0.0749909 0.07067747 0.037509926 -0.41213155 -0.071171746
OO 0.3424059 -0.1892729 0.23759931 0.18593104 -0.49249586 -0.24408905 -0.27806157 0.19615817 -0.16761595 -0.22292602 0.2965777 0.17676654 -0.39803678 0.3040089 0.14748158 -0.19481227
기분 -0.037704792 -0.11783428 0.06469822 0.07093963 0.040344123 -0.023956705 -0.11493414 -0.3477376 -0.120700866 -0.10836468 0.09746931 0.18494162 -0.02581198 -0.0013116226 -0.31742513 -0.08828071
제 -0.18830694 0.08573998 -0.104269266 -0.047358222 0.13433187 0.14189027 0.026628768 -0.29508317 0.11248471 0.061776455 -0.12549455 -0.008098597 0.15806109 -0.15158325 -0.22417396 0.07508211
이제 0.13853052 -0.18460841 0.13954784 0.09998122 -0.13546237 -0.08039312 -0.25576597 0.048772875 -0.12272678 -0.123704456 0.16024746 0.33076504 -0.21060748 0.2053634 0.11304567 -0.23457132
치 -0.05889206 0.078212336 -0.11922611 -0.10608897 0.08226825 0.09736623 0.04575089 -0.07839279 0.11504592 0.045369785 -0.105004914 -0.063317865 0.033843145 -0.049688384 -0.09028414 0.07434952
진심 0.04140811 -0.049042564 0.05084502 0.10046358 -0.081185244 0.022474697 -0.094856784 0.0094638355 0.020772042 -0.057803005 0.10060064 0.16624653 -0.10444963 0.09104192 0.030907996 -0.06336558
바 0.0663687 -0.1272354 0.063333616 0.10731394 -0.09111892 -0.116793275 -0.06777674 -0.14876136 -0.077583775 -0.13299023 0.09710537 0.05838582 -0.114692405 0.102208 -0.18260315 -0.06712396
해도 -0.045383144 -0.03884106 -0.093478575 0.112636365 -0.02800361 0.20477271 -0.15818386 -0.11050779 0.03998335 -0.048424214 0.08786221 0.2433127 -0.022518948 0.0022232044 -0.047308493 -0.09378648
작가 0.38767943 -0.3105273 0.32917073 0.28428534 -0.42368966 -0.31781554 -0.31991252 0.2906325 -0.25209123 -0.34410608 0.36972237 0.3351859 -0.37877765 0.32422766 0.27254453 -0.3891765
타임 -0.080426626 0.19825447 0.016907984 -0.21945587 0.18610317 -0.062293094 0.28028777 -0.18693788 0.11435981 0.2227601 -0.21888727 -0.2589285 0.20978338 -0.16247463 -0.17498663 0.26207483
아쉽 -0.15645179 0.09925724 -0.175049 -0.11309732 0.12975858 0.13845368 0.09757694 0.1013249 0.14167096 0.09838075 -0.11128095 -0.083224714 0.15528536 -0.06618591 0.10594575 0.12724355
어디 0.042295262 -0.07376784 0.04070429 0.11501906 -0.04313602 -0.011810257 -0.160809 0.008586339 -0.12543932 -0.13201101 0.05176732 0.2323987 -0.051826876 0.091256395 0.07411574 -0.10624086
" -0.048631262 0.026076641 -0.039465915 0.022019032 0.021852855 0.02016813 -0.018843805 0.01651423 0.008862518 0.027732182 0.045991313 -0.027523864 0.018013787 0.028969381 0.008802451 -0.015152942
물 -0.12537818 0.09802388 -0.13891923 -0.091916464 -0.031508107 0.20679243 0.0142058255 0.13155915 0.08222222 0.104156464 -0.01958234 0.0046262774 0.06735941 -0.04535238 0.19010513 0.080271214
삶 -0.1619306 0.13528925 -0.11813857 -0.1356676 0.2133692 0.08710235 0.17927389 0.12603678 0.097306184 0.21154594 -0.14078014 -0.17666537 0.16044334 -0.113058314 0.02454508 0.19522177
나왔 -0.033744372 -0.030195355 -0.033011235 -0.028143002 0.0366658 -0.011397969 0.041589845 -0.022636557 -0.029185057 0.0139748715 0.042820957 -0.010229219 -0.034195185 -0.0010966286 -0.010836743 -0.036930133
친구 -0.18695901 0.19827785 -0.1839102 -0.22865513 0.22259021 0.038772833 0.26462993 0.10781276 0.17671268 0.19241948 -0.23877229 -0.20813791 0.20954534 -0.16570546 0.098894 0.20683765
웃기 0.06920662 -0.09225536 0.10710007 0.12748654 -0.09684433 0.003925125 -0.15148602 0.08694948 -0.056047585 -0.11415207 0.09593937 0.14133498 -0.05499061 0.055280358 0.10856391 -0.09916769
놓 0.011345934 -0.03397639 -0.031122828 0.017718587 0.0031629577 -0.018317126 0.0048243403 0.015022602 -0.020418419 0.042812753 -0.03491036 0.042520594 -0.0029322505 -0.047755744 -0.045936953 -0.034430504
/ 0.07853089 -0.11037933 0.15079954 0.17363088 -0.10539262 -0.081807695 -0.17152299 -0.21462393 -0.12341871 -0.112583995 0.10687378 0.3056843 -0.116430454 0.10766991 -0.12685683 -0.20862411
조금 -0.09325608 -0.06493841 0.176446 0.07508603 0.1823002 -0.30547976 0.14298044 -0.36785036 -0.14294864 0.09842659 -0.1274818 -0.11012688 0.07923895 -0.088876896 -0.43345556 0.0764197
막장 0.36292273 -0.20788482 0.28267458 0.119047254 -0.5237654 -0.14856473 -0.3010684 0.23642133 -0.15930218 -0.298458 0.3037971 0.18544859 -0.33350483 0.3708888 0.2672926 -0.2111564
8 -0.17959505 0.16742326 -0.119983025 -0.2054491 0.20756327 0.062112913 0.17984828 0.14511494 0.18290481 0.15249048 -0.21441653 -0.16930543 0.17508848 -0.19737434 0.14906819 0.19437502
보이 -0.09933918 0.07015272 -0.16491944 -0.11613155 0.14542949 0.08926811 0.11936663 0.09442578 0.14208609 0.114234306 -0.07727606 -0.15668806 0.13374487 -0.12982166 0.09808603 0.1585976
딱 0.14450371 -0.10147771 0.075928494 0.073081 -0.16908994 -0.024291158 -0.19433525 0.035321414 -0.12247451 -0.16824046 0.09303699 0.4084838 -0.063806176 0.05965916 0.099221446 -0.2284724
잔잔 0.2075815 -0.14463206 0.15996745 0.20153646 -0.1641283 -0.1652967 -0.14263912 0.14513527 -0.1974961 -0.13990517 0.21056882 0.18553227 -0.18533505 0.16149962 0.1373704 -0.21690091
싫 -0.16284025 0.18029031 -0.07030008 -0.18460833 0.122362494 -0.055465065 0.20720518 -0.03175589 0.10020134 0.11016603 -0.19956067 -0.1623693 0.17231895 -0.13568789 -0.09524387 0.14329411
구 -0.024315074 -0.024321066 0.0020410223 -0.060887303 -0.013831488 -0.008036071 0.0625007 -0.066972755 0.06656221 0.01930179 -0.013338732 0.019822242 0.0050474503 -0.020363549 -0.0922642 0.010391136
요즘 -0.25323236 0.43186507 -0.1549547 -0.45210534 0.3564146 -0.2711991 0.48049435 -0.4055633 0.19432732 0.32358187 -0.3857595 -0.47824466 0.27565792 -0.2455059 -0.39794153 0.44506782
중간 0.017766152 -0.063395 0.0144470455 0.028882287 -0.06557235 0.0786783 -0.1265246 0.043462034 0.005320868 -0.06606911 0.07036586 0.18674597 -0.056880545 0.028266555 0.09818637 -0.111232504
찾 -0.040771045 -0.033034492 0.026273277 0.040550087 -0.00942377 -0.03068819 -0.0015150905 0.006397724 -0.009702362 -0.002455581 -0.0065653436 -0.021499157 0.015646134 -0.043481637 0.0253479 0.019606236
봐야 -0.26373738 0.3956305 -0.17402335 -0.33198375 0.3980069 -0.23261924 0.34651732 -0.30516338 0.31268406 0.35348597 -0.3427805 -0.4147107 0.3150024 -0.31583956 -0.3010802 0.3432512
가지 0.011088887 -0.065355174 -0.018791415 0.1233966 -0.07698587 0.10743845 -0.19193761 -0.010725611 -0.103218175 -0.120676845 0.05290493 0.43141744 -0.05405702 0.04196026 0.030515673 -0.23303111
씬 -0.17632753 0.16225733 -0.14921238 -0.15605415 0.15034315 0.0875442 0.083965205 -0.10270789 0.17704661 0.10627958 -0.124424055 -0.06587741 0.12389794 -0.13811399 -0.11847492 0.08343117
영상 -0.10892023 0.032572452 -0.06650895 0.009954774 0.011857591 0.15069546 0.013548537 -0.013559837 0.08666443 0.016770229 0.009800869 0.052750178 0.058876302 -0.009960365 -0.017063648 0.004622014
긴장감 -0.180275 0.1988149 -0.1377105 -0.10663768 0.32586163 -0.062305693 0.2557324 0.006923974 0.13010429 0.20433077 -0.25964975 -0.2960605 0.29569465 -0.18708345 -0.07664852 0.27259934
같이 -0.30144867 0.251031 -0.23385225 -0.24998492 0.22677886 -0.041718163 0.22559333 -0.2675117 0.27166256 0.17198749 -0.2583928 -0.23829524 0.1935024 -0.22442651 -0.20099758 0.23562917
라도 -0.06124191 0.063146025 0.0028310462 -0.093174964 0.066450156 -0.108791664 0.09787712 0.037584543 0.02023185 0.105384916 -0.061450977 -0.11976232 0.046497222 -0.025374994 -0.04773497 0.086723395
.... -0.0014986439 -0.0015863092 -0.039853252 0.017078128 0.0330817 0.044835955 -0.0040352545 0.01431059 -0.032122068 -0.00405763 -0.014002021 0.043576136 -0.042743187 -0.008969473 0.015602131 -0.071527384
믿 -0.004311513 -0.0002214089 -0.025327815 0.036489163 -0.023504173 -0.044014193 -0.025200594 0.048626114 0.02985226 -0.03248308 -0.040199958 -0.04210963 -0.012744606 0.044566657 -0.033352114 0.018705096
스릴러 0.008665304 -0.06404329 -0.031195447 0.07529027 0.052584197 0.009518341 -0.017222434 -0.092176825 0.022284985 -0.012822458 -0.027611865 0.09067531 0.030677775 -0.020476678 -0.06920496 -0.027069079
아까운 0.61893857 -0.5446867 0.5366786 0.42569777 -0.58114904 -0.45906457 -0.64569247 0.39317092 -0.4717028 -0.5479966 0.5993557 0.65799254 -0.5622098 0.5309656 0.37961182 -0.5967353
부족 0.30093086 -0.35713148 0.29654232 0.28690112 -0.34479743 -0.33333212 -0.42123786 -0.3603525 -0.30478963 -0.35567072 0.30912 0.41526163 -0.2735407 0.29660013 -0.42822418 -0.37812155
억지 0.37130708 -0.23584916 0.3021055 0.038231626 -0.4953869 -0.15764865 -0.3002267 0.4385886 -0.11400157 -0.26563853 0.3282325 0.15472981 -0.4549132 0.42845616 0.46030805 -0.22868061
노래 -0.2669402 0.30069292 -0.24565092 -0.25677773 0.47164178 0.062284198 0.4115145 0.083103634 0.21494083 0.34619817 -0.40983894 -0.3589572 0.3319341 -0.2762662 -0.009791074 0.36392215
특히 -0.38525963 0.3176024 -0.19835517 -0.26362562 0.55851865 -0.22852825 0.6194041 -0.23198348 0.12643397 0.37321654 -0.49847862 -0.49685022 0.4024499 -0.36500543 -0.3664309 0.48385546
구나 0.25668004 -0.22414422 0.26094434 0.19234215 -0.37970245 -0.20371978 -0.2988144 0.03860511 -0.26942322 -0.2948298 0.2540085 0.18404602 -0.30506033 0.28705704 0.0003896991 -0.24159013
점수 0.22380747 -0.12804879 0.11596584 0.08260354 -0.24832967 -0.11902715 -0.17239693 0.20255738 -0.0671503 -0.15872921 0.2007477 0.15063715 -0.18408217 0.18580069 0.17869732 -0.16444774
개인 0.11842164 -0.11598776 0.13238238 0.14765836 -0.11791939 -0.017886588 -0.15605639 0.08682061 -0.14174841 -0.110561416 0.12650084 0.28489652 -0.11151576 0.0940607 0.15458724 -0.15581065
이유 0.035595924 -0.04319403 -0.029831683 0.037409544 -0.012305501 0.062863186 -0.018944511 0.053786233 -0.019686807 0.024556035 -0.029865684 0.01954952 -0.035193242 -0.007316084 0.1299689 -0.047900155
시작 -0.14972807 0.13223019 -0.25109857 -0.17565648 0.15999891 0.2901043 0.1416205 0.18865411 0.15369727 0.16805358 -0.17847393 -0.16813134 0.20495892 -0.14169432 0.20866716 0.116820835
라면 -0.0077944566 -0.07417913 0.022133714 0.06971824 -0.03346535 0.030431189 -0.09634908 0.019664917 0.0023742095 -0.055328988 0.000948397 0.12542723 0.012639555 0.024950566 0.0007882714 -0.113745734
만큼 -0.2130424 0.21776395 -0.1096861 -0.21052307 0.242837 0.009408184 0.21069291 -0.19095957 0.17951174 0.22360465 -0.18928279 -0.23474573 0.20833838 -0.19558035 -0.22886938 0.16843227
제대로 0.024480417 -0.06913938 0.021234319 0.08206377 -0.06869845 0.051717814 -0.14832765 -0.056885857 0.007470915 -0.13539954 0.062787965 0.3342326 -0.059847858 0.021228874 -0.018042928 -0.1450766
한테 -0.044382285 -0.017223138 -0.08694009 -0.021855507 -0.069029756 0.28495723 -0.07911043 -0.06295409 0.08594214 -0.04241584 0.040041775 0.11334842 -0.03901478 -0.031540897 -0.005198161 -0.111700654
잇 -0.11817596 0.14714688 -0.045756042 -0.1530889 0.21553768 -0.15782982 0.24478844 -0.055795055 0.09677093 0.17043924 -0.18477675 -0.26977783 0.1436456 -0.11492153 -0.17488518 0.25319067
날 -0.09447094 0.047614504 0.07814304 0.04021928 0.14287397 -0.17043626 0.13994059 -0.33055103 0.00471959 0.10823617 -0.1599126 -0.11850361 0.093613885 -0.07862521 -0.3483735 0.12038256
나름 -0.4308922 0.38678065 -0.24442306 -0.31045002 0.66169244 -0.2867529 0.64028215 -0.100735664 0.18463226 0.47603717 -0.5739775 -0.63339984 0.50093025 -0.38801658 -0.26085985 0.62374634
ㅜㅜ -0.1694305 0.08110604 -0.075255685 -0.08045715 0.070310615 0.15581796 0.002449687 0.025386194 0.109146446 0.021871807 -0.04768773 -0.030455707 0.079423316 -0.10203892 0.013869758 0.07484354
시대 -0.08434266 0.026350586 -0.038556363 -0.10948096 0.07872444 0.06026191 0.10621472 -0.1573897 0.114651255 0.050217852 -0.076119095 -0.059184983 0.03456447 -0.02979342 -0.06841038 0.018786741
사 0.09392858 -0.092395805 0.183447 0.17528245 -0.10968933 -0.09896489 -0.09160097 -0.14355263 -0.17768916 -0.1545453 0.11864124 0.17029348 -0.11185847 0.12487225 -0.09956268 -0.11055579
명 -0.096491754 0.14009172 -0.16879429 -0.09230861 0.09808773 0.13824606 0.082069114 -0.09518937 0.14638995 0.081553906 -0.16238478 -0.08049043 0.11154007 -0.111087896 -0.016587697 0.13104437
제일 -0.14877008 0.07129743 0.022855282 0.0021781824 0.2418174 -0.23478907 0.18751949 -0.35871455 -0.04216846 0.12919594 -0.14615273 -0.1874232 0.1275086 -0.07508961 -0.38285533 0.21326205
아름다운 -0.5016497 0.73803043 -0.5149512 -0.90065044 0.55473274 -0.58831125 0.87742996 -0.2072626 0.5853488 0.60141283 -0.5606335 -0.83878094 0.45113024 -0.48128995 -0.42249256 0.72723424
어떻게 0.072036535 -0.08175634 -0.009884422 0.01764483 -0.11944483 0.09630597 -0.19386482 0.1109746 -0.017799584 -0.07651186 0.103851445 0.2249433 -0.06876816 0.018874764 0.13382794 -0.13209876
해요 -0.23938136 0.23176083 -0.21133135 -0.27286568 0.27461147 0.07687198 0.30739084 0.199343 0.15699126 0.1903544 -0.23610881 -0.23433995 0.23946276 -0.1587805 0.10981021 0.29363146
하지만 -0.3046236 0.16757396 -0.26482406 -0.13380787 0.18065983 0.19985697 0.12899908 0.05583415 0.26485822 0.15099154 -0.22403619 -0.1438202 0.1962379 -0.20644853 0.088079095 0.15381582
당시 -0.20997357 0.3389713 -0.10902925 -0.40748543 0.31226516 -0.22331508 0.45287752 -0.30938733 0.22286199 0.36491752 -0.3443791 -0.3618002 0.2820246 -0.26793435 -0.33794996 0.3651565
무섭 -0.037917312 0.09413999 -0.07362162 -0.1173661 0.13453831 0.041243207 0.120687895 -0.07397453 0.07895563 0.14745645 -0.08692428 -0.10608544 0.044732925 -0.13019311 -0.069566146 0.09963738
차라리 0.55828 -0.4963588 0.5801269 0.3966192 -0.59860015 -0.5102908 -0.68796384 0.4922098 -0.3963157 -0.5222657 0.58989626 0.5606025 -0.5354424 0.5827233 0.4738756 -0.61942786
이것 0.015566487 -0.031025523 0.08374125 0.09384112 -0.030558044 -0.024279943 -0.103421375 0.08074666 -0.09873307 -0.042321064 0.09590653 0.059291936 -0.020444633 0.027897917 0.03276261 -0.06649207
려고 0.15454221 -0.15463701 0.2100933 0.18424644 -0.21625017 -0.13949232 -0.21532969 0.20463426 -0.23966609 -0.17945844 0.20843977 0.11912302 -0.1642604 0.18487109 0.17655143 -0.16824636
엔딩 -0.0535976 0.0014486155 0.09783477 0.07142129 0.2895601 -0.19101954 0.13451783 -0.3986597 -0.10012492 0.027730541 -0.06553221 -0.06891013 0.15164419 -0.03773547 -0.47115177 0.09323417
오랜만 0.059431273 -0.032225072 0.07320614 0.021173812 -0.011055482 -0.051631488 -0.048044678 0.00076175673 -0.054723836 -0.054051504 0.022598304 0.04211208 -0.028308118 0.034502935 0.030939609 -0.061301406
니까 0.09573454 -0.17608912 0.1826962 0.14190748 -0.18133967 -0.1712509 -0.18247057 0.18827592 -0.15675902 -0.17093168 0.13984773 0.15948467 -0.17076701 0.15911679 0.1624506 -0.112637684
봄 -0.11569727 0.10812791 -0.14191212 -0.12373545 0.07392966 0.25674275 0.04085892 0.1297535 0.15537244 0.08233793 -0.09721009 -0.10915627 0.072721735 -0.09106029 0.1550794 0.08622797
의미 -0.117898166 0.10050141 -0.15772025 -0.023684591 -0.045489375 0.25388527 -0.03197769 0.089445285 0.07254545 -0.007421235 -0.009925053 0.015023407 0.04259698 -0.061448984 0.09806884 0.028404433
나온 -0.021031022 -0.0121382 -0.09355728 0.053875726 -0.08949762 0.29634726 -0.16865452 -0.04387319 0.04073656 -0.029907089 0.041144997 0.23207788 0.036074337 0.010613418 0.035649166 -0.1036479
세상 -0.13572168 0.11083204 -0.10221724 -0.13828202 0.36638182 -0.064560875 0.29893118 0.052299608 0.099554084 0.24159189 -0.2538246 -0.2834476 0.1919207 -0.14193866 -0.00329388 0.24646766
봐 -0.079095095 0.007862047 -0.04619765 0.015297373 0.028061312 0.0969789 0.02868925 0.0048720883 0.07162332 0.050964776 -0.015503631 0.013722947 0.08602372 -0.06996272 -0.006130058 -0.012930966
따뜻 0.047596898 0.01289941 -0.0077111498 -0.017373323 0.008464418 0.008463718 -0.012120523 -0.04658226 0.024700347 -0.046607852 -0.046631087 -0.044777036 -0.023752285 -0.041857827 -0.023095524 -0.042002775
세 -0.21765614 0.07652769 -0.16908643 -0.094159104 0.092170745 0.18069273 0.020270005 -0.20433135 0.19464175 0.04911824 -0.10236181 -0.011209431 0.13573493 -0.119564384 -0.07936833 0.001761041
팬 -0.16969071 0.19967514 -0.10858657 -0.19207206 0.1462199 0.0144992005 0.21904391 -0.09418387 0.20181058 0.19777974 -0.17610957 -0.2513659 0.21459925 -0.13575834 -0.12433641 0.24993865
훌륭 -0.18949403 0.16984217 -0.14019775 -0.09532691 0.19256674 0.030471276 0.17704235 0.07384733 0.07733975 0.15041466 -0.21046618 -0.19241697 0.13459657 -0.1160018 0.076093145 0.12648164
9 -0.15853643 0.20290503 -0.17528646 -0.18664046 0.31505403 0.023806708 0.3155382 0.10776368 0.16878839 0.21139993 -0.22952946 -0.29967472 0.215668 -0.16936709 0.08110327 0.25607976
절대 0.14319366 -0.14873177 0.13810582 0.111934446 -0.17261246 -0.01648336 -0.28987154 -0.0044587394 -0.11599171 -0.18297678 0.16057572 0.41885513 -0.119818516 0.13610321 0.019628735 -0.20058306
못하 -0.033723045 -0.0030051954 0.043975625 -0.0010239966 0.039504457 -0.020200312 0.011040807 -0.046504617 0.0073944554 -0.0023507848 0.0170095 0.006884206 0.04051027 -0.047747172 0.03925616 -0.02292105
놈 0.16651411 -0.05058799 0.05472894 -0.016648 -0.18377961 0.0018780695 -0.0577761 0.3919733 0.0057346094 -0.04339434 0.07679784 0.008074725 -0.14408317 0.13826843 0.4846175 -0.083431005
강추 -0.38228452 0.27042094 -0.25430682 -0.31572223 0.44412702 0.18719025 0.46545696 0.23484975 0.24901317 0.3682069 -0.34951127 -0.37592205 0.40167567 -0.35466838 0.3089363 0.36386514
느끼 0.025662448 -0.06555916 0.105907865 0.089276515 -0.102823906 -0.053544883 -0.095824406 -0.12783772 -0.14781226 -0.096202835 0.1082967 0.081630535 -0.07081321 0.09766459 -0.18680476 -0.059244674
욕 0.36715963 -0.37117735 0.42800704 0.42699483 -0.3966051 -0.34210503 -0.4636196 0.38209045 -0.42098165 -0.38483575 0.36887997 0.40396845 -0.30011132 0.28990132 0.35540727 -0.42379028
감 -0.058334347 0.062066868 -0.00782051 -0.059896454 -0.035204828 0.046209857 -0.024543766 -0.017092485 0.014262562 0.02367002 6.16372e-05 -0.046368588 -0.006107769 0.0137997605 -0.003806209 0.038861334
빼 -0.053296212 0.07601381 -0.07250075 -0.15165417 0.15708715 -0.07522585 0.17538497 -0.077338845 0.060143635 0.11538658 -0.1311208 -0.09521133 0.106494114 -0.14572148 -0.17381264 0.13376813
너무나 -0.25398216 0.28489566 -0.20173723 -0.22821927 0.30096895 -0.2646744 0.26583844 -0.32736892 0.16846284 0.25981855 -0.23524411 -0.33724532 0.29100552 -0.27258185 -0.37262854 0.33466816
전쟁 0.0050941817 -0.0067351284 -0.039166536 -0.0035491586 0.06514938 -0.04377974 0.015282176 -0.00068809127 0.00575207 0.03081683 -0.055104986 -0.056332648 0.006554599 -0.034677554 -0.048226662 0.0014572938
됨 -0.16415256 0.09380394 -0.13793194 -0.18080312 0.19280475 0.20781867 0.15330586 0.071604975 0.11025552 0.09606291 -0.1824376 -0.14917305 0.16333525 -0.17949773 0.12568168 0.09982744
어야 -0.018657494 -0.007968724 0.048235666 -0.02226062 0.03200041 -0.011069346 0.018008258 -0.038341723 0.04413953 -0.013281275 -0.030842448 -0.03957305 0.0015447624 0.04118028 0.042297397 0.001901973
해야 0.03869844 -0.005171357 -0.073474444 0.019785423 -0.11035292 0.16427572 -0.09137874 0.17288606 0.074719064 -0.0406106 0.05309018 0.01553219 -0.04345529 -7.338049e-05 0.14796394 -0.017855512
던데 -0.020265281 -0.034793306 -0.007727526 -0.0073893294 -0.032847248 -0.029863989 0.005488433 -0.03672018 0.042265918 -0.0038118735 -0.015309978 0.030127015 -0.0195951 5.926937e-05 -0.020670628 0.026880886
도대체 0.4473656 -0.45725524 0.4630096 0.52933365 -0.4629482 -0.42485666 -0.59700686 0.46335495 -0.48440945 -0.4940174 0.5197617 0.64578307 -0.48076567 0.4956559 0.41513926 -0.5207752
무엇 0.017022805 -0.09444957 0.00016077756 0.04483581 0.03377036 -0.027272953 -0.08202625 -0.23905092 -0.065095134 -0.0036316668 0.01882518 0.041476794 0.010296939 0.05305381 -0.19411059 -0.093138315
답답 0.38654456 -0.37276384 0.3769284 0.2595522 -0.48176312 -0.34140214 -0.43160707 -0.07272166 -0.26450515 -0.37424394 0.38140208 0.2894279 -0.3751994 0.3935775 -0.08469689 -0.31884682
준다 0.022229724 -0.02586618 0.015649593 0.031304497 -0.044416707 0.019872107 -0.05643828 -0.08214966 -0.023457441 -0.09030256 0.016062664 0.058393896 0.005181101 0.01710605 -0.03864001 -0.084883146
ㅡ 0.09366731 -0.12553476 0.13039328 0.10134781 -0.20106393 -0.06357322 -0.118737906 0.09655872 -0.12193214 -0.13754542 0.123555355 0.061335698 -0.119975984 0.11660803 0.033325452 -0.05878279
드 -0.18295889 0.3241974 -0.08917544 -0.29601374 0.32291645 -0.14844115 0.34850177 -0.16821195 0.28028896 0.31030518 -0.27988306 -0.29032087 0.2720438 -0.19470854 -0.25516602 0.2792338
마다 -0.22656551 0.36160195 -0.096189745 -0.4498156 0.35950914 -0.2452401 0.48047146 -0.26995876 0.21832593 0.31425965 -0.3960099 -0.41599882 0.26185352 -0.30867565 -0.36206728 0.37033567
설정 0.38708028 -0.25502488 0.34664473 0.2809663 -0.4919225 -0.2734799 -0.40628353 0.22361018 -0.30055833 -0.29503804 0.35827467 0.3087456 -0.35218227 0.3467158 0.21221331 -0.3277515
답 0.025619665 0.086756565 -0.018889243 -0.0900359 -0.11030578 0.17572108 -0.033597928 0.25551182 0.05424795 0.012206599 -0.047420587 -0.021649957 0.016041832 0.009349442 0.28627765 0.038331702
그저 0.22191858 -0.25922185 0.25320482 0.1997035 -0.29263213 -0.18055275 -0.36673263 0.21612169 -0.25363982 -0.29230267 0.25315186 0.46044904 -0.2783583 0.25857508 0.18451522 -0.29822338
6 -0.040517975 0.058507614 -0.039277423 -0.0058000954 0.021925114 0.12057134 0.036632553 -0.1222498 0.013720432 -0.043207522 -0.00840675 0.01134854 0.04720639 -0.06381269 -0.06897179 -0.007571881
어도 -0.044327892 0.032414462 0.041190032 -0.013479233 0.020063568 0.016449798 -0.002463542 -0.01744933 -0.041760195 0.007662475 -0.04246415 -0.013308525 0.008975349 -0.017544843 -0.025994051 -0.030801237
형 -0.02693731 0.06522135 -0.10301896 -0.056997225 0.053526014 0.04074264 0.054309182 0.13208704 0.06663411 0.041331954 -0.1225975 -0.09082753 0.06463311 -0.074201934 0.117941126 0.05496629
신선 -0.09644861 0.12927909 -0.12442369 -0.09791483 0.214403 0.11191313 0.19346304 0.092685 0.08928322 0.18791978 -0.13398524 -0.18939456 0.18058701 -0.096550934 0.060221143 0.13705575
감정 -0.08588769 0.07190603 -0.032234468 0.017677696 0.071596734 0.095305376 0.023805767 -0.023156852 0.059148427 0.036679685 -0.06957345 0.02114114 0.01483106 -0.059988324 -0.08865821 0.00012402912
흥미 -0.0838264 -0.018483158 -0.050156716 0.020595292 -0.008608234 0.25933906 -0.037718564 -0.009398841 0.11442714 0.010950478 0.04192093 0.15613781 -0.0068778307 -0.061606735 -0.005629553 -0.06268076
글 0.052792035 -0.026512748 0.0016055001 0.046241473 -0.056371536 0.082268834 -0.034605596 -0.016699208 0.016121631 -0.0003180936 0.06063223 0.16647954 -0.057292044 0.053445213 -0.01752122 -0.11576126
미국 0.0215971 -0.08537722 0.0048488993 0.04668944 -0.049277935 0.12161557 -0.08788786 -0.015730215 -0.021276904 -0.06664945 0.05689492 0.16624264 -0.05516354 -0.020539956 0.07003491 -0.08455475
뻔 0.29029024 -0.28405303 0.32312825 0.2809632 -0.3386106 -0.30919182 -0.33982512 0.10570244 -0.28952208 -0.30370206 0.27380392 0.23630954 -0.35565186 0.2768268 0.17747173 -0.25586212
엄청 -0.31974265 0.31518945 -0.2739322 -0.29091442 0.29005802 -0.12896456 0.3660734 -0.23839146 0.38685313 0.3136321 -0.3869074 -0.3465696 0.26543942 -0.26619717 -0.3281751 0.33580846
관객 0.2870854 -0.29921177 0.24662979 0.2554362 -0.3413327 -0.25534278 -0.3402543 0.2511915 -0.32265964 -0.24257456 0.2903364 0.30010882 -0.30657163 0.2941126 0.2679518 -0.3104847
행복 -0.26329887 0.25062177 -0.16405174 -0.2525133 0.36569592 0.08520038 0.34804055 0.16673131 0.16850573 0.3150455 -0.26433557 -0.33046544 0.2339339 -0.20820743 0.13962682 0.2853145
시절 -0.07111307 0.03078067 0.022565547 -0.06761324 0.21886773 -0.16805032 0.1506375 -0.25026968 0.03506783 0.0982878 -0.079680175 -0.1245694 0.14118788 -0.08859591 -0.31710654 0.11635444
더라 0.016626451 -0.036752533 -0.032806396 -0.021283163 0.011468578 0.03526378 0.042847726 -0.021471739 -0.013432134 0.035872113 0.048573602 -0.035817157 0.04247668 -0.042293217 -0.029692126 -0.028939247
만화 -0.14244793 0.15173005 -0.16750222 -0.15333293 0.13007925 0.19635187 0.10275639 0.09931129 0.084061325 0.06824593 -0.1643307 -0.12861905 0.12341601 -0.08743302 0.17558107 0.15461873
수작 -0.3382641 0.3915564 -0.3694292 -0.388588 0.6497468 0.12833391 0.6587 0.34889635 0.36121458 0.37003776 -0.5140678 -0.5330189 0.43416873 -0.3593433 0.31401438 0.5396584
군 -0.11834401 0.15602149 -0.18137513 -0.20283936 0.16651659 0.13348773 0.14487317 0.17383277 0.15773658 0.12135727 -0.16793521 -0.18379161 0.114234425 -0.19162844 0.13300164 0.12079826
앞 0.02601756 -0.059634298 -0.0011746527 -0.004457159 -0.022952113 -0.10383633 -0.017722566 0.013163957 -0.053117655 0.024852095 0.01866513 0.06359334 -0.0054197595 0.036892764 0.03788514 -0.028333174
자신 -0.14273521 0.10721629 -0.110489026 -0.15036269 0.11870521 -0.024026858 0.09746983 0.016080495 0.18652494 0.11619836 -0.16696273 -0.12784147 0.11584153 -0.112794966 -0.04352967 0.08350773
슬프 -0.028549302 0.024251852 -2.1100044e-05 -0.015907764 -0.038004648 0.0124570355 0.025303092 0.026908662 -0.029412258 0.018033434 0.035367046 0.023602996 -0.018807173 -0.029879225 -0.011100125 -0.010153234
라니 0.022634441 -0.08603381 0.030013325 0.055765066 -0.06290029 -0.073481895 -0.08107012 -0.21077481 -0.11866936 -0.09080384 0.04496816 0.0903674 -0.04967472 0.03689825 -0.2491916 -0.10654412
배경 -0.13179547 0.051060256 0.081318974 -0.032286156 0.20350322 -0.13983843 0.12176184 -0.31600958 -0.08046058 0.06895508 -0.14489421 -0.122241765 0.09669512 -0.121051446 -0.3790605 0.093760744
허접 0.26286754 -0.12519032 0.23046792 0.12864132 -0.38814452 -0.19803338 -0.20674522 0.11038858 -0.12264282 -0.15879482 0.27839816 0.17953068 -0.23175128 0.2649711 0.1530068 -0.18203859
초반 0.26241165 -0.29086167 0.2872412 0.26098144 -0.2952225 -0.1982908 -0.27782187 0.22282352 -0.2250133 -0.27485391 0.28464964 0.26499906 -0.23657472 0.24682388 0.28795895 -0.2632614
질 0.10103025 -0.14695682 0.1405937 0.09104288 -0.1348432 -0.09010117 -0.16292796 0.12524042 -0.06659546 -0.0824466 0.100276716 0.18004659 -0.09615683 0.08552182 0.08586059 -0.0859235
어색 0.18650661 -0.12674582 0.20981239 0.1252998 -0.19253793 -0.1280021 -0.18733442 0.09908903 -0.1097154 -0.11837977 0.13000576 0.08586026 -0.16814268 0.21403493 0.04349356 -0.117138535
시나리오 0.12943399 -0.034315467 0.10740294 0.04971323 -0.16566302 -0.059544407 -0.104202054 0.19921769 -0.05312544 -0.11601921 0.14995337 0.018774442 -0.18892196 0.11709367 0.23541504 -0.08329664
사실 -0.04544612 0.017289976 -0.052595124 0.034417525 -0.055374816 0.057255358 -0.016528167 -0.15704858 0.00958868 -0.0015609709 0.051678896 0.054570656 0.037616774 -0.044278182 -0.07012355 -0.06110683
웃음 0.024297183 -0.06386176 0.103828505 0.08498311 0.064696066 -0.10758246 -0.09538607 -0.32084078 -0.12282554 -0.047146965 0.05729429 0.13322438 0.012237511 -0.00045861487 -0.3465561 -0.064772464
첨 0.16225883 -0.1395644 0.15452115 0.17776176 -0.18751715 -0.13212311 -0.2544797 0.13856474 -0.17615084 -0.16529518 0.121261664 0.21828112 -0.15029709 0.18384874 0.16635554 -0.15996745
분위기 -0.16501433 0.16634998 -0.18763472 -0.13844769 0.16713184 0.1036415 0.13161385 0.053775832 0.11969625 0.1682282 -0.18506838 -0.17069367 0.14456557 -0.19916113 0.11907535 0.19637768
소름 -0.27803114 0.24052337 -0.17838234 -0.2601558 0.45679075 -0.07935349 0.42687997 0.019013694 0.14125177 0.24604176 -0.38163805 -0.39566383 0.28576317 -0.22803816 -0.10058737 0.40174273
멋진 -0.45143247 0.69397676 -0.4832576 -0.7998667 0.53675133 -0.5458343 0.8369468 -0.22982936 0.53301793 0.5575938 -0.5220184 -0.82436895 0.42026907 -0.44171354 -0.36498532 0.66439587
추억 -0.17157613 0.15023792 -0.08647434 -0.117345355 0.26712766 0.002628523 0.2036001 0.006520031 0.097055644 0.15510091 -0.16362557 -0.16604069 0.1589344 -0.10808864 -0.08186256 0.22530915
머 0.3625498 -0.32969067 0.4139695 0.26479676 -0.4281119 -0.36463746 -0.38522276 0.1795461 -0.3080792 -0.3724846 0.43373558 0.3648829 -0.36476934 0.37879595 0.09370922 -0.37454978
멋있 0.022240106 0.030674722 0.0204595 -0.02422843 -0.036766388 -0.0126701705 0.039007876 -0.043807935 -0.00012875721 0.016632829 -0.031033313 -0.042487144 0.049052004 0.007897399 -0.018707134 -0.022149015
힘들 0.043285638 -0.090184815 0.06796567 0.14853652 0.009326118 -0.10226605 -0.03751881 -0.15943317 -0.14491153 -0.04435478 0.06219159 0.06541243 -0.056024082 0.03996068 -0.23638025 -0.05746252
정신 0.14217158 -0.21418333 0.19516613 0.1570994 -0.15173301 -0.09303089 -0.23053195 0.1818447 -0.19469254 -0.14670722 0.1920525 0.29991096 -0.17583144 0.14519589 0.13957241 -0.18542498
캐스팅 0.099425286 0.016461184 0.086118944 -0.016711678 -0.21987677 -0.03636631 -0.0931293 0.23207693 0.020798797 -0.022565277 0.085951544 -0.0009890153 -0.14384018 0.054041535 0.35749793 -0.11134969
등 -0.070573956 0.030284392 -0.042030007 -0.015122867 0.14096972 -0.013808452 0.070236675 -0.075221695 0.03948014 0.023451105 -0.058670543 -0.050466582 0.07819919 -0.050442 -0.16001245 0.112933904
밖에 -0.07088895 0.019568047 -0.018494666 0.025576666 0.0845789 0.12641194 -0.04010663 -0.22351477 -0.024831766 0.012739205 -0.067606755 0.0010348945 0.1393312 -0.1156 -0.112912126 0.043494064
OOO 0.42924514 -0.434753 0.4075669 0.41486514 -0.5401922 -0.41544116 -0.45124853 -0.062744446 -0.31377915 -0.39253393 0.46055275 0.44158277 -0.39363542 0.39812446 -0.03861194 -0.46757624
결국 0.07254275 -0.10332479 0.006747888 0.06530111 -0.10643129 0.07002726 -0.1610645 0.040222917 -0.05206536 -0.053916708 0.04556122 0.34085733 -0.069397315 0.0749053 0.04742633 -0.1061548
봐서 -0.101496756 0.08146512 -0.1388184 -0.08400626 0.16555092 -0.05002219 0.1271892 -0.2262779 0.042425234 0.06396573 -0.10987526 -0.09751189 0.106889814 -0.10063899 -0.14178574 0.10047767
류 0.1057757 -0.07115593 0.07554295 0.072488956 -0.08764821 -0.07392482 -0.10511116 0.11779587 -0.1057363 -0.13481066 0.103430845 0.21752988 -0.08921072 0.10657351 0.07035162 -0.08391301
오늘 -0.31359246 0.54351735 -0.26293388 -0.52771175 0.45955467 -0.50770086 0.6047365 -0.26684082 0.27116522 0.42490047 -0.50774187 -0.65558517 0.34159762 -0.33488294 -0.43003535 0.59622246
졸작 0.4655226 -0.34540626 0.46332943 0.34177485 -0.54172826 -0.39222643 -0.46923435 -0.25435 -0.38898036 -0.41959 0.45165312 0.41168165 -0.4273225 0.38788202 -0.21383469 -0.3937102
낫 -0.03162746 -0.03734833 2.3183578e-05 0.044412468 -0.039698392 0.0820725 0.003534616 -0.0013996254 0.048313797 0.0014935114 -0.009285774 0.08349429 0.0025997483 -0.008283778 0.0012912318 -0.00717656
킬링 0.13107023 -0.15000762 0.14034583 0.15420882 -0.06298195 -0.02256829 -0.15658292 0.14852549 -0.08304101 -0.08503447 0.11047654 0.20741911 -0.11079224 0.07329608 0.09001569 -0.1571379
역사 0.013700952 0.07638205 -0.08400418 -0.10226258 -0.03580446 0.07883868 0.026187772 0.28032744 0.087018274 0.0031126544 -0.040877275 -0.04691069 -0.033143464 0.00301213 0.36219662 0.031364914
함께 -0.3326324 0.6146107 -0.33197135 -0.61268413 0.57126284 -0.64793915 0.7598905 -0.325437 0.3533555 0.5206437 -0.4933431 -0.6970336 0.34665105 -0.34073552 -0.45698616 0.6647799
잡 -0.08088435 0.11013131 -0.02469182 -0.16658293 0.14805205 -0.04165556 0.17755015 -0.16540599 0.10633471 0.13215369 -0.19461967 -0.18558666 0.12096689 -0.14444147 -0.19075924 0.2108967
엄마 -0.049507055 0.11489746 -0.010468308 -0.0823076 0.074706525 -0.048503768 0.082902774 -0.10617708 0.0723985 0.12812191 -0.071890116 -0.09032567 0.1446772 -0.10682227 -0.12515596 0.12998617
이딴 0.46956834 -0.5470412 0.55105305 0.5888106 -0.5319867 -0.47472754 -0.65157455 0.5184567 -0.50549966 -0.43804258 0.45296037 0.5846825 -0.504839 0.4141231 0.47068805 -0.5220042
한데 0.036194745 -0.022987774 -0.0064920676 0.04843532 -0.06334393 -0.017086513 -0.034398563 0.10252885 -0.0032332842 -0.072187915 0.055341296 -0.012311029 -0.116697975 0.032030784 0.094791934 -0.008057167
20 -0.050581392 0.13217652 0.0656562 -0.06854214 0.14112991 -0.14058504 0.077914156 0.011904804 -0.017020805 0.12705287 -0.05562958 -0.14505881 0.09716132 -0.07163643 -0.07153068 0.072130665
집 -0.1136579 0.06421882 -0.06610991 -0.044213984 0.13611963 0.08169268 0.10801884 -0.15920678 0.14016597 0.057164162 -0.059243716 -0.01217483 0.09329847 -0.14839016 -0.13647723 0.09139392
구성 0.023225507 -0.08932374 -0.0026486423 0.092635795 0.04955625 -0.027856821 -2.2713273e-05 -0.20379683 -0.072054714 0.015475747 -0.03386951 0.034089744 0.008180852 0.04175597 -0.27317035 0.01225126
문제 -0.012424285 -0.053021647 0.03110469 0.019692456 -0.036773648 0.022781786 -0.021851938 -0.08092938 -0.072520316 -0.05272248 0.004902482 0.118414275 -0.03852039 0.050680224 -0.055127643 -0.019406002
뭘 0.37100124 -0.1643266 0.21873902 0.034291506 -0.44830358 -0.16194908 -0.32430223 0.5542104 -0.13284685 -0.3265109 0.33617294 0.1985765 -0.4514742 0.34147242 0.60036874 -0.23398301
나요 -0.16130902 0.116991185 -0.11119075 -0.17749743 0.15488672 0.06084318 0.16103381 0.085057296 0.11949754 0.19546352 -0.14454928 -0.13991003 0.19007778 -0.15925287 0.09006123 0.13639648
뻔한 0.52392447 -0.48665532 0.5065498 0.39604867 -0.5254669 -0.40544096 -0.4932326 0.32367894 -0.4023341 -0.483514 0.4714212 0.5522564 -0.5066256 0.47785583 0.33010137 -0.56675506
스러운 -0.1800112 0.12681738 -0.08257957 -0.076556884 0.17144269 0.13217202 0.044242743 -0.15156573 0.1441531 0.102176934 -0.18402737 -0.07900593 0.15967028 -0.13213792 -0.16790465 0.103423886
어이없 -0.017922662 -0.033901908 -0.04513848 0.014500868 -0.014275562 -0.03654337 0.01376481 0.030794803 0.028726224 0.04533596 0.04471374 0.006193053 0.02945638 0.032388914 0.0105520375 0.022521857
제발 0.29746124 -0.12996057 0.12830843 0.09540531 -0.32148546 -0.12816285 -0.193822 0.26480824 -0.04758666 -0.096319914 0.17524247 0.11170505 -0.23229723 0.23399842 0.2887971 -0.15726103
뭔 0.46896932 -0.47678915 0.48125118 0.368155 -0.4950033 -0.39927185 -0.53245693 0.42255706 -0.46441928 -0.44117436 0.5116575 0.5239383 -0.4469767 0.41525325 0.40236148 -0.5181477
러 -0.07928442 0.15001085 -0.0727911 -0.11602024 0.19072779 -0.059281062 0.16420668 -0.035626344 0.117127374 0.20056005 -0.1484157 -0.15616688 0.1803207 -0.15060529 -0.15020493 0.19251704
~~~ -0.117095746 0.03153102 -0.13346644 -0.08199064 0.12101413 0.1109241 0.07141379 -0.00080594065 0.03535764 0.029460829 -0.07406185 -0.106529124 0.05532734 -0.10983406 0.083413035 0.07313236
위해 -0.060607605 0.047364634 -0.018229183 -0.02880377 -0.021377368 0.18800779 -0.083756365 0.040792532 0.084263235 0.018179337 0.039358262 0.06443125 0.0032449525 -0.030739108 0.04581735 -0.05584341
간 0.13544933 -0.17675757 0.12107319 0.2096825 -0.14192674 -0.10325617 -0.13150488 0.0719612 -0.11849968 -0.09976765 0.1530635 0.20749095 -0.13020842 0.16525933 0.0893728 -0.14832124
아무리 0.43174952 -0.4495961 0.4830553 0.50229865 -0.45173258 -0.41810456 -0.527401 0.38631168 -0.50198895 -0.45066032 0.42346996 0.50884855 -0.4039582 0.3815872 0.40954792 -0.4124106
잊 0.007978391 -0.009609975 -0.04391403 0.0061968677 -0.020841671 -0.020928025 0.010038424 -0.038485337 -0.0023308024 0.044392135 -0.043532062 0.043685388 0.01878022 -0.03844737 0.011557795 0.011793483
버리 -0.008926727 0.020088349 -0.017746627 -0.028547049 0.016402986 0.0031403415 -0.040513672 0.040501382 -0.044901263 -0.0058660135 0.038974572 0.012163363 -0.04960228 -0.009031735 0.026313413 0.011008181
난다 0.017984053 -0.038958177 0.039527737 0.071282476 0.0021993867 -0.053803112 -0.08024162 -0.057038236 -0.010460719 -0.056858275 -0.0032803735 0.02454783 -0.06622975 0.05400862 0.023321122 -0.042861767
소리 0.25384215 -0.30135083 0.25537774 0.3778212 -0.2694038 -0.2083117 -0.3330899 0.2747715 -0.34305766 -0.30088246 0.3125131 0.32990322 -0.26724815 0.3272013 0.25164142 -0.327343
어릴 -0.28476116 0.37302434 -0.092075884 -0.42900652 0.39856216 -0.38280338 0.5318846 -0.3015717 0.18768 0.42858744 -0.37359548 -0.4655582 0.26454183 -0.2365827 -0.34515622 0.50735515
어떤 -0.2586194 0.29578918 -0.23762846 -0.30682963 0.24070284 -0.13214552 0.32503375 -0.21684064 0.33199406 0.25760788 -0.33424735 -0.29721516 0.28956586 -0.2601129 -0.20317979 0.29753968
코믹 -0.012477044 -0.063643605 0.020640582 0.09727084 0.0036656626 -0.0045444965 -0.021593818 -0.25362536 -0.013068485 -0.058000587 -0.04357202 0.13319224 0.02015047 -0.061849616 -0.24512254 -0.02579595
주연 0.17467594 -0.20319895 0.175216 0.21067247 -0.21770659 -0.24086265 -0.20612283 0.059844553 -0.22367227 -0.12643747 0.2215786 0.1726294 -0.16595212 0.1611789 0.06780177 -0.1357642
완벽 -0.23058785 0.23783931 -0.21960519 -0.31575197 0.46803576 0.050515853 0.401885 0.22052869 0.25234488 0.3243164 -0.38275447 -0.3607841 0.32482105 -0.31572294 0.13966236 0.33026215
포스터 0.025090026 -0.046263 -0.02613885 0.03047226 -0.060779803 0.05282629 -0.12608218 0.08710892 -0.013522451 0.014532696 0.0841403 0.082213394 -0.08373979 -0.01273022 0.13135308 -0.05474319
맘 -0.15469456 0.18069427 -0.094919704 -0.11977128 0.1624059 0.068034604 0.13815707 -0.09898325 0.19461724 0.19723788 -0.14853337 -0.16897708 0.19007976 -0.18408383 -0.15169878 0.1502431
애니메이션 -0.21096355 0.19647785 -0.16526115 -0.14129677 0.28326538 0.12250334 0.2540287 0.05416285 0.10273445 0.21000779 -0.1776001 -0.17079301 0.16183269 -0.19069777 0.0370271 0.20282154
유쾌 -0.17249526 0.1820833 -0.07714146 -0.17160104 0.3551835 -0.07780632 0.32902774 -0.02950639 0.14725229 0.22833763 -0.2746662 -0.29082015 0.26493496 -0.22494905 -0.04197528 0.3168549
진부 0.31170663 -0.3217955 0.34004462 0.22861144 -0.31404662 -0.30583614 -0.36953893 -0.107460946 -0.25262076 -0.28030643 0.30112377 0.2774984 -0.3213857 0.33172292 -0.16159238 -0.26456627
