2996 16
영화 0.13974586 -0.12463046 0.11723892 0.06557851 0.034301985 0.13471465 0.05135091 0.09002559 -0.06213073 -0.098494366 -0.10248242 -0.106713764 0.04492798 -0.11538002 0.110969566 0.034383763
다 -0.087282136 -0.098238066 0.014074631 0.06446101 0.033949614 0.018535404 -0.006687332 -0.009115124 0.0011389733 -0.05015217 0.05174813 0.0027336509 -0.04234955 -0.0026064175 0.0065610516 -0.04242653
고 0.058625955 0.0066375453 0.013788987 -0.05922057 -0.039485466 0.057161406 -0.052340813 0.034681115 -0.042362314 0.04786905 -0.061819475 0.0098400535 -0.01873462 -0.028594928 0.0108101135 0.048826188
하 -0.039282385 -0.039878387 0.013859646 0.03625258 -0.020285923 -0.02630437 -0.027791739 -0.04325686 0.03896898 0.018012159 0.007526532 0.020969424 0.03448164 0.028447213 0.026556019 0.017255956
을 0.017434398 -0.024456149 -0.025525562 -0.06066203 0.027413372 0.017584778 0.016730445 -0.01893206 -0.051412806 -0.020810584 0.029113296 -0.03675351 -0.03338114 -0.017070811 0.033301692 0.0048007714
보 0.022129305 0.022987925 0.028106725 -0.015162981 -0.021443935 0.02368819 0.049796738 -0.043307375 -0.040219404 0.027580727 0.0013785268 -0.0045032008 0.039879687 -0.01531335 -0.019428497 -0.0085442765
.. -0.020666843 0.004587111 -0.008713477 -0.015905686 0.035985533 -0.046735913 0.035092242 -0.01243712 0.03876214 -0.00046212476 0.032940317 -0.0056125466 0.031400472 0.046940483 0.041136175 0.022017995
게 -0.08609134 -0.007762753 0.089686595 0.066585004 0.049543418 -0.044956878 0.027946932 -0.05194993 0.07180826 -0.059507333 0.03282929 0.09942799 -0.03581344 0.077142976 0.011351519 -0.035908673
, -0.014124806 0.06905963 -0.061287507 -0.06945231 -0.061346784 -0.0038411752 0.00862177 -0.017146766 0.029603828 -0.025564764 -0.05134954 -0.011412055 -0.020030655 -0.01720818 0.0035806813 -0.010777326
! 0.14631094 -0.059509553 0.11816155 0.113469124 0.13960378 0.06501232 0.1034405 0.13831021 -0.16008668 -0.14431255 -0.116794206 -0.14358221 0.15029386 -0.1099048 0.07066555 0.10079113
지 -0.014083654 -0.041720938 0.0295606 0.02170796 0.069490984 -0.015948988 0.017120592 -0.057857994 0.050582174 -0.07566779 0.057954255 -0.0029009925 -0.0029916635 -0.00075299636 -0.02358633 -0.05492865
있 0.064514734 0.0597102 0.001212823 -0.013917841 -0.025156235 -0.032718994 0.014291349 0.023743013 -0.062163953 0.042376988 -0.009421344 -0.042108323 0.014536584 0.024585325 0.023640342 0.0133669935
없 -0.007344971 0.0010735226 0.038939342 0.028586976 0.051874854 0.008278212 0.056752134 -0.029824609 0.019254249 0.032617666 0.013802682 0.02636526 -0.02980618 -0.029615678 0.04111695 0.016730884
? -0.042526357 0.0601069 -0.05999341 -0.01672007 -0.07194506 0.00187677 0.012120493 -0.042414244 0.027399939 -0.009524881 0.01521466 0.008857576 0.009630943 -0.016646812 -0.06174387 -0.057567835
좋 -0.004706727 0.038010426 -0.038477637 0.029329369 -0.008195434 0.011127841 -0.031454597 -0.021353843 -0.03311917 0.04801937 -0.00762794 -0.032617882 0.024101658 -0.059727423 0.044582482 0.0071578478
나 0.029979931 -0.007008668 0.02359835 0.02000626 -0.03750067 0.050694514 -0.0032448983 0.074298196 -0.0049363524 -0.017820198 0.0057141776 -0.08286862 0.020647218 -0.02035728 -0.015057881 0.070507765
었 0.010181957 -0.0063949768 0.01975678 -0.01597638 0.04200252 -0.032458764 0.014451117 0.035254683 -0.018991223 0.022507397 -0.0023363014 0.045493603 -0.036336914 -0.0028818224 0.04314844 -0.049218018
만 -0.092160985 -0.048211727 0.005547191 0.04595021 0.07142252 -0.034534663 0.073999554 -0.059469342 0.011508099 -0.05678325 0.009630985 0.041687757 -0.054849323 0.025267262 0.045514807 -0.08428758
는데 0.019546846 0.009918262 0.022555375 -0.051627677 -0.027361557 -0.0020449453 0.01572106 0.036530223 -0.04847601 0.030260872 -0.02429302 0.003151017 -0.039511986 -0.007859236 0.00934855 -0.02624197
너무 0.10437231 0.12358147 -0.09189107 -0.087894596 -0.14473936 0.11199876 -0.11588139 0.13749656 -0.08973554 0.082661666 -0.06877418 -0.12420839 0.120318964 -0.07828944 -0.06778426 0.08766826
봤 0.014011303 -0.017474335 -0.053198554 0.021686137 -0.03238047 0.04719947 -0.01325154 -0.009927533 -0.0073120133 0.018051011 -0.02669187 -0.046579488 0.03558653 -0.034736622 0.036883555 0.02254955
안 -0.09062963 -0.11043771 0.17986718 0.17188478 0.15680484 -0.165848 0.089751095 -0.1806163 0.12160446 -0.13482533 0.10769522 0.118318215 -0.112871215 0.095132746 0.077407114 -0.12136911
적 0.013306098 0.057047587 -0.034425773 -0.016513439 -0.053286284 0.033991206 -0.025043203 -0.008357502 0.024949305 0.011077025 0.005415891 -0.05911127 -0.03557234 -0.038758863 -0.046019074 0.033075187
정말 0.14771596 0.19400024 -0.22827819 -0.1476899 -0.18413714 0.05922647 -0.12826496 0.18665053 -0.1126787 0.18067046 -0.14609167 -0.10085353 0.056968667 -0.026802354 -0.061740372 0.19047415
로 0.004959102 0.004887913 0.02231203 -0.016832588 -0.029630942 0.044693608 -0.04434641 -0.020247083 0.04750035 0.026363455 0.00424918 0.019956686 0.035824984 0.05085271 -0.047911074 0.0044219336
음 -0.027981656 0.012240345 0.036195546 -0.046477806 0.00016554314 -0.04570378 -0.016815504 -0.03618656 -0.04201548 0.010999742 0.031168938 -0.023045443 0.042548653 0.017487328 -0.03267912 -0.03543639
것 0.024616858 0.04610816 -0.03173818 -0.06973614 -0.009098162 -0.009284885 -0.046414595 0.0039647566 -0.084918365 0.07534918 -0.06818497 -0.074138016 0.054248277 0.026047623 -0.02097799 0.11299291
아 -0.07893387 0.0055852868 -0.00043182808 -0.002453981 0.03855982 -0.042964045 0.016899599 -0.049680408 0.053532444 0.00072196225 0.012062453 0.0074155424 -0.022705302 0.012357389 -0.005483473 -0.020799845
네요 -0.009556578 -0.0054577296 0.019463865 0.03058267 -0.046990596 -0.0075996 0.0013646141 -0.0050314777 -0.024316506 0.012121754 -0.0039835502 -0.030407486 0.056765325 0.028599638 -0.00445946 0.04205259
재밌 0.023457717 0.029599508 0.027392946 -0.008106633 0.024395872 0.022880081 0.026219403 -0.0008940042 -0.026357507 0.031574167 -0.046111837 0.024024861 0.020730605 -0.05307948 0.05835589 0.020175645
어 -0.014218071 -0.0030971481 0.03905737 0.034337234 0.038546953 -0.00021028568 0.045833122 0.040388733 -0.012362165 -0.016527947 -0.007475568 -0.01912605 -0.040843517 -0.0042926474 -0.030435259 0.025454907
같 0.038713463 -0.025357192 -0.03585514 0.016836472 0.019298358 0.0058328216 0.053603087 -0.028301248 -0.024540938 -0.019089328 0.0073281555 0.03355303 0.040619735 -0.04074213 0.012334038 -0.01892409
점 0.036451343 -0.02057016 -0.01578803 0.007572299 -0.008871098 -0.04286974 -0.013146789 -0.012045433 -0.030546555 -0.035507143 -0.022619456 0.012207797 0.0237899 0.003385516 0.04129335 0.049262714
진짜 -0.010671719 0.09879506 -0.049828377 -0.1165263 -0.11398734 -0.014139622 -0.042795807 0.01941613 0.023489533 0.06677694 -0.0051603373 -0.038021922 0.01601238 0.052666258 0.009012552 -0.017310517
지만 -0.018630588 0.0200936 0.022789024 0.053717643 0.041871313 -0.008276963 -0.037033327 -0.050367903 0.0039706235 0.0132265035 0.03721725 0.02026574 -0.047682103 -0.012087094 0.024178533 -0.011925084
했 -0.012658726 0.0040898547 0.0064019933 0.015217651 -0.036418308 0.044104252 0.00019273907 -0.009090006 0.044438455 -0.018851256 0.014026057 -0.04648844 0.0067835674 -0.042148687 0.011692811 0.031701628
에서 -0.02021727 -0.030223753 -0.013685853 0.007921187 0.024705397 0.047294717 0.03724471 0.058090154 -0.009992446 -0.019934027 -0.014998123 -0.0014932593 0.022497423 0.023405118 -0.029392166 0.046222195
기 -0.049139548 -0.032357696 -0.05134402 -0.0032294332 0.013702965 -0.067407 0.009627984 -0.0072221565 -0.016253006 -0.006748615 0.07773704 -0.0051354794 0.013350081 0.057165947 -0.018865565 0.012527228
네 0.029029015 0.021729002 0.027222041 0.0046848254 0.030883601 -0.0156356 -0.028100425 -0.011757916 0.036919054 -0.05509211 -0.009690171 -0.004828728 0.039974008 -0.020017104 0.040692676 0.028743654
않 -0.041870598 0.036233008 0.042828687 0.016635694 0.052146085 0.02477817 -0.02959364 0.03022364 0.04006945 0.007783696 -0.038485404 -0.014634838 0.029331245 0.0018679372 -0.023448046 0.021994416
거 -0.030604707 0.032912795 0.0490976 0.032489717 0.055791926 -0.051434867 0.0065306122 0.025616804 0.016844293 0.0054222867 -0.024035098 0.007950528 -0.05497432 -0.02410203 -0.017681703 -0.0441978
았 -0.0039806142 -0.00020042807 -0.009635806 0.04260112 0.038364355 -0.005627703 -0.004770912 -0.028729916 0.013677683 -0.038413763 0.04649656 0.03632765 -0.012423504 -0.0014220476 0.013657715 -0.03825432
수 0.14066738 0.16568708 -0.14938904 -0.122744106 -0.121063225 0.20367515 -0.08333707 0.2155975 -0.15614839 0.19352502 -0.18858619 -0.17409492 0.18137574 -0.12835115 -0.0931372 0.20660166
되 0.01514116 0.012536111 0.015669215 0.03271253 -0.02438648 0.011440537 0.029021593 -0.022478217 0.020302875 0.0018443037 -0.006344995 -0.00517406 -0.01408835 -0.050178483 0.013986198 -0.028965134
면 -0.004969002 0.0581461 -0.03876666 -0.0077474504 -0.021517023 0.040171407 -0.026848424 0.037326872 0.017941205 0.049779367 -0.021207448 0.00012962645 0.058456235 -0.014423076 0.039168637 0.0059810844
ㅋㅋ 0.10442397 -0.087901466 0.14532374 0.04629863 0.11399295 0.058181178 0.09058308 0.108105496 -0.13148145 -0.060772303 -0.10333274 -0.101819806 0.12825295 -0.13660641 0.08823169 0.10105625
연기 0.09165514 0.05814668 0.039266516 -0.045894977 0.00048669477 0.10277162 -0.004034322 0.09498863 -0.11457 -0.047607873 -0.07703496 -0.0863121 0.10262367 -0.02005258 0.07377886 0.1215896
말 0.038539965 0.027258912 0.023757266 -0.021470916 -0.023048295 0.06449528 0.03779567 0.02015772 -0.036915395 -0.02070127 -0.022693966 -0.015074369 -0.01438866 -0.011489937 0.022840392 0.045600314
인 0.032697756 0.05951226 -0.052580062 -0.0056029996 0.022942632 0.008107569 -0.061722532 0.027081996 -0.030870827 0.020435508 0.021246115 -0.0015869112 -0.0052322834 -0.0053323335 -0.06487395 0.015066735
주 -0.08544944 -0.0844592 -0.01084668 0.00025093643 0.048291136 0.0016034892 0.0102029005 -0.002448998 0.055339303 -0.07465826 0.044987 0.04752557 0.0081871925 0.00022811268 0.052798677 -0.023776317
최고 0.13844553 -0.11623206 0.087577455 0.011815159 0.15639062 0.13291937 0.16670258 0.111674465 -0.13724555 -0.08171593 -0.12935135 -0.10913839 0.12273004 -0.10109995 0.12880757 0.105886966
평점 -0.022199236 0.004393669 0.043933295 0.032839756 0.08179986 -0.048084125 0.054258965 -0.037602536 -0.0054255864 -0.061761 0.020082489 0.02303973 -0.027663784 0.0025797277 -0.03258057 -0.074392445
내 0.03383879 0.035496287 -0.068788424 -0.033883274 -0.08669436 0.060433727 -0.04669588 0.07862486 -0.013662928 0.024719527 -0.038472783 -0.020732936 0.068849355 0.03263386 0.01380717 0.025657468
~ 0.09576443 -0.05715734 0.023096465 0.07891585 0.09445607 0.10900526 0.016748806 0.067299694 -0.09601817 -0.006681634 -0.035580266 -0.028976727 0.1024783 -0.09138397 0.05720397 0.037698954
이런 -0.12320607 -0.062331516 0.06547493 0.11339934 0.039366122 -0.02221358 0.048713382 -0.07108636 0.081875026 -0.095436364 0.026983656 0.044977326 -0.006879418 0.050160274 0.018518358 -0.10491734
던 -0.053580392 -0.031182995 0.0016951958 -0.009213691 0.018685339 -0.021981016 0.00755944 -0.03230375 0.025329905 -0.03803719 -0.038310993 -0.03781599 -0.040317595 0.006698628 -0.021693425 -0.017041586
어요 0.03541703 -0.0053113922 -0.00284772 -0.027840627 -0.029606128 -0.029512346 0.027674232 -0.036218405 -0.032335356 -0.011679374 -0.018285714 0.0043560155 0.034974065 0.041617934 -0.028615344 0.016649056
왜 -0.14871176 -0.12491982 0.17138383 0.17874655 0.14591172 -0.12907165 0.178156 -0.20098594 0.1485188 -0.22034429 0.16258962 0.14744815 -0.14727305 0.10665533 0.1208666 -0.11549943
할 0.017375136 -0.021799475 -0.034312572 -0.067570254 -0.0149208335 0.049610265 -0.043552827 0.03703393 -0.06689125 0.025743388 -0.058689736 -0.0040215733 -0.0094891265 -0.062768616 0.019140514 0.03696936
겠 -0.015019852 -0.022257756 0.002110177 -0.022060553 0.023526384 -0.045600556 -0.024084013 0.030296264 0.04036421 -0.010268845 -0.03183046 -0.019722262 -0.009627508 -0.028847037 -0.0054110982 0.021093339
1 -0.028242676 0.02579192 -0.0016204545 -0.05839242 -0.011988163 -0.019697614 -0.060361985 0.01876089 -0.01109776 0.027881077 0.060464032 0.022951975 0.0011365605 0.037229106 -0.006349394 -0.047303207
해 0.00081675104 0.021754326 -0.07790072 -0.05551182 -0.037179183 -0.008581576 -0.03735594 -0.037642088 0.015078589 0.0031322425 0.030531053 -0.029458622 0.017231787 0.052031647 -0.04975913 0.0011464756
스토리 -0.063639626 0.082566746 -0.01958544 -0.06654254 -0.047601685 -0.013752208 -0.04825915 -0.068040915 0.020972326 0.084216446 0.047311217 0.047762714 -0.084618844 0.025049701 -0.058991794 -0.04433915
습니다 0.02086818 -0.026640546 -0.017620414 0.025719648 0.02735796 -0.0071353903 -0.021762922 -0.026603665 -0.008150881 -0.017611297 0.011980661 0.012178443 0.060008205 -0.046654668 -0.0070505515 -0.00196507
ㅋㅋㅋ 0.020380162 -0.013839476 0.0222268 8.4921456e-05 0.08559913 0.021720972 0.08340293 0.036887284 -0.010769508 -0.004040949 -0.055366337 -0.0512358 0.074335285 -0.0914776 0.09870596 0.10897398
... -0.03957169 0.07226531 -0.07452409 -0.051454958 0.014287161 0.021096738 -0.06506778 0.008020532 0.053729143 -0.005299799 -0.00732592 0.026264636 -0.033555545 -0.010046379 0.006930701 -0.053610254
아니 -0.078414015 0.003226007 0.06691969 0.052049164 0.023330616 -0.014689534 0.05907438 -0.0753048 0.0511461 -0.060645718 0.04956416 0.04723883 -0.049484916 0.014243081 0.0030437177 -0.005568158
생각 0.02947064 -0.018178852 0.06574588 -0.0079932455 -0.0034056413 0.0484985 0.060515568 0.08199877 -0.040908616 -0.014833797 -0.03934018 -0.05484273 0.037790693 -0.05102275 -0.0056978073 0.014777874
더 0.08668294 0.056810465 -0.032684743 -0.05782669 -0.065432966 0.03570767 -0.028203344 0.060002066 -0.06076325 0.12478043 -0.08637515 -0.09477514 0.07139873 0.03165018 -0.06657799 0.06833866
그 0.06510492 0.059637833 -0.05891328 -0.12610868 -0.12847519 0.08295935 -0.020109743 0.12254037 -0.088110805 0.036135625 -0.13875805 -0.07074291 0.042683113 -0.07924823 -0.058273137 0.069693506
드라마 0.07326891 -0.037628982 0.13078201 0.08561132 0.04266534 0.075989194 0.09897841 0.084999256 -0.055157866 -0.037604406 -0.12508053 -0.09963388 0.11419732 -0.124849364 0.1294731 0.11710727
싶 0.0038573253 -0.03786499 0.0416196 0.012555285 0.045633152 -0.04643601 -0.048044052 -0.022154296 -0.023517335 -0.022591706 -0.04141807 0.046395555 0.017691208 -0.025856351 -0.037016105 -0.007139118
사람 0.0153118465 0.00173205 0.00090526196 0.028054127 0.043785866 -0.029750185 -0.039383058 0.04606812 0.015244158 -0.037866898 0.05370341 0.030091515 0.03272882 0.029865108 0.023977935 -0.009872161
듯 -0.04754702 -0.020246787 -0.045845814 0.020130254 -0.05153764 0.010150201 -0.0047004237 0.003330361 0.03329534 0.006136818 0.05295438 0.022945609 0.027740134 0.039103914 -0.037192844 0.023600888
때 0.025897954 0.017121075 -0.062496327 -0.10121564 -0.039403923 -0.0048847036 0.0060915654 0.034768354 -0.073625594 -0.006474645 -0.073039584 0.0068229567 0.022828422 0.034810454 0.011681851 0.03730116
감동 0.06931889 -0.090409584 0.03893088 0.010762904 0.029921396 0.13884366 0.12446474 0.066916436 -0.1335404 -0.105010256 -0.13399698 -0.10452582 0.07409521 -0.06152163 0.12308371 0.14169306
배우 -0.013326829 -0.0475471 0.021200197 0.006035792 0.030261505 0.04280119 0.010549353 0.05839663 0.0045570377 -0.03400854 -0.015690438 -0.06435225 0.002350172 0.02154094 -0.037311804 0.0006646126
함 -0.014763756 0.03166342 0.03713508 0.03321478 0.058326583 0.05481226 0.01069273 0.0601908 -0.042270605 -0.011164072 -0.067874484 -0.031298608 0.0050347666 -0.04367934 0.015154655 0.07082479
까지 0.040346064 -0.008808897 -0.03892764 -0.039181642 0.026310578 0.071815535 -0.036096334 0.052069742 -0.041444167 0.024260815 -0.07212521 -0.0360034 0.06302234 -0.05255394 0.022774184 0.0769641
본 0.13218956 0.107687585 -0.08682593 -0.16258046 -0.16591224 0.1297544 -0.05581636 0.13687399 -0.16725072 0.082823 -0.11797718 -0.08922372 0.11760967 -0.0875595 -0.07163994 0.097403616
볼 0.063811675 0.073992416 -0.0068644574 -0.078345805 -0.073838845 0.09036745 -0.041234873 0.033804253 -0.06961035 0.07326032 -0.08661698 -0.10065312 0.039948616 -0.070584305 -0.025080636 0.0962853
내용 -0.049182646 -0.0068893465 -0.009362782 0.03139261 -0.008021507 -0.09755588 -0.05182066 -0.10735614 0.016263956 0.04628486 0.108821586 0.06877979 -0.03828403 0.057675812 -0.0064004585 -0.046290908
보다 -0.14190803 -0.068621814 0.0458737 0.105411276 0.04075318 -0.08047329 0.049039416 -0.024190206 0.11355598 -0.09234764 0.10578033 0.06665794 0.011718661 -0.02397771 -0.028579814 -0.0136958435
만들 -0.053691097 -0.06419705 0.014781541 0.09481765 0.09652984 -0.07076063 0.07315105 -0.0050266357 0.05806986 -0.05468543 0.034168635 0.034527585 -0.09047675 0.09150047 0.045146585 -0.093454115
뭐 -0.090570614 -0.049389835 0.104206905 0.16671553 0.061115015 -0.03695662 0.031159526 -0.10698668 0.11786127 -0.05866682 0.16368422 0.08025964 -0.017449522 0.021549188 -0.031051744 -0.07639848
알 0.005852806 0.04949842 -0.017284004 -0.043182433 0.015216568 -0.068910524 -0.021613164 -0.080056496 0.007151034 0.06935775 0.07135933 0.077914394 -0.08290598 0.006474003 -0.073332004 -0.03234731
감독 -0.08232133 -0.07066336 0.07414455 0.062421706 0.08065716 -0.03516127 0.05045275 -0.024117783 0.07658979 -0.0062459875 0.09604388 0.038204327 -0.01427861 0.034644004 0.061693028 -0.039227705
라 -0.03189032 0.02274044 0.0036218811 -0.0041772155 -0.024730086 -0.0038624296 -0.034911405 -0.022759674 -0.008202651 -0.034175582 0.010774753 0.048981518 -0.03446545 -0.005829295 -0.017950607 0.037516393
그냥 -0.19845667 -0.22878754 0.23150125 0.18910751 0.20836082 -0.13020368 0.10684885 -0.2090585 0.17671864 -0.17134406 0.19359842 0.21362984 -0.13937666 0.0712546 -0.00018649106 -0.11857102
재미 -0.03983832 -0.017918967 0.051209874 0.060901504 0.11035312 -0.016843366 0.019700572 -0.025287127 -0.0022645888 -0.10771515 0.032522026 -0.02002627 0.008932016 -0.034503683 0.027859809 -0.026479712
중 0.10361427 0.04380898 -0.100885436 -0.07113615 -0.09964241 -0.004786998 -0.008385933 0.08839263 -0.11617554 0.10847454 -0.06484424 -0.02569991 0.047090407 -0.02586685 -0.0608792 0.040916465
시간 -0.14814678 -0.08361776 0.093906075 0.17482606 0.18852647 -0.08089215 0.09455315 -0.1348756 0.13863675 -0.17468706 0.20157292 0.118010044 -0.080197886 -0.0036461682 0.061219238 -0.11577453
지루 -0.0707944 -0.0050817104 -0.029615605 -0.04452349 -0.03125307 -0.05376559 -0.08088142 -0.052598223 0.052001715 0.06757869 0.040178813 0.0691086 -0.07667918 0.030412586 -0.05842369 -0.04663448
재미있 0.004181737 0.0019258179 -0.008845591 0.0071652858 0.05383912 0.0006246093 -0.0077154352 -0.028872913 -0.019590657 -0.00056236546 -0.010398924 -0.041103333 0.014348594 0.029675286 -0.0074919686 -0.03420653
년 0.004456563 -0.008800109 -0.03833813 -0.052416172 0.01632832 0.052064396 -0.031879667 0.056101248 0.0077932654 -0.044038583 0.038486373 -0.014226624 0.02988983 -0.043067917 0.030441342 0.021408893
였 -0.029076649 0.01711477 -0.005380165 0.024591576 0.029914845 -0.03504746 0.0070253387 -0.0053764954 0.004999686 -0.043765318 -0.038283765 0.013192143 0.013781857 0.040088963 0.008540571 0.023767624
10 0.067261204 -0.02146249 0.05034905 -0.0440084 0.03224535 0.034117833 0.05718791 -0.0072202636 -0.005754909 -0.011914789 -0.027008083 -0.059259072 0.07230944 -0.05741451 0.0016373883 0.034498055
잼 0.038895432 -0.05725478 0.021681877 0.030595278 -0.002258039 -0.02526787 0.0435321 0.010540442 0.03362489 0.010052879 0.020614438 -0.0114547275 -0.026673235 -0.05057355 0.052661393 0.0056163105
사랑 0.059981428 -0.07195109 0.009448968 -0.018203344 0.039278917 0.061418153 0.0056659556 0.03787648 -0.06043162 -0.016421845 -0.0944441 -0.09763774 0.02393011 -0.044599526 0.012440031 0.07423757
냐 -0.050597537 -0.047471512 -0.020456856 0.042294126 0.004520092 -0.018781928 0.054639153 0.008169209 -0.024065534 0.03598001 -0.03220797 0.041452117 -0.044690773 -0.011555031 0.0070948214 -0.039450627
못 -0.14156751 -0.08422457 0.08311152 0.15741584 0.10681838 -0.14370674 0.09695095 -0.12467078 0.16310112 -0.09018068 0.13187411 0.0886674 -0.1540815 0.042533245 0.079988666 -0.09398356
재미없 0.0385184 0.029084114 -0.042983145 -0.0077642333 -0.010897105 0.0043409336 -0.045358535 -0.03350331 0.027665397 0.03516519 -0.0009914406 -0.016058147 -0.042300973 -0.038584996 0.023741566 0.027286679
서 -0.017617011 -0.010689379 -0.02406652 0.052071348 -0.033685822 0.03357795 0.013741379 -0.031721745 0.059958834 -0.0064677508 -0.018975044 0.04485495 -0.051768195 0.014150592 0.025089534 0.0006036733
쓰레기 -0.20272169 0.032813296 -0.042240098 0.14192112 -0.06701938 -0.207127 -0.08238196 -0.16950674 0.17831008 0.019132406 0.21788946 0.2227425 -0.18506539 0.1864464 -0.124970734 -0.22227913
2 0.05712901 0.008284414 0.0022817014 -0.07796875 -0.06385916 -0.04127921 0.020996459 0.009008037 -0.028408092 -0.014827479 0.003641944 -0.010302938 -0.009449268 -0.04521462 -0.013928232 0.027520856
라고 0.02637915 -0.020378925 0.050975192 0.05869046 -0.022111515 -0.033876646 -0.0024023997 -0.039838642 -0.01773003 0.022043845 -0.010020938 -0.00026757922 0.0029459049 -0.037991963 0.022708308 0.0059861476
번 0.10434419 0.03130905 -0.074833125 -0.113367155 -0.079913765 0.08145194 -0.05764708 0.059998482 -0.08468242 0.046342872 -0.040705003 -0.12004253 0.11362962 -0.105137624 -0.029244365 0.09359123
야 -0.015848935 0.0051204595 -0.032547344 0.037004672 0.021672966 -0.047746416 0.04909102 -0.013695275 0.04162352 -0.001286146 0.0044307862 -0.0077950936 -0.05083333 0.037821673 0.006877999 0.029021125
면서 -0.031041646 0.03080057 -0.040930998 -0.04468733 -0.0115343705 -0.046317935 -0.036020316 -0.005254604 -0.044894792 0.018321846 0.01887742 -0.038908638 -0.016088616 -0.026093865 0.011753418 -0.04061835
다시 0.19906984 0.1923401 -0.19980016 -0.18365395 -0.11853422 0.17040893 -0.061582804 0.20912538 -0.19521445 0.14172707 -0.16189657 -0.11780234 0.12681378 -0.13245937 -0.05639166 0.23023076
니 -0.0025646505 -0.03711151 -0.0011150473 0.028893903 0.047806595 -0.01659587 -0.010990324 -0.0019199642 -0.029450038 0.027348835 -0.028415814 -0.015680809 -0.04590833 -0.02853209 0.034700673 -0.0196798
나오 0.021388818 -0.016662728 -0.028704954 -0.02154429 -0.024855936 0.004370343 0.0068911314 0.019759487 -0.03051213 0.038387645 0.0046697035 0.022866976 -0.044554066 -0.022463847 0.024786998 -0.033167887
작품 0.084652446 -0.030648453 0.12011513 0.103771016 0.09859711 0.037929937 0.03572816 0.09858053 -0.056752495 -0.033705078 -0.088080294 -0.03670853 0.049000688 -0.11293228 0.0903658 0.08776729
이거 -0.042701796 -0.0025440364 0.0061617712 -0.012399833 0.0036669408 -0.06923175 -0.026079623 -0.08042734 0.016975215 -0.005696136 0.07724931 0.027673762 -0.060271632 0.03299756 -0.06309854 -0.051095393
하나 0.007904922 -0.02123803 0.038881637 0.077232644 0.06850851 0.035512153 -0.019776583 -0.020322336 -0.035444696 0.00507461 -0.031372543 -0.04601372 -0.014066209 -0.003222981 0.05447519 -0.026425075
해서 -0.028354054 -0.06393986 0.00018087018 0.061650682 0.04750044 -0.078329116 0.004202104 -0.0075635454 0.0606055 -0.003060865 -0.02074759 0.009361997 -0.029523939 -0.0032389988 0.05447516 -0.064723626
줄 -0.020349693 0.023688817 -0.0027402788 0.030656777 0.044639967 -0.008852696 -0.050628304 -0.053475156 0.045050103 0.0020670171 0.037591524 -0.019852657 -0.025914688 0.024299845 0.0001454136 -0.015415944
개 -0.12930647 -0.052955117 0.03247467 0.119949065 0.0382218 -0.045867957 0.061547846 -0.09809648 0.08984286 -0.08345992 0.1461413 0.10676637 -0.055714842 0.08448609 0.04045057 -0.1408273
끝 -0.047365937 0.09804703 -0.07399635 -0.0019655605 -0.039074756 -0.08194296 -0.029153496 -0.063991584 0.02023716 0.042162195 0.10008211 0.0782254 -0.08781178 0.10925454 -0.065408096 -0.08679632
남 -0.054416135 -0.020264408 -0.019939454 0.029574322 0.038181912 -0.017899536 -0.04531567 -0.03874939 -0.036308017 -0.034329664 -0.028853025 0.03201867 -0.05672807 -0.009893419 0.017401578 0.011582179
정도 -0.084963754 0.0549621 -0.069876164 -0.0050765537 -0.06475389 0.00071052136 -0.007781885 -0.01649816 -0.004070776 0.076625995 0.08349265 -0.003327663 -0.06878388 0.05447659 -0.05534167 -0.0718627
마지막 0.15676847 0.14189759 -0.17543314 -0.18165445 -0.14975455 0.08686757 -0.10220685 0.102589615 -0.14265756 0.11619775 -0.16154844 -0.11198218 0.08547387 -0.102052584 -0.020640157 0.12169717
이건 -0.23110236 -0.15324241 0.108917065 0.15229395 0.15530294 -0.10585006 0.11737557 -0.16331066 0.15281162 -0.17743042 0.23073678 0.15772493 -0.14926706 0.052564103 0.03771746 -0.1571661
임 -0.0135461055 0.044652537 -0.020556932 -0.07574638 0.008790614 -0.020467458 -0.005491152 -0.005161011 -0.00040734254 0.0033529326 0.04098084 0.0417179 0.003763837 0.05266762 -0.06742719 0.012466868
액션 0.019437412 0.0008714793 0.044947833 -0.005751614 0.02543593 0.019620063 0.047466435 0.015004925 -0.022565495 0.041418534 -0.031181881 -0.041587997 0.06841285 0.02853413 -0.024423977 0.06639601
기대 0.09138464 0.013576849 -0.046787426 -0.050567947 0.02672322 0.072872736 0.05126045 0.0818015 -0.039563537 -0.016474295 -0.027380256 -0.025437504 0.071765035 -0.061212536 0.028647713 0.049861576
분 0.044170707 -0.034440722 0.031551026 0.0037919194 -0.040513285 0.04242142 0.014974499 0.045476977 -0.06232254 -0.00996899 -0.008138124 -0.018367315 -0.008345732 -0.013638125 -0.011035376 0.07209329
라는 -0.012540514 -0.036028687 -0.046693876 -0.0041005188 -0.0054147327 -0.03514836 0.017331803 0.045408558 -0.023403216 0.043831237 -0.017646523 0.037014734 -0.028481517 -0.030234866 0.030794691 0.042772338
ㅋ 0.06735337 -0.0714447 0.13345207 0.09641111 0.110868625 0.0470998 0.1194 0.121209115 -0.09071128 -0.07896252 -0.05948868 -0.11861543 0.10640757 -0.07027311 0.10220255 0.10631832
3 -0.020486202 -0.012831055 0.043846853 0.025584571 -0.035487328 0.013409171 0.050725985 0.027736533 0.012114033 0.017654855 0.013397851 0.02555849 0.021032281 -0.013602401 0.0032257063 0.0372689
다는 0.043192964 -0.028648213 -0.026037464 0.0069923433 0.009923422 0.0050044893 0.044742953 0.022364927 0.044211127 0.030642057 0.0010342448 -0.029380709 0.039972924 0.0005568241 -0.00280957 -0.032893475
입니다 0.077578686 -0.014799435 0.0011570975 0.017718142 0.017186094 0.07149275 0.010171461 0.07824549 -0.037091147 -0.06889678 -0.04894106 -0.099338554 0.08722151 -0.09611062 0.038288124 0.031193266
건 -0.048935227 -0.08069545 0.036800742 0.1160034 0.11713847 -0.095376104 0.027607301 -0.08499729 0.119871765 -0.1211101 0.11223103 0.12613851 -0.037611526 0.02050038 0.008459842 -0.06295451
완전 0.065067485 0.058298524 -0.047965173 -0.054564368 -0.055656496 0.04828833 -0.08932564 0.09500892 -0.09758713 0.097335264 -0.09782205 -0.09575118 0.027879609 0.06269371 -0.09425461 0.07976164
많 0.025084723 -0.013128579 -0.047312688 0.023337115 0.037539076 -0.01960572 -0.032840632 0.040283155 0.04074801 0.026843574 -0.020164598 0.04345831 -0.026709104 0.01598047 -0.04572946 0.03901137
참 0.07720459 0.093421765 -0.03576542 -0.12245253 -0.13306525 0.050423186 -0.004032841 0.028393023 -0.092488825 0.026604397 -0.075820625 -0.086343095 -0.01293187 0.058264572 -0.061049588 0.113159455
처음 -0.075292856 0.030760603 -0.076641634 -0.017813733 -0.061810642 -0.07636436 -0.07793609 -0.0798532 0.022466935 -0.008881202 -0.011751101 -0.009453828 -0.035549916 0.03730905 -0.0693823 -0.050035328
장면 0.031636275 0.034191757 0.046012208 -0.021285731 -0.028105723 -0.0024159078 0.04536025 0.07062676 -0.023783142 0.0069696475 -0.003636674 -0.026880182 -0.00159687 -0.08136074 0.06861051 0.075330496
대 -0.002479206 0.019119464 0.0188107 -0.032813378 -0.0061979005 0.025516307 0.01939414 -0.027250448 0.05524675 -0.038455714 0.0012659269 0.04149028 -0.004907289 0.021529024 0.020745631 -0.009346558
으면 -0.049976826 -0.041835986 0.021715764 0.042885076 -0.034573793 0.02680887 -0.040567957 -0.034399785 -0.012968849 -0.045369256 -0.002749838 -0.04828879 -0.0064698234 -0.040908635 0.040336136 0.010090746
다가 0.00045588304 0.04249239 0.021183522 0.036680497 -0.01837852 -0.025496237 0.0075475355 -0.019401712 -0.03709462 0.007695334 -0.016198087 0.046718556 0.030748188 -0.01056833 -0.04743752 -0.008230271
아깝 -0.009187812 0.087414555 0.007110305 0.00049782835 -0.0602529 -0.06863607 -0.05169709 -0.018218158 0.01597183 0.049411833 0.026104176 0.020051511 -0.0077622347 0.079476096 -0.07170849 -0.08088765
지금 0.11032501 0.07341186 -0.07896161 -0.08150801 -0.09308444 0.07687659 -0.06876227 0.07398539 -0.039796855 0.054757416 -0.1373906 -0.12515743 0.06197274 -0.053650405 -0.03771049 0.13335559
이렇게 -0.040428262 -0.060574766 0.049968358 0.076170504 0.07336807 -0.03122221 0.0018377181 -0.0537889 0.036793385 -0.08261076 0.078311644 -0.0047574947 -0.07249366 0.0689017 0.035531823 -0.008911661
모르 0.02585398 0.014201138 0.0380178 -0.0425089 -0.003463626 -0.0237772 0.03172232 -0.046191286 0.007651102 -0.00055711344 -0.04742924 -0.014662065 -0.0058350675 0.032537404 -0.04000888 -0.0036664717
편 0.013247978 0.013121556 -0.03836763 0.012276467 -0.0066782786 0.006135928 -0.052726977 0.0016444211 0.049171675 0.05507641 -0.021037767 0.048952516 -0.05190906 -0.029786473 -0.057525426 -0.040783443
' 0.0036582456 0.040450167 -0.022409633 0.002068236 -0.028816188 -0.04349714 0.006075065 -0.041263897 -0.052903827 0.06341892 -0.0055227717 0.023851568 0.049603917 0.004966623 0.02458382 0.031571686
이게 -0.20570107 -0.17149958 0.11183788 0.22387026 0.14490631 -0.1247638 0.06989458 -0.15193655 0.1627656 -0.09443162 0.20421384 0.13494541 -0.07302802 0.028798461 0.0051125623 -0.17835902
일 -0.013878636 -0.037734613 -0.013863756 0.05938301 0.019310793 -0.04088877 0.037342183 -0.05362442 -0.008204382 -0.06849677 -0.004594796 -0.008677478 -0.050525997 -0.044224456 0.06917744 -0.044757117
돈 -0.17074259 -0.12875429 0.122204654 0.11834186 0.12843518 -0.16413133 0.09936637 -0.1539627 0.1151331 -0.19400488 0.12799996 0.20205598 -0.12254384 0.12846571 0.015588449 -0.109116584
성 0.010852609 -0.037901886 -0.031752706 0.029152289 -0.0075517623 -0.028742144 0.0558671 0.03566979 0.0020680446 0.014695662 0.0022432136 0.0048526935 -0.0215374 -0.014551264 0.028382573 0.011175656
시 0.006954767 -0.025222126 0.040123418 -0.028632874 -0.02387478 0.04062776 0.027095178 0.04456931 -0.04820011 0.045657724 -0.04818544 -0.0090286555 -0.0046276203 -0.005091088 -0.045501303 0.047327988
이야기 0.02912579 -0.0749312 0.023753783 0.07775547 0.044572502 0.066557646 0.056843083 0.051637743 -0.023508348 -0.06115112 -0.06340273 -0.09890804 0.078488514 -0.11815906 0.08687716 0.07089369
느낌 -0.04849323 0.048398733 -0.029675117 -0.042595442 0.015431005 -0.018978782 -0.014414117 -0.0018730165 0.013140776 0.028401729 0.01654833 -0.029184729 -0.021177318 0.026642969 -0.004749018 -0.027368203
최악 -0.10140851 0.0831019 -0.12967417 -0.068028934 -0.055384822 -0.11780473 -0.16299777 -0.1594502 0.1157162 0.08225061 0.094230235 0.075494565 -0.15859509 0.13240787 -0.12472367 -0.10599887
된 0.060615655 0.052243277 -0.115367524 -0.07655844 -0.057804506 0.100384176 -0.08506927 0.103169344 -0.04209712 0.042779256 -0.10478866 -0.07171385 0.106147915 -0.04677759 -0.0154062295 0.06921321
님 -0.022689331 -0.05572309 -0.0039073722 0.017979419 -0.035055168 0.025095984 -0.022103835 0.037483353 0.013116419 -0.008836022 -0.0024384886 -0.017147345 0.036774773 0.038422845 -0.010971867 -0.014190481
봐도 0.1456359 0.13674782 -0.13017085 -0.15516894 -0.18123451 0.13885422 -0.09392039 0.1901035 -0.13176823 0.13674493 -0.09680479 -0.13871719 0.11625094 -0.18596946 -0.067639574 0.17966668
어서 -0.0033564728 0.009361147 0.008018502 0.0158036 -0.054630365 0.04413493 -0.040232174 0.016950807 -0.058517765 0.0011988069 -0.025064277 0.016878089 0.03521429 -0.008148928 -0.06251192 0.0041721733
애 0.045233905 0.024698798 0.006771397 0.0059300405 0.036603227 -0.04377501 0.03529462 0.0056075905 -0.04021283 0.031337615 0.04315138 0.04506615 0.029662928 0.032637045 -0.013051701 -0.0010450109
ㅠㅠ 0.13071196 -0.079405226 0.062452525 0.06204219 0.11099949 0.104345985 0.15243545 0.067174524 -0.15000418 -0.07496036 -0.14144225 -0.1119974 0.07464539 -0.15331459 0.11058853 0.120880574
전 0.10695017 0.057101626 -0.050982334 -0.11626517 -0.050588783 0.11390074 -0.08001948 0.040101882 -0.113132894 0.07002458 -0.02704461 -0.031626932 0.02198053 -0.0743065 -0.028102795 0.022793429
다고 0.0139618255 -0.045883704 0.0074409135 -0.028718162 -0.0026861317 -0.044570174 -0.016913734 0.015931573 -0.020947278 0.004822336 0.015000228 0.03222158 -0.005094409 0.028277848 -0.01586641 -0.00019757822
이해 -0.048109718 -0.0121787125 0.011087902 0.08391626 0.036460157 -0.06648257 0.08369676 -0.02713376 0.086840525 -0.005912834 0.007220981 0.081770666 -0.04042089 0.060731865 0.08818875 -0.0040548914
넘 0.15044051 0.11043954 -0.16801864 -0.1037588 -0.08738935 0.16131642 -0.12108283 0.19228224 -0.10368518 0.17137143 -0.17657892 -0.16993812 0.15085846 -0.13904583 -0.10229289 0.17380759
인데 -0.032553043 -0.03213647 0.017598882 0.04863816 0.0077034645 -0.045900065 0.037382863 -0.054245442 0.057222527 -0.054972995 0.018919535 -0.0029100068 -0.041711245 0.03657862 -0.039386787 -0.029995136
별로 -0.15443279 0.053324573 -0.07103994 0.03626442 0.007886264 -0.124012075 -0.1195353 -0.14475907 0.16448842 0.0402824 0.16868211 0.09685941 -0.11200615 0.15325475 -0.051178157 -0.15071595
여자 -0.029235601 -0.014897778 0.011978842 0.028554305 -0.015357988 0.031786967 0.042245965 0.026286678 0.042537432 -0.018506797 -0.015251447 -0.02240353 -0.028433196 -0.02599303 0.044603147 -0.03127768
이상 -0.035468232 -0.02156333 0.0021208567 -0.016957464 0.027516918 -0.015619723 0.017470147 0.03007132 0.009598838 0.00724807 0.026206879 0.041819785 -0.016969338 -0.041342024 0.016707866 -0.043014463
명작 0.11136958 -0.11898676 0.12550072 0.068001956 0.15739189 0.07963104 0.13019769 0.11820136 -0.15549219 -0.10070146 -0.19119473 -0.11206697 0.11629262 -0.16590868 0.08788231 0.15896812
^^ 0.1766851 -0.113951586 0.17645626 0.118595794 0.15190384 0.13315696 0.11663228 0.18905853 -0.14441635 -0.18410276 -0.1698549 -0.14358376 0.14935741 -0.15913022 0.15611023 0.11004501
역시 0.14419055 0.14324439 -0.15955183 -0.16688283 -0.1250871 0.13822418 -0.0964513 0.107369676 -0.18098839 0.06342964 -0.20858492 -0.17072226 0.10156579 -0.09771331 -0.05792495 0.14243568
난 0.09393453 0.08001481 -0.14612618 -0.10188771 -0.060299043 0.003936092 -0.06938367 0.13586324 -0.063915856 0.116830274 -0.12604341 -0.11087652 0.078833 -0.005534722 -0.06118594 0.09798543
한국 -0.007560048 0.05465038 -0.080648154 -0.04583734 -0.03822493 0.048985254 -0.00909893 0.049012557 -0.053799573 0.019972332 0.010715584 0.00485816 -0.03363602 0.030109614 0.013246658 -0.014485309
그리고 0.1278368 0.10687798 -0.12253007 -0.14338782 -0.1367428 0.117431425 -0.121788144 0.16881166 -0.119201005 0.086420126 -0.15241963 -0.087064095 0.10233063 -0.07147183 -0.0051994408 0.1418404
또 0.13731039 0.14438821 -0.1722026 -0.18624713 -0.16310734 0.09337949 -0.117406175 0.10583678 -0.09551004 0.09132967 -0.17586622 -0.14584614 0.063366376 -0.026476879 -0.0010542504 0.18856283
에게 0.04048106 -0.0012245509 -0.009438808 0.029880626 -0.053159386 0.059778813 -0.008105752 0.03819857 0.03021675 0.010031547 -0.0070201242 -0.0027339938 0.02559948 0.019000707 -0.042342532 0.028139446
만든 0.022425907 -0.041175574 0.06816025 0.029189589 0.04209428 0.012999327 -0.005254805 -0.02125453 0.043094337 -0.06552363 0.06488509 0.086501285 -0.022439398 0.015311745 0.05778216 0.0053902916
많이 0.017696973 0.035419807 -0.061333545 -0.008108537 -0.008884277 0.009907817 -0.075815186 0.023521606 0.012489065 0.04231984 0.009837236 -0.005076678 -0.035569336 0.05755137 0.012598393 0.06708211
부터 -0.008975574 0.0047521633 -0.008270615 0.041239794 0.020272665 0.015109433 -0.0200558 0.0054163155 -0.0048865275 -0.020499019 0.036172334 -0.008552155 -0.026736308 0.0007374203 -0.011040649 -0.014410761
걸 -0.005370038 0.03301666 0.012684461 -0.024152307 -0.012027514 -0.04322924 0.01807256 0.030554354 -0.038698036 0.036749545 -0.04584783 0.0063557806 0.014935354 0.015502872 -0.00050791464 0.037630536
는지 0.045725632 0.028097365 -0.029358162 0.018188488 -0.029548539 0.015043285 0.04789159 -0.015735187 0.03518713 0.0072249994 -0.04679325 0.02864376 0.015919115 0.030289028 -0.04884068 -0.049941063
주인공 -0.08112442 -0.04675042 0.0810897 0.045571573 0.034808725 -0.035098772 0.028389966 -0.011111868 -0.029743671 0.001805142 -0.027306683 0.029931623 -0.021952016 0.012876968 0.0057085184 0.0069865566
두 0.100834586 0.09776396 -0.046091646 -0.055598464 -0.06658382 0.05371979 -0.079111144 0.05325949 -0.05545646 0.01787324 -0.054842837 -0.03789199 0.055093322 -0.048386995 -0.07018667 0.09858098
우리 0.11976708 0.024798345 -0.039630048 -0.12035162 -0.11037539 0.05434763 -0.03515803 0.120646514 -0.09156223 0.05256777 -0.037529018 -0.08944759 0.05264991 -0.081330076 -0.08106929 0.05680491
합니다 0.044791497 -0.054803398 -0.0071105114 0.047305603 0.009659897 0.051347602 -0.001926467 0.0050561987 -0.059804957 -0.027158597 0.015739342 0.01186494 -0.021348387 -0.070272 -0.024974287 0.009798721
받 -0.039137624 0.009954751 -0.021345997 -0.027297093 -0.03290973 0.009166252 -0.03329607 -0.03531023 0.038171414 -0.016448092 -0.025902271 0.022700105 -0.0074171796 -0.022588825 0.03370187 -0.047341265
살 0.021974029 -0.009473413 -0.0412339 -0.03458716 -0.06307416 0.057298314 -0.035251386 0.043820605 -0.042502377 0.02968715 -0.023784935 -0.06583666 0.05675708 -0.010983307 -0.0019629137 -0.011136883
괜찮 -0.023400195 0.00033978728 0.0018324077 0.017296879 -0.010779229 -0.007930364 0.05836669 0.044733137 -0.06030622 -0.054557033 -0.010289827 -0.043070734 0.02941438 0.01752029 0.0042006797 -0.01954692
!! 0.07347812 -0.11443408 0.110191904 0.05049435 0.078306675 0.11059134 0.05012715 0.036742624 -0.032422885 -0.06552448 -0.11051245 -0.09878006 0.07183405 -0.10613468 0.06148068 0.06968808
연출 -0.051093634 0.042802293 0.022866294 0.018193783 -0.008168152 -0.047727816 0.01874867 -0.05852687 0.027172843 -0.004572697 0.0019531846 0.06235137 -0.043166466 0.024981178 -0.07351104 -0.0755534
길 -0.010653651 -0.028637858 -0.02412765 0.032236416 0.02253788 0.0023087736 0.008682952 0.00055406126 0.010135983 0.03576819 -0.05044191 -0.011722606 0.043481473 -0.018634439 -0.036438946 0.001346607
엔 0.045910448 -0.032778263 -0.009268486 0.028152222 0.030125767 -0.0033435142 -0.031690706 -0.028633308 0.01885941 -0.031283874 0.025808472 0.008293668 0.05345165 -0.052435342 -0.033792317 -0.0041738497
때문 0.033025462 0.016934752 0.070180915 -0.0109882625 0.01940207 -0.014901699 0.07231366 0.055107962 0.009260306 -0.05807054 -0.08181756 -0.042227294 0.033879276 -0.01079696 0.049774226 -0.009915238
기억 0.069908164 -0.05551711 -0.012470039 0.010296691 0.029887605 0.028127873 0.009074401 0.057005856 -0.022496054 -0.059786603 -0.044404794 -0.029646203 0.014370835 -0.015374023 0.019197326 0.012784184
한다 -0.0073903175 -0.0040991297 0.044784702 0.021625489 0.04967813 0.012351911 0.022020452 0.059428774 -0.039948918 0.015291288 -0.023787834 0.0076085064 -0.008810609 0.021475438 -0.01453304 -0.018342596
ㅎㅎ 0.12720695 -0.15232521 0.14895907 0.061954744 0.0987681 0.124311686 0.16817999 0.18873803 -0.17551585 -0.12998122 -0.18477613 -0.103364475 0.14870153 -0.1065793 0.1343034 0.19920844
저 0.0065756585 0.0101510035 0.01448541 -0.05899119 -0.06416162 -0.02614814 -0.053997844 -0.011609765 -0.048643976 -0.022484394 -0.011545372 -0.032588076 0.047241975 -0.008608125 0.017042952 -0.011770413
이나 -0.045013912 0.016237894 0.06803803 0.060684837 0.068923265 0.008841512 -0.00054551783 0.024120033 -0.025190039 -0.005742513 -0.014109937 -0.023202036 -0.0583191 -0.030894486 0.016543254 -0.03881452
요 0.029361963 -0.024186278 -0.06251126 -0.06536497 -0.068276405 -0.009714685 -0.026703972 0.027061462 -0.025146164 0.026712937 -0.049817737 0.027368074 0.0043616686 -0.04237316 0.018311972 -0.0071458113
꼭 0.10035413 0.15087764 -0.17449422 -0.18959436 -0.13679308 0.16677938 -0.07799105 0.15062326 -0.2047526 0.17582385 -0.134632 -0.12907149 0.1429724 -0.087625235 -0.069759175 0.19476964
재 0.05313102 0.00033858189 0.013623836 -0.029605666 -0.038882628 0.025208242 -0.019538544 -0.025509546 -0.020853993 0.043716483 0.026446318 -0.045594305 0.034190685 -0.0084441705 0.014227866 -0.0005393948
현실 0.04336952 -0.080544166 0.034896787 0.04459735 -0.006717589 0.032313857 0.018007519 0.07856464 -0.049571045 -0.035568383 -0.08792521 -0.012468825 0.028018735 -0.09244108 0.08773309 0.08095231
ㅡㅡ -0.18445426 0.09636023 -0.14017595 -0.091110215 -0.10016175 -0.16209023 -0.13238208 -0.19681363 0.16869266 0.11892585 0.19036256 0.13185415 -0.09982866 0.18785915 -0.18893953 -0.17506586
긴 0.09165589 0.06896976 -0.0020757585 -0.05009569 -0.038265947 0.077368334 -0.019226458 0.08147161 -0.0032288672 0.014345685 -0.002606422 -0.0022355174 0.034120142 -0.019299734 0.017680794 0.011903877
랑 -0.030455464 -0.034872297 -0.013571431 0.019283919 -0.0046074726 0.01152741 0.0281547 -7.3098716e-05 0.062827356 -0.06311172 -0.022304455 0.05130994 0.0056802626 0.054429427 -0.003405573 0.018291771
며 -0.044472806 -0.047904287 -0.040457323 0.0029358498 0.052583616 -0.0025819445 -0.046415042 0.019376174 0.04505244 0.007899074 0.054432917 0.04520156 0.044165544 0.017853808 -0.033521254 -0.027118985
무슨 -0.12151794 -0.15728469 0.11225856 0.2163563 0.1188518 -0.06392408 0.053743683 -0.16624765 0.10432763 -0.09522069 0.15438288 0.14491118 -0.054457836 0.07393535 0.06501974 -0.14103188
죽 -0.0011326928 -0.0017810464 -0.05603425 -0.024566146 0.031043531 0.05971728 0.0016569196 0.013484156 -0.0035971063 0.05426764 0.02135097 -0.029231975 0.03203568 0.017896311 0.025435282 -0.016821796
내내 0.056570377 0.05019884 0.02690599 0.005274461 -0.04260759 0.025282837 -0.055376615 0.034129743 -0.04321508 0.041068338 0.004849909 -0.0024021575 0.016483892 -0.028924499 -0.01724967 0.059196338
남자 -0.012283269 0.04466862 -0.00565918 -0.015602583 0.019396126 -0.03768087 -0.021390101 0.050019387 0.02411196 -0.03347389 0.012124683 0.038516447 -0.022067275 -0.014467509 0.006530702 0.05747566
마음 0.04955588 0.044219144 -0.08495489 -0.07856438 -0.060037952 0.05485039 -0.004659939 0.06725106 -0.083347924 0.030748427 -0.035909127 -0.02138036 -0.022484314 0.014481786 0.0065213037 0.042066712
세요 0.038278487 -0.045868993 0.043142628 -0.03320916 -0.020526959 -0.045782734 -0.022369659 -0.016120076 0.021856043 -0.035006918 0.029215526 -0.04873058 0.00044388697 0.028791104 -0.0320542 -0.043990493
결말 -0.0014574546 -0.029171342 -0.022220511 0.052881766 -0.026090648 -0.040132172 -0.019579148 -0.007919329 0.023748752 -0.009938039 0.02778053 -0.011966283 0.01138236 -0.0053499383 -0.024153024 0.008052323
공포 0.022768302 -0.04775704 0.020022562 -0.01943809 -0.0048986 -0.023595547 -0.012456363 0.031644758 0.03888747 -0.05443649 -0.0040692287 0.01995978 -0.039333265 0.001022255 -0.008529464 0.015797118
속 -0.0005654429 -0.006180551 0.0038487313 -0.057277054 -0.07177074 0.030672053 -0.04183138 0.07106756 -0.0058000796 0.006237638 -0.014765161 -0.022678275 0.04825884 -0.04214027 0.023964547 0.0054510795
인생 0.12377563 -0.015989164 -0.06286798 -0.008634508 -0.055527855 0.08087566 -0.03142212 0.051106352 -0.045105297 0.009502282 -0.13307247 -0.029725539 0.08284241 -0.092011236 -0.03166885 0.094077475
전개 -0.044324897 0.030172963 -0.010638647 -0.0011916314 0.0077589424 -0.057237316 -0.014315094 -0.026667118 0.016949829 0.07456308 0.07204663 0.02686092 -0.06899967 0.055088636 -0.025984868 -0.0015204548
짜증 -0.05208785 0.008107677 0.0034924205 0.0033394266 -0.025691537 -0.07005969 -0.08456171 -0.03718345 0.055702705 0.0907832 0.035699785 0.035324898 -0.083955616 0.058812823 -0.100005224 -0.118952885
소재 -0.0066597895 0.064926475 -0.03210542 -0.054982856 -0.06879403 0.032609724 0.015330926 0.036935404 0.0108716 0.0071254894 -0.034828488 -0.018495176 0.004734545 -0.022840846 -0.026530445 0.038447116
아서 -0.017982459 0.040634174 -0.010187961 -0.007863196 0.029428355 0.02838299 -0.05278633 0.043606937 0.025341857 0.022006914 -0.026300743 0.029653983 0.022177111 0.002031854 0.009139648 -0.030843608
씨 -0.028817793 -0.022363855 0.008600672 0.03198645 -0.015175489 0.0057729827 -0.024866043 0.018207535 0.032719173 0.046758678 0.07221592 0.06635297 -0.037339725 0.03415566 -0.04705826 0.02005374
다른 0.05962665 0.0067401584 -0.07031259 -0.055644143 -0.071628906 0.017204527 2.6429658e-05 0.06132738 -0.049377102 0.068129696 -0.07799195 -0.07666206 0.012775411 -0.05849417 0.032830928 0.056011565
짱 0.13041513 -0.087751046 0.10662067 0.075443774 0.089700185 0.11902696 0.07868399 0.123151205 -0.07005604 -0.13490783 -0.091773726 -0.14780867 0.09580811 -0.122127615 0.050588273 0.107726574
아요 0.04726497 0.04022846 -0.0017744359 0.04823862 -0.022654984 0.044232592 -0.0072715613 0.03158686 0.03769372 -0.02160148 0.051891662 0.036550347 0.005740594 -0.011589366 -0.027703779 0.04159017
뿐 -0.011229001 0.06414796 -0.004208666 -0.050685894 -0.039595846 -0.06365401 -0.007913125 -0.024632562 0.013246316 0.04880306 0.07418821 0.033331588 -0.0444279 0.077773236 -0.0307472 -0.053871993
~~ 0.020656072 -0.06332779 -0.010426151 -0.015718957 0.05541752 0.051178273 0.069081075 0.013706403 -0.041675277 -0.041483518 -0.06215418 -0.045157705 0.021509262 -0.064872324 -0.001458258 0.004971125
필요 0.03467206 0.03302241 -0.049683224 -0.10430273 -0.0520084 0.06376953 -0.01137102 0.05552688 -0.04518059 0.06072942 -0.00392978 -0.041916523 -0.009469876 0.0125946775 -0.0090903295 0.05126182
별 -0.16340406 -0.13681716 0.16993022 0.2073202 0.16096301 -0.15445124 0.13396122 -0.18352093 0.093309395 -0.17789507 0.12984185 0.12331732 -0.07598734 0.04878897 0.06879683 -0.11517352
낮 -0.033651303 -0.018975034 -0.049598765 -0.019438716 -0.00077690004 0.013770806 0.024719572 0.00033185896 0.028560294 -0.023423247 0.0006205203 -0.04283436 -0.02290476 0.018924583 -0.045734808 0.019399313
오 0.021783093 -0.002294703 -0.06685739 -0.04603776 0.0009346417 0.030792905 -0.0016200792 0.039270535 -0.06925432 0.042207707 -0.03926769 -0.025733698 0.07166713 -0.053705648 -0.037689332 0.048498575
;; -0.029314032 0.044107847 -0.021979958 -0.06563371 -0.03445811 -0.09631814 -0.04926865 -0.094202526 0.07758757 0.08903958 0.0927608 0.007508251 -0.03569918 0.0033668326 -0.017052898 -0.068315
은데 -0.003531348 0.0004194267 -0.004429579 0.008263625 -0.04030968 -0.024172306 0.01686107 -0.016013633 0.03644074 0.024566833 -0.01174612 -0.029404163 0.01920842 0.0403296 0.020527307 -0.014033712
아이 0.06502835 0.00650764 -0.0186704 0.00061841746 -0.0038369198 0.03890428 -0.008349567 -0.0059376014 -0.025641503 0.057394154 -0.04210078 0.006577422 0.05307266 0.018711358 0.0341974 0.001597661
일본 -0.05175873 -0.033748575 0.04262702 0.025377378 -0.008833171 -0.088908635 -0.034141503 -0.053940494 0.093813546 -0.06649802 0.048784725 0.06567263 -0.061809238 -0.002714028 -0.005988022 -0.069269314
유치 -0.09161182 -0.041263547 -0.009109872 -0.023952732 0.030828405 -0.052773878 -0.01526794 -0.046990767 0.060362462 0.007907145 0.07403938 0.07539311 -0.011513801 0.03549102 -0.01879464 0.0016386523
반전 0.019968845 0.014736355 -0.028115325 -0.044343013 -0.040769085 -0.0088908635 -0.03979861 0.0341088 0.021028496 0.03612566 -0.069046915 -0.034098327 0.0148941 -0.047367513 -0.012771137 0.008667576
수준 -0.013404177 0.0065233326 -0.008818121 0.023250153 -0.0142053915 -0.03334163 -0.06885839 -0.08063338 0.09142317 0.043343984 0.062423114 0.07043221 -0.003298194 0.060036637 0.0017454518 -0.027112586
음악 0.046816647 0.074805036 -0.02761918 -0.07368356 -0.07564536 0.051375695 -0.048391126 0.0048627034 -0.088291295 0.0059500393 -0.032533232 -0.07272506 0.047338437 0.012366555 0.013179036 0.086303726
다니 0.014454845 0.021679472 0.04942509 -0.032332696 0.00080989674 -0.020638501 -0.034018375 0.041339707 0.0021871552 0.04849947 0.029624488 -0.004072927 0.014598999 -0.01880039 -0.03500699 -0.049367893
) 0.02300133 -0.041317217 -0.000520831 0.017831454 0.027017407 0.045255337 -0.01848511 -0.02786634 -0.013852803 -0.02180776 0.015945014 -0.008366963 0.0003083572 -0.022361549 -0.005715241 -0.015860276
맞 0.014998007 -0.053674072 0.045966547 0.034551244 0.0025351953 0.03196762 -0.023999793 0.031611014 0.021549396 -0.005670292 0.0044539096 0.047919184 -0.018456815 0.018767098 0.03977956 0.014760055
매력 0.107727945 -0.08865276 0.025315508 0.060928058 -0.0067506996 0.069784455 0.059901647 0.008628915 -0.06969326 -0.047480725 -0.06687305 -0.036421366 0.0720357 -0.01991141 0.045425322 0.0663861
가장 0.18335204 0.14720422 -0.08774348 -0.124978185 -0.16462615 0.1257529 -0.10226682 0.124863416 -0.099291004 0.18114671 -0.10524371 -0.12687837 0.13856551 -0.16083357 -0.09301436 0.099788815
가슴 0.11698274 0.04501364 -0.041950554 -0.13166353 -0.097248174 0.06353932 -0.014054673 0.03842719 -0.04137403 0.07428345 -0.06137721 -0.084013574 0.07340844 0.010371738 -0.017116638 0.05021208
인간 -0.019726953 -0.00027940737 -0.035267025 0.00011525881 0.0050320285 0.040841535 -0.018755259 0.014025472 -0.0061653494 0.04039297 -0.005195317 0.009024876 0.021711536 -0.012363118 0.044599745 -0.032614503
데 -0.026393538 0.03404535 -0.02959415 -0.039810352 0.045601867 0.0009141217 0.037026994 -0.017219562 0.043540176 -0.006633966 -0.05499006 -0.027621305 -0.015901854 -0.042598654 0.0069181183 0.03783666
웃 0.022868212 0.013252368 -0.027797552 0.03807217 -0.047552604 0.005960453 -0.048399333 -0.00811118 -0.02649204 -0.036787912 -0.013916461 0.023499353 0.04554332 0.03182305 -0.035603732 -0.04488632
ㄷ 0.07887128 -0.052890036 0.02518129 -0.0015827268 0.024547158 -0.015499087 0.019209828 0.038974315 -0.012611675 -0.02290851 -0.040875975 0.0032732117 0.0060516875 -0.035373908 0.028755832 0.06044776
높 0.04498985 -0.034457993 0.024864469 -0.046308625 -0.046498954 -0.039884068 -0.003151022 -0.017278563 -0.042804886 0.034389045 -0.041338455 0.04487313 0.040781785 0.010963153 0.042068962 0.019919898
굿 0.11524317 -0.07741114 0.10771309 0.1090676 0.119754255 0.1475021 0.07091064 0.111472316 -0.08860674 -0.08560151 -0.09388952 -0.080116734 0.10631077 -0.119159594 0.088919245 0.16160548
인지 -0.046913814 0.038503464 0.020676048 -0.03421407 0.01440085 0.027544582 -0.05699331 0.046150457 0.0115697095 0.047944963 0.045051616 0.011675294 -0.009007744 -0.039612416 -0.05506178 0.054524187
밋 0.015339065 0.013697032 0.017266724 -0.014419556 0.016062845 0.0010030046 0.0043628924 0.0075391904 0.029400121 -0.01978743 -0.037908077 -0.04231086 -0.046007026 0.037396107 -0.0032700077 -0.0013605356
없이 -0.0101278955 0.051449966 -0.06581085 -0.06448481 0.0014867545 -0.025464427 -0.021046367 0.0033033749 0.007989714 -0.015173572 0.047442332 -0.005952984 -0.013080452 0.057486527 -0.022480536 -0.011620313
ㅠ 0.08185741 -0.070061944 0.11944798 0.03588239 0.08343896 0.053565595 0.12428329 0.050921932 -0.07631093 -0.1184398 -0.11145667 -0.05936646 0.10170014 -0.080901995 0.046027623 0.11247941
( -0.03188938 -0.037898183 -0.007327394 0.015213568 0.011150261 0.04066025 -0.0092988545 -0.04585517 0.009681104 0.011568326 0.022589164 -0.011062885 -0.02135922 -0.022852408 -0.02070314 -0.026987012
만드 -0.038311996 0.027684178 -0.026639057 -0.019979764 0.033412185 -0.04801916 -0.028962934 -0.029010737 -0.002262462 -0.019327058 -0.026953137 0.039805237 0.032543566 0.015073683 -0.04973322 0.022140954
원작 0.030356878 0.008969369 0.05273536 0.0065498925 0.037563954 -0.047680624 -0.027283708 0.0014912465 0.0046842424 -0.06463691 0.038921576 0.020414626 -0.03535469 0.042296853 0.04375165 -0.06014919
눈물 0.024842406 0.092037804 -0.001318969 -0.04471387 -0.031312898 -0.008003814 0.022813309 0.048613515 -0.029048858 0.0039771986 -0.13776731 -0.089794554 0.028406646 -0.009897779 0.01584424 0.02923922
준 0.05478178 0.030596595 -0.043173943 -0.00830607 -0.038864296 0.021162178 -0.0744277 -0.0060959626 0.0064527025 0.03653787 -0.07703343 -0.07038515 0.07754709 -0.052912954 -0.07794945 0.056869447
보여 0.028940283 0.031471025 -0.02963806 0.0015522412 0.016249135 -0.0150694335 -0.04284675 0.04356754 -0.028647736 0.054856874 -0.0567943 0.007935752 -0.0006675113 0.042782553 0.033668257 0.01721943
노 -0.07998228 -0.0003918886 -0.0022724178 0.01800971 0.06986597 -0.082113266 0.017473165 -0.028054453 0.040933274 -0.0105063245 0.008962314 0.056764748 -0.0031059254 -0.015438853 0.051592205 -0.005977187
급 -0.03211674 -0.0359687 -0.04552337 -0.0019733666 -0.044854715 -0.021158932 -0.024396382 -0.040618643 0.056345664 -0.009146909 0.051528275 0.015193765 -0.052155435 -0.016858974 -0.044858355 -0.033534918
용 0.01845558 -0.033630416 -0.019266197 0.01871577 0.067905344 -0.021637624 0.007994779 -0.072111025 -0.005681172 -0.018052785 0.010679339 0.028841196 -0.02219159 0.027010985 0.016639115 -0.0063287597
인가 0.0031677047 -0.043015987 -0.04845026 0.017494768 0.028145473 -0.026997974 -0.04899388 -0.030076798 0.016827343 0.034099497 -0.02364351 0.04406094 0.02856408 -0.0043419115 -0.054058954 -0.01652174
을까 0.03723273 -0.010969259 -0.024719251 -0.044109166 -0.048666503 0.028805997 -0.033667624 -0.007025849 -0.030751038 0.04646596 0.0015941262 -0.027851332 -0.02866807 0.00048769638 -0.0064219013 0.023292508
코미디 -0.06812844 0.024812719 -0.07657476 -0.023909444 0.003528549 -0.012723021 0.014107053 0.009767964 0.05986946 0.065712705 0.06358221 0.023287605 -0.063751146 -0.010194747 0.0076067727 -0.06163016
찍 -0.04810778 0.011489283 0.039407324 -0.009402476 0.015676681 -0.039334632 -0.025382817 -0.03073231 -0.011958696 0.010260414 0.0457283 0.04002874 -0.03419391 -0.047643483 -0.015487373 -0.04134927
화 -0.043022204 0.0055365036 0.0051381695 -0.011096364 0.020113919 -0.028517384 0.013162675 -0.05456781 0.050112296 0.026198123 0.011092972 0.00296394 -0.027326288 0.054320633 0.012850977 -0.04074335
쓰 -0.05106961 0.00888241 -0.03276261 0.025260672 0.019891776 -0.0053720335 -0.015494387 -0.015110816 0.049283206 0.016626323 0.06555825 -0.014360135 0.018944055 -0.013915618 0.03646785 -0.0552467
아직 0.025399074 0.011484758 -0.08184979 -0.08468961 -0.041434567 0.037783056 -0.06656781 0.026029155 -0.027876407 0.054884277 -0.008470625 -0.019193647 0.009779727 -0.031521354 0.013762542 0.03994477
모든 0.10903366 0.10355461 -0.04359973 -0.09881189 -0.09615296 0.05009112 -0.055579294 0.12540513 -0.06761651 0.10814582 -0.06621252 -0.08747161 0.051599752 -0.10296283 -0.02300778 0.10504167
추천 0.072726674 0.0010049931 0.026278622 0.06970471 0.0737029 0.08794371 0.014268172 0.09473657 -0.06103153 -0.030002248 -0.09695451 -0.099939935 0.019294271 -0.0073451987 0.022066988 0.09563766
5 -0.021688223 -0.007144275 0.0030396108 0.0072261114 0.009622164 0.02528986 0.056936853 -0.04390321 -0.02487951 -0.06540598 0.0170337 0.019813027 0.03541809 0.03522703 -0.021312885 -0.04084468
신 -0.060654376 -0.059636906 -0.009365455 0.041706827 -0.024444547 -0.06952441 -0.010198778 -0.012252922 0.010336635 -0.012152729 0.028557416 0.07073804 0.010167152 0.020555237 0.009153758 0.019043919
아닌 -0.081356496 0.022955678 -0.029988522 0.07128105 -0.024584575 -0.06640886 -0.03436899 -0.016451685 0.06733336 0.005900456 0.051746756 0.08882637 -0.040605053 0.09326073 -0.08007514 -0.06084829
마 -0.028148906 -0.019108795 0.010323587 -0.017063975 -0.047550224 0.020919057 -0.036538832 -0.05458717 -0.034382924 -0.017184693 0.021981476 0.034039006 -0.029583888 0.030367417 0.0012615096 -0.033595376
울 0.04438086 0.044472087 -0.019047236 -0.0874958 -0.039717767 0.10117339 -0.016587567 0.06060389 -0.07050307 0.012910275 -0.037949745 -0.05896852 0.104852706 -0.056398317 -0.0673457 0.07544631
자체 -0.019467412 -0.026468458 0.022667104 -0.025121002 0.06553004 0.024756059 0.042428285 0.032897796 -0.0049802396 -0.017730074 -0.02230205 0.017011775 -0.025503315 -0.015925648 0.012566149 0.024404712
4 -0.0047115213 0.03222691 0.008865774 -0.0035092582 -0.021700764 0.025255539 0.004589994 0.0022881269 -0.022185694 -0.014562006 0.0031030262 -0.021701615 0.02031803 0.06590551 -0.038710035 -0.02888086
실망 -0.06916202 0.058285233 -0.10962284 -0.041988894 -0.10609682 -0.10827201 -0.08741841 -0.12439096 0.09466916 0.121817484 0.12685333 0.08957754 -0.081760585 0.09365383 -0.08709261 -0.060530383
처럼 -0.010629363 -0.023181176 0.02467864 0.017945554 -0.054885674 0.010790882 0.016287467 0.03639867 -0.03619255 0.04440198 -0.016659418 -0.034468893 -0.022371817 -0.00047282685 0.032050896 0.0037050892
여 0.019214826 -0.05139358 0.0057064095 0.044676583 0.024573974 0.01022317 -0.020491937 -0.05425904 0.046741437 -0.025769552 0.0015838549 0.05163905 -0.057930827 -0.0041144006 -0.0014705461 -0.025058836
몇 0.034934066 0.077521734 -0.052905273 -0.052395195 -0.015830258 0.048990473 -0.07969014 0.095856264 -0.10683506 0.062546864 -0.021179305 -0.053039752 0.011310139 -0.076491915 -0.020757357 0.01296705
눈 -0.038737465 -0.025493214 -0.026653983 -0.008643125 -0.019589825 0.016157914 0.005374741 0.008414636 0.022115981 -0.05430216 0.0150369145 0.07855227 0.014556748 0.009960362 -0.007895981 -0.0035442016
란 0.021936402 -0.034928896 0.04291478 -0.024441643 0.061590325 0.026181066 0.014393712 -0.046630327 0.023263376 -0.05058791 -0.018161338 0.030215759 -0.03948529 0.028357886 0.020930173 -0.0028473972
대한 0.13720466 0.09556374 -0.06992192 -0.103341356 -0.07832395 0.14548631 -0.10671831 0.11629407 -0.10456475 0.063976906 -0.08776744 -0.058425903 0.14630671 -0.10409682 -0.031172879 0.13637486
는다 -0.023698617 -0.028544843 0.022569869 -0.048134435 -0.011500977 -0.01765529 0.04268569 -0.011092819 0.03793105 0.022537198 0.017884623 -0.0495523 -0.043672122 0.039821174 -0.00014939159 0.027964834
스럽 -0.04230703 -0.033198133 0.020440366 -0.01083393 0.024168383 -0.042573392 0.027028117 0.008595932 0.037437353 -0.018980384 -0.023080826 0.025120828 -0.02271818 0.045993183 0.04618417 -0.040514708
대박 0.075290315 -0.009608975 0.090368815 0.01840765 0.027072994 0.07013735 0.011307307 0.05344514 -0.03418216 -0.037038058 -0.088368155 -0.09304369 0.027914973 -0.02609606 0.03324622 0.057135943
죠 -0.004700097 0.050262854 0.042007018 -0.029648615 -0.029731736 -0.001048506 -0.0028264332 0.022833109 -0.004126969 -0.03344607 0.004382778 0.029295823 0.011098309 -0.0227984 -0.02842588 0.028758205
몰입 -0.054558437 -0.031393733 0.025469653 0.073752604 -0.0038462572 0.030379076 0.004560416 0.02374641 -0.026609568 0.012982186 -0.007420799 -0.01573559 0.027589116 -0.010586679 -0.024841776 0.008340274
캐릭터 0.026408326 0.039257325 0.0006811631 -0.021955809 0.036386196 -0.044897202 -0.033820406 0.0051629245 0.024081532 -0.045099027 0.009668627 -0.034834974 -0.044732057 -0.023877867 -0.034631558 -0.019580822
모두 0.09829937 0.082948364 -0.12524606 -0.118302315 -0.14483126 0.12841927 -0.05631022 0.1612431 -0.149397 0.14051148 -0.12853852 -0.07134643 0.18283921 -0.05794644 -0.060523756 0.14348888
솔직히 -0.11519455 -0.09922204 0.08013643 0.17066592 0.087556206 -0.11821826 0.0756258 -0.06921959 0.13553037 -0.044155523 0.13970454 0.08185679 -0.10885707 0.03522011 0.042442106 -0.048368417
그런 0.013951536 0.013291921 -0.075098805 -0.00124893 -0.07899204 0.067625575 -0.07706146 0.054454878 -0.06651303 0.09431616 -0.056657623 -0.063997634 -0.010210059 0.03301569 -0.013400278 0.057996534
나라 -0.065939374 -0.019745054 -0.007642022 -0.0348658 -0.05777691 -0.04676237 -0.006876212 0.0151770525 0.013054481 0.014972434 -0.014304293 0.011809795 -0.016284956 0.024929447 0.002908545 0.00912886
건지 -0.023584038 0.055155527 -0.028189208 0.05627897 0.023658123 -0.03460283 -0.06122868 -0.07205927 0.041079856 0.0685192 0.08057775 0.074271135 -0.07492885 0.0794008 -0.030364184 -0.05066513
가족 0.07801878 0.05862661 -0.04624401 -0.06542786 -0.017781965 0.047168393 0.0077074943 0.06349101 -0.010079855 -0.012764018 -0.04522928 -0.012103266 0.038021512 0.008019257 -0.022699874 0.034108177
될 0.012128955 -0.02473831 0.020613737 -0.0035393827 -0.02130148 0.045747127 -0.03468423 -0.010789918 0.00080727006 0.02224106 -0.013497742 -0.05104231 -0.004014087 -0.0006284785 0.02411844 0.04117024
다면 -0.009550574 0.0019177629 0.038901903 -0.023768315 -0.010364501 0.026124476 -0.0047293557 0.044652976 -0.0007232613 -0.03364705 -0.010386445 0.014969378 0.032837044 0.030910186 -0.038847238 0.024648609
아주 0.020969449 0.101276115 -0.044581965 -0.13883053 -0.12451922 0.07194156 -0.01195089 0.098587565 -0.05649985 0.050242335 -0.02641003 -0.0684313 0.036079776 -0.013395816 -0.072999485 0.032279633
ㅎ 0.17946386 -0.11406873 0.14511655 0.11659602 0.07159614 0.15483952 0.086423084 0.09802443 -0.078471586 -0.12890777 -0.13880982 -0.14198491 0.094519675 -0.10771159 0.11309301 0.08872836
; -0.07537626 -0.0032272886 -0.0655764 0.012178603 -0.0020903656 0.009504366 -0.055572018 -0.010460588 0.075181775 0.06258514 0.035471145 0.03374379 -0.08063747 -0.019403225 0.016382469 -0.030827386
연기력 0.014515899 0.034393657 0.0355014 -0.04880198 0.039184317 0.009205842 0.05227221 0.05227212 -0.06356626 -0.02392351 -0.060336318 -0.023722788 -0.0025649567 -0.055275705 0.023477392 0.005698925
여운 0.045215014 -0.062147 0.023285786 0.038187377 -0.011555104 0.049040757 0.02432628 0.055299956 -0.032859247 -0.017487137 -0.09785973 -0.011247408 0.07561649 -0.053777743 0.07127835 0.05318766
그래도 0.14130217 0.12664093 -0.09537699 -0.077070065 -0.10540071 0.13075164 -0.08728289 0.13844632 -0.109822266 0.077657446 -0.11649802 -0.09637896 0.08921005 -0.09650269 -0.07720618 0.10796808
시리즈 0.030895233 0.016688477 -0.019491378 0.032091506 -0.034704298 0.0018065913 0.005853547 0.03550495 -0.07810039 -0.03444516 -0.02078066 -0.05617542 0.045062155 0.0014224404 0.056633573 0.06682025
- 0.026398363 -0.0053089713 0.004948628 -0.046497263 0.01707987 0.024075024 -0.01747592 -0.037801575 0.02212983 0.06314223 0.043971173 -0.0045621987 -0.03131462 0.06398175 -0.040464293 -0.037398864
모습 0.0835155 -0.013233665 0.015861344 0.048669856 0.0046831807 0.031480595 -0.022852141 0.10070325 -0.07676247 -0.037942052 -0.0748648 -0.08079486 0.03491539 -0.032719363 0.013686452 0.09179917
전혀 -0.20497648 -0.0884829 0.1397777 0.16720523 0.107594326 -0.20666943 0.07955285 -0.12719707 0.15596595 -0.1544493 0.18780994 0.14097358 -0.17237021 0.09169329 0.09523752 -0.13263129
뭔가 -0.08990536 -0.015717382 0.021856913 0.062168248 0.075872116 -0.057835657 0.055783242 -0.060485538 0.04505472 -0.08726934 0.078235686 0.085964136 -0.014104898 0.032043736 0.036789242 -0.033908084
후 0.02227665 0.0037251483 -0.03758821 0.04172967 0.020600013 0.022007583 -0.03193337 0.046565626 -0.0049804393 -0.019322567 -0.028370878 0.011732291 -0.04384292 0.026815347 0.009148829 -0.01247776
계속 0.070878156 0.08094482 -0.09675718 -0.07035551 -0.0738921 0.09751634 -0.10779685 0.0372939 -0.05459393 0.108063556 -0.09434009 -0.07823508 0.07412022 -0.0225709 -0.044384014 0.09390161
근데 0.0718427 0.0072513344 -0.10596089 -0.04600924 -0.033490058 0.06305258 -0.036444977 0.06747614 -0.106542036 0.04941802 -0.054314703 -0.10093187 0.038990796 -0.100848384 -0.022258867 0.057214443
표현 0.05762289 -0.040561605 0.0003651853 -0.0035000732 0.0189846 0.03348482 0.047714103 0.08398938 -0.07065035 0.002647686 -0.0395895 -0.03772952 0.06265084 -0.0052148467 0.017494692 -0.00063858635
"" -0.05093594 0.03943502 -0.023960585 -0.0043329494 -0.000107650936 -0.015123503 -0.0365713 0.039060384 0.01493481 -0.053320214 -0.043487985 0.04933553 -0.0128038535 -0.007136762 0.0113739045 0.02560026
작 -0.05166924 0.053569846 -0.02411154 -0.022072151 0.016812455 -0.05913229 -0.04027576 0.013263516 0.021528428 0.06567899 -0.010165585 0.021389063 -0.015524214 0.036632262 -0.0072461795 -0.012962923
극장 -0.058255218 -0.025421815 -0.029897992 0.07690223 0.05569985 -0.02589414 0.05288345 -0.067538776 0.00012495567 0.029585427 0.061145004 -0.00858092 -0.027147302 -0.015020117 0.021661313 -0.07030677
공감 0.059320897 0.0026662366 0.08229974 0.075470045 0.07934442 0.037376717 0.07817706 0.05914379 0.010371783 0.00022454927 -0.0075478842 -0.054078966 0.0663079 -0.08693449 -0.0021918253 0.025559086
0 -0.010051637 0.033198036 0.011931095 -0.05140659 -0.046757508 -0.005135023 -0.058793284 -0.05283629 0.029421568 -0.014125761 0.082342446 0.038480245 0.01873489 -0.022341818 -0.069678694 -0.0765468
비 -0.015114207 0.037889883 -0.016629502 -0.0021052572 0.020955075 0.0143713895 0.015999855 0.012360657 -0.023304494 0.026892904 -0.043598678 0.018459333 -0.008319348 -0.022608323 0.021215646 -0.011169067
먹 0.017789792 0.007970236 0.043393124 0.014963198 -0.020673705 -0.03689896 0.022987235 -0.033891045 -0.032212555 0.015459288 0.028275702 0.028559852 0.0019954927 0.0035066716 -0.04680742 0.010333218
7 0.0496612 -0.009247591 -0.0048142844 0.020599583 -0.019614937 -0.0331628 -0.05549503 0.059843842 0.027079714 0.037949458 0.010584708 -0.013542633 0.030492788 0.005307247 -0.0066884663 -0.035411153
이랑 0.0038389307 -0.0440556 -0.028958386 0.044402774 0.014730055 -0.037626185 -0.0072499095 -0.061124496 0.059335474 -0.04246933 0.052325856 -0.023068605 -0.03457884 -0.019059857 0.01750248 0.02318373
된다 0.043322776 -0.022660777 0.059895784 0.020933498 0.058861114 -0.015926763 0.07302998 0.008529739 -0.060840607 0.007411333 -0.06413857 0.010597598 0.041738432 -0.06408667 0.06512948 -0.013530813
이걸 -0.1334492 -0.1470999 0.13699399 0.16675691 0.11463931 -0.13504328 0.090234034 -0.14246026 0.16231027 -0.1306653 0.16344292 0.10941013 -0.17426999 0.16158198 0.1448426 -0.11963007
대사 0.04328013 0.0060897013 0.006094539 -0.008450812 0.014552005 0.04661191 0.031421132 -0.014618409 -0.0029087055 0.027435306 -0.0282437 -0.04590389 -0.028940076 -0.03018175 -0.03584154 0.042482637
제목 -0.06591544 0.010503789 -0.00985912 0.047088284 -0.01602776 -0.021870015 -0.020588398 0.022629714 0.042338487 -0.006392518 0.0068003573 0.023542805 0.03471177 -0.0017789348 0.035450928 -0.030262318
그렇 -0.027835881 0.020792697 0.028754804 -0.009991072 0.030133378 -0.046416413 -0.03519262 -0.029533422 0.026796672 -0.0024226196 -0.002210904 -0.005275 -0.04813925 0.0010733828 0.04733831 0.020405058
대단 0.038187027 -0.04264762 0.025728682 0.021865057 0.030964004 0.07822411 -0.008757473 0.051204942 -0.00092573965 -0.029230226 -0.077190444 -0.034715172 -0.0073561254 -0.02738596 0.019418417 -0.0058704466
개봉 -0.043163966 -0.033386275 0.047926553 -0.02309788 -0.021804428 -0.0022450408 0.020590082 -0.020687805 0.06376395 0.020560978 0.00609838 -0.030911526 -0.030657196 -0.011652967 -0.019730723 -0.003037295
부분 0.005768552 0.061394442 -0.056653924 -0.01631612 -0.050068088 0.02965 -0.02095067 -0.044123933 -0.0027848897 0.05722454 0.03524089 0.0041896654 -0.007850327 0.033824325 0.04563405 0.039391015
진 0.0071087545 -0.00867075 -0.010359047 -0.023095403 -0.014812046 0.010873646 -0.06619798 -0.04695276 -0.030949602 0.08766106 0.01346782 -0.047296323 0.014226651 0.010992286 -0.06359228 0.039568044
OO -0.05131 0.08105879 -0.030009434 0.037934255 -0.03229416 -0.09570068 -0.07379809 -0.11145269 0.097599275 0.0032356472 0.10361049 0.06617662 -0.041265685 0.068876974 -0.010808558 -0.11971166
기분 -0.07374638 -0.0032143388 -0.021300051 -0.013003424 -0.03343896 -0.0005675413 -0.047338463 -0.074504174 0.001612082 0.022211842 0.03775904 0.04928288 -0.029967804 -0.0071204123 -0.029361328 -0.040889826
제 0.033447057 0.06469161 -0.057556633 -0.008969466 -0.011761354 0.05557129 -0.025836501 0.04134844 -0.06872746 0.06126406 -0.042617686 -0.037462313 0.010900457 0.0023267993 -0.051311884 -0.019187557
이제 -0.05106417 -0.05600928 0.086835235 0.02705742 0.07600559 -0.023425797 -0.005573808 -0.067869775 0.06466895 0.0021668677 0.05159573 0.110136636 -0.094666034 0.023576222 -0.050668575 -0.031447068
치 -0.041428696 -0.010419824 0.009028944 0.04750529 0.02202094 -0.03413211 -0.037170913 -0.0004009395 0.05261903 -0.0079423385 -0.04118867 0.027402949 -0.01724512 0.011849412 0.041077025 -0.051158354
진심 -0.00071009697 0.011312943 -0.04374439 0.055973392 0.03780163 -0.06103686 -0.046661526 -0.048550095 0.042016458 0.056696896 0.07017077 0.06834198 -0.01860521 0.06507355 0.023348458 -0.040979408
바 0.026187405 0.04421443 0.008243798 -0.04708423 -0.009126367 -0.022294063 0.009437518 -0.007308456 -0.003992226 0.020526752 0.017484343 0.04213659 -0.03318269 0.020194845 0.028390653 0.008769468
해도 -0.021276668 -0.051263336 -0.023517607 0.05899996 0.04038997 -0.047510922 -0.00440921 -0.05196104 -0.00987927 0.02845671 0.034119893 0.054644268 0.01506079 0.062312216 -0.004418816 -0.059821147
작가 -0.060709223 0.00617798 0.07967007 0.05842231 0.014879641 -0.052210666 0.00936652 -0.043838914 0.10300034 -0.04097431 0.04222798 0.02975174 -0.09855441 0.047530252 0.021196568 -0.043540295
타임 0.04821472 0.0637587 -0.030452603 -0.0037713437 0.015914146 0.032157358 -0.012934377 0.04883089 -0.02404212 0.046908334 -0.029518085 -0.04078611 0.019033585 -0.022514492 0.04041705 0.022238499
아쉽 0.0030130544 0.005555756 0.05106869 -0.020746887 0.06793857 0.007967579 0.05507586 0.05470576 -0.022812841 0.02524424 0.007753319 -0.002701811 -0.025468836 0.023507364 0.039373342 0.061419856
어디 -0.053810738 -0.038164917 0.059267193 -0.009815722 0.040531356 -0.06332696 0.042580515 -0.027558997 0.023745941 0.0010756374 0.036230695 0.052707966 0.02694452 0.042783003 -0.02970888 -0.03370307
" -0.012312781 0.0114554055 0.0040273443 0.045832064 0.00706134 -0.046484675 0.02257922 -0.03356433 -0.017034363 0.0015471689 -0.018994808 -0.011654139 -0.02100401 -0.002918683 0.019877467 -0.03941213
물 0.031101514 -0.07201855 0.0340355 0.011632312 0.03409396 -0.021645887 0.01705152 0.011989497 0.006273115 0.007537744 -0.02819879 0.004570781 0.032360155 -0.020202575 0.05025005 0.041179895
삶 0.06771043 0.0028674041 0.018192962 0.041463397 -0.003870325 0.07504699 -0.005894616 0.07611124 -0.04181696 -0.07894951 -0.0127183935 -0.046116114 0.03420161 -0.02301427 0.046750765 0.065519415
나왔 -0.008620776 -0.032813646 -0.01882775 0.019993458 -0.017422546 -0.038360335 0.031676758 -0.04969704 0.013461616 1.9669533e-06 -0.035252668 -0.03040564 0.04927207 0.025567804 -0.013441194 0.016034272
친구 0.013613857 0.012057703 0.017844956 -0.021870408 0.017637935 0.0023534268 -0.020185027 0.0058743106 -0.049881205 0.014730942 -0.014981579 -0.02301226 -0.00204571 -0.061465923 -0.03232828 0.0040505165
웃기 0.016405666 -0.007242943 0.035467293 -0.014487593 -0.032348633 0.040555384 0.013714089 0.035463873 0.036196005 -0.03192559 0.017794216 0.020286743 0.039185084 0.051016867 -0.028489511 -0.037317835
놓 0.035915803 0.04582647 -0.022070695 -0.019928409 0.0012491941 -0.0064732805 -0.0057029724 0.016120736 -0.034920763 -0.027398849 0.036660764 -0.042170573 0.02430958 -0.03363364 0.011033177 0.029659752
/ -0.014650214 0.03822744 0.0015708006 0.03658738 -0.013964605 0.018546509 -0.04832053 -0.060668033 0.033273112 -0.012809506 0.050693825 0.06968315 -0.071853064 0.061845884 -0.0504722 0.014561239
조금 0.04183038 0.022011766 -0.059077077 0.0061098486 -0.08128821 0.013902641 -0.07558975 -0.016470736 -0.048400186 -0.0057635205 -0.014472206 0.012837218 -0.011992553 0.027031045 -0.036774125 0.011363559
막장 -0.11439392 -0.031092435 -0.037330512 0.0037500903 -0.03731887 -0.025849562 -0.060796306 -0.06166454 0.10558378 -0.03996527 0.113401756 0.08197185 -0.08717379 0.016342312 -0.07700987 -0.036230773
8 0.03297089 0.030203376 -0.01437833 0.007728571 0.022412824 -0.015206423 0.010098586 0.015495753 -0.010143165 -0.03422534 -0.0443206 -0.053267945 -0.0067109545 0.014342451 -0.009279061 0.044316992
보이 0.003152582 -0.043713573 0.02680462 0.046890724 0.016338417 -0.012994482 -0.01269015 0.00038088084 0.0120167015 0.0245293 0.02119307 -0.008087666 0.024546757 -0.021942286 -0.0032073269 -0.015607165
딱 -0.0848427 -0.07227945 0.052648485 0.08547174 0.08065202 -0.11372884 0.029988414 -0.03677452 0.09544204 -0.09370635 0.073412985 0.11079962 -0.079668656 0.06336237 -0.021502357 -0.07809246
잔잔 -0.060133003 -0.032747567 0.04922961 0.012864919 0.057167303 -0.045624707 0.0048365737 -0.04722298 0.011968259 -0.018503284 0.068773285 0.0093466295 -0.042690363 0.010187578 0.0632906 -0.056813687
싫 -0.020155378 -0.005670686 -0.060198296 -0.053180743 0.019682704 0.032295313 0.005676727 0.051974993 0.010688025 -0.011303144 -0.04631175 -0.007409672 -0.03446233 0.008064189 0.007334194 0.019047983
구 -0.018344264 -0.029295681 0.04823158 0.020788597 0.01322213 -0.022973867 0.01308273 0.033413813 0.02073288 -0.044879224 -0.008372147 -0.006910202 -0.039552107 0.046929076 0.012197245 0.0038475173
요즘 0.08426562 0.067940116 -0.11209385 -0.10794789 -0.06066091 0.043797087 -0.026343424 0.090671286 -0.050240446 0.087900124 -0.09446541 -0.07186745 0.09014361 -0.019436019 -0.015259452 0.10058296
중간 -0.040690552 -0.010221722 0.03540687 0.05020542 0.062091004 0.012158437 -0.02346408 -0.06710053 0.000915769 0.013033873 0.013838004 0.03709185 0.0018907522 0.04935238 0.0057899016 0.017770683
찾 -0.046847787 -0.023817182 0.013290498 0.026738826 0.0368109 0.049833093 -0.04155018 0.024075713 0.048994992 -0.021353483 0.03632984 -0.014713049 -0.011510253 -0.027707983 0.0037253127 0.0053249598
봐야 0.06945738 0.035595927 -0.057423785 -0.09647747 -0.11002019 0.10719355 -0.08016793 0.089616545 -0.1008824 0.12780647 -0.10147585 -0.0451421 0.06682163 -0.11235685 -0.017115144 0.11131954
가지 0.01935655 -0.05545176 0.014877707 -0.00058573764 -0.013542788 -0.07499896 0.07777324 -0.04689356 -0.010705481 -0.0712572 0.012975158 0.06593657 -0.018079884 0.008913843 0.022135414 -0.037371807
씬 -0.0115872845 0.027065951 -0.031810526 -0.023281911 0.026884004 0.033787213 0.0197434 -0.019604951 -0.020501278 0.035780884 0.010969322 0.029782081 0.018330155 0.0022848079 0.024536444 -0.0472617
영상 0.02249494 0.006707683 -0.016455935 -0.041255094 0.029947495 0.008817169 0.016307466 0.025578009 0.02597757 0.025534475 -0.026000407 -0.040748224 0.046356663 -0.044668287 -0.0065165064 0.0067743184
긴장감 0.05863133 -0.013749051 0.023604142 -0.035615887 0.027916376 -0.017483303 0.0064909733 -0.0005165861 -0.011195407 -0.052942887 -0.082704745 -0.057014905 0.017305821 -0.02446089 0.03657767 0.04707493
같이 0.05614974 0.09090762 -0.088403 -0.01774545 -0.0821509 0.1063346 -0.06582712 0.040628802 -0.104022615 0.06224189 -0.019684663 -0.08698139 0.08214617 -0.05968091 0.0076082353 0.05140146
라도 0.018662307 0.037789937 -0.047373507 0.018102132 0.009607203 0.015786102 0.022441683 -0.028954307 -0.048265796 0.057350155 -0.03291088 -0.008481504 0.055405185 -0.041516993 -0.019976472 -0.027184777
.... 0.037410554 -0.004643775 -0.01767108 -0.04330578 -0.040762134 -0.011161921 0.02822276 0.024847653 -0.0069892732 0.028638497 -0.019450188 0.022131337 -0.01650693 -0.04925183 -0.043739874 -0.016455244
믿 -0.03893038 -0.042126358 -0.021727229 -0.047565162 -0.021214915 0.035475004 0.02318186 0.023546193 0.046186175 -0.034002624 -0.04547435 -0.005555153 -0.013197672 0.016987015 -0.033631183 0.037330415
스릴러 0.028561207 0.0012964322 -0.05395369 -0.06496569 -1.5341066e-05 -0.011993112 0.031169051 0.0035130864 -0.0064507844 0.02274992 -0.009406734 0.0122328615 0.042828575 -0.041806705 -0.028755657 0.04394525
아까운 -0.21211025 -0.12755102 0.17691275 0.2038412 0.15708306 -0.1975657 0.08447553 -0.19754496 0.1482971 -0.18939018 0.19466382 0.19596604 -0.0946261 0.017335447 0.08071659 -0.1345653
부족 -0.032591168 0.028028311 -0.08433326 -0.069262296 -0.040628836 -0.02656116 -0.10561008 -0.032397155 0.10727254 0.08214833 0.10958971 0.09650017 -0.072049335 0.10401981 -0.067997545 -0.020943929
억지 -0.09681796 -0.06453504 0.0580725 0.10856576 0.05475873 -0.04706134 0.004099474 -0.084138505 0.105429634 -0.019786574 0.10086292 0.054555133 -0.040344477 0.029832514 0.021072935 -0.07333573
노래 0.03763039 0.04139436 -0.02036826 -0.050771076 -0.03496655 0.046311133 0.0051571946 0.036213357 -0.0973076 0.04039338 -0.06569832 -0.07757409 0.06572024 -0.047205392 -0.024910146 0.08675368
특히 0.10238713 0.03304922 -0.0532941 -0.053895354 -0.036941264 0.077676535 -0.06660007 0.07226397 -0.12135038 0.04855538 -0.056295834 -0.040994737 0.07470628 0.0052484153 -0.032316294 0.07606529
구나 -0.0866464 -0.036331892 0.0145799015 -0.009751943 -0.005620422 0.008387714 -0.03976313 -0.03238874 -0.0049613696 0.025544101 0.038734283 -0.012562369 -0.061631516 0.05750703 0.034776185 -0.07290125
점수 -0.08083013 -0.027230749 -6.2570645e-05 0.009881392 0.007430425 -0.040946744 0.04241854 -0.05678435 0.08722644 -0.050471984 0.09017826 0.024482472 -0.06168229 -0.031739358 0.013191742 -0.06599033
개인 -0.012967101 0.012065072 -0.019395921 0.057858136 0.06640957 -0.043387398 -0.020441212 0.012309613 0.04892346 -0.05267369 0.04386083 0.059236336 -0.019991169 -0.008474429 0.021420097 -0.061777346
이유 0.03399051 0.022460682 -0.019967474 -0.010167356 -0.0049457997 0.055212867 0.028721951 -0.029544383 -0.030155638 0.0063637947 -0.025301531 0.03848571 -0.019150015 -0.0022968356 -0.0070851212 0.037595443
시작 0.05598352 -0.048721064 0.05377571 0.0127872825 0.02057544 0.0031182894 0.026213296 0.036145363 -0.09816034 -0.070199236 -0.06186482 -0.0507252 0.01453679 -0.028903622 0.06742836 0.05009946
라면 0.0104455715 -0.027741682 -0.0043252967 -0.046110217 -0.037485193 0.0053788484 -0.0267909 -0.048721522 -0.02096383 0.04382084 0.013560496 0.04273008 -0.029801963 -0.022496128 -0.026611228 -0.028153032
만큼 -0.007771476 0.061342858 -0.029098231 -0.020799976 -0.013459287 0.045462344 -0.010536704 0.06514417 0.0011913837 0.048913963 0.003402703 -0.07325954 0.08302755 0.014671264 -0.019279124 0.012023684
제대로 -0.033550303 -0.045879263 -0.015495002 0.038089804 0.00951352 -0.04852092 0.03151555 0.01856257 -0.012944302 -0.054737717 -0.017869862 0.0530986 -0.04078534 -0.011438828 -0.023093507 0.008124402
한테 0.005303568 -0.02526114 -0.03806646 -0.020583767 -0.0004480685 -0.0007089806 0.03961257 -0.016950613 -0.008335709 0.0378256 -0.0038803308 0.039515603 -0.04058292 -0.026683416 -0.05259448 -0.029836204
잇 0.022104697 0.032536317 -0.043872952 0.02210476 -0.0014860489 0.020089576 -0.0037717635 0.032938287 -0.031409692 0.051977385 0.0018880657 -0.0028256522 -0.032732427 -0.045832854 0.026436426 -0.04146392
날 0.006911683 0.05479384 -0.02755858 -0.04482494 0.003533131 -0.013991602 -0.015747009 0.054686032 -0.02350949 0.060375754 -0.05707317 -0.009942656 0.038982358 -0.021993203 -0.035720352 0.037737362
나름 0.12376329 0.120308585 -0.05626989 -0.096834645 -0.1110232 0.07858257 -0.07183241 0.06853999 -0.14480902 0.09010264 -0.16004784 -0.09856266 0.08285286 -0.03908085 -0.011905075 0.10707674
ㅜㅜ 0.04386645 -0.062481783 -0.0060070483 0.017182387 0.08488643 0.059146877 0.06345755 0.04997588 -0.008276432 -0.02518162 -0.05777553 -0.013713335 0.086686164 -0.026967129 0.09332731 0.03962403
시대 0.029943427 0.009458761 -0.054512408 -0.05435377 0.036665734 -0.019781793 -0.0337505 -0.011563997 -0.00057054136 0.045927834 -0.00074346224 0.0018212803 0.029859 -0.040077243 0.0028248935 0.007652673
사 -0.071679085 -0.020373935 0.0032793675 -0.043911655 -0.00047562877 -0.041630436 -0.03554144 0.021244008 -0.030043613 0.041044544 -0.00091550703 0.009169191 -0.04112277 0.055270273 -0.038262706 0.025435306
명 0.01312618 0.050785147 -0.05322032 -0.009026445 -0.0035046444 0.035686333 0.016648004 0.00080104836 -0.040043097 0.02995328 -0.017665569 -0.023345795 0.040321704 -0.010311868 -0.012197627 0.036467373
제일 0.024560668 0.07179523 -0.077747166 -0.04916793 -0.10552671 0.062049422 -0.055958666 0.015804589 -0.03234444 0.05141431 -0.08565885 -0.09484992 0.039706793 -0.05669434 -0.050411068 0.0026332417
아름다운 0.19162703 0.17710511 -0.1381569 -0.20211686 -0.1557603 0.19401649 -0.13813287 0.17659833 -0.10868004 0.16244179 -0.19250637 -0.1274685 0.1764167 -0.20164019 -0.10254099 0.17837764
어떻게 -0.043874674 -0.027195271 0.07235968 -0.0035328367 0.0149041 -0.023904318 -0.0077808667 -0.0679368 0.033116575 -0.07628526 0.069489196 0.054629758 -0.0484106 0.025779737 0.027438706 -0.067109756
해요 0.013517233 0.025174428 0.05004953 -0.020968813 0.0612321 -0.021301726 0.028166233 0.06831036 -0.042452868 0.004289162 -0.07584078 -0.06532299 -0.0034658464 -0.038453557 0.05759788 -0.018799003
하지만 0.006282473 0.011018801 0.021684656 -0.019846842 -0.048160896 0.02747683 -0.019918483 0.04539389 -0.06756781 -0.021775384 -0.028443342 -0.026028164 -0.016030628 -0.010613447 0.027461888 0.04428356
당시 0.08821334 0.064200446 -0.031300016 -0.06435762 -0.11522341 0.098935276 -0.059001982 0.052388467 -0.0787468 0.10836312 -0.0679288 -0.07421176 0.029152378 -0.10376262 -0.037332 0.09180361
무섭 -0.023692133 0.016051702 0.02571616 0.03042545 0.00030338613 0.028526165 0.010420183 -0.021303976 0.043673255 -0.014307466 0.008710947 -0.04051731 -0.016398411 0.046399087 0.0056232032 0.04419435
차라리 -0.20854835 -0.2004099 0.12866983 0.25611 0.22836871 -0.13016132 0.08633263 -0.1848715 0.22139165 -0.20399684 0.18728822 0.15112959 -0.16935624 0.04921259 0.009798543 -0.15747905
이것 -0.020682918 0.024128888 -0.025850121 0.045578647 0.007286072 -0.018886056 0.004174073 0.046624538 -0.010346346 0.03302196 -0.03569134 0.012198019 -0.018548938 0.025555722 0.01483933 0.050079327
려고 -0.0194871 0.026071917 0.00966381 -0.00037771132 -0.021437554 -0.046417426 0.035200264 -0.011869 0.046791755 -0.056412283 0.049657546 -0.0042790207 0.0092404755 -0.013896205 -0.04511319 0.039865177
엔딩 0.0034813234 0.030191073 -0.075114354 -0.0706005 -0.0039322902 -0.042325195 -0.06203587 -0.024286663 -0.041565016 0.030587519 0.02172757 0.041361216 -0.037070803 -0.02756429 -0.011787595 0.046085972
오랜만 0.01469475 0.027645858 0.048511263 -0.02400041 -0.033782005 0.00013646901 -0.03380591 -0.011710416 0.02988134 0.04325918 0.018771809 -0.014150948 0.019324338 0.03953044 -0.020118233 -0.01913725
니까 0.029716294 -0.0074883197 -0.0023716409 0.013731282 -0.04140346 -0.018987546 0.008076063 -0.049415577 -0.0203112 0.019722037 0.012344693 0.018801419 -0.027481515 -0.0027882603 -0.01906537 -0.049060572
봄 0.0032933578 -0.08032186 0.06669959 -0.0036215698 0.016976943 0.008111551 0.063994825 -0.010459169 -0.0061521986 -0.068775766 -0.061323937 -0.052934878 0.0735449 0.00259018 0.03392932 0.015285515
의미 -0.00599526 0.012712318 -0.02270156 0.06894407 -0.0029661919 0.05757657 0.052667294 0.051506415 0.013549437 -0.055073466 0.021983756 -0.034162093 -0.029404212 0.025143081 0.060766485 -0.031693276
나온 0.002946343 0.03824427 0.05620508 -0.0320705 0.02290667 -0.05263853 -0.0123731 0.01819653 0.03927755 0.023291593 0.037403136 0.043576445 0.02363982 0.0029412096 0.039114393 -0.027505323
세상 0.009998551 -0.02720138 -0.027478492 -0.017851377 0.043601632 0.0049691666 0.039799098 -0.016927687 -0.026360754 -0.04809127 -0.06396192 0.0031595244 -0.0040968386 -0.0027594185 0.03083834 0.04564208
봐 -0.016182411 -0.0027853942 -0.023564039 -0.043254808 0.047869943 0.038316578 0.00983744 -0.031188406 -0.03770554 0.046595167 -0.05795571 -0.006275489 -0.03435899 -0.042372994 0.03160147 0.01234258
따뜻 0.031150226 -0.0087470785 0.019860994 0.017661776 0.010382913 0.018582974 0.017979529 -0.026372744 0.04613966 -0.0083476305 -0.02425052 -0.04622079 0.017228927 -0.019048799 0.021760229 -0.00543759
세 0.027813911 0.0068715615 -0.053310834 0.0064968285 0.00083572057 0.03510395 -0.047753174 -0.019890534 -0.025697453 -0.026363155 -0.047340106 -0.03660778 0.051851664 -0.02964162 -0.03562794 -0.006356275
팬 -0.0046229097 0.013707915 -0.018910255 -0.03360618 0.018081866 0.07465697 0.0072585386 -0.0029798755 0.01603131 0.038769662 0.021580337 -0.07889872 0.082145214 0.02740178 -0.016197238 -0.006927588
훌륭 0.06307525 -0.058203835 0.013489464 -0.0075472873 0.07932104 0.017063297 0.041762166 0.08284092 -0.0623856 -0.0166941 -0.08446679 -0.071107015 0.06378187 -0.005483529 0.043972053 0.047173258
9 -0.024882521 -0.001754212 0.058784198 -0.007923356 0.05961481 0.013706712 0.02884116 0.030341556 -0.002343387 -0.062147103 -0.06783959 0.01130199 -8.670853e-06 -0.04057196 0.0056624436 -0.007541125
절대 -0.12591232 -0.088176236 0.028724998 0.11373603 0.09951069 -0.06740056 -0.03993776 -0.06360634 0.03281321 -0.03646724 0.036289982 0.036046803 -0.03866217 0.05009475 -0.014969706 -0.09354374
못하 0.03045478 0.015710305 0.023336742 0.022354115 -0.021653926 0.036054302 0.044620324 0.02630167 0.030496571 -0.04021988 0.02691951 0.005580712 0.01947048 0.04883721 -0.005461585 -0.015839446
놈 -0.014017333 -0.03078814 -0.0057777786 0.05604041 0.08466198 -0.029705089 0.0403743 -0.049735993 -0.02208438 -0.02091591 -0.0364457 0.04989239 -0.058436453 -0.042252287 0.0719097 -0.0003381034
강추 0.13376567 -0.1266466 0.09091393 0.018985035 0.1237165 0.08416225 0.09609588 0.14503676 -0.07903939 -0.10179047 -0.13189912 -0.112403296 0.08559187 -0.11501054 0.074139416 0.11603815
느끼 -0.035651505 -0.020183539 -0.05849307 -0.03624086 -0.065195486 -0.022010075 0.024238808 -0.028051153 0.004153532 -0.014398962 -0.031639036 -0.044800624 -0.00022127232 0.00067696307 -0.049642593 0.03117989
욕 -0.050489493 -0.018407581 0.07368782 0.11455782 0.117765084 -0.051792372 0.02757921 -0.07891072 0.10417073 -0.04838147 0.10972253 0.07890794 -0.06273872 0.045452204 0.06621682 -0.082882784
감 -0.039848123 -0.04889839 -0.041863568 0.030865295 0.036960777 -0.041110877 -0.012907513 0.029584397 0.0064606373 -0.014674695 0.023884675 -0.0049018622 -0.014478134 -0.021514626 0.013639154 -0.0085923355
빼 0.00016592935 0.048012447 -0.050195765 -0.0040294486 -0.04417779 -0.010264677 -0.010114573 0.050945677 -0.0050788387 0.037470948 0.03800617 0.03690744 -0.015168984 -0.049329318 0.026759611 0.004082152
너무나 0.08263764 0.10397393 -0.12577386 -0.1107984 -0.1241752 0.06412455 -0.035385367 0.13413638 -0.05012344 0.050157852 -0.050278332 -0.10896197 0.12527333 -0.10783822 -0.001594587 0.047827464
전쟁 0.044012 0.028607175 -0.0017962896 0.016848939 0.025266036 -0.03434391 0.017759146 -0.044452112 -0.0036030903 0.038508933 -0.0015269069 0.018502405 -0.01451902 -0.009599063 0.0001254457 0.017469801
됨 -0.0153621705 -0.040782616 0.038140286 0.029748939 0.04134064 -0.016988996 0.061431333 -0.026235249 0.0037671102 -0.057633124 -0.052277405 -0.026969709 0.06573686 0.010267282 0.044366732 0.03842154
어야 0.0056695454 0.029059675 0.043830846 -0.03226775 0.04926798 0.013792824 0.023173515 0.041480172 -0.049610592 0.014148865 0.03759675 0.040960822 -0.020404113 -0.0030127168 -0.025006747 0.034906592
해야 0.011563858 -0.05034878 -0.038110405 -0.0044792327 -0.026612727 0.02457635 0.00042274047 0.026837427 -0.055924237 -0.03578363 0.023053825 0.0014342282 0.026182028 -0.028373163 0.012204434 0.02724405
던데 0.023172472 -0.010496151 0.02390254 -0.04632319 0.022792328 0.015334431 0.032498132 0.01528969 0.029338036 -0.021041298 0.03299192 0.04836912 -0.040369976 -0.040595137 -0.04283619 0.014687944
도대체 -0.14287227 -0.112586774 0.1350016 0.13386299 0.15614861 -0.22702834 0.12104414 -0.13251427 0.13703462 -0.21114454 0.1143127 0.1925069 -0.11332214 0.09508389 0.10184916 -0.14181468
무엇 0.009879148 -0.04029341 -0.043803018 -0.03064084 0.008819096 0.035940964 0.030668067 -0.03441716 0.038839333 -0.026965529 -0.0050146836 0.019166956 -0.03133391 -0.02115427 0.006154615 -0.024894703
답답 -0.042571444 0.07583106 -0.015241856 0.011289352 -0.031895235 -0.04271989 -0.010223827 -0.042355463 0.036251295 0.022482824 0.071606204 0.09802953 -0.02764608 0.08919748 -0.045876004 -0.09176654
준다 -0.05162694 -0.03717573 -0.028090397 -0.046660267 -0.034871463 0.02846563 -0.018332267 -0.02373372 0.008849072 0.0029863236 -0.02833745 0.05401633 -0.022181308 -0.036845006 0.01903073 -0.013683679
ㅡ -0.042515725 0.012749455 -0.03420113 0.037297193 -0.047310356 0.006863711 -0.012224071 -0.048166115 -0.0012935214 0.046853635 0.00460071 0.07706155 -0.0037476055 0.0139987 -0.0799595 -0.0004604109
드 0.00816496 0.043994315 -0.07606567 -0.04184139 -0.07528729 0.06524473 0.012035191 0.069691785 -0.036718905 0.06609443 0.004303299 0.0096077155 -0.015228322 -0.051053103 -0.0043684007 -0.008649888
마다 0.04896244 0.058325097 -0.03968351 -0.0852434 -0.040202253 0.07736004 -0.028375728 0.012373729 -0.036473546 0.051991172 0.0017034814 -0.05610551 0.03647532 -0.08253504 -0.05169973 0.07532055
설정 -0.030501623 -0.07195858 0.011508586 0.05243786 0.06540398 -0.03060698 0.044543453 -0.12230702 0.09528735 -0.05641913 0.12198031 0.060785733 -0.06273631 0.040285297 0.05202129 -0.055501044
답 -0.03525226 0.007870498 0.05342578 0.026574304 -0.018685617 -0.040128082 -0.0056429 0.02546266 0.020335961 -0.03558867 -0.038217805 -0.03472129 0.02572083 -0.026151301 0.007871471 0.023015765
그저 -0.094680026 -0.12172885 0.047002107 0.10267223 0.077358134 -0.119022265 0.09047381 -0.12584238 0.12613042 -0.07307601 0.072910234 0.087852016 -0.12374655 0.09562828 0.06625596 -0.1291114
6 0.02344202 -0.054307185 0.028521016 0.035746124 0.010971993 -0.0052250884 0.034014177 0.04291261 -0.02954447 0.021702442 0.03694097 -0.025882367 0.02182556 -0.007100951 -0.037217293 0.025281038
어도 0.045100424 0.0093438625 0.03111646 -0.005275 -0.03206613 -0.020752275 0.04832503 0.0375528 -0.00864638 -0.037949014 0.013953958 -0.0142345205 0.039157186 -0.002984345 0.004769694 0.008863699
형 0.05035453 -0.04608946 0.024001889 0.05286209 -0.0143292155 0.0172577 0.024186201 0.05968729 0.00023116094 0.03184184 0.020729007 0.029367277 -0.009841548 -0.034113865 0.050879925 0.045475405
신선 0.017519316 0.0017457436 0.01493713 -0.017365646 0.004870381 0.05298445 0.0028834264 0.04268233 -0.02220264 0.035534307 -0.06158029 -0.006952114 0.0022882489 -0.024934268 -0.0038047312 0.004423325
감정 -0.017413557 -0.0011463723 0.028231718 -0.025710242 0.012664924 0.0084666945 -0.024024118 0.040321298 0.035956625 0.011291071 0.04363119 -0.02754924 0.003440311 -0.01892481 0.013605672 0.025559256
흥미 0.017915554 0.04281954 -0.03159494 -0.04184002 -0.03791084 -0.003457624 -0.013497896 0.038540088 -0.035194784 -0.015338732 0.044804648 0.011971366 -0.023305789 0.012969782 -0.033849098 0.015446627
글 0.0026944752 -0.046058394 0.012354798 0.040986203 0.02261357 0.02473464 -0.023027478 -0.027135445 0.054329656 0.017000956 0.05574844 0.046319153 -0.024292015 0.010089892 0.045970395 -0.030105868
미국 0.0015307103 -0.035816975 0.0294258 0.024033956 -0.038564205 -0.026764162 0.035239376 0.02191599 0.037549704 0.020496923 -0.0075216116 0.057360746 0.012492437 -0.030393755 0.014280195 -0.010478171
뻔 -0.029190846 -0.010828976 -0.036878664 0.01013542 0.0057253297 -0.025330428 -0.024664922 -0.04395684 0.07185343 -0.001853419 0.07812732 0.027857026 0.014065732 -0.02554198 -0.04669659 -0.050330754
엄청 0.07475012 0.090007894 -0.110765636 -0.07235796 -0.060112406 0.14082567 -0.078364484 0.058524795 -0.08962049 0.12968116 -0.038253885 -0.066994965 0.047344632 -0.011071596 -0.06002845 0.073228605
관객 -0.05453385 -0.047210604 0.034657322 0.022393111 0.09432311 -0.08970234 0.04298998 -0.06663076 0.035028446 -0.09574649 0.058259536 0.093887754 -0.019185165 0.045876034 0.0023046415 6.5609e-05
행복 0.056088366 0.022632927 0.015173424 0.047860615 0.051016197 0.07010367 0.05435275 0.061834525 -0.08095401 -0.018282508 -0.09951938 -0.023392817 0.048076846 -0.039196737 -0.00035165984 0.083520845
시절 0.012457386 -0.009744131 0.01587619 0.019499099 0.023889579 -0.037131898 0.03945809 0.047596473 -0.021200247 -0.034436975 0.02257489 -0.052080855 -0.0352317 -0.01595788 -0.049039274 0.033162903
더라 0.037507717 -0.04842628 -0.04389731 -0.007798232 -0.009982884 -0.019417895 -0.008890867 -0.04089874 0.037134733 -0.0041069016 -0.0107605085 -0.013245691 0.022243533 -0.025838746 -0.03687024 0.029634204
만화 -0.009098075 0.0152181005 0.06436828 0.06521926 0.05769163 0.078765616 0.060215995 0.01855456 -0.049916457 -0.06192574 -0.021977976 -0.06748775 0.020932712 -0.06328309 -0.0144715095 0.0521809
수작 0.1514958 -0.09286957 0.15082596 0.048180852 0.10059885 0.12423676 0.08698066 0.084722616 -0.07647743 -0.14489692 -0.1016579 -0.12859635 0.15079433 -0.13160859 0.08485226 0.13958418
군 0.01846098 -0.060402352 -0.013138045 -0.00067485665 0.0007462658 0.048626836 0.038936112 -0.030588167 0.024111692 -0.012686512 -0.008988053 -0.047617394 -0.02285585 -0.03941282 -0.0045453594 -0.004398667
앞 -0.037943546 -0.010242355 -0.036768883 0.008557057 -0.03477161 0.040766865 -0.04408033 -0.041537475 -0.040229812 0.050829265 0.0032322872 -0.0020987182 0.0502644 -0.048511356 0.020591553 0.03068333
자신 0.030296205 0.03343902 -0.03952111 0.00062500045 -0.026322857 -0.02450331 -0.006212672 0.02214939 0.018681075 -0.0012914507 -0.024199596 0.026193433 0.04266955 -0.047773007 -0.025936041 -0.0069611017
슬프 0.042785954 -0.008061267 0.014660623 -0.0069460645 0.017034318 0.048991214 0.005755663 -0.010091305 -0.0074347146 -0.0043986663 0.00051320717 -0.027037252 0.041495968 0.0005760081 0.017765414 0.0115038045
라니 -0.053490475 0.04779366 0.03929811 -0.041577406 -0.052777838 -0.04963792 -0.03433509 -0.0025946358 0.013585185 0.024569742 0.042288344 0.016416961 -0.05183471 0.0128748575 -0.01223765 -0.0020570576
배경 0.0002907473 0.08751877 -0.07721133 -0.018523522 -0.0051291864 0.011871818 0.017816355 0.057979576 -0.0069336537 -0.008610509 -0.019708175 -0.04207199 0.06609267 -0.025255153 -0.05104554 -0.01632916
허접 -0.019292643 -0.038755167 -0.010035248 0.055429123 0.04943133 -0.007015885 -0.012127367 -0.038254086 0.049887 -0.0041917413 0.030333692 0.00079501234 -0.07233717 -0.004666033 -0.031521652 -0.08802287
초반 -0.05463119 -0.020960024 0.0009875499 0.049861707 0.07753996 -0.0973764 0.026896723 -0.048359413 0.018483741 -0.07799731 0.0487602 0.09991276 -0.006617848 -0.0030964748 0.010826617 -0.050535463
질 -0.055571206 0.031512063 0.023839744 -0.017793113 0.030327708 -0.04553219 0.0267167 0.019884637 0.051435374 -0.003156711 -0.035839405 -0.0026936284 0.03729809 -0.03357855 -0.026502244 -0.038506974
어색 -0.002293622 0.03720791 -0.032025095 -0.032279257 0.01376899 -0.0114468485 0.029889243 -0.056887772 0.038691595 0.005031303 0.02302794 0.02672622 -0.051750593 -0.013181594 -0.041114166 -0.023634905
시나리오 -0.03253963 0.033065178 -0.0033110236 0.0010375533 0.048119463 -0.053443532 -0.030498479 -0.0019859674 0.016935972 -0.02873968 -0.010914612 0.066012695 0.023602948 0.0045082183 -0.011689137 -0.022885948
사실 0.033060446 -0.026940979 -0.027880618 -0.025551397 0.0142614255 0.023550726 -0.05415962 0.009882374 0.046928603 0.03758749 0.030106463 0.05835402 0.0018642539 -0.03220848 0.0024502135 -0.0063140234
웃음 -0.017506242 -0.002661727 -0.04142742 0.015720863 -0.03547486 0.008757901 -0.002500381 -0.025925063 0.07345016 0.05177371 0.035144616 0.02981996 0.008476761 0.041416913 -0.03198261 -0.0678283
첨 0.031023266 -0.0013530664 -0.005493837 -0.010557388 0.06976745 -0.02420058 0.035652727 -0.056838542 0.07302544 0.028116424 0.033068866 -0.015648486 -0.0251481 -0.019687675 -0.0072771343 -0.07221085
분위기 -0.022633301 0.01637344 -0.0028548895 0.021697829 0.0008160864 0.040556252 0.031365257 0.0017545229 -0.007221545 -0.053009566 -0.06625159 -0.012489702 0.046648946 -0.06661246 -0.032855727 0.04921568
소름 0.045147784 -0.015712056 -0.0030077908 -0.0049568433 0.04690072 0.057462383 -0.018310284 0.10091748 -0.023980422 0.032475132 -0.077920884 -0.027405288 0.025342835 0.011294816 0.06702293 0.103058286
멋진 0.14291957 0.084278315 -0.0964442 -0.1462261 -0.13443558 0.12313869 -0.106954865 0.14555997 -0.13573572 0.16852783 -0.1339205 -0.10593881 0.13973856 -0.084840536 -0.029897582 0.12742087
추억 0.046940554 -0.05046815 0.03970693 -0.035115875 0.04416593 0.0076072738 0.054410134 0.042128973 -0.025687236 0.040149517 0.009723216 -0.00090439623 -0.00444462 -0.021596046 0.0009794207 0.0037434166
머 -0.10184506 -0.04472261 -0.040570028 0.042690795 0.021458007 -0.023332156 0.020583875 -0.08647917 0.01929028 0.0289925 0.039581396 0.07871497 -0.05404115 0.0907615 -0.015391033 -0.044389863
멋있 -0.018811274 0.048635367 0.008696865 -0.037103094 0.03347404 0.048092727 -0.03379903 -0.02487961 -0.04616269 -0.0322273 -0.029220952 -0.008187126 -0.023361648 -0.0114168525 -0.02073325 0.044430885
힘들 -0.039030194 0.06313301 -0.06556456 -0.014595279 -0.009430754 0.038118508 0.016973212 -0.014637107 -0.029067371 0.06927931 0.01647119 -0.020630745 0.016209312 0.020970555 0.021452406 -0.001750432
정신 -0.03422459 -0.07739647 0.004572498 0.008816799 0.0062203594 -0.017671365 0.020043265 -0.023347367 0.08413736 -0.05099479 0.038023535 0.033286545 -0.012955825 0.07852716 0.0067467196 0.010941001
캐스팅 -0.051980823 -0.053744953 0.025785645 0.029184937 -0.02491432 0.004550846 0.00030589924 -0.017844323 0.007294784 -0.004276787 0.057922855 0.027187001 -0.0044140103 -0.03365964 0.02139904 -0.010938482
등 -0.041378304 -0.026369376 -0.020894706 -0.020320313 0.01599347 -0.036781237 -0.001276026 0.013997883 0.0039321356 -0.031811543 0.002850569 -0.043268386 0.009502005 -0.030902097 0.027748391 0.015318752
밖에 0.015919767 -0.015401541 0.017214373 -0.05917203 -0.06587183 0.044197828 -0.02535407 0.02858688 -0.012856995 -0.019072616 -0.06174001 -0.03922868 0.019102799 0.011317347 0.016555855 -0.019488238
OOO -0.06682252 0.054980066 -0.02883164 0.051393073 -0.05358436 -0.11568819 -0.045390967 -0.052968014 0.11481873 0.044093158 0.09018712 0.07392481 -0.05688907 0.05379206 -0.0063580703 -0.092434935
결국 -0.0031372574 -0.029975375 0.08730211 0.0077457433 0.00043747775 -0.07122812 0.059554268 -0.036570508 0.001887018 0.0055998033 0.06557389 0.004673327 -0.060868584 0.06384269 -0.00044608492 -0.067832336
봐서 -0.00082700356 0.07415477 -0.020184997 -0.04474677 -0.013677079 0.0019208475 -0.070237964 0.014437288 -0.0822163 0.044252083 -0.06794931 0.007219992 -0.012237065 -0.04981833 -0.04294621 0.08328889
류 -0.035228517 0.017150998 0.020020828 0.04890885 0.027684936 -0.0014845931 -0.038594082 -0.007072578 -0.034332868 -0.035171706 0.055178918 0.0067098583 0.044147663 -0.04766499 0.02558242 -0.01699443
오늘 0.064446315 0.0953072 -0.039166134 -0.1284789 -0.085116476 0.13672972 -0.025667602 0.046470687 -0.05616265 0.043599732 -0.124375984 -0.0829748 0.08752257 -0.056048006 -0.040830277 0.0746586
졸작 -0.115837716 0.1594956 -0.15748277 -0.055748545 -0.102961175 -0.17443456 -0.13274205 -0.11429373 0.09391559 0.10786225 0.13937601 0.16249974 -0.13837591 0.12266613 -0.08712918 -0.18260378
낫 -0.02773908 -0.0096512735 0.050656483 0.017522253 0.00481346 0.043047838 -0.00028389 -0.028150907 0.0049205194 -0.0003219964 0.010600919 0.028708845 -0.041245725 -0.042681135 -0.04384369 -0.0015783595
킬링 0.00084116065 -0.043584052 0.036563907 0.024284089 -0.032263074 -0.003762381 -0.03157425 -0.06305847 -0.01263384 -0.007494333 0.0127039375 0.04172541 0.01233126 0.025747105 -0.01561896 -0.021076981
역사 0.016461825 -0.0008763509 0.0606434 -0.0008214168 -0.016218273 -0.011114942 0.04408924 0.04114491 0.01094125 -0.06231996 -0.004305941 0.009529929 0.008086952 0.0030717968 -0.0010908348 0.021995975
함께 0.10792619 0.15056543 -0.07956809 -0.12728718 -0.077356055 0.08785344 -0.13248585 0.15266436 -0.087389275 0.12795375 -0.14485747 -0.13947679 0.18307115 -0.103532925 -0.06336478 0.12545475
잡 -0.030948833 -0.0070743756 -0.030284096 0.0044487747 0.02015493 -0.038638704 0.009500295 0.037257444 -0.019479085 -0.020468427 -0.047768697 -0.021003818 0.050700363 0.047154333 0.024539184 -0.0040361057
엄마 0.051611245 -0.0097923195 0.031253036 -0.05319196 -0.033664756 -0.018359056 0.0055317567 0.0037020422 0.026329411 0.024743611 0.038377084 0.0041398285 -0.008058706 -0.04935634 -0.017697327 0.037928972
이딴 -0.18787138 -0.16532406 0.10980949 0.17756052 0.11834043 -0.16059561 0.138341 -0.15697719 0.1750985 -0.20947962 0.16130126 0.18108758 -0.11012907 0.14561003 0.15904385 -0.111025795
한데 -0.015858741 -0.04770378 0.041278027 0.057952907 -0.005996065 -0.019394606 0.031249022 0.019843131 0.010333308 -0.012643564 0.027380208 -0.025569636 -0.016460476 0.06415152 -0.036098454 -0.003917534
20 -0.010860503 -0.016295986 -0.022484481 -0.0052124294 -0.03964816 0.018787194 0.014091016 -0.045635045 0.0070836456 0.00478282 -0.04437453 0.04486118 0.037718702 0.04806277 -0.013810472 -0.034690995
집 0.01502318 -0.013278546 -0.012912565 -0.0407298 0.0194604 0.0477236 0.020201834 0.053038895 -0.049081046 0.023747139 -0.05211418 0.039270964 -0.006527279 -0.0244841 -0.013889863 0.014902766
구성 -0.0059511727 0.016100435 -0.00019839134 -0.04412942 -0.03575851 -0.030254845 0.0027347656 -0.05239806 -0.03094565 0.060388297 -0.014662933 0.03744336 0.01613497 0.029435657 -0.049451504 -0.030445227
문제 0.018483697 0.029874338 -0.012031405 -0.009233899 0.016848667 -0.03464263 -0.043981735 -0.054172993 0.0013988002 0.046722855 0.0069629974 -0.017311174 0.017649394 -0.007688989 -0.01962516 -0.05807135
뭘 -0.100178346 -0.06433934 0.08269223 0.17268127 0.15912223 -0.06622789 0.08246509 -0.13721052 0.10585177 -0.16580674 0.11521798 0.08140281 -0.044785164 0.010225726 0.039845042 -0.06137736
나요 0.05007181 0.022042364 -0.02698244 0.027359618 -0.011700149 -0.018757088 0.04962774 0.0027731147 -0.05295908 -0.050956383 -0.0071419007 -0.02813349 -0.012676966 0.009847759 -0.006949911 -0.030680178
뻔한 -0.18297288 -0.13057986 0.078493625 0.18159163 0.17505494 -0.1477007 0.07628652 -0.09768412 0.14688383 -0.115288675 0.14832309 0.1599992 -0.15834448 0.025824785 0.076907285 -0.14982852
