2996 16
영화 0.07166958 0.04287116 -0.039803937 -0.035974577 -0.04503683 0.07603008 -0.029289844 0.008713614 -0.086915106 0.033076897 0.026505763 -0.020048507 -0.047818583 -0.06045808 -0.017121872 0.07616064
다 0.1265933 0.054600578 -0.14740375 -0.08582497 -0.11841304 0.090719156 -0.13272709 0.06219212 -0.08431152 0.106471546 0.11862528 -0.10486202 -0.074640706 -0.085829414 -0.084941745 0.059573438
고 -0.12767981 -0.16778813 0.18635564 0.09548807 0.09776097 -0.16153602 0.14153825 -0.12036698 0.15268579 -0.14339459 -0.15179911 0.15185216 0.16602038 0.11679139 0.12351798 -0.14274679
하 -0.04850131 -0.064700834 0.06088746 0.023740485 0.03792107 -0.0028205868 0.021714227 -0.041768484 0.010704922 -0.011032776 -0.067118116 0.06548208 0.060661715 -0.01461291 0.06836259 -0.023748826
을 -0.11830305 -0.07102931 0.15364502 0.057550013 0.0756283 -0.060286697 0.0741507 -0.086814374 0.08952572 -0.10022821 -0.0743643 0.10895949 0.13143985 0.107184015 0.11312786 -0.11979154
보 -0.0802055 -0.051792674 0.12867896 0.06456399 0.08524205 -0.1281904 0.09840389 -0.05512661 0.067862146 -0.060287893 -0.09602238 0.05920745 0.08089174 0.07965393 0.048290215 -0.04757125
.. -0.023629025 0.04676925 0.040433716 -0.026325857 0.020567693 0.00012392712 0.026023667 -0.014482907 -0.0023333165 -0.006985068 -0.026660258 -0.008167785 -0.00359318 -0.037967026 0.008816696 -0.030201383
게 0.04895701 0.043584447 -0.07970061 -0.12780215 -0.07370003 0.13220455 -0.13390104 0.11395692 -0.08800933 0.08368485 0.14487492 -0.11417811 -0.10719467 -0.12875803 -0.06561851 0.13096304
, -0.085242525 -0.004679816 0.042971853 0.021393884 0.06518431 -0.051252734 0.08781411 -0.010546496 0.07689531 -0.014771106 -0.07562968 0.060716797 0.079980545 0.036359124 0.060638923 -0.00025797758
! 0.13476168 0.12689872 -0.194566 -0.08853089 -0.16979872 0.18052472 -0.15345526 0.11381373 -0.2085307 0.14077996 0.21544588 -0.15645733 -0.152917 -0.16418305 -0.14009593 0.09408394
지 0.032215994 0.043055497 -0.09980712 -0.03518517 -0.07952565 0.05788682 -0.08091907 0.104726024 -0.047806133 0.07718718 0.11296129 -0.029586527 -0.04830142 -0.124932334 -0.059138644 0.091431394
있 0.10225869 0.068779744 -0.10199357 -0.10124942 -0.11480489 0.058304977 -0.057451066 0.09861626 -0.1028092 0.082149796 0.10696958 -0.11356704 -0.07553241 -0.10823051 -0.08982587 0.10867866
없 0.21072198 0.20117928 -0.19912288 -0.12777108 -0.20334521 0.16072348 -0.14686383 0.1921039 -0.13541736 0.18552165 0.14128779 -0.14762367 -0.16830981 -0.16166522 -0.12111722 0.11504384
? -0.043144505 -0.05755358 0.0320915 -0.029496795 0.03653024 -0.03311437 -0.02624057 -0.003590323 0.056714296 -0.030990748 -0.02225248 0.04557325 0.033354238 0.014462176 0.05539542 -0.011559159
좋 0.08514941 0.09044598 -0.109160975 -0.07698858 -0.08990746 0.07945465 -0.05236759 0.08559346 -0.12548186 0.10706344 0.043176923 -0.119922146 -0.058866482 -0.044225026 -0.057859022 0.11196589
나 0.17363782 0.08645612 -0.12999764 -0.113085724 -0.14580819 0.14059635 -0.16253935 0.115785986 -0.09051714 0.09315741 0.12356086 -0.10497499 -0.085473284 -0.13066702 -0.0799647 0.14502649
었 -0.016887901 0.004326506 -0.018417438 -0.03827262 0.03566151 0.027661562 -0.03418421 -0.049932912 0.01742236 0.038364384 -0.004075526 0.037640505 -0.02473011 0.026029972 0.015262763 0.03210305
만 0.1629954 0.14170891 -0.19361252 -0.12856252 -0.13932459 0.09387697 -0.16657634 0.08755006 -0.16028742 0.09305545 0.096683726 -0.068587 -0.1381304 -0.102035284 -0.096475564 0.08012374
는데 0.111288 0.056321926 -0.10470941 -0.13769688 -0.09080066 0.050494682 -0.13073342 0.059100017 -0.12693599 0.044457376 0.13515659 -0.1173803 -0.12558678 -0.1320447 -0.051492568 0.087013535
너무 -0.06210738 -0.09513756 0.08819248 0.026488218 0.08359464 -0.07752103 0.102499135 -0.0150494035 0.0748626 -0.020937413 -0.08924114 0.034377735 0.053271808 0.0785297 0.0068459325 -0.011657522
봤 -0.08837754 -0.04983591 0.08684036 0.06613964 0.08600019 -0.093713805 0.07781492 -0.09194158 0.15505305 -0.102859296 -0.08921086 0.13887537 0.07935388 0.09042746 0.14023009 -0.078036904
안 0.3735867 0.3448192 -0.44674468 -0.35390022 -0.3162046 0.39311507 -0.45437723 0.3161034 -0.42697492 0.3543771 0.40563455 -0.3234018 -0.32514554 -0.36801773 -0.32647368 0.37499204
적 -0.15675823 -0.15516168 0.1138702 0.16414937 0.1578553 -0.119781956 0.12246335 -0.14233965 0.181948 -0.11889041 -0.10151681 0.08301538 0.172157 0.18700625 0.10406496 -0.08096996
정말 -0.18483336 -0.09624355 0.16350755 0.10894945 0.08211141 -0.092489004 0.11761302 -0.16332659 0.12998931 -0.1299261 -0.17206329 0.16304344 0.077301726 0.13595888 0.13619964 -0.109794594
로 -0.15503997 -0.075079344 0.111050956 0.106951885 0.13536775 -0.15669858 0.1404839 -0.13794336 0.085760444 -0.10870537 -0.122699134 0.09598079 0.10466742 0.09212112 0.09182317 -0.09574363
음 -0.07093958 -0.081923425 0.100157134 0.035439048 0.008819549 -0.05229413 0.079882376 -0.09452738 0.08756355 -0.031319942 -0.056864098 0.04148457 0.08380003 0.007049542 0.026061164 0.0022536444
것 -0.02551086 -0.09218471 0.025779942 0.08157009 0.07182105 -0.011017882 0.07003249 -0.02172353 0.009261598 -0.05644414 -0.0106361965 0.0881743 0.004113583 0.06504337 0.050342534 -0.031055387
아 0.11695054 0.06843148 -0.18547906 -0.079785846 -0.14630297 0.12540394 -0.15628289 0.15390904 -0.10061228 0.11629073 0.11489194 -0.10807116 -0.15162192 -0.14080323 -0.096187994 0.08741766
네요 -0.04647935 -0.10715549 0.08187187 0.09400698 0.09405607 -0.043074653 0.11316637 -0.06506097 0.08864927 -0.06045548 -0.11764603 0.078158595 0.05615782 0.03193236 0.07934539 -0.11771472
재밌 0.10932577 0.078960076 -0.112786986 -0.093503535 -0.11683772 0.18229479 -0.16391417 0.1378543 -0.1534975 0.13416713 0.111054376 -0.1432609 -0.13854572 -0.13205877 -0.1023909 0.12363038
어 -0.12851122 -0.08597041 0.06396916 0.08015881 0.09933056 -0.052334867 0.095062986 -0.085550606 0.05828873 -0.098820716 -0.06161192 0.045106675 0.1298654 0.12277136 0.105077915 -0.094667606
같 0.117645375 0.12916946 -0.05339023 -0.12992655 -0.039254423 0.12303607 -0.1216482 0.08909303 -0.09852088 0.13143016 0.13399011 -0.09126447 -0.102053866 -0.08110179 -0.09167394 0.069471456
점 0.021261444 0.06829088 0.014369531 -0.03226643 0.013546349 -0.0249885 0.0018319264 0.015957776 -0.05805018 -0.005147465 0.06826676 -0.033614147 0.015086441 -0.0048272437 0.023089327 0.0066121737
진짜 -0.041636042 -0.029616948 0.08258942 0.030523656 0.014268158 -0.080335245 0.07006907 -0.06999738 0.029784024 -0.014169987 -0.0017545858 0.018422447 -0.010766662 0.06270333 -0.0033703211 -0.03610825
지만 0.044362396 0.051117443 -0.061310615 -0.13588157 -0.055684235 0.10365153 -0.053069886 0.046716515 -0.12019137 0.06161876 0.12803774 -0.12974778 -0.13412884 -0.09379603 -0.13039434 0.028182639
했 -0.043743003 -0.022937452 0.030569937 0.02671497 0.010740411 0.010598458 0.0042018183 -0.00086857006 0.0068750605 0.026116554 0.012107324 -0.018502511 -0.019184662 -0.044056535 -0.014222108 -0.009681977
에서 0.08802438 0.0487873 -0.11874493 -0.028089205 -0.10849064 0.07036471 -0.10592105 0.12388374 -0.09497128 0.09509862 0.08539377 -0.09303025 -0.09886884 -0.121431306 -0.10468771 0.12296215
기 -0.060937833 -0.017004604 0.060286734 0.06881785 0.025237633 -0.10897958 0.09982932 -0.023540387 0.07240324 -0.05394816 -0.069868356 0.091351375 0.080327846 0.046318453 0.08072465 -0.100503735
네 0.014655694 -0.03568044 -0.009036139 0.017378977 -0.0166156 -0.03583689 0.074025355 -0.036367312 0.009017198 0.017878627 -0.07330533 0.038365483 -0.024548901 -0.004905643 0.05283373 -0.017693846
않 0.05796591 0.055636864 0.011989387 -0.04424131 -0.00458994 0.0644665 -0.029519325 0.0296337 0.013001778 0.0018769226 0.06401033 -0.0077834954 -0.080707386 -0.061029006 -0.011297962 0.002365982
거 0.080531366 0.047172405 -0.08623024 -0.064421244 -0.0542147 0.059407134 -0.08202517 0.03436226 -0.060856264 0.075709954 0.09250943 -0.051556095 -0.08618323 -0.013018681 -0.03858622 0.047640003
았 0.023973133 0.04658511 0.0017994642 -0.041787647 -0.021913469 -0.02157855 -0.042063296 0.026915494 -0.012458552 -0.032346584 -0.043590643 0.017019045 -0.017842792 -0.039040685 -0.03361559 0.01741295
수 -0.2269555 -0.19558756 0.2400448 0.17802571 0.23766948 -0.20544061 0.21846387 -0.15726651 0.2604093 -0.19664145 -0.28050947 0.15466471 0.2377057 0.27432546 0.22370213 -0.17495522
되 0.11444955 0.06810861 -0.15141173 -0.11450896 -0.13254999 0.1295325 -0.115325324 0.13912235 -0.15549682 0.124262996 0.082177185 -0.051860355 -0.09324878 -0.12857409 -0.12345147 0.110277444
면 -0.06697232 -0.07141728 0.085497476 0.097593635 0.01622184 -0.006496198 0.07512782 -0.045607217 0.0928968 -0.03968415 -0.0923256 0.10081499 0.08305804 0.053783584 0.055151995 -0.029051594
ㅋㅋ 0.0637372 0.0545085 -0.11527728 -0.06141401 -0.0842207 0.1065032 -0.09429856 0.04936097 -0.04621116 0.0879022 0.020135438 -0.042546283 -0.04833352 -0.089450784 -0.08822082 0.06372598
연기 0.011519595 0.03291955 -0.0015111441 -0.042487804 -0.03647166 0.038160108 -0.09093521 0.07801893 -0.03578902 0.024348391 0.091279104 -0.020591132 -0.04752082 -0.0059834775 -0.02796985 0.015141432
말 0.089516886 0.073880084 -0.059865896 -0.11826462 -0.11656014 0.04132486 -0.055439714 0.07007343 -0.08789578 0.019107495 0.121821016 -0.05902228 -0.052234296 -0.03635825 -0.09642321 0.09163194
인 -0.07216001 -0.08192138 0.12568675 0.03762932 0.11539733 -0.0852426 0.09709683 -0.046505306 0.057632186 -0.11289562 -0.083273664 0.11004247 0.1232492 0.0939409 0.10962639 -0.10156456
주 0.11270277 0.12556276 -0.07899964 -0.05485153 -0.04340718 0.08708188 -0.05334744 0.10556109 -0.107311785 0.06822084 0.05731071 -0.09975134 -0.11207767 -0.13068058 -0.1374607 0.04966188
최고 0.3505692 0.26595035 -0.40761814 -0.307497 -0.23165959 0.3557687 -0.39906305 0.2464484 -0.3499766 0.2426215 0.38883966 -0.30294922 -0.25164694 -0.356391 -0.23591432 0.24843717
평점 -0.07685891 -0.027788479 0.093513206 0.07741626 0.06494791 -0.06787308 0.08264953 -0.062085904 0.074704506 -0.027124248 -0.018427826 0.09773609 0.011988224 0.024637796 0.04106556 -0.09803567
내 0.045285426 0.0006268505 -0.030042246 0.022297643 -0.023903184 -0.020982308 -0.027279506 0.062376127 -0.035954162 -0.009936276 0.054090668 0.004224754 -0.026287302 -0.0014135872 -0.0023536333 -0.017160721
~ 0.113384165 0.09431422 -0.11644896 -0.09431003 -0.061369292 0.09251499 -0.086862765 0.12956043 -0.117963105 0.05972254 0.13391125 -0.09981196 -0.10762606 -0.13096887 -0.0593605 0.064208806
이런 0.07358102 0.12857486 -0.16653016 -0.1349762 -0.09864095 0.107843585 -0.15681194 0.10161106 -0.14315525 0.09766346 0.16142693 -0.096079774 -0.055180266 -0.108568735 -0.06775013 0.081213415
던 -0.026626347 -0.03242718 0.019071333 -0.008951529 -0.023749586 -0.010957818 -0.012283373 -0.0070072343 -0.03689481 0.0057035973 0.046392478 0.019007098 -0.04437378 -0.0024982179 -0.018472588 0.0201633
어요 0.042426575 -0.00406871 -0.0100464225 0.028751466 0.03386401 -0.010559548 -0.01634537 0.048065793 -0.03083744 0.03638455 0.042767193 -0.00433141 -0.035742544 0.01633877 0.048911978 0.014490571
왜 0.20159003 0.15215185 -0.29505414 -0.14346966 -0.19953758 0.252617 -0.23630172 0.23872417 -0.25675094 0.17866696 0.25822502 -0.18232214 -0.21713653 -0.2683259 -0.17722684 0.22150119
할 -0.003883484 0.010784067 -0.019209482 -0.028774811 -0.018624768 -0.054187827 0.017616518 0.035626873 -0.0035644025 -0.056876265 -0.05364277 0.01852865 0.04652734 0.0119962385 0.015874658 0.03624431
겠 -0.009419654 0.036621895 -0.024035456 0.024835391 0.044250134 0.024252433 0.03377597 0.034270197 0.036151774 -0.031243566 -0.04833739 -0.020994643 -0.008656392 -0.040008344 0.009122599 0.025782848
1 -0.12087809 -0.024818083 0.12348564 0.040025294 0.026849745 -0.114834696 0.092075855 -0.080634356 0.04665024 -0.11350555 -0.063566744 0.036991376 0.07411768 0.05246085 0.05704599 -0.02526017
해 -0.13830262 -0.1288426 0.13869475 0.08275073 0.083749495 -0.12701969 0.09795404 -0.10493887 0.14206389 -0.11399699 -0.12554722 0.10330215 0.12528116 0.09996921 0.13723104 -0.085280016
스토리 -0.022328435 -0.09171747 0.106379 0.09414256 0.05823397 -0.08992917 0.11125515 -0.040708784 0.06751925 -0.05271751 -0.06608569 0.059931517 0.01215869 0.05459482 0.095545 -0.07742127
습니다 0.09586016 0.0434392 -0.1062722 -0.08224543 -0.12586989 0.06820774 -0.07128531 0.119044475 -0.12338219 0.08541902 0.14417605 -0.112321794 -0.13736793 -0.11336125 -0.13769184 0.055428542
ㅋㅋㅋ 0.06638022 0.03749288 -0.08322792 -0.06951508 -0.06761501 0.010797533 -0.075417206 -0.013059421 -0.056191176 0.03078189 0.0056609903 -0.06026643 -0.010410057 0.0047865994 -0.025615044 0.026464242
... -0.059125833 0.00082625914 0.01866655 -0.024449956 0.026373927 0.01839496 -0.015442099 -0.019706871 0.05757111 -0.05983832 -0.037671015 0.04279792 0.0028671536 -0.024182092 0.05335309 -0.027471859
아니 0.01999901 -0.016300764 -0.05568629 -0.07588689 -0.058204632 0.038485408 -0.05906954 0.07126797 -0.05059447 -0.012709646 -0.0073470916 -0.036080576 -0.05224618 -0.015931537 -0.027888805 0.067518
생각 0.10829818 0.086038925 -0.14140226 -0.08261136 -0.11932594 0.16861123 -0.12477841 0.06607169 -0.18339595 0.105741896 0.11662735 -0.07641048 -0.1192368 -0.12669462 -0.11503289 0.09014336
더 0.08332733 0.07865495 -0.058752798 0.009815907 -0.068153806 0.040970273 -0.09105621 0.060348 -0.044517722 -0.0031960227 0.03445787 0.004762701 -0.056726396 -0.08236313 -0.06638003 0.08362986
그 -0.10579386 -0.11748494 0.10296465 0.085575886 0.06870527 -0.11502215 0.09670255 -0.104224175 0.11737806 -0.1062084 -0.086866386 0.12633644 0.055236924 0.09090405 0.06738926 -0.13351074
드라마 0.06148461 0.042385176 -0.10126612 -0.067330346 -0.062753715 0.10340062 -0.12468222 0.023657434 -0.045690197 0.10626764 0.109748095 -0.05531384 -0.0144137265 -0.094896436 -0.10803882 0.027916713
싶 0.034668215 0.019440204 0.00023942893 -0.030937871 -0.030033497 0.028496917 0.023351058 0.0032773302 0.03326664 -0.011685488 -0.015944812 -0.047381878 -0.0180089 -0.024593923 -0.03258552 0.027248215
사람 0.07964086 0.057563804 -0.027386375 -0.05295194 -0.04308941 0.0522446 -0.043806534 0.08674282 -0.03178846 0.0045734085 0.063475475 -0.023142878 -0.016473146 -0.008355409 -0.0575356 0.018638348
듯 -0.048328437 -0.040060744 0.03195407 0.06238674 -0.028228296 0.01736459 0.052542295 -0.054052293 0.008258329 0.00027346442 0.012902049 0.0077798753 -0.004774934 -0.007011203 0.054660775 0.009321521
때 0.002776039 -0.0074746115 0.03782155 0.052221123 0.005608485 0.0053458633 -0.02043859 -0.0036223652 0.016304195 -0.0005152557 0.020395465 0.028563956 0.015297965 0.07177536 -0.008512403 -0.061585773
감동 0.27809888 0.2897536 -0.4070826 -0.24233536 -0.22807601 0.33153725 -0.2836045 0.21991695 -0.2966533 0.23253652 0.37010023 -0.22511353 -0.21081892 -0.36434764 -0.2453029 0.26784754
배우 0.032736972 0.042943876 -0.059249293 0.017521165 -0.06088008 0.03870828 -0.019908411 0.044463087 -0.070907176 0.03017832 0.05924283 0.018770987 0.003919066 -0.02281387 -0.053191625 0.04676415
함 0.051052496 0.03541585 -0.090167 -0.06010262 -0.024434675 0.07208096 -0.043979857 -0.00027248228 -0.075539455 0.07211345 0.048996475 -0.0029279469 -0.055483755 -0.012358871 -0.0495195 0.06529326
까지 0.051896106 0.0324412 -0.047163997 -0.03443532 0.0073314933 0.06761532 -0.018877557 0.01619493 -0.087575436 0.06543068 0.08278947 -0.040299222 -0.0710953 -0.04305849 -0.040128242 0.07490583
본 -0.2348644 -0.16471931 0.26381058 0.19085966 0.19168252 -0.16061962 0.2402643 -0.14643013 0.18099587 -0.1711984 -0.23069113 0.12652847 0.16106439 0.19175836 0.19955768 -0.17293808
볼 0.0628417 0.05037633 -0.011745791 -0.074098915 -0.07663981 -0.0024269812 -0.0527809 0.03809034 -0.057227287 0.07061852 0.07136774 -0.004620589 -0.027236372 0.0018475257 -0.0020742605 -0.0021565324
내용 -0.07708269 -0.08090572 0.08125495 0.0850548 0.055527933 -0.08635478 0.07852012 -0.06634862 0.061249763 -0.063800156 -0.07037459 0.04394212 0.098187685 0.060386725 0.058098815 -0.060848735
보다 0.07142316 0.08001291 -0.17896266 -0.09020705 -0.09558873 0.06725855 -0.16560176 0.15379164 -0.16128936 0.14396718 0.11739425 -0.10610895 -0.09096164 -0.11124283 -0.057578422 0.14572704
만들 0.030845912 0.037348006 0.03007663 -0.0010382419 0.010956033 -0.042377237 -0.019244917 -0.04026047 0.03475563 -0.021235982 -0.03914789 -0.006037978 0.05422633 0.046009433 -0.029807614 0.007607242
뭐 0.038290214 0.019639963 -0.08691003 -0.027787594 -0.030552778 0.07317562 -0.026362188 0.07738216 -0.08151742 0.028658768 0.012332459 -0.0087178685 -0.06496448 -0.06629018 -0.06347987 0.035716027
알 -0.16153525 -0.1957689 0.17500168 0.21468543 0.1605875 -0.14431132 0.17165735 -0.19777992 0.22883587 -0.20643151 -0.2263213 0.14450827 0.15554248 0.17880635 0.1814065 -0.13097091
감독 0.101751216 0.07143308 -0.14024453 -0.027202712 -0.050999504 0.1293785 -0.11525633 0.072916605 -0.11273447 0.08927384 0.06524645 -0.023461979 -0.08867785 -0.08458014 -0.07938487 0.04214054
라 -0.092379645 -0.07092603 0.074512504 0.08310845 0.07680077 -0.08202543 0.08731679 -0.007837564 0.02196145 -0.022529293 -0.028761419 0.03807245 0.047519557 0.057305157 0.021106198 -0.05036996
그냥 0.079495355 0.0999612 -0.12559082 -0.13218527 -0.08974485 0.08309019 -0.07584709 0.13404423 -0.11180946 0.06512555 0.1050291 -0.1153394 -0.13830222 -0.110106714 -0.12878926 0.10029154
재미 0.1266537 0.10690211 -0.16441011 -0.11164174 -0.19070962 0.19251719 -0.22775085 0.16459458 -0.13053149 0.17253593 0.15359241 -0.11705799 -0.11896259 -0.13064432 -0.1902686 0.101780616
중 -0.0037381998 0.020613808 0.054685894 0.03920566 -0.005014321 0.023248434 -0.021266837 -0.009450675 0.036661934 0.025388643 -0.017880209 0.009333347 0.041750357 0.0645089 -0.027843082 0.0057208966
시간 0.20204562 0.11111191 -0.23226306 -0.1531774 -0.1472861 0.18851674 -0.12784447 0.13215868 -0.13711941 0.14387438 0.1616548 -0.11657724 -0.14271651 -0.1358792 -0.14387538 0.101286784
지루 -0.18856248 -0.21247327 0.24798559 0.14882717 0.17689888 -0.2152714 0.25001672 -0.17583118 0.16777587 -0.12975313 -0.24085765 0.12763876 0.1590403 0.1772478 0.17693068 -0.22273973
재미있 0.061796244 0.08679607 -0.13483673 -0.08804934 -0.06089685 0.12390441 -0.093587175 0.11493667 -0.14154164 0.09335009 0.058716893 -0.13746215 -0.056438424 -0.107952826 -0.14294969 0.07133945
년 0.014576304 -0.020234652 -0.035591826 -0.0006490223 -0.054169256 0.06487426 -0.033109833 -0.026650649 0.023192331 0.012097792 0.03102781 -0.019496791 -0.049485717 -0.0380432 -0.03912482 0.04280063
였 0.036524918 -0.04067998 -0.027392996 0.041861746 0.02103648 -0.049875665 0.011802603 0.025471475 0.036850575 -0.04102998 -0.033798315 -0.04840509 -0.032514118 -0.047846746 0.02548274 -0.04473671
10 0.075000376 0.079628564 -0.13143536 -0.03846446 -0.11217005 0.09290947 -0.14282796 0.08694171 -0.07270667 0.09248833 0.12326434 -0.09692809 -0.08872149 -0.130275 -0.07480758 0.113482945
잼 0.014706549 0.07495349 -0.08732821 -0.06325146 -0.032388978 0.07464006 -0.0064057526 0.0020405485 -0.00420441 0.062025756 0.06714973 -0.03226803 -0.006936586 -0.042577364 0.0010096 0.00025435069
사랑 0.11431527 0.102130026 -0.18006419 -0.17449284 -0.09240984 0.12025105 -0.1735474 0.11988671 -0.12740512 0.07417383 0.15383768 -0.09954528 -0.094643004 -0.15813693 -0.11226568 0.16421139
냐 0.10380441 0.09235677 -0.11966408 -0.12475249 -0.13933767 0.08834815 -0.10899244 0.04375881 -0.13465586 0.0591529 0.14210546 -0.07841408 -0.13741505 -0.07755842 -0.08783159 0.10040473
못 0.33821964 0.256127 -0.36446193 -0.28515127 -0.34572032 0.33721077 -0.32400057 0.2742209 -0.32759765 0.291915 0.36036125 -0.25796232 -0.2840602 -0.36685908 -0.2768263 0.31783372
재미없 0.018049467 -0.028777853 0.014062943 0.017708877 -0.02482121 -0.042460565 0.0010760779 0.03976245 -0.015457728 -0.03043927 -0.02526751 0.012149982 -0.026749896 0.008724219 0.04733953 -0.034406573
서 0.08558509 0.1267064 -0.1301262 -0.121523425 -0.07644907 0.043561075 -0.062948026 0.11460952 -0.056324787 0.123121224 0.07047467 -0.06938904 -0.1358486 -0.08050896 -0.0377756 0.13175775
쓰레기 -0.23612015 -0.19436698 0.2771105 0.22897503 0.16852954 -0.21994525 0.31251612 -0.27001834 0.27848953 -0.16191417 -0.25481832 0.18263374 0.2517878 0.25021327 0.24993037 -0.16411999
2 -0.03713351 -0.015824554 0.05829151 0.02431064 -0.00044781074 -0.0036972954 0.01569701 0.0017459395 0.06960409 -0.01403806 -0.026302366 0.049065273 -0.006854761 -0.0014433849 0.057717893 -0.06521028
라고 0.09859558 0.1119996 -0.13854884 -0.17277732 -0.14798148 0.115480624 -0.15126564 0.14648035 -0.110758774 0.1596996 0.1304396 -0.15069646 -0.15151915 -0.17297065 -0.15045911 0.17393145
번 -0.046153244 -0.10864846 0.02854966 0.042702455 0.077390775 -0.09850505 0.031992055 -0.032450326 0.09426009 -0.010989565 -0.059207063 0.07147876 0.041296143 0.059251107 0.045414288 -0.013618456
야 -0.029519027 0.016896276 0.057331163 0.07714115 0.007731563 -0.02847373 -0.003334547 -0.06113827 0.050268013 -0.080237426 -0.0015424112 0.0771711 0.03923717 -0.0018420406 -0.011430152 0.013218079
면서 0.020282578 0.04632913 -0.03225018 -0.01674316 0.008289028 -0.043381 -0.01887771 -0.048187327 -0.031982947 0.010918297 -0.008024801 0.027426962 0.00855099 -0.03753991 0.01352546 -0.027844477
다시 -0.1086202 -0.1385327 0.21964025 0.13801146 0.17326085 -0.120681845 0.15577242 -0.17536344 0.13045354 -0.13728891 -0.17233843 0.1762524 0.16236211 0.18949062 0.15817992 -0.1750015
니 0.0643266 0.08940187 -0.103212155 -0.06722626 -0.08357867 0.08655765 -0.10070983 0.035970878 -0.06445347 0.045472324 0.06668893 -0.053004265 -0.057897467 -0.0824972 -0.021442562 0.037433513
나오 -0.0009386912 -0.030155469 0.01540691 -0.009537984 -0.0045395717 -0.043815266 -0.04648571 -0.0018819943 0.03767768 -0.023620714 -0.041900706 -0.018575918 0.03158844 -0.040772688 0.011917222 -0.031438194
작품 0.1039916 0.035763558 -0.054040913 -0.059380732 -0.044589978 0.0898497 -0.08653296 0.084846504 -0.052695636 0.029858088 0.11008916 -0.080887705 -0.08926959 -0.030538589 -0.013098593 0.07031902
이거 -0.050327413 -0.03339818 0.07881554 0.023944264 0.027730225 -0.0006406427 0.009266969 -0.011365623 0.06977331 -0.014782182 -0.060261253 0.047467634 -0.004120963 0.0008635473 0.079348706 -0.0155175775
하나 0.0069438866 0.015974358 -0.041048978 -0.0010690066 0.0107766315 0.002582612 -0.074914 0.040705845 -0.0018149597 0.006478103 0.057662208 -0.06465466 -0.020330975 -0.05678032 -0.05960705 -0.003157207
해서 0.075318374 0.03892467 -0.05336618 -0.09309028 -0.0666701 0.097091585 -0.08697732 0.10069425 -0.07169885 0.08623519 0.071667716 -0.05663407 -0.097102605 -0.035410073 -0.028396444 0.07748662
줄 0.09219834 0.08142504 -0.105613835 -0.07207409 -0.10017437 0.07391594 -0.1308463 0.114552505 -0.11125591 0.10101291 0.072498195 -0.11720532 -0.059942126 -0.052463017 -0.059106868 0.05961273
개 0.06710159 0.04343243 -0.08259868 -0.04903135 -0.07711546 0.08691359 -0.08640889 0.025254017 -0.06276875 0.080732584 0.0973852 -0.083023906 -0.05315395 -0.11334388 -0.061534766 0.10159282
끝 -0.16673596 -0.10119658 0.11734469 0.08415994 0.12383091 -0.11012715 0.1259266 -0.15839274 0.11099047 -0.06772386 -0.17042881 0.06361577 0.07347014 0.18447971 0.14674048 -0.084613316
남 -0.083510906 -0.046908457 0.10735669 0.07110719 0.06768648 -0.081898674 0.036577348 -0.01710464 0.026191613 -0.09458567 -0.0389192 0.095699504 0.0016965558 0.08772974 0.06745967 -0.0889769
정도 -0.014751543 -0.0021482264 0.10966038 0.06768445 0.07764368 -0.023990244 0.049422316 -0.08638322 0.029744636 0.00034162044 -0.078611 -0.0020321964 0.050800387 0.08518951 0.07738153 -0.06810934
마지막 -0.20876093 -0.1229725 0.26094356 0.1453645 0.16346923 -0.1918969 0.21387282 -0.22014378 0.24773619 -0.15007092 -0.21904677 0.13637234 0.16553874 0.18317074 0.21106623 -0.2114993
이건 0.10128832 0.155518 -0.18145311 -0.12647103 -0.0948386 0.10800307 -0.13048458 0.14629528 -0.0927748 0.073090196 0.12826619 -0.08451279 -0.10027145 -0.0847939 -0.100417964 0.086423084
임 -0.17069145 -0.19871922 0.19306381 0.19293645 0.13685314 -0.19509095 0.20244831 -0.14247662 0.17403531 -0.16425908 -0.20031443 0.17147802 0.15501428 0.23650534 0.20183834 -0.13692683
액션 0.06647485 -0.019105647 -0.048807018 0.022429202 0.027492996 0.010889372 -0.06967741 0.04347839 -0.06095483 0.031976886 -0.011380089 0.008006587 0.028257277 -0.044434585 -0.0295945 -0.025826467
기대 0.09610191 0.08993994 -0.09222637 -0.047922876 -0.05150056 0.046673253 -0.050615136 0.09524435 -0.021509133 0.0442979 0.038868167 -0.035123415 -0.053378 -0.016747702 -0.10117421 0.00971959
분 0.21214053 0.12552944 -0.20524307 -0.21066491 -0.13535264 0.15158604 -0.21385047 0.21325292 -0.20025273 0.16957822 0.21789166 -0.130581 -0.17550683 -0.18368141 -0.1829626 0.18219973
라는 -0.0094194515 -0.00349073 -0.009596551 0.0005204984 0.020550188 -0.001527285 0.0587152 0.023662807 0.03500988 -0.047954403 0.0015277299 0.055902015 -0.036716543 -0.0054170205 -0.018769838 0.013257253
ㅋ 0.09092304 0.078554444 -0.09176283 -0.07314143 -0.061463412 0.11282014 -0.066414036 0.080847256 -0.10745017 0.010153382 0.12266419 -0.07380247 -0.100011915 -0.080647826 -0.018179197 0.10791012
3 0.15332967 0.073012576 -0.16310087 -0.09638404 -0.105313174 0.09311833 -0.15098214 0.08012805 -0.17731307 0.11407851 0.14888586 -0.15792584 -0.10177848 -0.16350083 -0.16734716 0.17153578
다는 -0.08016619 -0.1572264 0.17284487 0.09177054 0.10775208 -0.087007694 0.09178287 -0.16217448 0.078308694 -0.12888566 -0.1534138 0.08263086 0.06442282 0.12061794 0.12196682 -0.15709235
입니다 0.13125347 0.13558444 -0.14528681 -0.087190196 -0.15251422 0.10282349 -0.17981397 0.14796902 -0.17978422 0.11967323 0.17856243 -0.116696216 -0.15253511 -0.15950751 -0.088139504 0.13448901
건 0.22239068 0.20720312 -0.21396862 -0.22200547 -0.23340909 0.21410878 -0.21684693 0.15745984 -0.21626425 0.16768895 0.25127548 -0.15642679 -0.23187092 -0.27306998 -0.22109626 0.20301422
완전 -0.09466002 -0.02557099 0.11284867 0.10978557 0.09388159 -0.04385017 0.033920713 -0.059075437 0.06204703 -0.08381899 -0.09792159 0.0359039 0.05483778 0.12459399 0.03368961 -0.06560441
많 -0.01878481 0.017642204 0.038354684 -0.030982113 -0.001875855 0.035152685 -0.03205061 -0.0024305098 0.038962785 -0.024919212 0.017122183 -0.024291312 -0.016776789 0.0485763 0.022934329 0.037937704
참 -0.08724052 -0.068761095 0.19068873 0.13627711 0.12456963 -0.10030227 0.105874255 -0.109666005 0.16945107 -0.123658314 -0.138401 0.08461794 0.090878 0.1429716 0.09513878 -0.068582654
처음 -0.048492856 -0.012904633 0.07774224 0.06731711 0.005648644 -0.025505751 0.069231026 -0.027677102 0.012311571 -0.08953899 -0.073053434 0.09385441 0.016162876 0.05574353 0.041318215 -0.037771713
장면 0.05775667 0.057395414 -0.10186821 -0.076316394 -0.09940851 0.07797652 -0.04210294 0.085990146 -0.054190017 0.08776973 0.030527368 -0.0952574 -0.076069474 -0.11746531 -0.07431016 0.09867912
대 -0.09161833 -0.08038862 0.09549182 0.115699016 0.113397025 -0.07422675 0.066416346 -0.123799436 0.05868524 -0.11641996 -0.13159716 0.080672026 0.071564354 0.08103824 0.09978252 -0.05004148
으면 -0.017132998 -0.031351343 -0.019805312 0.009591602 -0.04829519 0.014506649 0.0058884136 -0.0011649951 -0.026424563 0.0050015673 -0.019050742 -0.0028186068 -0.043520596 -0.04043919 0.01684073 -0.043760207
다가 0.07219082 0.13111545 -0.099497624 -0.10825695 -0.11152445 0.08946815 -0.13208768 0.13991041 -0.063414216 0.04350882 0.074144386 -0.10442614 -0.06996382 -0.13519134 -0.10084747 0.0865525
아깝 -0.23430856 -0.24877687 0.26410514 0.20493911 0.1894822 -0.2575281 0.23293968 -0.20046598 0.24723066 -0.23202519 -0.23423305 0.17704038 0.18303059 0.23545861 0.19911325 -0.19488868
지금 -0.04337291 -0.032132126 0.050808717 0.056131404 0.08528802 -0.08028471 0.08114617 -0.097745776 0.07457499 -0.099573374 -0.032533858 0.07185833 0.05267249 0.015686806 0.08338379 -0.08514543
이렇게 0.14696917 0.094898224 -0.1715406 -0.102776036 -0.16604678 0.17652798 -0.14405581 0.19763334 -0.13464022 0.119932584 0.19132778 -0.15355197 -0.16986892 -0.20782919 -0.10753065 0.17853782
모르 -0.015675377 0.03530499 0.0063503385 -0.0023921132 0.017327402 -0.021513939 -0.049484085 0.04462466 0.005953014 -0.034619223 0.04557245 -0.024465157 0.022694182 0.047966246 0.025196578 -0.049473263
편 -0.009991969 0.005778196 0.081611685 0.08069758 0.07106854 -0.032981858 0.07222121 -0.012385968 0.06881388 -0.013341047 0.0029983586 -0.0015690988 0.01825595 0.026002157 0.038153857 -0.009953429
' -0.1295418 -0.16683468 0.104765296 0.07778384 0.07390415 -0.16548696 0.13061142 -0.10981568 0.14579476 -0.15501428 -0.12622859 0.06949053 0.12829882 0.17117281 0.09520598 -0.07459913
이게 0.13748711 0.054935984 -0.14984024 -0.06783566 -0.052512277 0.11734307 -0.12189102 0.05978078 -0.12051502 0.06444059 0.08194086 -0.07220919 -0.124337025 -0.0732449 -0.112496875 0.063924894
일 0.19235952 0.13987423 -0.16738224 -0.11152853 -0.13765976 0.18967348 -0.15972275 0.12841311 -0.1610681 0.14549197 0.14838962 -0.14758927 -0.13752963 -0.16899322 -0.13624409 0.08836317
돈 0.21534303 0.10346878 -0.2561127 -0.19376226 -0.11166156 0.16784313 -0.153062 0.17761444 -0.1938893 0.1077814 0.22893144 -0.13105465 -0.15585433 -0.1557525 -0.14993149 0.11668098
성 0.13173887 0.111046694 -0.04778941 -0.04453805 -0.060528282 0.09593336 -0.11229101 0.079747684 -0.06863324 0.12509948 0.12524147 -0.05973156 -0.12093233 -0.051056392 -0.056895074 0.09401493
시 0.07102892 0.10408844 -0.07364625 -0.07135696 -0.061504 0.09514103 -0.09969546 0.08788627 -0.06673421 0.033253014 0.07539664 -0.04253444 -0.055875678 -0.060316276 -0.117102064 0.03192154
이야기 0.05345536 0.10352657 -0.09302705 -0.07950594 -0.10290927 0.055941075 -0.1221976 0.06344026 -0.044855036 0.10196816 0.09076618 -0.09675347 -0.0902005 -0.10104801 -0.01690351 0.07278294
느낌 -0.030039892 -0.0089090355 0.0011120948 -0.022885673 -0.023155376 -0.00215657 0.023106849 0.01921847 -0.030587476 0.03197064 -0.01736272 0.059087716 0.040391915 0.004518509 0.050200604 0.004519087
최악 -0.33698216 -0.23281081 0.38848323 0.2054481 0.26662117 -0.25833565 0.316251 -0.26843244 0.30833465 -0.23565654 -0.35931566 0.22208765 0.24576162 0.35510612 0.23542121 -0.2556376
된 -0.18652283 -0.17769869 0.23113157 0.18343018 0.18724726 -0.16597916 0.21620926 -0.19076374 0.21334279 -0.13193993 -0.27156934 0.17110555 0.23484968 0.2643871 0.21912906 -0.1498735
님 0.20389937 0.19128133 -0.13262287 -0.12148735 -0.15369982 0.16566157 -0.21483581 0.17352818 -0.17034031 0.14167207 0.19726746 -0.12318974 -0.11060467 -0.1773998 -0.17784001 0.096476704
봐도 -0.35906148 -0.27263236 0.3178762 0.26968947 0.20638177 -0.3012308 0.3532288 -0.29714048 0.35934073 -0.20111935 -0.34106615 0.23226683 0.27286106 0.3182561 0.29532915 -0.2996222
어서 -0.1530949 -0.10720183 0.19270019 0.1530809 0.1688487 -0.19440909 0.20381024 -0.15198845 0.18777257 -0.12246794 -0.18340494 0.1651997 0.20115633 0.14017713 0.13622425 -0.13860677
애 0.08504672 0.08761084 -0.1583761 -0.14317015 -0.16061209 0.10399645 -0.12859198 0.1713954 -0.15421398 0.11846565 0.15002665 -0.12609 -0.16925596 -0.12395076 -0.14830212 0.07301441
ㅠㅠ 0.04816993 0.1196321 -0.11143414 -0.0832172 -0.07128458 0.13227524 -0.110387444 0.11851523 -0.11831093 0.10038731 0.12714088 -0.10432963 -0.052831985 -0.05713182 -0.054743346 0.0555159
전 -0.12450655 -0.05994269 0.11502818 0.039151974 0.1106285 -0.12521075 0.11656851 -0.039134167 0.077361725 -0.05468672 -0.13111304 0.049240984 0.09478372 0.047360852 0.035636824 -0.11163134
다고 -0.015816487 -0.006454982 0.022473883 0.03690293 0.002082087 -0.021685649 -0.008530833 -0.004748903 -0.015090823 0.004211627 0.020251278 0.03192166 -0.017083 -0.015712775 -0.004524149 -0.030594945
이해 0.3388166 0.22485891 -0.32796812 -0.2737307 -0.2381953 0.25248972 -0.35235387 0.29267812 -0.26614338 0.2588232 0.29542655 -0.25944427 -0.21432462 -0.26154754 -0.29945037 0.30041963
넘 -0.46125898 -0.29941073 0.44791195 0.3709028 0.29945534 -0.3740896 0.48843682 -0.36224726 0.444106 -0.2818229 -0.39621553 0.27975076 0.33450663 0.4554111 0.29960606 -0.37653396
인데 0.21503511 0.220333 -0.22526583 -0.22639105 -0.14229743 0.17799313 -0.2565888 0.20867562 -0.18909027 0.17080171 0.19587125 -0.14134584 -0.21972308 -0.23723431 -0.24449171 0.14193273
별로 -0.30155143 -0.18891205 0.3064729 0.25935078 0.20232995 -0.29921675 0.27726227 -0.28585732 0.30588186 -0.19363439 -0.3230959 0.2418422 0.19698551 0.32789248 0.22729744 -0.22473292
여자 0.04698733 0.011158039 -0.017001946 0.033558507 0.01612677 -0.0068085077 0.036354866 0.015780423 -0.001183785 0.014359353 -0.010519587 -0.0014614566 -0.058729548 -0.029031456 -0.0069552423 -0.03644595
이상 0.019422326 0.04453307 -0.022709036 -0.031903412 -0.030457383 -0.010557518 -0.009825342 0.033156414 -0.052914377 -0.008834613 0.02551109 -0.024706827 -0.023112535 -0.028476583 -0.020533007 0.012564148
명작 0.3235665 0.25039265 -0.40982345 -0.32542616 -0.2920983 0.34229484 -0.3421171 0.25972077 -0.38452294 0.22035927 0.3887202 -0.25929886 -0.28883556 -0.4138542 -0.25549906 0.27077496
^^ 0.19307049 0.18712072 -0.3230992 -0.14748213 -0.21541627 0.17148328 -0.24213767 0.19358344 -0.23365973 0.17925996 0.2393739 -0.16928834 -0.19262336 -0.25904077 -0.152479 0.18856128
역시 -0.12232541 -0.17192087 0.2298782 0.18022923 0.10637366 -0.18552417 0.16373129 -0.14924851 0.13246602 -0.09064893 -0.13606566 0.1089771 0.10310214 0.19289657 0.12746267 -0.1474144
난 -0.18919317 -0.16343962 0.113137834 0.09242895 0.11261344 -0.14123593 0.1145619 -0.11762294 0.14530958 -0.15073213 -0.18867962 0.13996573 0.13406605 0.14745568 0.12793142 -0.101496145
한국 -0.17926484 -0.15156591 0.1973754 0.117093675 0.17564513 -0.10499623 0.15024796 -0.09250327 0.178011 -0.10591171 -0.18172862 0.15814549 0.16488104 0.11589125 0.17797375 -0.103963725
그리고 -0.24377334 -0.26408088 0.28616306 0.26074892 0.25831604 -0.26883838 0.25361198 -0.21920411 0.28198984 -0.24443102 -0.2987453 0.20444907 0.21219741 0.325108 0.2482497 -0.26271042
또 -0.11107798 -0.1641666 0.13117543 0.14233446 0.15378968 -0.16724348 0.13908629 -0.16721138 0.09870257 -0.1325642 -0.11204917 0.07863825 0.08127023 0.13189566 0.103374906 -0.06946279
에게 0.10543842 0.13221838 -0.10939378 -0.16095264 -0.19056726 0.105628975 -0.184975 0.14126366 -0.18235737 0.11650432 0.15121907 -0.18810536 -0.168563 -0.137111 -0.11584611 0.11372616
만든 0.10883958 0.07678603 -0.11258163 -0.04344624 -0.1158331 0.09780859 -0.113096856 0.11639735 -0.106058806 0.07833305 0.041373737 -0.057818744 -0.08280733 -0.062079947 -0.062561095 0.03813226
많이 0.0932309 0.09248199 -0.12525654 -0.09603811 -0.052777518 0.050752085 -0.0582372 0.09181571 -0.10046742 -0.00055249303 0.056906987 -0.031308137 -0.08471686 -0.038307413 -0.028014375 0.04950125
부터 0.20213771 0.1775837 -0.1881872 -0.22877201 -0.18740901 0.20661983 -0.24589147 0.18341143 -0.18683845 0.18153827 0.22916749 -0.19254944 -0.2118572 -0.21203628 -0.14251511 0.21415484
걸 -0.0077803526 0.0010505246 0.074456915 0.05237622 0.04281805 -0.06751953 0.062225875 -0.09668828 0.050267015 -0.073176496 -0.008369098 0.04686898 0.09248945 0.09714546 0.0014917053 -0.020361586
는지 -0.010991275 0.014081035 -0.0029071681 -0.012629092 0.04587395 -0.037129603 0.0056514964 -0.046225894 -0.014502298 0.01676936 -0.048385322 4.2557716e-05 -0.044775736 -0.03425579 -0.02808912 -0.033511676
주인공 0.102896385 0.101634964 -0.118926294 -0.09365289 -0.13950346 0.13107467 -0.15823026 0.13566461 -0.11620606 0.11077162 0.12761663 -0.13220133 -0.060293287 -0.11790264 -0.15489104 0.083505176
두 -0.103084415 -0.07717637 0.014702972 0.09793181 0.04061682 -0.019884005 0.038997866 -0.07199995 0.0984079 -0.0684732 -0.06202483 0.04458871 0.08654684 0.013480313 0.07763122 -0.10187093
우리 -0.018092223 -0.021654816 -0.048425745 -0.008471089 0.027948948 0.03316796 -0.0021949322 0.013462616 0.0030841236 0.0077144983 0.041264195 0.008745331 0.017519977 -0.021711815 -0.020168884 0.040142488
합니다 0.03638494 0.07908948 -0.043559834 -0.023718007 -0.060769133 0.03063403 -0.06680724 0.04931093 -0.0659316 0.042128142 0.0360404 -0.045331404 -0.087653965 -0.036133613 -0.09099801 0.03948221
받 -0.04646646 0.04598664 0.021188114 0.001835037 -0.032103706 -0.008181058 0.029899027 0.006469656 0.04709882 0.006285943 -0.04176102 0.005924415 0.0103888735 0.005947016 -0.030373884 -0.0019986145
살 0.015176254 0.049561914 0.017969415 -0.04850628 0.042031914 -0.038920566 0.04419363 -0.028717475 -0.036607333 0.03325748 -0.028297018 0.022203455 -0.018466854 0.018661834 -0.02709181 -0.03383952
괜찮 0.07244761 0.092261225 -0.060974084 -0.068605155 -0.066694215 0.10423359 -0.11837867 0.098664306 -0.066122375 0.101506725 0.13151395 -0.07283649 -0.09309411 -0.10490036 -0.044670787 0.030858623
!! 0.13252267 0.15880156 -0.20880194 -0.08075581 -0.17069237 0.12088049 -0.115037054 0.1507471 -0.13444735 0.15997317 0.13665359 -0.11965133 -0.16051398 -0.11566593 -0.17339203 0.119734146
연출 -0.09790509 -0.062494334 0.04206301 0.033244677 0.071728595 -0.060536154 0.09094828 -0.029781139 0.074644536 -0.069863535 -0.08878952 0.05295066 0.058000255 0.09342679 0.07689509 -0.08712876
길 0.021592656 0.090167806 -0.08530462 -0.065521896 -0.037342347 0.020344714 -0.05385686 0.016431797 -0.11333905 0.035549 0.05432499 -0.02588924 -0.09940751 -0.0710794 -0.1001361 0.043318767
엔 -0.089519165 -0.12596422 0.0637222 0.14814991 0.09184857 -0.0826722 0.09701578 -0.07002425 0.14202134 -0.09105959 -0.0693998 0.10245281 0.11753514 0.14240494 0.071087934 -0.124073364
때문 0.18319848 0.11922879 -0.122763924 -0.16320223 -0.104566015 0.10916248 -0.17699593 0.15429938 -0.12543662 0.10282333 0.1348092 -0.105889305 -0.17275515 -0.1618917 -0.095247075 0.15488398
기억 0.23013301 0.198439 -0.19600679 -0.17469636 -0.11941835 0.22288404 -0.21914339 0.12840357 -0.18901518 0.18274872 0.21537553 -0.107337676 -0.16366531 -0.21468914 -0.14990227 0.19382402
한다 0.0012442551 0.051843233 -0.05270327 -0.08159552 -0.049916904 0.07000919 -0.06823244 0.06457001 -0.061524082 0.018524969 0.048859227 -0.09300837 -0.044615816 -0.09309511 -0.020759305 0.012502543
ㅎㅎ 0.20520024 0.13841161 -0.24501468 -0.16823378 -0.14520566 0.18484889 -0.17440766 0.18227628 -0.19390778 0.13072543 0.19049202 -0.13876945 -0.099171355 -0.2100158 -0.15294623 0.12544082
저 0.06642689 0.07041029 -0.008137758 0.0032621683 -0.041758917 -0.009595945 -0.07926974 -0.007957892 -0.07196801 0.05699557 0.031128732 -0.07707752 0.008391002 -0.061823424 -0.0023147846 0.07584574
이나 -0.09893695 -0.1622878 0.106026456 0.15616022 0.07982338 -0.118035935 0.108625785 -0.1532833 0.095080666 -0.15565233 -0.12804092 0.108509354 0.13488986 0.14964887 0.14935476 -0.073933475
요 -0.1475658 -0.0994555 0.115832195 0.18745211 0.17318825 -0.15500507 0.16476376 -0.1562323 0.15540272 -0.12381522 -0.14873466 0.11115725 0.127678 0.13110735 0.112218864 -0.14931554
꼭 -0.27603078 -0.2056019 0.32976037 0.28345296 0.21098745 -0.25838834 0.29115424 -0.23489615 0.3063349 -0.27659 -0.35860276 0.26327938 0.27084765 0.33297527 0.29875422 -0.21039931
재 -0.056574993 -0.10399126 0.09697674 0.027525717 0.06313423 -0.116942294 0.08975041 -0.03631975 0.03775636 -0.0835393 -0.11624348 0.01938808 0.017049903 0.082764834 0.04104081 -0.09017232
현실 0.13022147 0.15716435 -0.22829701 -0.12187928 -0.1633361 0.15385304 -0.18217652 0.10846866 -0.16023128 0.13301593 0.23160832 -0.11596514 -0.12530108 -0.22380552 -0.18211325 0.10069375
ㅡㅡ -0.18692707 -0.13411422 0.26851782 0.10855572 0.1749923 -0.13337712 0.20713869 -0.17461605 0.15060389 -0.105051085 -0.14708333 0.15626657 0.09740174 0.21228217 0.121110484 -0.1312075
긴 0.038676646 0.04035529 -0.045874726 -0.011267747 0.011988439 0.03492708 -0.037037797 -0.009211621 -0.011561149 -0.030298024 0.024509871 0.04996902 -0.03934728 0.045102876 0.0019134957 0.025804598
랑 0.15696822 0.07797456 -0.10853564 -0.101152144 -0.08926057 0.118846074 -0.13904667 0.0828577 -0.06702311 0.10777868 0.14998564 -0.11302273 -0.15167269 -0.09282449 -0.10425241 0.08254589
며 0.024504054 0.03197403 0.018892754 -0.043498732 -0.010137416 -0.024869656 0.007460177 -0.015710294 0.005764246 0.010976721 0.018905584 -0.03861157 -0.008414723 0.01917598 0.027818177 -0.03041085
무슨 0.13781087 0.14683 -0.18058594 -0.06940436 -0.14163728 0.1421356 -0.17336828 0.09911447 -0.12268601 0.05950372 0.17831078 -0.09150534 -0.097941995 -0.121295325 -0.1507965 0.08961967
죽 -0.09110612 -0.07724201 0.14148027 0.13923553 0.116964675 -0.11820829 0.14990436 -0.09527562 0.16566728 -0.13972476 -0.14954163 0.114475064 0.13327245 0.10715363 0.08099845 -0.16474512
내내 0.13621697 0.094310276 -0.1154601 -0.07883124 -0.1372869 0.061134804 -0.15130746 0.11761443 -0.09181391 0.1271778 0.06772887 -0.109426685 -0.1381726 -0.12699325 -0.1235467 0.1260265
남자 0.02953917 -0.01157934 0.036037892 -0.03884407 0.023752607 -0.055524766 0.056175496 -0.039445594 0.00019228543 -0.055719543 -0.056229733 0.010964891 -0.005141979 -0.010036065 0.012384928 -0.014356679
마음 -0.044950772 -0.0638222 0.104521975 0.024921382 0.03355872 -0.046437003 0.09423419 -0.032935247 0.015922697 0.0056259492 -0.030758731 -0.0048000356 0.07150055 0.06298098 0.02566427 -0.08372002
세요 -0.048591506 -0.033871308 -0.011752404 -0.002245985 0.00710107 -0.02921418 -0.0052188523 0.013267886 -0.0142705925 0.030298699 0.010041643 -0.044419765 0.042930927 0.038153853 0.009460114 -0.04327562
결말 -0.061278738 0.011752151 -0.02162037 0.0039423425 0.039522026 -0.01215762 0.03274771 -0.061833244 -0.00867362 0.027063465 -0.050887283 0.051416546 0.008035286 0.03895902 0.06770298 0.015841646
공포 0.0010726108 -0.014583713 -0.032398127 -0.020601679 -0.053184144 0.005009092 -0.052374583 -0.00069362106 -0.06219593 0.035248086 0.011517079 -0.033859793 -0.0013248303 -0.068357676 0.0279034 0.04726112
속 -0.17113458 -0.098496385 0.18340603 0.16718687 0.11808234 -0.14608128 0.16350915 -0.18400244 0.13099037 -0.15526144 -0.16430478 0.16551755 0.09552732 0.17971613 0.16291897 -0.1535963
인생 0.23173283 0.15552849 -0.24207383 -0.17051204 -0.20376882 0.19546582 -0.22696316 0.1471083 -0.16939758 0.18591464 0.21627672 -0.2117735 -0.12568118 -0.22779976 -0.12891874 0.21324405
전개 -0.15669368 -0.07988557 0.16774711 0.1268772 0.095565274 -0.11339475 0.11420009 -0.1029053 0.1366803 -0.15352862 -0.095418066 0.11664576 0.061679766 0.16233434 0.06521781 -0.113644004
짜증 -0.25840434 -0.16545054 0.23767287 0.13998835 0.1737993 -0.16932142 0.2274096 -0.20662856 0.19259442 -0.15751557 -0.20611848 0.18283813 0.19813345 0.19338885 0.1684376 -0.20623548
소재 -0.073884234 -0.03360386 0.119357735 0.07503683 0.09301927 -0.073194824 0.07753911 -0.112830356 0.061588604 -0.060436074 -0.08731056 0.09463918 0.09659706 0.08388278 0.0819291 -0.07430449
아서 -0.04626515 -0.09625704 0.05695037 0.04431827 0.1126721 -0.105606176 0.088688396 -0.043466777 0.04623486 -0.12939958 -0.10577257 0.085155375 0.062864855 0.0243068 0.11764316 -0.11822566
씨 -0.14020935 -0.095329404 0.13420698 0.08413512 0.15156212 -0.1611222 0.12892506 -0.14034396 0.12527141 -0.09791392 -0.11203793 0.088423595 0.14480302 0.18661503 0.08880312 -0.12938184
다른 -0.008410858 0.03811015 -0.07222562 -0.014293385 0.007902227 0.02107956 -0.06717805 0.07809623 -0.06781907 0.033395912 0.059662994 -0.03889922 -0.0036066037 -0.085394785 -0.071749635 0.06042879
짱 0.27592865 0.21476719 -0.34035498 -0.25524083 -0.20734031 0.3089593 -0.35325542 0.2705202 -0.3046419 0.24946888 0.2678537 -0.20876136 -0.18991826 -0.30903083 -0.23444669 0.2781399
아요 0.0982651 0.11805983 -0.14220253 -0.052157808 -0.14015676 0.091088474 -0.09336548 0.07621161 -0.08341472 0.12380008 0.10081586 -0.079521276 -0.13572077 -0.052494787 -0.10045232 0.092168696
뿐 -0.02387713 -0.024892578 0.09920919 0.0017028472 0.0275312 -0.07082721 0.047280736 -0.08899221 0.049839262 -0.044842355 -0.09535729 0.020480385 0.008378959 0.09308009 0.09861258 -0.0811992
~~ 0.11892677 0.043744024 -0.16914363 -0.123660125 -0.106595404 0.06035233 -0.116062425 0.118073836 -0.080953546 0.10116357 0.14351597 -0.053589575 -0.06309328 -0.08562842 -0.10722612 0.048814643
필요 -0.08500282 -0.11908739 0.06513087 0.024170987 0.02649377 -0.054897323 0.054443125 -0.05865914 0.06526066 -0.043159015 -0.1093323 0.052113745 0.040425673 0.108315885 0.07087037 -0.06684406
별 0.055892594 0.028785111 0.015024457 -0.054377135 0.025726072 0.046418056 0.035144884 -0.033166826 -0.06280796 -0.027005708 -0.02978078 -0.042033117 0.03564847 -0.05848935 -0.026484936 -0.038313884
낮 0.045978304 0.006306868 -0.018557142 0.03212189 -0.024968447 0.032458927 -0.04088343 0.04634578 0.03783808 -0.022074549 -0.004683919 -0.017669253 0.023730218 0.02782749 -0.004287669 0.032515604
오 -0.009960811 -0.06878516 0.031170642 -0.0046715406 0.018588703 -0.032643683 0.05675278 -0.05226913 0.034749184 -0.012825939 -0.055021465 0.05103491 -0.010756906 0.013653945 -0.016751964 -0.0034792859
;; -0.03592724 -0.11449914 0.08871867 0.057118274 0.08661376 -0.11810959 0.13013123 -0.055260565 0.08486727 -0.039445527 -0.050149154 0.11335134 0.034186173 0.034347456 0.023253359 -0.07631529
은데 -0.028373552 0.027576063 0.028151993 0.013191413 -0.036184132 -0.04461782 -0.03535962 -0.0077034943 -0.026146425 0.023368921 -0.007948242 0.00017380714 -0.003781639 -0.031995345 -0.033470944 0.04189873
아이 0.029056014 0.018204926 -0.08844328 -0.022244623 -0.10828871 0.022276372 -0.046072677 0.0958442 -0.07219767 0.048502207 0.025814958 -0.057829086 -0.08004598 -0.014840371 -0.095447764 0.030751223
일본 -0.11398181 -0.09484216 0.06678511 0.069497764 0.043961283 -0.10735558 0.08831499 -0.06118475 0.05452311 -0.12674573 -0.12705559 0.11972407 0.036573425 0.057233226 0.05254932 -0.06435004
유치 -0.09373893 -0.06833126 0.15571743 0.10550679 0.0640611 -0.10792868 0.07284408 -0.12735696 0.08493984 -0.07784033 -0.09505548 0.0491418 0.12862413 0.16960579 0.09320025 -0.11216496
반전 0.052867178 0.0021202182 -0.0045292126 0.01349715 -0.008034078 0.018952906 -0.032209445 -0.010710409 0.014051329 0.052907426 0.059629716 0.011565956 -0.053523906 -0.039390642 0.030703504 0.017149342
수준 -0.13616595 -0.10259438 0.16839847 0.06691724 0.07438722 -0.13385229 0.08740632 -0.055370707 0.15622166 -0.051367715 -0.15988325 0.13276918 0.09244016 0.09735516 0.07259797 -0.05560134
음악 0.028904652 0.05980087 -0.069091454 -0.022580793 -0.01098258 0.016740054 -0.0018034712 0.037743434 -0.083160825 0.052219104 0.044223253 -0.074808426 -0.07193794 -0.002009851 -0.013717526 0.043325286
다니 -0.0422997 0.031793263 -0.023098195 0.0057940595 0.03368992 -0.0008555874 0.03914276 -0.032974124 0.0047692433 0.010403644 -0.039072 0.014834847 0.014377881 0.016313639 -0.019234693 -0.006155681
) 0.041752134 -0.0102475565 -0.07009825 -0.06979312 -0.051677592 0.061207734 0.010618791 0.06903856 0.005110676 0.062142663 0.07989637 -0.07422687 0.018437814 -0.013570779 -0.05841053 0.07160434
맞 0.084968284 0.11268631 -0.058050755 -0.12337645 -0.12270935 0.03928572 -0.058753047 0.055805907 -0.061538763 0.10064654 0.050088476 -0.08143669 -0.04558604 -0.05906623 -0.072668344 0.11633085
매력 0.21107416 0.18507187 -0.17246367 -0.15344189 -0.17916507 0.13329236 -0.2394536 0.16202968 -0.15884392 0.14591183 0.20620681 -0.14339603 -0.1588874 -0.15809387 -0.18503575 0.12595837
가장 -0.064467326 7.486774e-05 0.06815487 0.04956366 0.058073502 -0.051170483 0.039287888 -0.055637844 0.045767568 -0.042861618 -0.04622487 0.037425946 0.0463891 0.03109847 -0.005788796 -0.060108338
가슴 -0.048745647 0.00020185788 0.043351997 0.026406758 0.06242846 0.025543418 0.0131421 -0.030902341 0.040197685 -0.008145037 -0.06796781 0.008025639 0.03346116 -0.010300142 0.018214896 0.029004915
인간 0.073338285 0.052339487 -0.07983638 -0.06472312 -0.13930444 0.063408725 -0.13697435 0.079380974 -0.101916805 0.08837081 0.1040386 -0.04364192 -0.104940906 -0.1358474 -0.13051036 0.069985434
데 0.0653231 0.015414987 -0.011296294 -0.02465454 -0.09138345 0.04424181 -0.07668406 0.062857844 -0.0102215465 0.055255655 0.026903173 -0.076531306 -0.06439371 -0.07490346 -0.0599582 0.08361702
웃 0.053773332 0.08573244 -0.06511854 -0.06366688 -0.017696615 -0.011897833 -0.07086866 0.07299867 0.013956978 0.08905791 0.06875551 -0.083096676 -0.09880272 -0.04219719 -0.066885576 0.04552186
ㄷ 0.115695216 0.14724639 -0.14539026 -0.16739576 -0.07245993 0.16737555 -0.11097524 0.08570997 -0.1365381 0.09429148 0.17879128 -0.1451061 -0.10227961 -0.089928634 -0.11020585 0.14782958
높 -0.017761897 0.029788982 0.048559044 -0.015774835 0.035427485 0.045486424 -0.025590384 -0.017433442 0.03639627 0.031469848 0.007431008 -0.03867819 -0.01635126 -0.003858529 0.009730946 -0.02903892
굿 0.26341665 0.25492278 -0.31280124 -0.24429385 -0.18629274 0.257479 -0.29367796 0.20198494 -0.3273344 0.2135656 0.35031095 -0.26472902 -0.19138612 -0.29655063 -0.28212693 0.2132172
인지 -0.06745193 -0.1340391 0.10484776 0.09327765 0.11657821 -0.09014049 0.14642976 -0.09696622 0.09266916 -0.107246175 -0.08691148 0.14183797 0.10346855 0.09560127 0.12831263 -0.13225347
밋 0.0019248836 0.030914236 0.02901503 0.008964457 -0.009113837 -0.025862968 0.031351592 0.045487914 0.015465807 0.01645435 -0.0032125823 -0.011094164 0.046787236 0.011793125 -0.008247875 -0.016343333
없이 -0.15189825 -0.16295092 0.20404255 0.11371645 0.17240012 -0.1388664 0.11514399 -0.11281403 0.121067025 -0.16777943 -0.12692678 0.15695848 0.14017667 0.1890507 0.17154044 -0.10197526
ㅠ 0.106912315 0.046104718 -0.12100548 -0.11882352 -0.04270676 0.046184078 -0.07902129 0.048829693 -0.06699488 0.0651196 0.05328397 -0.0338026 -0.094572216 -0.115692206 -0.061248247 0.08548005
( -0.052549522 -0.041488953 0.12665327 0.06492213 0.07139536 -0.12487874 0.08020804 -0.13823216 0.1295229 -0.08785236 -0.13593483 0.03806028 0.054699596 0.13967684 0.097828455 -0.113431066
만드 0.028251398 0.007173337 -0.003689371 -0.04262295 -0.045592465 -0.023385717 -0.016120814 0.014866937 0.026654433 -0.026783599 -0.011389375 -0.017768692 -0.0009285435 -0.031824067 -0.035413325 0.027529899
원작 0.0839323 0.06892299 -0.13141432 -0.05966784 -0.05066382 0.11997875 -0.13296507 0.051735528 -0.050981395 0.087964825 0.07191604 -0.038913578 -0.05171084 -0.14011747 -0.110856324 0.057190947
눈물 -0.0735077 0.027387721 -0.0005994438 0.040403705 0.016238065 -0.005548624 -0.00026618727 -0.071086936 0.04548224 -0.013802867 0.00456373 0.048011117 0.02825236 0.011924011 -0.018409481 -0.048225973
준 -0.12336214 -0.11750723 0.1623433 0.09010488 0.14538784 -0.1301469 0.13629265 -0.15606739 0.17175165 -0.09135687 -0.19307365 0.15494154 0.17197847 0.15579128 0.13056888 -0.1334479
보여 0.09288125 0.020150963 -0.060995854 -0.04123397 -0.092940375 0.08308978 -0.044552606 0.04622911 -0.030981705 0.022277929 0.08340385 -0.05661263 -0.0053569465 -0.04310976 -0.0981683 0.015915193
노 -0.04854707 -0.002379648 -0.0014995327 0.0063199936 -0.03406503 -0.030306164 0.019409802 -0.054564074 0.017477557 -0.055340063 -0.032174345 0.050467804 -0.022396198 0.047353793 -0.017188571 0.002960981
급 -0.025274416 -0.04532894 0.046702016 0.017190121 -0.048330132 0.022671575 0.010617895 0.014743025 0.014631045 0.0043785227 0.02854612 -0.048028253 -0.022478612 0.030103825 0.035453457 0.03296082
용 0.1004893 0.054593563 -0.05453959 -0.06267887 -0.052713275 0.089164466 -0.03152117 0.03867093 -0.031767838 0.11256207 0.026030345 -0.05417101 -0.100621305 -0.066360936 -0.08279803 0.107968986
인가 -0.07538514 -0.06898107 0.045297902 0.10616875 0.05765659 -0.04968621 0.0059987563 -0.008192926 0.040985525 -0.06214261 -0.08288266 0.0136238225 0.10490606 0.051112927 0.060727574 -0.01228599
을까 -0.04004834 -0.035711598 -0.025348032 -0.012211192 -0.03712306 -0.042602956 0.027635742 -0.013087869 -0.04991864 0.041858304 0.0119310245 0.007638715 -0.03542788 0.036723066 -0.040154696 -0.021943856
코미디 -0.05219673 -0.08638672 0.060918797 0.053861175 0.021022523 -0.08216685 0.08434349 -0.0775673 0.036533564 -0.035976097 -0.1116966 0.08183651 0.03943858 0.06599659 0.040922888 -0.022890225
찍 -0.012344766 0.04968046 -0.0467253 0.016059343 0.046083424 0.032129157 -0.00813527 -0.04015261 0.031853262 -0.017323636 -0.017240502 0.038078357 0.04586153 -0.04156823 -0.012292765 -0.033795536
화 -0.08928909 -0.12148738 0.051672246 0.089313425 0.10687895 -0.09360307 0.07583278 -0.034597494 0.05022169 -0.11264653 -0.02721345 0.094578244 0.11570801 0.0363095 0.02893459 -0.031346004
쓰 -0.08308932 -0.101169735 0.11208621 0.06230945 0.112014696 -0.14117081 0.1278477 -0.15116772 0.12983647 -0.09426922 -0.14852074 0.14614397 0.16288133 0.17173323 0.14081155 -0.105551235
아직 -0.041816443 0.0032924677 -0.007871202 0.05408734 0.005738126 -0.061689854 0.037376035 0.03100303 0.0052140784 0.008014933 0.012068147 0.026639268 0.03656832 -0.004477512 0.013770109 -0.021253627
모든 0.008132351 0.045151964 -0.06261974 -0.020278165 -0.042352024 0.03402148 -0.07901906 0.058661427 -0.06588682 0.0038447815 0.06312078 -0.014678008 -0.023564333 -0.016189927 0.0030328638 -0.008048207
추천 0.072382204 0.053153638 -0.13650133 -0.11962444 -0.09934206 0.08939496 -0.06804097 0.04790062 -0.15888478 0.09241961 0.075031124 -0.057218898 -0.051834982 -0.12908326 -0.114784785 0.05482036
5 0.13720113 0.12948975 -0.06994375 -0.058751006 -0.09708344 0.08683386 -0.045936923 0.04263984 -0.10133761 0.03923998 0.04594482 -0.11262372 -0.12216576 -0.06940495 -0.06849938 0.067870565
신 0.11414796 0.079116695 -0.12848619 -0.10536717 -0.1159681 0.13380578 -0.15238585 0.17698517 -0.16118516 0.14273073 0.091467604 -0.1567964 -0.094953 -0.11029265 -0.08612642 0.12183272
아닌 0.041363347 0.01593274 0.0199911 -0.034680184 0.010970177 -0.021106984 -0.0513249 0.03263845 0.012920875 0.027978389 0.0051577077 -0.0007529612 0.02057523 -0.055937674 -0.008094915 0.020100802
마 -0.12664363 -0.11218367 0.090084724 0.08579641 0.12049323 -0.061382785 0.13323689 -0.07916604 0.11121444 -0.1313283 -0.12453933 0.07414212 0.0935225 0.0685563 0.062947124 -0.091691405
울 -0.08512538 -0.03427029 0.09577288 0.033305943 0.09078806 -0.0930314 0.07676345 -0.023376813 0.039839953 -0.0070945825 -0.027887957 0.056117997 0.032918073 0.039295964 0.07731487 -0.102566905
자체 0.047990113 -0.016129555 -0.035396688 0.034369454 0.035949495 0.043929935 0.03026277 -0.032604694 -0.010501779 0.03980606 -0.03130162 0.005677007 -0.037799053 0.007617107 -0.04047291 0.023403494
4 -0.09405101 -0.08490589 0.09695406 0.10653293 0.10368134 -0.13126053 0.12173483 -0.05716349 0.09041293 -0.0838605 -0.11253874 0.07848744 0.119218804 0.08161059 0.10973199 -0.091453336
실망 -0.34248662 -0.2732703 0.42786452 0.32621914 0.28910124 -0.37664273 0.3558779 -0.3116136 0.43349215 -0.30832955 -0.3644304 0.23784044 0.27819374 0.33606815 0.32361773 -0.319081
처럼 0.027790695 0.06553335 -0.043076307 -0.044295035 -0.020865744 0.066434786 -0.029891958 0.06567941 -0.008406607 0.028678972 0.06701486 0.022109916 -0.046817787 -0.007858705 -0.04586392 -0.028814571
여 0.15352164 0.13427287 -0.09089054 -0.14578322 -0.13675234 0.13562691 -0.082000524 0.08847117 -0.09130287 0.13483168 0.10676947 -0.12347389 -0.072704576 -0.1307463 -0.13010983 0.124208495
몇 0.18876451 0.2290286 -0.23766392 -0.16210769 -0.14258648 0.22358875 -0.26629093 0.24893586 -0.2114126 0.21465288 0.23078926 -0.14751679 -0.23013224 -0.22001663 -0.2324009 0.19977906
눈 -0.028190851 -0.043026462 0.05549641 0.009181692 -0.0040911585 0.0023684583 0.012050664 -0.00084771484 0.073595814 -0.022038506 -0.055480894 -0.011466235 0.008756423 0.013279865 0.034838956 -0.004134972
란 -0.10818566 -0.12350528 0.10727927 0.11011718 0.11871052 -0.08219544 0.0945254 -0.14046763 0.09927488 -0.1332226 -0.13251612 0.0816321 0.116391264 0.14380401 0.13646977 -0.07838979
대한 -0.22383901 -0.17155358 0.15496334 0.1300777 0.14156896 -0.13168222 0.20053528 -0.12287665 0.16668878 -0.18033823 -0.1928594 0.13726938 0.2017495 0.23182207 0.114138566 -0.1990564
는다 -0.039828468 0.02223697 -0.012634408 -0.029710352 -0.010237217 -0.048174 0.02646165 -0.0043663383 0.030317333 0.04034141 -0.0104487315 0.0062854663 -0.0022572987 -0.032199465 -0.024611283 -0.0498721
스럽 0.009349156 -0.04993316 -0.033014655 0.032081854 0.009818219 0.011077631 -0.02052257 0.04851229 -0.033096507 0.0016572364 -0.02857921 -0.013497949 0.048196863 0.0056702606 -0.008665372 -0.012288701
대박 0.14168628 0.13580583 -0.14590676 -0.09282403 -0.1062931 0.12123476 -0.15596637 0.09871695 -0.10535235 0.10320816 0.105599955 -0.10739609 -0.093645856 -0.1472851 -0.10101567 0.10868271
죠 -0.0345353 0.021337803 0.0015855056 -0.015524113 -0.0054321317 0.0017302762 0.051774304 -0.05079499 0.012266253 -0.029607452 -0.038435712 0.053310636 -0.023893647 -0.014580633 0.061294805 0.003402707
몰입 0.057395097 0.06891729 -0.08832641 -0.069659255 -0.010158217 0.01774251 -0.07223808 0.06615373 -0.053386815 0.04648024 0.044838533 -0.07657179 -0.041838072 -0.051057696 0.00022967428 0.016127342
캐릭터 -0.017685367 -0.05513335 0.037504498 0.046574764 0.02627508 -0.029753588 0.06121988 0.01990832 0.015447846 -0.026800111 -0.018191878 0.038393266 -0.030764034 0.012608134 0.06298793 0.014262902
모두 -0.20664482 -0.18624504 0.29989937 0.19452699 0.14488523 -0.22620331 0.23953716 -0.18663792 0.24649441 -0.17172411 -0.2636834 0.23474248 0.16249341 0.22166286 0.23955789 -0.20371552
솔직히 0.0008750228 -0.011516924 -0.06527565 0.015705816 -0.022376666 0.005927003 -0.076214366 0.031700112 -0.056954414 0.03153075 0.016384158 -0.025826663 -0.019886123 -0.035249546 -0.017452478 0.0021244425
그런 -0.024413014 -0.018699054 0.025818482 0.044827964 0.04241724 -0.0027981747 0.039872106 -0.08242888 0.037054207 -0.06085989 -0.079743646 3.36628e-05 0.057667036 0.10107496 0.0021599133 -0.008127249
나라 -0.1604208 -0.102411695 0.11474462 0.086156145 0.09385627 -0.14183679 0.15139835 -0.09661749 0.18493442 -0.14014281 -0.16968891 0.08034639 0.12946634 0.17358392 0.1393023 -0.11940566
건지 -0.16465782 -0.12072758 0.20526534 0.12836048 0.12638915 -0.20483176 0.12520099 -0.10711895 0.16145176 -0.14544751 -0.14012142 0.09642539 0.11451558 0.1384788 0.09934767 -0.13667724
가족 -0.040239308 -0.02040753 0.0029359683 -0.005822017 -0.045839455 -0.054774594 0.046663187 0.019793114 0.013250976 -0.009251334 -0.056189895 -0.0011281326 0.030801386 0.04865169 -0.039282475 0.014995199
될 0.09332973 0.10424456 -0.061605625 -0.118854135 -0.0902974 0.07267619 -0.05209041 0.123301685 -0.11493025 0.03871912 0.06672714 -0.088111855 -0.12113191 -0.10373267 -0.11751882 0.053651307
다면 -0.040977422 -0.125053 0.11790696 0.054954335 0.10985616 -0.038094427 0.08671026 -0.025623288 0.08218685 -0.061290056 -0.07612103 0.040704414 0.10016119 0.07778269 0.12311431 -0.078329034
아주 -0.121886685 -0.13902256 0.10904124 0.13205792 0.047746312 -0.14478195 0.112672895 -0.108887956 0.1283835 -0.06235275 -0.14380765 0.14026825 0.1377867 0.1131724 0.07252886 -0.09586587
ㅎ 0.1241297 0.12441122 -0.1789947 -0.15214378 -0.16426274 0.12557337 -0.1909686 0.18023022 -0.15307629 0.098699294 0.16020297 -0.1450204 -0.13747613 -0.16664311 -0.10576508 0.0913178
; -0.12025149 -0.05074328 0.057509802 0.06018051 0.043682944 -0.031922013 0.12551981 -0.1093808 0.0790123 -0.04767468 -0.13302602 0.028720142 0.10676789 0.112970926 0.036240328 -0.040619772
연기력 0.07544448 0.024201399 -0.025439514 -0.09084332 0.008792938 0.06193835 -0.023087243 0.005343201 -0.02116372 0.06926291 0.013080574 -0.061543703 -0.07320125 -0.04801739 -0.018520877 0.016319308
여운 0.30787298 0.250354 -0.25151968 -0.25369576 -0.17802708 0.19993673 -0.25061086 0.20866933 -0.30532986 0.21008629 0.25056016 -0.23056051 -0.18609004 -0.2759515 -0.22819886 0.22642615
그래도 -0.33004805 -0.27607495 0.38401023 0.26010737 0.20469373 -0.24516433 0.31477585 -0.27393267 0.30205518 -0.20729522 -0.33225632 0.23582178 0.2900505 0.29815322 0.22493403 -0.2813505
시리즈 0.09444866 0.10275895 -0.097186506 -0.040841952 -0.047323175 0.037840348 -0.03197404 0.029599933 -0.03236378 0.023788894 0.0925088 -0.05582121 -0.017982673 -0.11404382 -0.04697606 0.011431075
- -0.07302916 -0.05097565 0.058222793 0.0569667 0.06884524 -0.03606621 0.067715086 -0.066230096 0.08156068 -0.0013978577 0.007595841 0.009086437 0.036833424 0.019894537 -0.015458701 -0.019791525
모습 0.28765753 0.19424896 -0.24724863 -0.1743794 -0.17294645 0.22300552 -0.28700873 0.22340089 -0.29424682 0.16191684 0.25991938 -0.16057114 -0.23757996 -0.24723849 -0.20863639 0.1795053
전혀 0.17211305 0.22843015 -0.23891875 -0.21845627 -0.18009539 0.18455946 -0.17642345 0.23390657 -0.23681663 0.18638128 0.2432209 -0.14091703 -0.24482699 -0.22778334 -0.19774783 0.19447105
뭔가 0.101590626 0.09914081 -0.10295989 -0.07951932 -0.029211655 0.08883112 -0.07577455 0.027268281 -0.06343102 0.060883075 0.053635612 -0.018879397 -0.11024634 -0.05248559 -0.09999639 0.070854835
후 -0.07278462 -0.062020477 0.06281114 0.0041522533 -0.0011824983 -0.009680075 0.031049108 -0.011119387 0.07004356 -0.018200971 -0.04286824 0.01564872 0.05175769 0.061090827 0.07580534 -0.025471281
계속 -0.02761821 -0.05741948 0.09937009 0.041820724 0.109336115 -0.07813371 0.09960003 -0.047388695 0.083456725 -0.07083746 -0.028659599 0.10642031 0.053437307 0.04895185 0.04349728 -0.051994085
근데 0.20777586 0.19233704 -0.28118756 -0.1874613 -0.23915409 0.2031679 -0.22199714 0.23337838 -0.21081103 0.16137597 0.21325846 -0.2104981 -0.25291753 -0.19678524 -0.21918309 0.24865215
표현 0.12537596 0.09010125 -0.063418224 -0.08035933 -0.07393229 0.06509357 -0.101962544 0.05331905 -0.0387245 0.023530655 0.030101657 -0.071394466 -0.024717737 -0.04934287 -0.059267633 0.072766356
"" 0.006756899 -0.03659996 -0.014312101 0.02840023 0.063074484 0.021345962 0.041893683 -0.06357698 0.03258069 -0.03020735 -0.019051075 0.0046344115 0.03911361 -0.008318315 -0.014653536 -0.0062648635
작 -0.15891488 -0.16407733 0.19366887 0.11689066 0.18922828 -0.20139144 0.13955759 -0.14765136 0.12806047 -0.1733013 -0.16584197 0.09198943 0.16730605 0.12546898 0.17810151 -0.16288316
극장 -0.006878687 -0.06588344 0.013047312 0.09453504 0.047329642 -0.054620992 0.033665143 -0.04936166 0.05187221 -0.083782606 -0.05099999 0.008646849 0.055595715 0.03627874 0.041373786 -0.0498006
공감 0.15830824 0.12224679 -0.13773783 -0.1378353 -0.15165451 0.12392785 -0.12906037 0.10651111 -0.1586912 0.09920248 0.13223702 -0.08095946 -0.12558374 -0.1529582 -0.1442322 0.11758883
0 -0.07401984 -0.08299211 0.16094026 0.061382376 0.08074956 -0.068865806 0.16475809 -0.10328034 0.078147545 -0.13272725 -0.15852831 0.10753101 0.06330775 0.119576454 0.11465869 -0.091565765
비 -0.08058552 -0.06568219 0.11002145 0.10829812 0.06234539 -0.10005667 0.06932756 -0.092021145 0.12150501 -0.12772775 -0.13735978 0.1034728 0.08185213 0.1110492 0.08002502 -0.11550312
먹 -0.030674053 -0.02712438 -0.0408882 -0.02038579 0.044658426 0.033063415 -0.028313948 -0.013755489 -0.03660352 0.00034843758 -0.012100302 -0.0019907355 0.014458705 0.040239815 -0.0050956123 0.004630316
7 0.055225402 0.087424375 -0.13525628 -0.048242494 -0.066728555 0.08916337 -0.14553073 0.076982744 -0.067968145 0.085858285 0.06816871 -0.06123981 -0.10390748 -0.12771857 -0.06438992 0.06928347
이랑 -0.08015502 -0.11893261 0.11588494 0.105472244 0.07859428 -0.071292385 0.09089531 -0.085027926 0.12532823 -0.109336995 -0.120312855 0.13724095 0.1111867 0.05976704 0.11667677 -0.07003771
된다 0.10656779 0.060731936 -0.08813934 -0.08579671 -0.07763855 0.04345898 -0.029384067 0.01536265 -0.08453779 0.0642714 0.019716347 -0.0773068 -0.08959827 -0.031674128 -0.09923756 0.03913138
이걸 0.24555634 0.20011012 -0.2414362 -0.15698594 -0.19322346 0.23071106 -0.2213531 0.22692342 -0.2331451 0.1335466 0.22249165 -0.1431409 -0.22220835 -0.21196124 -0.20227869 0.22064006
대사 0.003211091 0.012152131 0.0032644642 0.05241125 0.035601363 0.026696097 0.04229252 -0.012621705 -0.022339445 -0.008468589 0.009681219 0.028679451 -0.022051273 0.0059380196 0.03048615 -0.049090996
제목 0.0027251386 0.0315308 -0.034008004 0.038914602 -0.020838289 -0.04669708 -0.020767776 0.03608336 -0.011096682 0.0099607445 0.02677824 0.028823271 -0.008794321 -0.012675329 -0.04231593 0.020918876
그렇 -0.0126700625 -0.0043128505 0.015765097 -0.040691637 0.020466093 -0.030205334 -0.044362854 0.007314287 0.031964373 -0.02920698 0.04058503 -0.012276959 -0.023013962 0.025321413 -0.021234477 0.0027896538
대단 0.1548864 0.12752314 -0.16507578 -0.15062991 -0.1690487 0.14624897 -0.12754153 0.091640644 -0.15610959 0.13258305 0.1764032 -0.15303643 -0.12330427 -0.19434296 -0.15617701 0.14609504
개봉 0.027974088 0.0012714217 -0.030953797 -0.07692023 -0.06642563 0.058647335 -0.003415346 0.071420655 -0.07294408 0.040407103 0.07930371 -0.05686138 -0.025495723 -0.080777496 -0.040738884 0.01675468
부분 -0.043771278 -0.05527001 0.014119198 0.08147319 0.07366906 -0.06829752 0.04299038 -0.009255411 0.062976725 -0.057974555 0.0028491083 0.00214314 0.043180645 0.07119133 0.03775698 -0.0027377356
진 -0.11925989 -0.13685879 0.1428959 0.08175258 0.07201973 -0.06250193 0.11516266 -0.1209266 0.0678758 -0.12752815 -0.11043878 0.11516371 0.062742956 0.10235608 0.07843124 -0.061602194
OO -0.14842379 -0.0772227 0.11944912 0.07971656 0.12633303 -0.12812884 0.14650531 -0.115345776 0.17464277 -0.12041242 -0.109578006 0.1663004 0.16464433 0.118728064 0.16496514 -0.0709695
기분 -0.092562824 -0.04869245 0.06381692 0.09658996 0.120946266 -0.09621359 0.056350213 -0.0649098 0.12868835 -0.093670845 -0.10185264 0.12070735 0.10319707 0.08293935 0.028061084 -0.09934589
제 0.14357114 0.14073487 -0.09685794 -0.081137076 -0.05525935 0.078695245 -0.10641668 0.117275685 -0.15374622 0.050837304 0.12656038 -0.12544128 -0.07023824 -0.12083224 -0.11548166 0.11066666
이제 0.097186334 0.061533816 -0.12657651 -0.106455766 -0.080878645 0.050289776 -0.058352616 0.10622651 -0.0909882 0.09573052 0.063310765 -0.044257514 -0.073780574 -0.06964918 -0.015097619 0.08847045
치 -0.041336793 -0.032907896 0.068179056 0.11470577 0.08098108 -0.05451902 0.08483517 -0.03271679 0.12216341 -0.09582075 -0.056526214 0.039258845 0.06823789 0.10314983 0.120079026 -0.07961321
진심 -0.06023162 -0.038581315 0.002369688 0.0698075 0.04968306 -0.075208835 0.030746434 -0.02934022 0.047387596 0.015893864 -0.0119499285 0.06607171 -0.010256848 -0.006245147 0.0021775584 0.007955711
바 -0.13143323 -0.12891649 0.094531916 0.053494908 0.0751573 -0.09866576 0.14391916 -0.101456165 0.10378566 -0.1084466 -0.12953967 0.07795908 0.11141462 0.092287734 0.059573006 -0.1311693
해도 0.0285435 0.03336313 -0.00076057087 -0.07166016 -0.083979726 -0.00012087889 -0.09484761 0.03788535 0.00038656124 -0.0032908903 0.022498036 -0.007104814 -0.0042272257 -0.0068342597 -0.044165585 -0.004416095
작가 0.049484823 0.009514452 -0.057134293 0.015705172 -0.041165683 -0.028253479 -0.066119455 0.049201604 -0.02718241 -0.036578834 0.07371409 0.03283569 -0.003984656 -0.019921647 -0.0037646813 -0.02492516
타임 -0.03147291 0.009747036 0.02446273 -0.005935668 0.007158661 -0.040716596 0.0005964476 0.011759828 0.02678005 0.041214075 0.01285903 0.04013713 -0.04002694 -0.033906665 0.033446364 -0.009575184
아쉽 0.082252026 0.061667155 -0.070311934 -0.09839011 -0.06826214 0.05924909 -0.078146346 0.11693014 -0.07698443 0.08024072 0.07199793 -0.09003276 -0.04938906 -0.12844162 -0.10950801 0.08609475
어디 0.15077403 0.15957224 -0.12745973 -0.17106909 -0.14434786 0.10686479 -0.20272613 0.111107066 -0.18225946 0.1255735 0.15209499 -0.13551086 -0.13151397 -0.17810518 -0.12378962 0.09591606
" -0.025100732 0.029074501 0.0444072 0.010869991 -0.010720514 0.038012076 -0.045158338 -0.036443673 -0.04307889 0.00029937178 0.022779707 -0.040557742 0.03582779 -0.034906268 0.04504441 0.034884874
물 0.12465174 0.09177682 -0.041838504 -0.04885835 -0.0704841 0.12072347 -0.059262823 0.13167407 -0.078591675 0.07358586 0.07175407 -0.11589749 -0.06385629 -0.041966934 -0.08000238 0.07819682
삶 0.0828849 0.14663948 -0.13339451 -0.13934948 -0.15044545 0.15858738 -0.14576162 0.12882656 -0.16906372 0.11518818 0.09388003 -0.080817096 -0.11715364 -0.1394218 -0.080938414 0.11590919
나왔 -0.024380267 0.008681834 0.024794232 -0.033358634 -0.03476288 0.016004298 0.011688568 0.04396062 0.040476765 -0.030769302 0.028041232 -0.048393715 -0.042710613 0.019997511 0.019415606 -0.023866057
친구 0.20021614 0.20900886 -0.23627938 -0.18648426 -0.16309835 0.20679583 -0.22948289 0.203867 -0.22655654 0.20374931 0.21488193 -0.16980572 -0.15597333 -0.23949401 -0.1674318 0.14119907
웃기 0.11335613 0.13252053 -0.1330682 -0.107990496 -0.10825384 0.11203211 -0.18584904 0.11324958 -0.11735089 0.15396108 0.15701199 -0.1056819 -0.17366084 -0.1074918 -0.10877651 0.14586505
놓 -0.016776763 0.039188232 0.04550538 -0.0074852332 -0.021575296 0.033194628 0.025767777 -0.039675545 0.01574922 -0.015989482 0.032256994 -0.03993808 0.0290923 -0.012204133 0.00015933439 0.038707558
/ -0.1174028 -0.07319597 0.098943435 0.15155952 0.16045189 -0.120389566 0.12599507 -0.10405057 0.1932319 -0.15666027 -0.17440625 0.14085196 0.15277258 0.15646453 0.14484115 -0.16055863
조금 -0.026188768 -0.03945791 0.038860373 0.05265718 0.09043444 -0.07297317 0.084767625 0.003799764 0.064007185 -0.042303324 -0.07875193 0.07985268 0.01376332 0.078278944 0.08147038 -0.06986859
막장 -0.10801598 -0.054552738 0.055298045 0.02028329 0.06407266 -0.1050434 0.095403545 -0.092925124 0.10420347 -0.021472564 -0.09463879 0.040401254 0.09020427 0.030837651 0.095761366 -0.04274394
8 0.14920196 0.14209962 -0.15128653 -0.1362337 -0.15391117 0.10747441 -0.13519244 0.093922555 -0.1604842 0.16109665 0.11611522 -0.15438941 -0.1341663 -0.10397144 -0.09141251 0.09520705
보이 0.1032067 0.12397968 -0.096922286 -0.11893899 -0.11400125 0.13773544 -0.09598832 0.113109335 -0.0822649 0.05516447 0.06917166 -0.11416619 -0.08975079 -0.1359568 -0.050441604 0.07436296
딱 0.08397506 0.013354095 -0.057882786 -0.09043926 -0.06742043 0.07129676 -0.11461803 0.031444535 -0.032644067 0.08526736 0.094085015 -0.09639942 -0.09844796 -0.066702776 -0.10670054 0.070093215
잔잔 0.113788046 0.1166324 -0.15950751 -0.1015387 -0.091902606 0.09406292 -0.1643237 0.07729444 -0.15830217 0.12959567 0.11293234 -0.14950702 -0.0945061 -0.09166144 -0.16387182 0.14717846
싫 -0.10036588 -0.07458414 0.12177269 0.041455332 0.10037778 -0.10101497 0.052066237 -0.0406396 0.09194481 -0.108937025 -0.061576266 0.124205664 0.13653377 0.09612187 0.13022551 -0.037587587
구 0.15571405 0.093034916 -0.097877 -0.1708298 -0.14928108 0.18212101 -0.16629478 0.08541335 -0.13830836 0.081110135 0.17625554 -0.14812055 -0.18312931 -0.13481387 -0.106553614 0.08766769
요즘 0.08779141 0.07836452 -0.054167967 -0.1252631 -0.05899941 0.07060052 -0.09080001 0.04105309 -0.087907426 0.120054744 0.0660359 -0.02523801 -0.116872445 -0.052964244 -0.09273219 0.0647801
중간 0.034808747 0.09537297 -0.039091356 -0.037581205 -0.12593207 0.041356057 -0.07045059 0.07449889 -0.12148689 0.08946993 0.09169375 -0.031725306 -0.046778556 -0.061458305 -0.029309478 0.10543676
찾 0.0029871836 0.030363325 0.048764218 0.016495313 -0.0356701 -0.0026071183 0.0019361749 0.019453514 0.019700948 -0.034671117 -0.009206854 -0.0046239384 0.026581358 0.040661726 0.0025541075 -0.020619834
봐야 -0.0039742077 0.013255973 -0.0398365 0.011792017 -0.025406076 0.025019707 -0.02972792 0.038984034 -0.031819616 -0.017021332 -0.011227805 0.029209223 0.026296338 0.046788357 0.038800575 -0.02210962
가지 0.2910912 0.27858284 -0.3405179 -0.2848369 -0.24859884 0.22740798 -0.3223028 0.31024995 -0.28110912 0.28293544 0.3369823 -0.23757902 -0.24807705 -0.3166618 -0.26539242 0.26704976
씬 -0.11908738 -0.060803425 0.08534331 0.094050735 0.064261 -0.13517669 0.11493926 -0.12222395 0.09149313 -0.047441132 -0.09651355 0.058705933 0.06215168 0.062009655 0.11035968 -0.14033744
영상 -0.022814786 0.04349365 0.007658943 0.033656675 -0.002119208 0.0014832516 -0.0149427485 0.047668714 -0.011035695 0.031852167 -0.02196633 -0.035433505 -0.0064328625 0.01711544 -0.016176311 0.050421484
긴장감 0.07889464 0.09592594 -0.12924367 -0.034529053 -0.035251338 0.1312344 -0.094125494 0.09625543 -0.08220067 0.119236685 0.09800711 -0.08106144 -0.08262989 -0.06218002 -0.09666496 0.12450044
같이 -0.01947409 -0.06127893 0.10006195 0.017218696 0.049523324 -0.07691754 0.08131848 -0.03154313 0.10162553 -0.034854006 -0.080041535 0.019893074 0.09763155 0.023347022 0.020962602 -0.10131883
라도 -0.14074898 -0.09696708 0.072360896 0.13954651 0.1252842 -0.14155586 0.09506709 -0.080399685 0.109036066 -0.075931765 -0.123817444 0.13836326 0.078138806 0.11680945 0.06163261 -0.060201652
.... 0.011118478 -0.026565583 -0.03298876 0.027800115 0.0353669 0.037029646 0.028425125 0.03643072 0.039311714 0.019837772 -0.018175647 0.048589673 -0.02395376 0.018753802 -0.015804065 0.03759987
믿 -0.024265563 -0.01978767 0.04185201 0.01694863 0.030323211 0.00770998 0.010823142 0.049343828 -0.048001625 -0.00762818 0.049043488 -0.027027762 0.039505277 0.045316387 -0.01671306 -0.026063014
스릴러 0.015709316 -0.026238924 -0.0024940278 -0.007790981 0.024241528 -0.025275178 0.0050654537 -0.037463278 -0.025966061 -0.010706157 -0.018848166 0.05098929 -0.03839715 0.048556406 -0.025254961 0.0053749452
아까운 0.27950093 0.25342944 -0.3164477 -0.17870101 -0.23569685 0.26557454 -0.24359563 0.1798234 -0.2806148 0.1752924 0.24764122 -0.16966829 -0.24637823 -0.2717627 -0.21739382 0.1986055
부족 -0.29991117 -0.27939528 0.38053322 0.26063186 0.27694485 -0.34020522 0.38607493 -0.3243456 0.34930316 -0.26459783 -0.36454004 0.2499539 0.23872943 0.28323817 0.27464294 -0.22466935
억지 0.056871798 0.06526544 -0.12865199 -0.06911128 -0.06441519 0.04039806 -0.12095225 0.07723103 -0.042726383 0.06674457 0.037290808 -0.0462378 -0.06814465 -0.12606959 -0.10260699 0.1042531
노래 0.11994157 0.08996693 -0.16059995 -0.10848437 -0.11199573 0.11374264 -0.11447462 0.16034114 -0.11913366 0.17124116 0.11138644 -0.1511212 -0.14783987 -0.15777904 -0.14113903 0.08138363
특히 0.044919126 0.00797423 -0.053344436 -0.041182183 -0.03962011 0.04768418 -0.02259746 0.06305353 -0.053738963 0.018428542 0.056225378 0.01844954 -0.060199264 -0.009545315 0.00525613 -0.016238209
구나 -0.07941177 -0.07431548 0.060891192 0.13694242 0.13393132 -0.09155243 0.124589264 -0.09547767 0.06374768 -0.1340114 -0.08013745 0.08768744 0.11602574 0.11008963 0.08414595 -0.09500711
점수 -0.028723141 -0.0345261 -0.0027489942 0.004918521 0.023270518 -0.036148023 0.036153086 0.037030667 -0.017572112 0.022879127 0.028674964 -0.008862808 -0.020810561 0.018735856 0.026818944 -0.00138409
개인 0.069638886 0.049992222 -0.07799937 -0.064474195 -0.11074194 0.12303584 -0.085306376 0.06383189 -0.035761937 0.03021256 0.06299186 -0.08828084 -0.11199371 -0.12697577 -0.0509376 0.07301928
이유 0.033969566 0.051350866 -0.031050647 -0.08134199 -0.008817032 0.0039235703 -0.020722385 -0.008805577 -0.019393837 -0.011130496 -0.0006329392 0.0052218414 -0.074624225 -0.0045342883 -0.02514705 -0.0076110265
시작 0.11723364 0.08794163 -0.20921195 -0.07975773 -0.09520054 0.18933463 -0.12636638 0.1558397 -0.16710429 0.11954669 0.1525541 -0.1303456 -0.14857252 -0.16189048 -0.11274363 0.17377388
라면 0.11845253 0.07324317 -0.07304661 -0.15036522 -0.085521765 0.09176983 -0.09679745 0.15690123 -0.11730007 0.10390344 0.16233855 -0.14998735 -0.06057543 -0.16330782 -0.13752411 0.08779004
만큼 -0.046941496 -0.07846157 0.048023906 0.010964858 0.012343161 -0.036358073 0.10957141 -0.08142881 0.04618998 -0.10092451 -0.08491807 0.015286533 0.00883911 0.03961383 0.10229698 -0.040149253
제대로 0.05833049 0.030081604 -0.07845804 -0.012373168 -0.070992105 0.061046947 -0.0011834754 0.021634268 -0.009390492 0.033120696 0.011406441 -0.07850846 -0.04673365 -0.043356832 -0.0674966 0.008772123
한테 0.09849888 0.06467231 -0.05959611 -0.114150405 -0.102204256 0.13016167 -0.032745 0.11823648 -0.116578154 0.062383775 0.054298945 -0.1004667 -0.034834452 -0.036120646 -0.105379224 0.10842446
잇 -0.093667805 -0.12404105 0.12331983 0.13825326 0.081611864 -0.13414241 0.064111106 -0.12050413 0.109003216 -0.14093061 -0.101347856 0.13129331 0.13345814 0.14998522 0.061318804 -0.083496615
날 -0.05419015 -0.04571151 0.059114344 0.05333699 0.07454798 -0.113389835 0.11991175 -0.05165012 0.052646466 -0.1267841 -0.12555374 0.061845038 0.12451876 0.1235062 0.05878661 -0.07192288
나름 -0.13105254 -0.060706403 0.09493706 0.13437213 0.0449047 -0.1197106 0.115180396 -0.13154486 0.13218005 -0.10224951 -0.16602407 0.09526036 0.06483158 0.107934184 0.06940505 -0.07580846
ㅜㅜ 0.03328817 0.01952493 -0.12313081 -0.02137684 -0.030538687 0.07828811 -0.043738462 0.04615179 -0.122326136 0.06206461 0.07175637 -0.04838743 -0.022157252 -0.059402663 -0.106892474 0.030896587
시대 -0.019976135 -0.033710703 -0.024836987 -0.0354684 0.021187032 0.023163201 -0.0010251385 -0.032666147 0.018672576 -0.017697703 0.045909707 -0.03452517 0.021801444 -0.011881823 0.018035932 0.04084647
사 -0.09060726 -0.022205494 0.07448797 0.05003497 0.020019067 -0.06664136 0.031179337 -0.039478432 0.053914394 -0.0143216 -0.10639037 0.033981245 0.02589882 0.09686604 0.0022503121 -0.059883136
명 -0.07310721 -0.1420229 0.15966438 0.15994684 0.11666802 -0.09252264 0.16315295 -0.13093206 0.15652788 -0.09297852 -0.12508167 0.13307092 0.078983374 0.12096863 0.16392851 -0.10303014
제일 -0.0703195 -0.11774756 0.13473648 0.03865787 0.0372417 -0.087472364 0.04642464 -0.116830274 0.07508239 -0.03500084 -0.09296234 0.06126863 0.1172009 0.12568985 0.075650975 -0.123481736
아름다운 -0.41977805 -0.38794762 0.55234736 0.3716521 0.34175074 -0.3812767 0.47541684 -0.4172756 0.5518993 -0.32034037 -0.46069813 0.29654792 0.40226823 0.47614107 0.37444827 -0.33322594
어떻게 0.07882265 0.04315105 -0.029884387 -0.069626994 -0.091056444 0.09716951 -0.054664478 0.029014133 -0.061752655 0.06682605 0.050153736 -0.031793255 -0.07775319 -0.028193578 -0.058610927 0.06315654
해요 0.234408 0.19148967 -0.15960886 -0.20276064 -0.21499519 0.22005619 -0.24278413 0.14710511 -0.17713031 0.1804527 0.22657046 -0.14337556 -0.20184566 -0.15279208 -0.17498687 0.18300429
하지만 0.043081857 0.03647505 0.026795886 -0.019362126 -0.036286186 0.040890556 0.02794233 0.051633436 0.013106107 -0.031112427 -0.02419377 -0.051113565 -0.009541478 0.027284464 -0.03368104 -0.039103206
당시 0.049027167 0.05375714 -0.032870315 -0.049077373 -0.0030207816 0.04371916 -0.021527776 -0.009088015 -0.066109255 0.024647657 0.0065791286 -0.036600187 0.011137878 0.017433463 -0.04155812 0.060447577
무섭 0.009216694 0.044766814 -0.022978133 0.009574588 -0.04149504 0.031928115 0.04190114 0.004390725 -0.0073563205 0.03897308 0.013357018 0.05249498 -0.029517699 -0.042761542 0.025039677 0.00676041
차라리 -0.20083128 -0.11211062 0.1585254 0.15697916 0.15008399 -0.17277949 0.16841458 -0.174983 0.19604856 -0.16425668 -0.20400874 0.11474005 0.16056627 0.14958471 0.1435173 -0.17703907
이것 -0.00780986 0.07964479 0.012584727 -0.004270374 -0.018575411 0.013517898 -0.018538589 0.07755735 -0.060380455 0.02471253 0.04935789 0.0014638077 -0.002454528 -0.03352735 -0.06222018 0.059982747
려고 -0.004679467 0.011145015 -0.005268711 0.021768715 -0.052926958 -0.009633305 -0.06042233 0.03203762 0.036373425 -0.019351004 0.028176822 0.003179291 -0.06567225 0.03125035 -0.04947672 0.019115763
엔딩 -0.122068144 -0.058203317 0.12731077 0.04918139 0.08091718 -0.094264366 0.11989837 -0.08634916 0.11950376 -0.01646639 -0.05091795 0.09802155 0.100324206 0.0570903 0.035254255 -0.1128773
오랜만 -0.018455438 0.0397428 0.038572956 0.024138425 -0.026492005 -0.049998373 -0.034265105 -0.03277214 -0.027343528 -0.041481655 -0.056968838 -0.041158732 0.050432127 0.049033947 -0.037150573 0.012185013
니까 0.04606244 -0.024668137 -0.00476004 0.02892808 -0.018002467 -0.043149643 0.02885349 -0.014287876 -0.020717138 0.028959164 -0.048672263 -0.019901145 -0.032282226 -0.006761588 -0.029260568 0.03217097
봄 0.121082425 0.087093346 -0.08721616 -0.10369408 -0.09159572 0.08709031 -0.07378493 0.09049231 -0.12326998 0.030049406 0.07087211 -0.05329154 -0.06540846 -0.114217125 -0.042860296 0.11890039
의미 0.04988597 0.06704966 -0.12526515 -0.09014877 -0.09158094 0.09341716 -0.06983112 0.044224408 -0.051696055 0.07614391 0.074242726 -0.08925624 -0.13085887 -0.058281846 -0.037495088 0.10189872
나온 0.15553391 0.092686616 -0.12621461 -0.069657855 -0.08509631 0.120878525 -0.11355142 0.083648905 -0.16058064 0.08477518 0.1598455 -0.14772475 -0.1019446 -0.10496775 -0.089475654 0.12508555
세상 0.14073594 0.09480453 -0.10650083 -0.110839896 -0.07804124 0.11735266 -0.08754397 0.07590861 -0.116099864 0.06978664 0.12486775 -0.12846577 -0.08658985 -0.10888891 -0.14055789 0.11059609
봐 -0.013600401 -0.00837575 0.0088181235 -0.01059688 -0.009210394 -0.004309534 0.031072289 -0.006302953 -0.0024855912 -0.006944261 -0.051460065 0.016279675 -0.014271141 -0.004223193 0.009115885 0.026245197
따뜻 0.021822121 -0.044815958 -0.008588456 -0.03781382 -0.036582865 -0.047056187 0.0030823834 -0.04141121 -0.03217124 -0.011792041 0.025410477 -0.02241894 -0.0037767068 0.009110797 -0.04076464 0.026556563
세 0.13129646 0.10755289 -0.054647177 -0.09216703 -0.051404886 0.06469058 -0.055277638 0.08376881 -0.14477764 0.09819345 0.123529606 -0.10802889 -0.114958085 -0.054945543 -0.1257541 0.09311307
팬 -0.15794612 -0.15614279 0.20240356 0.14824614 0.15502416 -0.15730093 0.16956468 -0.1676254 0.20510896 -0.18205836 -0.1969245 0.14389084 0.15046288 0.1637348 0.20087525 -0.17477252
훌륭 0.15145445 0.07594685 -0.13962458 -0.15971467 -0.09815538 0.087948784 -0.14165945 0.08574932 -0.09202904 0.075296365 0.114291176 -0.15087909 -0.12933283 -0.10724714 -0.13851053 0.06226017
9 0.14487876 0.142153 -0.13511467 -0.16533348 -0.16709273 0.17576504 -0.13204853 0.19181854 -0.20175503 0.17269285 0.15817489 -0.15054977 -0.16960286 -0.17558767 -0.16126847 0.11096226
절대 0.054162446 0.0150614455 -0.046009336 -0.0023505914 -0.064044595 0.007812484 -0.039621305 0.052660428 -0.023761177 0.024866791 0.041458745 -0.012720967 -0.062061116 -0.016933313 -0.022568563 0.08402925
못하 -0.034540463 -0.003836371 -0.01932851 -0.0022411458 -0.027730513 -0.008414485 0.043586265 -0.047680236 0.030463446 0.0002842918 -0.015042413 -0.032782245 0.00033045933 0.013397504 -0.030403722 0.036057305
놈 0.13029538 0.056264363 -0.13026127 -0.082642816 -0.093137585 0.10133636 -0.13981107 0.11672021 -0.15112412 0.13786669 0.09390939 -0.12812915 -0.082706764 -0.075565495 -0.074996024 0.08897873
강추 0.21308546 0.19922471 -0.23889089 -0.13612436 -0.13526171 0.23927787 -0.19116455 0.15286812 -0.18706927 0.21402383 0.27712694 -0.18916188 -0.16668625 -0.23302434 -0.20472056 0.19434722
느끼 -0.04107111 -0.086115204 0.0822544 0.122012295 0.03892116 -0.107245244 0.09981729 -0.068665415 0.042683747 -0.11202197 -0.05754175 0.117845915 0.052630715 0.11083519 0.1223132 -0.060642827
욕 0.19393143 0.12557437 -0.20148188 -0.17956018 -0.12338154 0.19605806 -0.15020207 0.17207113 -0.13606372 0.15252414 0.19718967 -0.1651924 -0.18804002 -0.18707497 -0.18931238 0.14303237
감 0.066595204 -0.011583398 -0.016781408 0.0177509 -0.04177495 0.044736285 -0.005567733 -0.0030780768 -0.033508204 0.028704714 0.059846736 0.030124502 -0.010665381 -0.030186705 0.032357838 0.058314126
빼 0.03466784 -0.015647588 -0.019004654 0.019394021 -0.03832408 0.033728123 0.022745775 0.025847265 -0.043582268 0.046805743 0.061556008 -0.0005089072 -0.002510491 0.014392332 -0.021751523 0.040305387
너무나 -0.064161286 -0.024075259 0.06451922 0.07334947 0.064410545 -0.05938255 0.03585052 -0.07245214 0.061171647 -0.0125389425 -0.084735215 0.022447 0.018939426 0.10193344 0.10320515 -0.019966206
전쟁 0.007376967 0.054307245 -0.030684644 -0.014776213 -0.011361532 0.009167683 -0.03793216 0.033861242 -0.0042694057 0.062459838 0.07302864 0.0099110715 -0.08529544 -0.030108843 -0.048574958 0.08703257
됨 0.057159983 0.099724784 -0.07071294 -0.11012451 -0.03139535 0.08117923 -0.11917255 0.060610775 -0.08851793 0.07544952 0.124812245 -0.09973916 -0.041086715 -0.059605885 -0.08325074 0.04131698
어야 -0.03100053 -0.027763844 -0.025150431 0.013685677 -0.0161664 0.03652397 0.021006707 -0.029195154 -0.012492813 -0.032874644 -0.02892108 0.026249457 -0.029205704 0.048308287 -0.026848568 0.017712202
해야 0.15963285 0.15009204 -0.16365503 -0.2008682 -0.11717996 0.13045284 -0.21997249 0.18311957 -0.23138036 0.12592638 0.17087646 -0.18084173 -0.14464298 -0.23043944 -0.16116232 0.10976975
던데 0.0005244985 0.039194416 0.041374493 0.012410603 -0.037241053 -0.044755436 0.023575794 0.038420264 -0.005643904 -0.034528326 -0.029561222 0.04295451 0.0061768517 0.04590526 0.030973364 -0.012870766
도대체 0.2381419 0.18545575 -0.22373588 -0.21962754 -0.2058769 0.28566483 -0.29010162 0.2668063 -0.24514966 0.25550252 0.2643258 -0.22579637 -0.2554261 -0.230433 -0.20572448 0.19628617
무엇 -0.20052944 -0.11589176 0.16065483 0.16040277 0.11022576 -0.15888228 0.10893438 -0.14126597 0.13021621 -0.15368213 -0.12714897 0.17639391 0.17898183 0.12325147 0.13566296 -0.1473426
답답 -0.26582724 -0.1894444 0.21502604 0.15536603 0.16930689 -0.24826694 0.24911858 -0.20291527 0.24788569 -0.18965851 -0.2590221 0.19183901 0.19628696 0.18927635 0.2061547 -0.13639945
준다 0.016534377 0.033835057 0.025518911 0.029026037 -0.019103093 -0.007931711 0.053203642 -0.03652623 -0.031391148 0.022141838 -0.028454905 0.060982417 0.04729923 -0.012389662 -0.010578483 -0.0368032
ㅡ -0.06318973 -0.06618916 0.13992468 0.059404034 0.03707796 -0.08929249 0.07583725 -0.10025801 0.07157392 -0.10703101 -0.12852837 0.051614553 0.11174784 0.04661995 0.051952865 -0.10254452
드 -0.04500152 -0.0010987775 0.046859607 0.0060624056 0.06783519 -0.013374363 -0.008230269 -0.054038975 0.069086 -0.008136798 -0.0016039257 -0.022440434 0.059885282 0.0035593573 0.05345156 0.025074596
마다 -0.07064403 -0.02089189 0.028102458 0.05727462 0.09191661 -0.037792243 0.07968755 -0.021000713 0.02862453 -0.09337677 -0.11208969 0.047657803 0.10669993 0.058088783 0.06051277 -0.06582259
설정 -0.06502164 -0.1203013 0.06509062 0.07963452 0.09662815 -0.14409322 0.15839997 -0.070048824 0.11282466 -0.11524913 -0.10592448 0.11292651 0.08473535 0.10781991 0.1036354 -0.11654541
답 0.046664234 0.027487423 0.027066514 -0.010329342 0.03371482 -0.0062038745 -0.03299596 -0.0018152257 -0.029524462 0.037326008 0.0043046637 -0.03609541 0.03780146 -0.013969085 0.026225971 -0.018021114
그저 0.23035075 0.18968484 -0.22321813 -0.14094824 -0.18327132 0.13615958 -0.23751235 0.13103427 -0.18399845 0.12515497 0.17531084 -0.110265605 -0.17056982 -0.21431011 -0.12480495 0.15724075
6 0.12678652 0.13285834 -0.1180126 -0.089198604 -0.11958208 0.11821421 -0.07729833 0.13192192 -0.116864294 0.07469622 0.119870715 -0.12921272 -0.11003224 -0.08446811 -0.058793314 0.08159855
어도 0.0038179643 -0.02450869 -0.0270249 0.039018247 0.0292251 0.015531134 0.044549476 0.00028844923 -0.027928496 0.015890826 0.036754753 -0.028058851 -0.03586211 0.04371239 -0.045810223 -0.018616714
형 0.203574 0.18614212 -0.122434326 -0.09694835 -0.19241083 0.12946108 -0.116185345 0.11224083 -0.15318565 0.17345166 0.17016362 -0.09048853 -0.18731311 -0.17535618 -0.1505564 0.18524626
신선 0.11843358 0.119805895 -0.101765774 -0.075122744 -0.12968811 0.13538007 -0.10720179 0.05764625 -0.0647178 0.05160586 0.09764886 -0.109923385 -0.10642666 -0.091603294 -0.06475375 0.06575033
감정 -0.026154036 0.046361167 0.03177673 -0.0013980716 -0.002835797 0.003473872 0.0019885984 -0.012058604 0.012746242 0.0077205244 -0.05051457 0.017606698 -0.029653125 -0.00087598106 -0.014309405 -0.006287496
흥미 -0.027551044 -0.052540172 -0.00056398707 0.08081669 0.08366904 -0.05966082 0.09452256 -0.059604015 0.00522749 -0.053009845 -0.09369926 0.03199798 0.043848675 0.08693422 0.047111783 -0.040954847
글 0.15701438 0.07837824 -0.06913404 -0.106748596 -0.118273795 0.08595741 -0.11872483 0.077819444 -0.11299934 0.100497805 0.16435455 -0.14965338 -0.074489124 -0.09870763 -0.082776666 0.06577094
미국 -0.12064819 -0.04144363 0.13587157 0.04140752 0.08289313 -0.050570805 0.06512665 -0.11539541 0.068818204 -0.08292761 -0.06473847 0.0296597 0.04122745 0.13345589 0.08609943 -0.08439046
뻔 0.013568146 -0.0032984877 0.043151785 -0.025070101 0.051304836 0.043748923 0.040987402 8.1571394e-05 -0.031747207 0.019238735 0.0008821041 0.04671058 0.036234282 0.012640495 -0.030699056 0.030726992
엄청 -0.15251347 -0.093206346 0.1721413 0.10558484 0.19165643 -0.1307723 0.15331598 -0.12668899 0.17549668 -0.10296755 -0.1612466 0.10485047 0.12701625 0.16553237 0.11138982 -0.12377167
관객 0.121845044 0.13983662 -0.14971438 -0.09740547 -0.08342627 0.13231224 -0.13381957 0.16511887 -0.099768095 0.14543766 0.13362212 -0.10660554 -0.13533704 -0.14625771 -0.14768118 0.07120981
행복 0.18023449 0.16107412 -0.2568182 -0.14344846 -0.1567542 0.15943353 -0.18034415 0.23336992 -0.24063568 0.16164981 0.19287886 -0.12963541 -0.19333313 -0.23500465 -0.1792421 0.19198029
시절 -0.05232913 0.03634305 -0.013682253 -0.0040139705 -0.0038291207 -0.022050116 0.03807396 -0.027241485 -0.0010417638 0.020270154 0.010622742 0.040078305 0.032376956 0.06760233 0.00784353 0.009538227
더라 -0.0034551248 0.013371613 -0.048692264 -0.000973247 -0.030415416 0.0019088164 -0.019123578 -0.017361842 -0.002364181 -0.041391253 -0.022085905 0.020077016 0.033015136 -0.005913984 0.012603689 0.010151196
만화 0.09784088 0.09263067 -0.14394565 -0.048535608 -0.10910118 0.09846245 -0.08772506 0.09967396 -0.06316113 0.08899132 0.1182077 -0.11505239 -0.104287 -0.11909284 -0.099985056 0.0797495
수작 0.3403683 0.28537092 -0.37872738 -0.22428228 -0.28244314 0.24189033 -0.35294437 0.23221323 -0.31387678 0.27337298 0.34026003 -0.25523818 -0.29528898 -0.331017 -0.2959529 0.29382133
군 0.1842188 0.105582744 -0.11716298 -0.09788379 -0.1805143 0.09875227 -0.19529043 0.10537568 -0.14893162 0.10423043 0.14242375 -0.10246832 -0.1266441 -0.13892773 -0.10075908 0.08911707
앞 -0.047965407 -0.052609812 0.060543176 0.017878884 0.008446564 -0.0057816748 -0.012229413 -0.01905265 0.069138765 -0.010594949 -0.04116297 -0.017329235 0.0076917065 -0.0049569695 -0.018025408 0.005184264
자신 -0.07260095 -0.065723225 0.066682056 0.14087099 0.12634596 -0.14428157 0.11419954 -0.11678219 0.0839049 -0.10706102 -0.05785425 0.11200719 0.058020975 0.1311456 0.08153087 -0.12813543
슬프 -0.039257932 0.008694015 -0.0052041523 0.049964774 -0.008098759 -0.031235933 -0.014098965 0.039377186 -0.02419138 -0.0030571446 -0.043680906 -0.0442891 0.00020254776 -0.014764775 0.0036562793 0.031996753
라니 -0.08531934 -0.09473705 0.11238233 0.041455902 0.123498596 -0.072727114 0.091141865 -0.05924369 0.09554191 -0.051511258 -0.097333364 0.05754519 0.119925715 0.07879175 0.044192962 -0.06404786
배경 -0.10167504 -0.03910616 0.05896922 0.08606478 0.060154527 -0.093653 0.057855528 -0.11176746 0.06047221 -0.024159813 -0.11322812 0.024149226 0.08981883 0.0901507 0.09703721 -0.05253966
허접 -0.03941222 -0.033504177 0.089877196 0.037575778 0.09867025 -0.039145686 0.08312588 -0.060542114 0.08301086 -0.104782134 -0.094298795 0.043599226 0.08009433 0.094965346 0.040938817 -0.076272614
초반 -0.03857624 -0.038277905 -0.03771142 0.04108778 0.0028723471 0.029520327 -0.03837563 -0.006857075 -0.0030261544 -0.03677466 -0.024940476 -0.03776567 0.0032211496 0.01475423 -0.0508867 0.015641352
질 0.11139938 0.124546446 -0.12705535 -0.055263713 -0.10176168 0.08207201 -0.077140376 0.086495414 -0.1553764 0.13653108 0.13547026 -0.12694 -0.09115949 -0.080012426 -0.11952256 0.047038093
어색 -0.09535964 -0.10752514 0.12869088 0.053540677 0.078628 -0.045390747 0.0550597 -0.0959207 0.10835028 -0.09444873 -0.08335746 0.11476791 0.106338926 0.043078583 0.041801736 -0.022787295
시나리오 0.0392769 -0.03328908 -0.03522231 -0.011749697 0.045867115 0.016412608 0.045592237 -0.032364734 0.030513467 0.025416553 -0.037781734 0.014967207 -0.05116372 0.02911814 0.029731438 -0.035664085
사실 -0.041044917 0.011062438 0.004820031 0.050010268 0.047811303 -0.08430554 0.03812245 0.0056782113 0.072552204 0.0037816109 -0.025821358 -0.014248757 0.00850773 0.034253262 -0.005543266 0.006086675
웃음 -0.16541958 -0.14175123 0.21673514 0.12934601 0.1418136 -0.19959994 0.14495738 -0.11990161 0.21066472 -0.15295865 -0.2213732 0.102669924 0.18961164 0.17062679 0.12514491 -0.101084575
첨 0.11611039 0.08104079 -0.059735443 -0.081076734 -0.08846916 0.107813746 -0.045186736 0.037887704 -0.10053641 0.124793984 0.05582584 -0.040697273 -0.099197224 -0.06494182 -0.13398018 0.0389293
분위기 0.061812256 0.08922088 -0.06817484 -0.10875812 -0.058927223 0.08013866 -0.12352079 0.1353997 -0.11992979 0.06364053 0.08656586 -0.07439812 -0.043531507 -0.12496486 -0.12170653 0.08392236
소름 0.08308046 0.05383409 -0.03419703 0.011297987 -0.068269774 0.08729414 -0.08481434 0.024566714 0.0036132054 0.060756814 0.035363335 -0.07188161 -0.010737769 -0.038696717 0.0082600545 -0.0061335918
멋진 -0.40289864 -0.35258463 0.49141848 0.31264383 0.34720737 -0.38304862 0.40510562 -0.36675772 0.49269116 -0.32186124 -0.46795833 0.33393356 0.35828036 0.44472197 0.3267108 -0.3026413
추억 0.0974445 0.020113055 -0.010464745 -0.05523676 -0.0027057393 0.09672462 -0.046814114 0.08255076 -0.03774729 0.067229204 0.02710983 -0.06999066 -0.07167797 -0.0039242893 -0.09305044 0.043319006
머 -0.19320406 -0.11266433 0.16580565 0.14881486 0.14134338 -0.1359913 0.12833303 -0.12569392 0.19642659 -0.085212275 -0.18196203 0.16742827 0.13010119 0.17859764 0.1309687 -0.14737752
멋있 0.04728916 0.025175225 0.0049559847 0.025430087 -0.030859327 -0.01981256 -0.01750908 -0.03916316 0.038296785 -0.04667324 0.04367948 -0.0075994134 0.005498875 0.027292598 -0.04843832 -0.017254997
힘들 0.0037787093 -0.043574058 0.018665237 0.06816354 0.03864597 0.02114223 -0.003376838 0.019066582 -0.0011663749 -0.032436542 -0.0095029175 0.02028875 0.024731115 0.008183257 0.0030224682 -0.046534076
정신 0.0056266347 0.011560082 0.052418493 0.017636593 0.023235172 -0.009444136 0.049721465 -0.018926598 0.04583408 0.03362532 0.007862082 -0.02371184 -0.04797334 0.020468635 -0.0313002 0.0367855
캐스팅 0.117540054 0.07261271 -0.075998716 -0.04683157 -0.07413077 0.117900655 -0.12115055 0.09262311 -0.12192811 0.042731058 0.062474206 -0.0607693 -0.11611769 -0.11601948 -0.04747083 0.10363858
등 0.010254848 -0.026130013 -0.038853772 -0.022665827 0.037591048 0.050487306 -0.005464912 -0.00658588 0.036343627 0.034077648 -0.03660935 -0.020035591 -0.047251143 -0.035467274 -0.018955013 0.009339559
밖에 -0.023820847 -0.01679907 -0.029760629 -0.061493274 -0.04745848 0.010492978 -0.028258344 0.042027548 -0.00048173356 -0.0028209076 0.05766657 -0.03292123 0.003074349 -0.03371499 -0.06530436 0.061066125
OOO -0.24094611 -0.22797497 0.28162122 0.2185766 0.17427796 -0.24613325 0.26416555 -0.26391846 0.30637655 -0.16984941 -0.23249978 0.21469826 0.16094282 0.2127671 0.2509332 -0.19211723
결국 0.10955647 0.12405656 -0.17154811 -0.1430312 -0.1484674 0.15241306 -0.09652637 0.11811472 -0.13234498 0.12952997 0.11495424 -0.11283544 -0.11799234 -0.088186294 -0.0670253 0.08946018
봐서 -0.003077265 0.048986256 0.023777165 0.028832497 -0.022741428 -0.027294027 -0.037864264 0.0095028635 0.036915835 -0.0099550225 0.044075716 0.0480213 0.001016023 0.04329828 0.006358867 -0.023422724
류 -0.015405527 -0.0057820505 -0.007330472 -0.013194807 0.02490597 -0.026890635 0.027100652 0.021957088 -0.03407352 0.023612235 -0.038276345 0.050045304 -0.030077493 0.018428324 -0.023762763 0.02135091
오늘 -0.09966613 -0.12834114 0.16452204 0.15343533 0.09416666 -0.15524317 0.17091285 -0.080740824 0.10318777 -0.11059675 -0.0837659 0.13690463 0.15068641 0.170781 0.086649224 -0.079284675
졸작 -0.33778808 -0.24559146 0.42345452 0.26790577 0.25463673 -0.28968868 0.37903577 -0.3333854 0.35632923 -0.29988307 -0.42006952 0.22221078 0.2987351 0.3814736 0.26805273 -0.2682871
낫 0.06074597 0.08395414 -0.025435245 -0.009268362 -0.059729367 0.05507317 -0.03794049 0.018302143 -0.062375847 0.00598894 0.019342687 -0.0070644272 -0.0031460293 -0.07037845 -0.027644023 0.015035222
킬링 -0.090849 -0.121264175 0.10419188 0.11262012 0.12762035 -0.118131936 0.13824648 -0.12889567 0.13500486 -0.06649029 -0.083083704 0.12930793 0.09697272 0.12980187 0.10872404 -0.1380367
역사 0.14780185 0.13595966 -0.15524808 -0.13528621 -0.10250194 0.0964101 -0.13862632 0.13780643 -0.107483216 0.10714063 0.14924324 -0.106901586 -0.06273589 -0.15966299 -0.08836298 0.07477285
함께 -0.19311549 -0.1689173 0.1689651 0.14797027 0.16463403 -0.14961301 0.22681658 -0.20405383 0.24042425 -0.10793899 -0.2301273 0.18544494 0.14879826 0.2155337 0.20374237 -0.15261017
잡 -0.007208789 0.0431289 -0.06381615 -0.016948603 -0.00963061 0.030684708 -0.077488855 0.06393024 0.0031980462 0.042122517 0.019992054 -0.03767909 -0.03851614 -0.0007807618 -0.09222149 0.024981266
엄마 -0.11564882 -0.072971605 0.0763445 0.13837722 0.10683572 -0.119556434 0.14880323 -0.13362277 0.088631175 -0.12488533 -0.097760536 0.10219608 0.05755702 0.053530622 0.14436238 -0.08352429
이딴 0.09420239 0.15695387 -0.13604753 -0.09631157 -0.11494897 0.11263317 -0.16573277 0.12492039 -0.10747109 0.14677419 0.17978899 -0.13938707 -0.1577544 -0.13856842 -0.10796078 0.120311
한데 0.04257788 -0.0014370099 0.008946421 -0.05174 0.0029280505 -0.021707665 -0.0025455782 0.044797 -0.028686553 -0.02271499 0.031910744 -0.00051619834 -0.03622699 -0.045395166 -0.026859827 -0.016766727
20 -0.029831355 0.015508219 -0.012271004 0.02941661 -0.018024435 0.00053256104 -0.004245696 -0.030951986 0.05461737 -0.03058416 0.009753726 0.016797666 0.055367302 0.043223284 -0.018605215 -0.027182749
집 0.16055675 0.20325467 -0.21419625 -0.119499676 -0.18653555 0.12953858 -0.15244554 0.13474765 -0.13431033 0.10345766 0.14292076 -0.13293071 -0.15946187 -0.17271267 -0.18839265 0.16630192
구성 -0.032445874 -0.09332494 0.05092261 0.042796344 0.11857597 -0.05420183 0.075315975 -0.11034146 0.0459728 -0.054541007 -0.08015271 0.11226343 0.06134345 0.06044275 0.04475061 -0.080193676
문제 0.0107663 -0.047865994 0.0022712033 0.06144852 0.01042787 -0.008099807 0.040328678 -0.04132648 0.02233566 -0.03751167 0.015196837 0.035574578 0.008574743 0.06292824 0.0133740185 -0.025412088
뭘 0.27677825 0.1585704 -0.27956986 -0.20302647 -0.19066978 0.17887942 -0.25979048 0.22651383 -0.19898315 0.16492786 0.20439202 -0.21713793 -0.17434084 -0.28532055 -0.18109675 0.17058949
나요 0.080065936 0.044557214 -0.11477927 -0.11350761 -0.12070598 0.06826581 -0.061349023 0.12653853 -0.07230812 0.054209433 0.12838258 -0.054996002 -0.065264516 -0.08304795 -0.058696043 0.055986293
뻔한 0.23593132 0.14577192 -0.19005074 -0.19828187 -0.13388179 0.17192408 -0.2095226 0.15974055 -0.21897979 0.13350071 0.16322291 -0.16990441 -0.16569404 -0.21394445 -0.20576708 0.1172627
스러운 0.027413724 -0.01150069 -0.03522293 0.0047270353 0.034738928 0.023789955 -0.010707666 -0.007672027 0.013583717 0.013679467 0.01154568 -0.048259713 -0.040542953 -0.010475693 -0.0277475 -0.027677327
어이없 -0.016456854 -0.046014823 0.03768671 -0.013526976 0.01951107 0.020984855 -0.021324957 0.022270802 -0.04670875 0.016855467 -0.0056511275 0.034235906 0.046543483 0.007321775 0.015551303 -0.0005206838
제발 -0.019716928 -0.08231577 0.057789255 0.033983264 -0.008749369 -0.03429739 0.013920586 -0.0878437 0.04716277 0.009159478 -0.05092106 0.055855285 0.07884714 0.07236716 0.048360888 -0.00015115055
뭔 0.13785209 0.12102317 -0.18782647 -0.13623147 -0.14362946 0.19228609 -0.17782047 0.103731416 -0.18275991 0.16681169 0.12238462 -0.12437189 -0.08910401 -0.18785204 -0.17856063 0.14755519
러 -0.10383558 -0.11413392 0.11874814 0.13223381 0.059309732 -0.13539782 0.105070114 -0.12747437 0.12627713 -0.11237185 -0.063797385 0.08756426 0.041544277 0.12518454 0.08324706 -0.122630246
~~~ 0.106072426 0.10216312 -0.036881976 -0.051247213 -0.038002048 0.07152859 -0.10557328 0.09558137 -0.08707192 0.05774555 0.061040107 -0.043178655 -0.08401913 -0.110156804 -0.021639137 0.00817363
위해 -0.06289207 -0.04072224 0.0033839839 -0.018630713 0.041195516 -0.04348672 0.080045454 -0.036076464 0.072160825 0.014065624 -0.006484977 0.05344258 0.06955539 0.058140654 -0.006669091 -0.004198456
간 0.20802855 0.19693795 -0.29453573 -0.25260115 -0.21127202 0.23739517 -0.2458113 0.26914495 -0.27618644 0.24103034 0.21037538 -0.16834596 -0.25940195 -0.2227039 -0.2462646 0.17618339
아무리 0.01654561 -0.015303439 0.015203454 0.010733567 -0.028139105 -0.041071538 0.008825353 -0.042746678 0.034120563 -0.020575529 0.04173078 0.05408814 0.03165782 -0.04182873 -0.02997427 -0.03868171
잊 -0.024890019 0.009410322 0.012119293 0.040973615 0.0025816076 0.024559285 0.006543994 -0.001066722 0.0010736361 0.04985908 -0.0036328807 0.04365642 -0.03370588 0.02691025 -0.002278842 0.0078553185
버리 -0.049025275 0.045017768 -0.028569877 -0.036951937 0.038692486 -0.024948288 0.02073798 -0.042245388 -0.0015354268 0.046656672 -0.042430352 0.027650926 -0.015382219 0.04233266 -0.014169358 -0.02858596
난다 0.032544762 -0.031327188 -0.011581335 0.00039636355 0.025081147 -0.033320844 0.036105245 -0.050511215 -0.0028414067 0.030808078 0.0010839144 -0.017973775 0.042352665 0.028345564 0.048046153 -0.038200375
소리 0.1522693 0.1280089 -0.08728439 -0.09995379 -0.09797427 0.13191772 -0.14529024 0.16755186 -0.11063219 0.15814388 0.15223701 -0.10417668 -0.0753676 -0.17009589 -0.15482353 0.09664824
어릴 0.046370495 0.05492613 0.017501818 -0.0650786 -0.050841786 0.062300943 0.014198132 0.023239432 0.005753876 -0.024894299 0.038285304 0.01898356 -0.03781804 -0.026027482 -0.054460026 -0.0073616905
