2996 16
영화 0.0073045944 -0.04890227 0.05648901 0.08708104 0.09780072 -0.105340265 -0.08570435 -0.100138605 -0.03389096 -0.10503227 0.041640025 -0.047495365 -0.008361122 0.019518146 0.10385527 -0.02765566
다 0.014234532 -0.021998717 0.075918876 0.052837808 0.0445853 -0.057846166 -0.069929615 -0.06786884 -0.040572755 -0.0679483 0.048805326 -0.032266617 0.005477132 0.046640426 -0.01190671 -0.046988264
고 -0.040088985 0.036307085 0.008298015 0.02037282 -0.019175954 -0.019256992 -0.008658591 0.05904166 0.0610312 -0.037064962 -0.060064975 0.038216047 0.041842368 -0.052889746 0.034693327 -0.02662146
하 -0.051103577 0.026143024 -0.03553781 -0.033514433 -0.003227874 0.005841617 0.036610678 0.01733333 0.03210475 -0.011359269 -0.005716277 -0.024929477 0.033164002 -0.035246797 -0.033708677 -0.013437649
을 0.021573301 0.004659552 -0.034050632 -0.008561677 -0.055099014 0.029079085 0.02385927 0.010541328 0.031615093 -0.007786927 -0.032884087 0.053659473 0.021023713 0.014745286 -0.016323397 -0.029635992
보 -0.015135101 -0.01952831 0.00368015 0.021693619 -0.038875483 0.033032037 0.012468107 0.015541702 -0.011296183 0.007749039 -0.028620245 -0.015329159 -0.0068334765 -0.05691817 -3.2690463e-05 0.022512887
.. -0.045297842 -0.049635038 -0.032147594 0.025274185 0.041129965 -0.030677056 -0.041284144 -0.034026306 -0.026511692 -0.0030098204 0.007357324 0.024882589 -0.021154502 -0.044030808 0.033487104 -0.031491164
게 0.011402455 0.0060073943 0.011998547 0.025048815 -0.014934187 -0.066966124 -0.00034932068 0.0045036254 -0.00072448247 0.020204073 0.04740537 -0.013576065 -0.07257728 0.004741743 0.012127686 -0.06595534
, -0.051907606 0.014406322 0.014509507 0.018543217 0.016048135 0.013150857 -0.018261265 0.053190835 0.043648787 -0.007609753 -0.020151699 -0.01628737 -0.0343937 -0.013390885 -0.05872858 -0.03660585
! 0.0855075 -0.09214612 0.09628733 0.14130023 0.061889753 -0.10502301 -0.098573074 -0.06771252 -0.12732024 -0.1360666 0.05754707 -0.1430285 -0.117633134 0.089930415 0.12097292 -0.07616729
지 0.026102614 -0.016831428 -0.026685115 -0.038177997 -0.029401336 -0.0029091826 -0.053398423 0.024649903 -0.02474585 0.001671979 0.02405254 -0.033434253 0.031070247 0.015099612 0.054775268 0.00815028
있 0.0144005045 0.048885673 -0.037377845 0.019109175 0.035859507 0.007995195 0.027785204 -0.0068625184 0.03593015 0.012996492 0.0360071 -0.044184845 0.026678298 -0.04325939 -0.025960913 0.049062602
없 -0.021647256 -0.048276573 0.05472004 0.05630061 0.0069733188 0.023242213 0.0071245385 -0.050405055 -0.04551986 -0.044472802 -0.016936706 0.013994507 -0.0578511 0.032000117 0.029155126 0.014137057
? 0.007003527 -0.004770011 -0.0064540207 -0.031149128 -0.008587883 0.010494266 0.012367166 0.016745906 0.034100253 0.018506797 -0.018635519 0.024875518 -0.007807433 0.0028327391 0.01352512 0.05270428
좋 0.011602038 0.0040508606 0.026521169 0.015766785 -0.016776627 -0.0472083 0.01996175 -0.026853014 -0.0329388 -0.03342707 -0.0148392515 0.027076362 0.026900718 -0.004476649 -0.033677224 0.010741772
나 -0.0007891063 -0.009257417 0.046682008 -0.015710928 0.029667117 -0.0045881122 -0.018615937 0.0023042527 -0.01643615 0.0024429064 -0.011589663 -0.028190706 -0.006293873 -0.028351216 0.039809976 -0.028568469
었 -0.02443163 -0.017206362 -0.005771488 0.010190905 -0.019836718 0.035088047 -0.02413975 -0.032843422 0.048027344 -0.009618966 0.019356444 0.01755101 0.045700777 -0.017078996 0.029616773 0.024944168
만 0.047327787 -0.04637178 0.0612134 0.018283438 0.03561933 0.013570037 -0.05848191 -0.04385056 0.008726146 0.025106916 0.025579521 -0.009373142 -0.054516904 -0.02398686 -0.027391 -0.016567023
는데 0.032235567 -0.030637916 -0.02520656 -0.0327785 0.03428255 -0.01633705 -0.004210603 -0.026074173 -0.03110493 0.0006834629 0.030383494 0.032734137 -0.017984334 0.054817192 -0.024775462 -0.0279644
너무 -0.021408482 0.06436077 -0.049005147 -0.04883025 0.007731342 0.07151907 -0.0013453303 0.0036160739 0.018767137 0.029410968 -0.07902491 0.03783494 0.055100176 -0.033589963 -0.0015296985 0.07657306
봤 -0.052770004 0.02079409 -0.037235618 -0.043003578 0.00051671325 -0.01005223 0.021380045 0.0032278018 0.037167273 0.055918142 0.014958635 0.052928 -0.033729713 -0.03059128 -0.048181485 0.06159547
안 0.09806048 -0.115699634 0.1052886 0.062256616 0.06978851 -0.10019981 -0.118175395 -0.10037615 -0.121037915 -0.09223863 0.05265162 -0.13595092 -0.12682503 0.116224304 0.11822876 -0.05870503
적 -0.02892661 -0.02520577 -0.03702931 -0.047967758 0.023365645 0.012439768 0.018973932 0.0035408975 0.046523433 0.05223848 -0.008198385 -0.008305369 0.027614536 0.0021033946 0.021146156 -0.039383084
정말 -0.043196127 0.13624999 -0.091244526 -0.06025048 -0.060770437 0.057617318 0.06486491 0.085197955 0.11043064 0.13059211 -0.12818564 0.047208577 0.043718018 -0.12348448 -0.06365574 0.04318122
로 -0.019928487 0.052663393 0.025824767 -0.0522412 0.040599562 0.022886207 -0.009299434 0.009621814 0.0039476375 -0.00637917 0.018234165 0.0033351474 -0.020352725 -0.037470445 0.009617632 0.031830434
음 -0.06351698 0.014277662 0.010814638 -0.032305 -0.057876516 -0.0031803 0.05944723 -0.0025749346 0.034305368 -0.029735558 0.020401482 0.0059475256 -0.018003603 -0.020476567 -0.019946741 -0.020888427
것 -0.054196067 0.083994 -0.07439344 -0.021135699 0.008291603 0.07567619 0.033445153 0.00041673006 0.07794658 0.011071297 -0.028362416 0.002821429 0.01321296 0.0040492774 -0.03095055 -0.016104616
아 0.043971363 -0.0369117 0.040945865 0.070181124 0.005030496 -0.029003689 -0.07598907 -0.058768168 -0.05565031 -0.03796367 -0.005293978 -0.042127397 0.000630312 0.023914691 -0.014034305 -0.0010015216
네요 -0.028782273 0.027166922 0.024964547 -0.03095319 -0.016951686 0.009802831 0.036648404 0.0075867735 0.051967524 0.038444024 0.021371284 -0.034074377 -0.016796567 -0.033461913 -0.003853973 0.05289483
재밌 0.05479002 -0.027853176 -0.021907425 0.008236587 -0.012278059 -0.042655393 0.007894646 -0.046475433 -0.056623813 -0.05449744 0.023706319 0.0316274 -0.026097802 0.051769275 0.029753443 0.035177294
어 -0.033662006 -0.0007814858 -0.056217153 -0.03168737 0.03759447 0.012397832 0.0353406 0.05200186 -0.0341362 0.00695403 -0.050542668 -0.0121336635 0.027786698 0.031249188 0.034392312 0.028763384
같 -0.004978126 0.03405441 0.05140538 0.010475595 0.047349155 0.012834391 0.03140295 0.0061033657 0.01871759 -0.041663073 0.044537038 0.020879887 -0.022220172 0.01267548 -0.03415551 0.017786622
점 -0.010139568 0.037297502 0.0065665864 0.023071878 0.01705841 0.0443218 -0.020905497 0.001035162 -0.02258055 0.043835226 0.035013862 -0.049991265 0.018402051 0.015074942 0.04754314 0.027933598
진짜 -0.07717719 -0.004419763 -0.04526206 -0.00083385117 -0.04764031 0.052817084 0.04571342 0.042491913 0.05312678 0.05808963 -0.07831822 0.03418613 -0.0044684857 0.014728589 -0.045142014 0.0070493426
지만 -0.026270228 0.00490071 0.045247346 0.043753054 0.049161065 -0.0059080175 0.028946867 -0.043936063 -0.054566715 0.014662755 0.0032908043 0.02949529 -0.018659864 0.016624598 0.016581357 0.04107406
했 0.0003191121 0.0134066455 -0.008277379 -0.037092995 -0.01839576 -0.0010810494 0.039136533 -0.029684782 0.03943162 -0.04224154 -0.031246781 0.016857509 0.011564862 -0.0047459975 -0.042887058 -0.026000356
에서 0.05430229 -0.024658768 0.02787991 0.056781694 0.045888215 0.007333012 -0.044014364 -0.029880531 0.028108919 0.0019050649 0.013280424 -0.056652192 0.003321615 0.0021795395 0.03760438 -0.022398647
기 0.035126027 -0.019309463 -0.015664618 0.003804012 -0.047457516 -0.03688474 0.00020071956 0.030247334 0.046935417 0.018311845 -0.057716127 0.0267415 0.044554383 -0.01495847 -0.0399782 0.052952655
네 -0.05533439 0.042753357 0.018785195 -0.055225715 -0.041937534 -0.008185231 -0.019808944 0.011973156 -0.00766835 -0.02125562 -0.014970327 0.005790846 0.056548413 0.02182608 0.03230606 -0.019304156
않 -0.005207835 0.00016039463 -0.011053516 -0.03709337 0.019099182 0.04782035 0.047666855 -0.015024852 0.019837378 0.0019982555 0.02772587 -0.037005447 0.022268562 0.04022679 -0.004689947 -0.022424513
거 0.04936439 0.014182698 0.047633003 -0.028600262 -0.022663312 0.0043343655 -0.04645818 0.023518665 0.025065813 -0.026993029 0.022794086 0.016146028 -0.03444875 0.043649886 -0.010491972 0.02415564
았 0.02268647 0.025619093 0.0065333024 0.009219147 -0.0006181486 -0.009340204 0.011788715 0.017682377 0.02438147 -0.028066492 -0.0002738349 -0.022804057 -0.018093966 0.038357053 0.021716569 -0.009262431
수 -0.044219855 0.057429396 -0.032634236 -0.08695212 -0.049744476 0.049399983 0.07320271 0.039635286 0.104203165 0.06379892 -0.10200376 0.059132453 0.097836845 -0.07806365 -0.02074279 0.08858092
되 -0.012748297 0.026196185 0.024922736 0.046014905 -0.0338543 -0.054108262 0.006671104 -0.022165472 -0.038855523 -0.02908483 0.0034008613 -0.01876586 -0.0078059454 0.00681148 0.00873974 -0.026251853
면 -0.04928599 -0.02870313 0.023273483 0.022575695 0.026967868 -0.035418272 -0.0030370594 0.031293552 0.042309776 -0.012451229 0.025270408 -0.031843107 -0.022739619 0.04070638 -0.008462144 -0.027647648
ㅋㅋ 0.08725369 -0.116596155 0.077475965 0.10661113 0.08160303 -0.064645454 -0.12854642 -0.061832026 -0.10974074 -0.054525513 0.1270727 -0.043535717 -0.07689727 0.10352075 0.09828456 -0.1274357
연기 0.04866006 -0.049687266 -0.01128414 0.049079802 -0.026420927 -0.03081933 -0.017891018 -0.038259093 -0.019183435 0.0017913821 0.025700662 -0.049584717 -0.05564426 0.05076783 -0.011717244 0.019698171
말 -0.003048685 -0.026299758 0.006013638 -0.016375268 -0.024543345 -0.0060043326 0.0033600358 -0.041602038 0.008184094 -0.0550243 0.043275755 -0.03193402 -0.008365017 0.0550809 -0.018863194 0.001005925
인 -0.0547861 0.0532149 0.027347945 -0.054334354 -0.03863495 0.0053644567 -0.009149024 -0.010976585 0.028573763 -0.019218711 0.00072015857 0.012852023 -0.007806309 -0.052615147 -0.037741713 0.038302764
주 0.0073557235 -0.035411578 0.059702173 -0.0017326326 -0.024866713 -0.04915362 -0.007707348 0.033758104 -0.017048646 0.00902149 -0.032443475 -0.041802295 -0.016452102 -0.03464023 -0.0067916387 -0.036729936
최고 0.1555854 -0.17646295 0.08739136 0.15723859 0.17186615 -0.10544692 -0.11912772 -0.15532136 -0.11310754 -0.08980684 0.14781794 -0.1116479 -0.14343065 0.13466577 0.11495078 -0.08730037
평점 0.020436076 0.053430468 0.015848521 -0.04019696 0.018921165 0.04602552 -0.021219965 0.07343997 0.026187282 0.06714368 0.005867044 -0.024756864 0.06215265 -0.032279383 0.015928771 -0.016599376
내 0.036420222 -0.018920427 -0.018835666 -0.0030991363 0.0055242777 -0.0025127735 -0.0036858115 0.04199184 -0.007993937 -0.0420516 -0.049999777 0.031747963 -0.04528682 0.04513883 -0.0045783203 -2.3214961e-06
~ 0.048911043 -0.04284449 0.08936419 0.0042882445 0.08184922 -0.063120686 -0.01952443 -0.00659842 -0.07415352 -0.063707896 0.01744062 -0.09609937 -0.08616793 0.003832141 0.068677165 -0.09433801
이런 0.009632336 -0.028896237 -0.0013086476 0.04070879 0.07366437 -0.020749683 -0.06968813 -0.019400567 0.019403856 -0.059601262 0.043923534 -0.032100394 -0.07136176 0.016736768 0.028845347 -0.031449486
던 0.026931543 -0.04241784 0.023870014 0.023397947 -0.011428371 -0.004906219 0.019097522 -0.009782711 0.03059619 0.0042069387 0.016353302 0.013268872 -0.036446273 0.011932331 -0.048048533 0.02775075
어요 -0.02166742 -0.028302038 -0.021086086 0.006359469 -0.03839488 0.020070802 0.03681959 -0.020323252 0.003049612 -0.035552848 0.025879074 0.043800984 -0.048116293 0.038090196 -0.01638911 -0.03572483
왜 0.02703415 -0.097217314 0.10661473 0.11438501 0.050893497 -0.11803709 -0.074564755 -0.07128515 -0.07481722 -0.08245384 0.102360584 -0.10473393 -0.123477064 0.090704024 0.0929402 -0.100108236
할 0.021581402 0.056794636 -0.026817959 -0.00997434 -0.013275756 -0.019353375 -0.004185599 0.046663973 -0.00056336256 -0.03669376 0.027184973 0.05481612 0.03478472 -0.026433034 0.021294007 -0.005150568
겠 0.04191314 -0.020526826 -0.040109836 0.0040431675 -0.028053688 0.007899241 -0.04024932 0.02800179 0.012386273 -0.025399087 0.039476678 0.02685183 -0.032160874 0.020128429 -0.0318292 -0.017596815
1 0.005319428 0.05484427 -0.0022381009 0.02831987 0.0071898284 0.02248369 -0.020664126 -0.014469671 -0.013057053 0.0470398 0.029245578 0.011299 0.00923977 0.015949327 -0.009927977 0.019185815
해 -0.054300185 0.00549625 -0.022365002 -0.036401115 -0.012249198 0.068160325 -0.0056169094 0.06954589 0.04890025 0.03875407 0.025649736 0.024572862 0.0352824 0.023721363 -0.056279253 0.009312468
스토리 -0.017722392 0.049189378 -0.053036828 -0.062223885 -0.07080677 0.026082076 0.0269946 0.06870664 0.0339649 0.0394809 -0.070378765 0.072374225 0.05140429 -0.054235738 -0.0146959275 0.06262598
습니다 0.0013434364 -0.032489754 0.04657891 0.017674973 -0.03614878 -0.010130615 0.029156445 -0.053309925 -0.038405214 -0.02808931 -0.013800389 -0.0136787705 0.03220501 -0.014749947 0.024793757 -0.02743987
ㅋㅋㅋ 0.07842629 -0.052372344 0.0452362 0.060890112 0.043646153 -0.0025698994 -0.06341934 -0.0065101977 -0.0014630109 -0.06314375 0.006508731 -0.07547694 -0.041688457 0.008373784 0.021942247 -0.04629833
... 0.024081497 0.05754934 0.013946202 -0.016015444 -0.035207227 -0.0012184507 0.04384156 0.06432731 0.05457446 0.014010341 0.0170011 -0.011410661 -0.0019300487 -0.010072824 0.022906026 -0.01609663
아니 -0.0500215 -0.014153267 -0.045512438 -0.015945196 -0.022681238 0.037574556 -0.037123196 0.016057812 0.0059003974 -0.020120813 -0.051064357 -0.024019884 -0.0125979595 -0.01848867 -0.016141996 -0.02114173
생각 0.043975823 -0.084065415 0.012654648 0.043246083 -0.0031728104 -0.0035816978 -0.019703474 -0.005267324 -0.02852942 0.024241332 0.069361396 -0.032172434 0.0005580771 0.015288164 0.026173156 0.015604037
더 -0.011395891 -0.09499636 -0.011660993 0.051193833 -0.0038677591 -0.05062482 0.023914851 -0.06730689 -0.0067853224 -0.05909351 -0.013510176 -0.02216476 -0.012157574 -0.00024384666 0.025180692 -0.029737933
그 -0.0750727 0.054914672 -0.047096096 -0.0016870376 -0.0673771 0.03969578 -0.0049220454 0.08430599 0.026938802 0.034112692 -0.04868959 0.06675593 0.03422051 0.0071804924 0.008277891 0.010285568
드라마 0.041090634 -0.06787896 0.072484836 0.120140664 0.090904936 -0.05329259 -0.04115191 -0.08278014 -0.057978164 -0.042555563 0.045062944 -0.03219736 -0.11992063 0.12024757 0.08727697 -0.105701014
싶 -0.0083318325 0.0042852163 0.039564755 -0.008342063 0.033070575 0.025832284 -0.02822504 -0.0040795705 0.021017302 -0.044395056 0.049770247 0.023164932 -0.013266588 -0.01938337 0.019835506 -0.015936755
사람 0.040883612 -0.027176926 0.018982692 -0.005104507 0.066798136 -0.032921847 0.008438742 -0.0009156374 -0.060675766 0.012176801 -0.029753927 0.0009920119 -0.008012653 0.025454175 0.028534075 -0.0012454914
듯 0.023682313 0.03520538 -0.014891422 -0.031822372 -0.031527527 -0.03019103 0.008713838 0.058548268 0.037630174 0.04014525 0.024815233 -0.001219667 0.04625473 -0.033018727 -0.01772088 0.017310819
때 0.027385106 -0.040723 0.042852044 0.032973476 0.0351516 0.044989083 -0.014126208 0.020608097 0.009840102 0.038414575 -0.022735845 -0.0230788 0.028844824 0.002692174 -0.032541644 0.021506289
감동 0.06648614 -0.110690445 0.06030649 0.09834566 0.053373516 -0.047539648 -0.065423295 -0.089287944 -0.11688973 -0.056420222 0.06838339 -0.14269888 -0.06467814 0.11366752 0.13632156 -0.08209459
배우 -0.03316433 0.0020716821 -0.010487869 0.01901966 -0.016690167 0.011215964 0.006074895 0.020586325 0.017247384 -0.018237835 -0.033227347 0.027483212 -0.029125018 0.029940497 0.016981449 0.0098512815
함 0.056433562 -0.0012152644 -0.0009273249 -0.021378648 0.019365735 -0.05470729 -0.0582669 -0.05418038 -0.0473493 0.02770638 0.042616412 -0.011989723 0.0246879 0.020355638 -0.0246994 -0.022747595
까지 -0.015109334 -0.012066253 -0.0002970439 0.020848703 -0.002964763 -0.017805256 0.024529638 -0.005219818 -0.012105449 -0.01687554 -0.021143194 0.03100092 -0.0066982894 -0.018758507 -0.041540485 0.009755293
본 -0.10724491 0.131775 -0.117216974 -0.033892028 -0.05432993 0.10698615 0.026467063 0.09083076 0.063686356 0.06804291 -0.056152537 0.06710327 0.1072073 -0.016729392 -0.065995224 0.098891675
볼 0.015483867 -0.06876922 0.0318283 -0.022249574 -0.01134923 -0.020492295 -0.050101683 0.017919062 0.034819126 0.011906129 0.028123261 0.0049939994 -0.033268098 0.019028429 0.028659387 0.0052058566
내용 -0.031769756 0.041665923 -0.014161457 -0.030004121 -0.031025903 0.031181974 0.02241536 0.031847514 -0.018674143 0.008199056 -0.020456012 0.0037008205 0.039387185 0.024333434 -0.061863862 -0.00056809495
보다 0.02804293 -0.02360073 0.04974073 0.050634246 0.049544007 -0.04693838 -0.059453044 -0.003044453 -0.021501858 -0.075241834 0.063350625 -0.0504332 -0.0895963 0.08463484 0.1006519 -0.019594627
만들 0.045564912 -0.0036041401 0.0060416204 -0.032237735 -0.02885875 -0.04813367 0.043594263 0.037067663 -0.0028331862 -0.012678576 -0.032380376 -0.034411065 -0.006669003 -0.04719784 -0.013074271 0.0002091847
뭐 0.00055624533 0.004949931 0.05842793 -0.030742915 0.015382749 0.0107970685 0.0033471351 0.0353754 0.011393852 0.028105106 0.040487163 -0.0026871786 -0.021983823 0.05978802 0.041844837 0.019874636
알 -0.03519601 0.042917877 -0.020571161 -0.019667594 -0.03839089 0.053786755 0.008547798 -0.0028439655 0.044297222 0.018848283 -0.028255472 0.03166921 0.0027259036 -0.04988677 -0.016453896 0.022279197
감독 0.0070272684 -0.047915272 0.07682486 0.041016664 0.022283684 -0.008379554 -0.08093757 -0.045719508 -0.003012114 -0.020179534 0.03384283 -0.037218943 0.00691319 0.016451959 0.024321511 -0.025874646
라 0.041197628 -0.008862139 0.009565059 0.009828877 0.033222813 -0.019674188 -0.0409127 -0.019334491 0.028490042 -0.011154924 -0.0455407 0.00095587573 -0.024869736 -0.051160485 -0.016127724 0.021422151
그냥 0.08554811 -0.11303049 0.04800161 0.03133108 0.017373215 -0.025301158 -0.042248685 -0.023512235 -0.02565196 -0.037220698 0.039264426 -0.0235034 -0.029603312 0.041980103 0.022171076 -0.06426366
재미 0.041673686 -0.10245345 0.09288255 0.027678996 0.026457649 -0.04686707 -0.086219735 -0.022218509 -0.058174476 -0.058439977 0.035389043 -0.024642952 -0.10407196 0.024379175 0.0438545 -0.031454206
중 0.0018030456 -0.0088698 -0.059202824 -0.058556862 0.027478715 0.04668562 -0.0060147345 -0.027766854 0.03309243 -0.016473532 -0.069969654 0.028866563 -0.014755746 -0.014074349 0.012376669 -0.026598474
시간 0.07886704 -0.06020457 0.09160524 0.08403934 0.08961509 -0.098971285 -0.030754913 -0.09435912 -0.06957326 -0.022212436 0.044880066 -0.03527964 -0.06315115 0.031142011 0.03607068 -0.10044366
지루 0.0056809997 0.055939693 -0.009660462 -0.014241497 -0.083162345 0.07278232 0.08465571 0.040778525 0.07574211 0.073882185 -0.021685768 0.008336432 0.046507675 0.007746564 -0.006247851 0.08115886
재미있 0.031404544 -0.006365204 -0.02506521 0.040379085 -0.004708485 -0.05764062 0.0006212072 0.0034866186 -0.013852914 0.011388316 -0.020799031 0.018402634 -0.05121981 -0.036287688 0.023913516 0.020775167
년 -0.017247723 0.019399188 -0.044721596 -0.010387701 -0.042868283 0.025409246 0.027693924 0.043327797 0.011581933 0.040449522 0.043706473 0.0016553443 0.033189427 0.021745542 0.011087014 -0.03359362
였 -0.011287071 0.030152883 0.017710868 -0.04856199 -0.03252045 -0.026885748 -0.0264848 0.036044013 0.0264964 -0.028269088 0.019383643 -0.0136367455 0.007237006 -0.024079788 0.02377775 -0.039723754
10 0.04834537 -0.04870852 0.055353038 -0.019127306 -0.01926066 -0.026391957 0.020085081 -0.054929193 -0.060744476 0.011021775 -0.007922851 -0.04516461 -0.057965733 0.004637019 0.057365466 -0.021409145
잼 0.010451133 -0.0155885145 0.034827996 -0.023885313 -0.036060646 -0.006276709 0.01803517 0.015368539 -0.012070767 0.036472615 -0.028197339 0.008427906 -0.046698883 -0.017931515 0.0073429593 0.0061701466
사랑 0.03221381 -0.023832344 0.08532391 0.0332851 0.098933525 -0.09477405 -0.08707285 -0.0820161 -0.045748487 -0.06417764 0.071711235 -0.037184317 -0.0274801 0.0044919075 0.07503767 -0.046592984
냐 0.05667045 0.031169353 -0.01968817 0.015295164 -0.00048850285 -0.057214346 -0.043181486 -0.012822905 0.033766825 -0.0085861115 0.040298827 0.0034324531 -0.013229633 0.052873984 0.0016961537 0.021615129
못 0.035253935 -0.054012973 0.026047 0.06782485 0.04757703 -0.1097708 -0.043238852 -0.055627223 -0.11598128 -0.090292506 0.02516191 -0.040452793 -0.06959673 0.049020834 0.100583814 -0.057680793
재미없 -0.016228395 -0.0005105189 0.03478005 -0.023993306 -0.00025852973 0.025567891 -0.018110204 0.040457115 -0.0015114784 0.030016864 -0.00856055 0.025644153 0.033338144 -0.01320502 -0.0489595 0.00089529116
서 0.0063537015 0.025990741 -0.043850746 -0.014209342 0.019607292 -0.05239234 0.028947169 -0.032528944 0.021964554 0.01994807 -0.0016341369 -0.04392753 0.035046864 0.041008532 -0.03490791 -0.02951766
쓰레기 -0.08541052 0.1649986 -0.06918939 -0.0973912 -0.065936066 0.14218584 0.116850786 0.10290987 0.10684078 0.044436853 -0.09549336 0.06483919 0.039984543 -0.092014775 -0.0637927 0.057400074
2 0.0055640815 -0.001995591 -0.03764077 0.020393923 -0.04114081 0.038190246 0.035113193 0.022978125 -0.020572709 -0.0032964067 -0.0135240415 -0.047546417 -0.008675249 -0.026052566 -0.041286565 0.0051279613
라고 0.030650292 0.009402617 0.046263173 0.040805314 -0.0030323952 -0.003996488 -0.060873736 -0.041987896 0.019273859 -0.05995869 0.006954322 -0.019174248 -0.0074538835 0.009186729 0.017423147 0.022994794
번 -0.05341251 0.054156717 0.003972944 -0.012988475 0.02801112 -0.02317515 0.022697058 0.01712562 -0.008013329 0.00074254494 0.01573738 0.029365947 -0.017205596 -0.044374608 -0.019999107 -0.022851478
야 -0.050080005 -0.011135678 -0.031478353 -0.008779219 0.01946413 0.05086882 0.03701133 0.019256571 0.013048648 0.050347224 -0.03081717 0.027277717 0.023461165 0.02962521 -0.05012354 -0.013790125
면서 -0.044829965 0.0063127503 -0.010852028 0.023949374 0.01775426 -0.040440954 -0.0048632137 0.0044883266 0.022107992 -0.008247398 -0.022016311 -0.046003688 0.013485085 -0.0012258068 0.037685942 0.037604515
다시 -0.028946353 0.08643718 -0.029218111 -0.014783186 2.5539455e-05 0.0298104 0.07297395 0.037212916 0.07081148 0.02502941 -0.022142304 0.00660278 0.06756026 -0.043749932 -0.028718462 0.09490102
니 0.050717283 -0.010252452 -0.017329523 -0.024546742 -0.023704287 -0.004318279 -0.034003295 -0.052363373 -0.027655583 -0.0143415695 0.04995229 0.012825756 0.03383238 -0.03874855 -0.025918363 -0.017252052
나오 0.0039017797 0.029020693 0.021807205 -0.009054266 -0.020720625 -0.038291276 0.026390795 0.01569653 0.03484601 0.04220886 0.03463942 -0.016345501 0.04082488 -0.043482423 -0.02423451 -0.003462445
작품 0.07246828 -0.06577678 0.048117235 0.029252062 0.039424 -0.033870462 -0.097095594 -0.017819919 -0.11229599 -0.03281799 0.09593673 -0.097382456 -0.016651928 0.03990294 0.0884945 -0.10829347
이거 0.01079931 0.03527107 -0.047241457 -0.032546017 0.012374255 0.016179357 -0.035149753 0.0035141972 0.057154726 0.022828354 0.018586077 0.020830441 0.029997438 -0.041656908 -0.022802616 0.013653167
하나 0.047723312 -0.022945039 0.023246603 0.021673365 -0.025619319 -0.040768307 0.011023657 -0.047852457 -0.03588804 -0.025709307 0.046117373 -0.057945147 -0.008767133 -0.021327427 -0.028456349 -0.037912477
해서 0.05510166 0.023516793 0.001995684 0.012493601 0.048478466 -0.064789146 0.02810968 -0.058499083 0.022538858 -0.040937904 0.047279157 0.0220391 -0.026241293 0.06308097 0.0021771602 -0.05060563
줄 -0.015207314 0.0085184155 0.037703305 0.02253069 -0.016156599 -0.06943253 -0.049977027 0.014277589 -0.023622338 -0.06690248 0.06988393 0.013475311 -0.0548425 0.06664504 0.053006817 -0.05704245
개 0.039242115 -0.045999255 0.00038487648 0.01574955 -0.018079069 0.01872466 -0.02323856 -0.052189466 -0.016887883 -0.0419012 0.048367325 -0.01918601 -0.016369483 0.06410554 0.04081833 0.0075090085
끝 -0.032620374 0.026859554 -0.02773093 -0.038678885 -0.09291151 0.023268268 0.07785899 0.015941493 0.091025025 0.075093776 -0.0053338776 0.06612727 0.023719812 -0.0052737957 -0.022859108 0.0757624
남 0.018772522 0.060213707 -0.042293794 0.028658215 -0.0025720443 -0.02938283 -0.025726324 0.020829938 0.051302284 0.042264316 -0.0027351656 0.05310836 -0.008068587 0.008813936 0.017400805 0.053818498
정도 0.0025826625 0.015635839 0.021126436 -0.038020972 -0.029835578 -0.030746259 -0.011784637 0.025844986 0.06085499 0.030417768 -0.058336742 0.016102789 0.059014995 -0.052289814 -0.0109513495 0.016061407
마지막 -0.051373076 0.038640827 -0.05958801 -0.0070304116 -0.049177665 0.023927284 0.018768437 0.015119557 0.06645341 0.014660538 -0.088965304 0.051476218 0.0262108 -0.06436836 -0.011809895 0.08034332
이건 0.09192726 -0.05661973 0.09475875 0.021128971 0.007798358 -0.08526817 -0.033940226 -0.05593322 -0.067108124 -0.09573527 0.091657884 -0.045548227 -0.09392043 0.07813735 0.00068299414 -0.037072077
임 -0.001705073 -0.008131147 -0.0675081 0.008511917 -0.006330213 0.035355367 0.00039039864 0.056233335 0.0698171 -0.010654999 -0.030440025 0.016768483 0.027374094 -0.028240167 -0.06808727 0.040362034
액션 0.019278351 -0.008873624 0.013003418 0.01623806 -0.005904336 -0.020292073 -0.009062665 0.03792457 0.0055437526 -0.025798883 0.030518254 -0.0027802316 0.002173842 -0.016280342 0.02132142 -0.034099195
기대 -0.008358604 -0.008279285 0.02860841 -0.006880289 0.04418091 -0.013512025 0.0036662 -0.02846294 0.024114119 0.041085187 -0.016123397 -0.029067358 0.0110608 0.044468656 0.0129462825 0.01608345
분 0.055267636 -0.056814495 0.044556785 0.05754411 -0.012098007 -0.018298496 -0.028279753 -0.077753454 0.006359942 0.010386794 0.04998539 -0.017831666 -0.050375894 -0.010356808 0.055025768 -0.03209629
라는 0.01662272 -0.027028179 0.023357391 -0.037667286 -0.028120274 0.010690961 -0.007484852 -0.030543027 0.008145412 -0.04309596 0.03134935 -0.01014182 -0.04336929 0.0013397745 -0.0013119772 -0.009740464
ㅋ 0.09639575 -0.098012954 0.06856334 0.05508079 0.12982258 -0.057316374 -0.11228822 -0.05808496 -0.09625402 -0.068577886 0.047227304 -0.13314068 -0.055572122 0.0627011 0.07564785 -0.07500242
3 0.008078081 -0.044547364 0.0013248062 0.0160392 0.030984368 -0.02265425 -0.0247908 0.041137554 0.00028027422 0.015851066 0.046127982 0.012719341 0.011608238 -0.02851185 0.042963423 0.005935856
다는 -0.04105163 -0.017582703 -0.03148476 0.031844772 -0.041310497 -0.028093956 -0.0338281 0.042896774 -0.019270862 -0.02607219 0.015008549 0.046633333 -0.035869814 -0.00018831558 0.010647759 -0.001436521
입니다 0.07364355 -0.020407716 0.04328918 0.036825657 0.07255418 -0.051975593 -0.050992236 -0.022084218 -0.048405025 -0.036284573 0.086291574 -0.035310272 0.0033626163 0.032075934 0.023054095 -0.056554712
건 -0.0043162946 -0.044936918 0.03399724 0.052810147 0.022191092 -0.054208305 -0.085219905 0.00673046 -0.034680188 -0.0623295 0.08628706 -0.08818099 -0.02151534 0.032716118 0.04949605 -0.06931646
완전 0.009793665 0.0038404092 0.012206407 -0.032554884 -0.01879568 -0.016170092 -0.019194808 0.0076653156 0.03618068 0.044592932 -0.02730458 0.05142531 -0.017039498 -0.017002499 -0.07014529 0.057150837
많 0.03081398 0.048985813 0.042516265 0.027683858 -0.022607839 -0.037220787 0.045842614 0.04213861 0.033061717 0.028183464 -0.016247332 0.045893874 -0.005491566 0.047287133 -0.0076519474 0.030109812
참 -0.076285124 0.04686864 -0.013507696 -0.038386323 -0.0053014793 0.09124897 0.04704479 0.095932856 -0.0013161502 0.089830816 -0.034563206 0.08054266 0.076526724 -0.04369933 -0.0356521 -0.00088737847
처음 -0.017848056 0.06999658 -0.037774675 -5.1409086e-05 -0.052483197 0.026418274 0.0014435035 0.02515154 -0.02454479 -0.022836903 -0.044851933 0.056738578 -0.0064078127 -0.051922735 -0.0140607655 0.013085182
장면 0.042531982 -0.016841266 0.035428792 0.017221171 0.003167921 -0.022268202 -0.069832735 -0.009008534 0.006434572 -0.06157818 -0.007964576 -0.042451225 -0.028444303 0.038566325 -0.016090445 -0.059974197
대 0.027050756 -0.023027437 -0.028242517 -0.05395016 -0.0024619305 0.048906676 0.033505496 0.016355224 0.025136342 0.024847874 0.028895874 0.050344825 -0.039958313 0.007826181 -0.03622125 0.040496107
으면 0.025477696 -0.034505416 -0.020406319 -0.037345637 -0.030547297 0.024063017 -0.009387601 0.030824352 0.010028638 -0.04914049 0.023890827 -0.0042637214 0.042019043 -0.020074118 0.03627852 -0.045251813
다가 0.05755969 0.022657778 0.003645868 0.045863677 0.014488222 0.020844994 -0.036948875 -0.006826397 0.005167894 0.000800013 0.010587661 -0.05534208 -0.060878385 0.059159365 -0.0069492687 -0.017097024
아깝 -0.016719213 0.08863679 -0.060418062 0.0021966142 0.0017521211 0.07782614 0.07069012 0.051084794 0.011094792 0.090005465 -0.049810506 0.024328314 0.073886506 -0.045314353 -0.011249792 0.0076615573
지금 0.046269614 0.041145433 0.016866775 -0.020871818 0.0049452726 -0.019106219 0.041602388 0.029966647 0.027058816 -0.02633724 -0.04904148 0.0023435883 0.010474467 -0.018566558 0.030893669 0.0120712295
이렇게 0.07551126 -0.009726984 0.04932267 -0.016286753 -0.0045898627 -0.042898748 0.004503984 -0.05441811 -0.05794872 -0.07127418 0.017406795 0.014570785 -0.071947396 0.047586393 0.035364542 -0.01777261
모르 0.021260228 0.04604364 -0.022298802 0.044870306 -0.02195139 0.02737249 -0.025773942 0.025132265 -0.024461616 -0.003407728 -0.002723217 0.043291066 -0.019174887 -0.019157542 -0.030144824 0.046002615
편 0.021385552 0.06440393 -0.026510328 -0.004284246 -0.06225319 0.0049011423 0.0025224239 0.05408254 -0.027802434 0.0030356203 0.00838297 -0.029174214 0.016315017 -0.04108102 -0.05166561 -0.030139094
' -0.046485357 0.028538533 -0.039143313 -0.034357037 0.005871717 0.017079405 -0.00026046397 0.072505124 0.06355892 0.025296792 0.0024952067 0.07528844 0.07026058 -0.05610544 -0.046367105 0.0041978336
이게 0.05584459 -0.04118435 0.010508854 0.030945102 0.06830436 0.014478334 -0.024944099 -0.068268836 -0.036274508 -0.07847454 0.08090689 -0.024816394 -0.014558046 0.04438127 0.056039102 -0.043867026
일 0.054931015 0.0057689124 0.0032031955 0.021426255 0.056443904 0.022381734 -0.0090056285 0.0010352075 -0.013142063 0.01337164 0.039138976 -0.06580014 0.022029806 0.06910698 -0.0058311806 -0.06391066
돈 0.10065152 -0.08954252 0.01509388 0.0933358 0.08170977 -0.02844669 -0.07920779 -0.021451289 -0.08224949 -0.056499775 0.056861345 -0.013633641 -0.047399383 0.091161616 0.04740488 -0.089422025
성 0.0176013 0.0006257397 -0.015228925 0.039018136 0.03537537 -0.016145758 0.03654226 0.0348918 0.006496768 -0.013964546 0.010311786 0.027619459 0.021648964 -0.040558994 0.05175634 -0.011700895
시 0.01919129 0.03200672 0.023640802 0.010069361 0.040836323 -0.05131098 -0.024719369 0.033850443 -0.048967097 0.029818144 0.04699995 -0.03592555 -0.03888993 -0.0036848618 0.038717594 -0.034125693
이야기 0.025728265 -0.056736637 0.06006802 0.107092455 0.03131971 -0.050180376 -0.07758289 -0.11477098 -0.06494807 -0.041285664 0.11961493 -0.050425343 -0.046530385 0.06449199 0.087479785 -0.10813262
느낌 -0.04332182 -0.024244618 -0.03456575 0.03855663 -0.012928792 0.044452235 0.035849053 -0.040570244 0.031382453 0.027566854 -0.029879939 -0.00261811 0.033358727 -0.0022022023 -0.036027458 0.034786917
최악 -0.07029631 0.14584893 -0.09024705 -0.10326518 -0.0914201 0.14558937 0.12447087 0.087524444 0.055347007 0.1038657 -0.057490148 0.122745164 0.1336469 -0.106315866 -0.13578498 0.11151889
된 -0.067992225 0.04951397 -0.040772393 -0.08089701 -0.055118214 0.012926028 0.079940595 0.049877904 -0.0038340967 0.061104763 -0.029176056 0.042715676 0.04853584 -0.029707795 -0.01644803 0.0011488802
님 -0.017100293 -0.0022449577 0.03743862 0.009022649 -0.007123329 -0.023330495 -0.0058345324 -0.0021410023 -0.06237804 -0.010099518 0.01416324 -0.011173574 -0.022625512 0.050421312 -0.010584639 0.017186916
봐도 -0.05413166 0.064047374 -0.055644307 -0.08412006 -0.0564132 0.077389725 0.0667845 0.06450397 0.0975184 0.034244124 -0.057373825 0.021260304 0.018033786 -0.012996072 -0.03071819 0.06729187
어서 -0.048485644 0.033687383 0.0369837 0.026420986 -0.04868865 0.04070083 0.038192637 0.0112537015 0.04141296 -0.030006329 0.028195074 0.01425231 -0.018728573 -0.0143522145 -0.050974116 0.009568377
애 0.013277299 0.020162327 0.06093611 0.056423698 0.0005679436 0.018667653 -0.011918548 0.015562877 0.015234444 -0.020344483 0.038795494 -0.0325728 0.028724927 0.06126933 -0.023600787 0.0007444049
ㅠㅠ 0.1308979 -0.09826456 0.09002115 0.10742198 0.06797231 -0.07364039 -0.107722126 -0.046252225 -0.11001755 -0.045594323 0.0682135 -0.07401875 -0.07937472 0.07474944 0.058472913 -0.09386331
전 -0.050241437 0.033580486 -0.07281478 0.016133312 -0.06423087 0.040801276 -0.023730442 0.030444777 -0.004287794 0.01568321 0.025339639 -0.014640123 0.0010862595 -0.029070118 0.011511737 0.027695451
다고 -0.019088328 -0.03541658 -0.024448061 -0.019430518 -0.026924206 -0.04691085 -0.023713231 -0.048113253 0.0052393675 -0.033262566 0.032387946 -0.018996347 -0.041306593 0.0038111806 -0.031452015 0.010516308
이해 0.05691294 -0.039683152 0.017856654 0.029628241 0.08387613 -0.061478496 -0.07935338 -0.009823802 -0.018914195 -0.052413125 0.010162351 -0.067381166 -0.017088767 0.007543699 0.07128403 -0.10509968
넘 -0.13332471 0.17567612 -0.15375893 -0.13188411 -0.12789395 0.07022504 0.12740512 0.14259806 0.11131626 0.080015 -0.13966559 0.14185865 0.11993138 -0.10788752 -0.053529844 0.11685729
인데 0.06989331 -0.03535336 -0.0093929395 0.06267704 0.025325844 -0.010918643 -0.07274379 -0.06542977 -0.045276802 -0.06875444 0.00086626277 0.008017 -0.04143303 0.014980672 0.053576145 -0.018120045
별로 -0.030205406 0.056507774 -0.07670006 -0.07711903 -0.073057204 0.11485845 0.09537443 0.11880157 0.11583935 0.03789227 -0.06510705 0.10944611 0.09950247 -0.0829599 -0.10863552 0.026093539
여자 0.019726815 -0.048087567 -0.018160699 0.048824478 0.0032590267 0.027446643 0.03213875 0.02915434 0.040021833 0.027513452 -0.01961701 -0.0009944004 0.041728523 -0.019120058 0.045359444 0.017939342
이상 -0.018953113 -0.043385327 -0.019787699 -0.019350475 -0.044805463 -0.0096845925 0.016104676 0.04008586 -0.047031093 0.015071932 -0.038061433 -0.03321701 0.042250775 -0.023511058 -0.027730992 0.022905417
명작 0.07711739 -0.17491953 0.16951528 0.14147241 0.092051916 -0.094292656 -0.10561901 -0.1301258 -0.07061495 -0.1624016 0.13618551 -0.12152792 -0.16283634 0.09725198 0.14182296 -0.16107775
^^ 0.084464654 -0.21517786 0.19114617 0.117956355 0.13816991 -0.14690626 -0.11505883 -0.17151201 -0.08184171 -0.11804436 0.15209946 -0.17286316 -0.15492156 0.13464175 0.0823633 -0.09063865
역시 -0.09100173 0.12134245 -0.092643745 -0.07057388 -0.07591508 0.03265415 0.033952065 0.035934564 0.035352442 0.089872144 -0.037422743 0.055301655 0.06718401 -0.09372387 -0.10145886 0.114590146
난 -0.0028630053 0.02387813 -0.061088983 -0.020062717 -0.016399942 0.0009914568 -0.01807823 0.0044111293 0.07239054 0.05306616 -0.015003672 0.07147415 0.045357373 0.011824049 -0.06099347 0.029262116
한국 -0.050522555 0.06174834 -0.012742803 -0.01188844 0.01828609 -0.02790516 0.008689398 -0.0028452205 0.03883947 0.031436376 0.0013184616 0.045920588 0.06603172 0.03049364 0.021565877 0.010979231
그리고 -0.045231428 0.11665468 -0.11051564 -0.051245116 -0.10415472 0.018709952 0.019277979 0.05043438 0.08800011 0.021342833 -0.08803197 0.026436334 0.023212269 -0.04876744 -0.021263769 0.06904215
또 -0.07850208 0.043830343 0.01573485 0.0049101715 -0.037216645 0.046388302 0.025499636 0.06919022 -0.009015034 -0.01904695 -0.028811924 0.011938026 0.025577301 -0.056876037 -0.011525299 0.043924786
에게 0.0099680815 -0.02411052 -0.013747876 0.02215367 -0.033003833 0.016088746 -0.03064351 0.020201905 0.015011645 -0.04591734 0.033008747 0.03228544 0.010870081 0.059211977 0.042936813 0.016203197
만든 0.019572146 -0.023234043 0.014309255 0.056659117 0.010984389 5.40241e-05 -0.060261965 -0.05786525 -0.011849807 -0.03883855 0.01728772 -0.016328292 -0.011197771 0.04517029 -0.030817762 -0.052419867
많이 0.06931396 -0.01719069 0.0142284455 0.007322641 0.07215487 0.0031738076 -0.072773986 -0.061517112 -0.032824267 -0.057725273 0.06718482 0.0042183846 0.01633634 0.021348918 -0.02722308 -0.055569697
부터 0.015363393 0.007903296 0.018455565 0.07815661 -0.01152518 -0.044817347 -0.04275979 -0.008054297 -0.07606458 -0.046152335 0.006328179 -0.0102715315 -0.039483316 -0.016262496 0.04842903 -0.010572114
걸 0.0050963447 0.018990992 0.020175846 0.03585101 -0.05017522 0.041089013 0.04172703 0.018023148 0.05081628 -0.022088636 -0.035111677 0.005970903 -0.019656641 0.020362873 -0.0069805705 0.01964303
는지 0.025336508 0.013517287 0.045988504 -0.03624382 -0.03028499 -0.0012737513 0.017539147 0.03538407 -0.035180353 -0.03902005 0.006123472 0.011903524 0.028552357 -0.039884876 -0.02567426 0.036920454
주인공 -0.003988536 -0.009477367 0.026554342 0.0012023814 -0.006850378 -0.01705304 0.01262653 -0.0077414713 -0.025119493 -0.0539522 0.032935526 0.020555299 -0.00075635844 -0.016693922 -0.0005836836 -0.01703012
두 -0.026558377 0.018033441 0.025299223 -0.024872355 -0.034335263 0.02317605 0.050857883 -0.010692566 0.019207675 -0.015687427 -0.06113328 0.010313019 0.03395526 0.028665625 0.03751235 -0.027726388
우리 0.0070007523 0.0190031 0.020172061 0.013324738 -0.01663522 -0.0058571594 -0.040242486 -0.04713274 0.020632569 -0.045577887 0.00086113485 -0.042894825 -0.018058568 0.015767714 0.034857694 0.02057156
합니다 0.013955183 -0.050794058 0.040892128 0.011843763 -0.025104161 -0.06141769 -0.004183875 -0.0033133237 -0.038950216 0.0012343589 -0.009587719 0.025851183 -0.055253346 0.027739776 0.06322043 -0.056784384
받 0.0462252 -0.015012324 -0.044191826 -0.034269117 0.0378304 -0.029806662 -0.026739955 0.042572927 0.03128865 0.025249366 0.00014240667 -0.011639893 -0.034855224 -0.02301575 -0.025877034 -0.022718025
살 0.019869883 -0.045504726 -0.010929615 0.05006865 0.01977852 -0.012442881 0.004490855 0.006555394 0.042871103 -0.018833347 -0.019568764 -0.01931186 -0.047653463 -0.018946331 -0.010917226 -0.010927565
괜찮 0.028477697 -0.015839798 0.016982974 -0.0002696302 0.03869282 0.0053914613 -0.03897412 -0.020911556 0.022514341 -0.04991346 0.036138497 0.017071093 -0.013480026 -0.038817253 -0.015763402 -0.033109713
!! 0.0864482 -0.15192553 0.08855325 0.047385823 0.04012866 -0.04921679 -0.10399788 -0.0909511 -0.054293443 -0.037655298 0.09505025 -0.06994669 -0.075445965 0.0854155 0.09469084 -0.06275833
연출 -0.039437845 0.015974822 0.018146047 -0.061533626 -0.03019472 0.046462003 0.010080433 0.06521946 0.019127987 0.02318585 -0.0326471 -0.025100874 0.0032241968 -0.051126547 -0.0047586057 0.053533483
길 -0.03020216 -0.023702184 0.013889259 -0.035804145 0.028041821 -0.022414166 0.010888908 -0.006394235 0.040782694 -0.007445005 0.03169255 -0.038525905 0.03699301 0.03893719 0.044570424 -0.05719953
엔 0.02797819 -0.0075672152 0.017785298 0.028555153 0.005981157 -0.0064473804 -0.005432013 -0.006084237 0.041994244 -0.03162774 -0.024944387 -0.033792086 0.043062337 -0.013301933 -0.04981558 0.029204922
때문 0.03200447 -0.055933673 0.024551766 0.028340664 0.014130391 0.011005445 -0.05654322 0.019156747 -0.03632616 0.010367065 0.019567952 0.020072054 -0.058766574 0.07587537 0.05655704 -0.016866598
기억 0.036341332 -0.01025477 0.09070823 0.014845538 0.00035935873 -0.07508467 -0.068624645 -0.08653878 -0.042942327 -0.07166704 0.043180555 -0.033738963 -0.03106927 0.02449944 0.06315187 -0.09202812
한다 0.017032837 -0.014702971 -0.0010235759 0.071660735 0.08419684 -0.03151536 -0.05294398 -0.010012259 -0.06305844 -0.014259179 -0.01582318 -0.028940443 -0.037282392 0.0047165705 0.009150245 -0.05647915
ㅎㅎ 0.1487215 -0.2168308 0.15936118 0.12729323 0.087319225 -0.17501825 -0.14506549 -0.16115396 -0.14449096 -0.13139704 0.10688015 -0.100311495 -0.14795354 0.08092483 0.12066498 -0.11282893
저 -0.026471578 -0.012744067 0.042999048 -0.040514324 0.040246967 -0.018503685 -0.005303508 0.017068677 -0.015408029 -0.045028865 -0.011789593 -0.022765879 0.03901804 0.04573608 0.021461442 -0.04509858
이나 -0.05019579 0.011936794 -0.04134445 0.024823058 0.025139568 0.014837135 0.016971089 -0.010731148 0.016438032 0.011452928 -0.04660597 -0.03417794 -0.027779555 0.036223166 -0.04320885 -0.005516255
요 -0.040566713 0.054601505 -0.046242066 -0.054348826 -0.035625026 -0.009890748 0.015532996 0.02583023 -0.0011622685 -0.013018113 -0.010419729 0.021354603 -0.015823768 -0.06895517 -0.071051314 0.06344639
꼭 -0.072456986 0.07562185 -0.07876994 -0.12622431 -0.084634885 0.065534204 0.14423698 0.10560353 0.14078943 0.11973033 -0.045460172 0.06883346 0.111652076 -0.047470734 -0.043907702 0.09227768
재 -0.020266073 -0.033195607 0.004262419 -0.04587532 0.009846976 -0.02576716 0.0359486 -0.018828917 -0.044308536 -0.026753958 -0.020909488 -0.007285398 -0.037315566 -0.0513745 -0.046845917 -0.033489905
현실 0.023328785 -0.03546183 0.05026198 0.047955506 0.037530974 -0.08632303 -0.061769914 -0.08569702 -0.021124803 -0.058762003 0.061692405 -0.023417296 -0.013393663 0.064536445 0.08539645 -0.046957653
ㅡㅡ -0.124701284 0.16188717 -0.16704507 -0.1262529 -0.1178641 0.081086546 0.08745508 0.12707312 0.106615916 0.11058518 -0.15513092 0.068039484 0.11478117 -0.12553142 -0.10772314 0.09153788
긴 -0.0121273035 -0.01969048 -0.040931072 0.036349636 0.012699124 -0.00040799746 -0.013950952 0.03616513 0.017801804 0.0037987407 -0.018996362 -0.008213238 -0.044807736 -0.05209007 0.046941623 -0.018197216
랑 -0.0050377916 -0.013977167 0.006383264 -0.031422973 0.010159615 -0.01270982 0.027758261 -0.026174847 -0.038298335 0.027915591 0.003574919 0.010534458 -0.046643473 0.039670274 -0.01482222 -0.048510574
며 0.022003207 0.013009738 0.015887607 -0.041870616 0.007244803 -0.021136833 -0.012856163 0.04362179 -0.023718894 0.037428807 0.020436417 -0.015191816 0.008462895 -0.027272463 0.04794692 0.036409583
무슨 0.05809915 -0.06238109 0.10362923 0.0745682 0.023269944 -0.022036215 -0.018691381 -0.02447254 -0.025639173 -0.010727931 0.026749091 -0.0017719485 -0.0063631 0.081951074 0.0121695595 -0.019405749
죽 0.028205547 -0.00022365764 -0.017637352 -0.062340025 -0.03580371 0.042712428 0.015976973 -0.034347396 0.028798638 0.05005866 -0.021997493 0.055507235 -0.00031902033 -0.052818876 -0.029429235 0.05216163
내내 0.051950242 -0.057318 -0.016942317 0.041641615 -0.0018076759 -0.020219829 0.003857899 -0.021168018 0.0072783027 -0.059199985 -0.0074579283 0.020232815 -0.00089886645 0.0038442016 -0.00022520745 -0.033090882
남자 0.040102575 0.051865947 -0.058001686 -0.0021186299 -0.0052925153 0.044474825 -0.0006749712 0.04732925 0.045702096 0.01354305 0.022417521 -0.03999072 -0.03542106 0.015904984 -0.03430944 0.048407733
마음 -0.052822754 0.06652183 -0.019874282 -0.02844837 0.026583208 0.029649056 -0.0073558 0.024994383 0.04918496 -0.030363688 -0.02185736 -0.021996634 0.008399004 -0.037022516 0.021346612 0.059844997
세요 0.045104537 0.024460603 0.04311793 -0.012891661 -0.0062520877 -0.00013240427 0.04888277 0.005328059 -0.025201678 -0.019395173 -0.045718383 -0.0364236 0.0015410557 0.035864 -0.027057087 0.014146339
결말 0.018693544 0.06061449 0.03763206 -0.046283446 0.011069671 0.004966548 -0.024504522 0.057877973 -0.040839177 -0.0008798938 -0.025164824 -0.014127841 -0.020263057 -0.053990673 0.008921385 -0.0006298127
공포 -0.0210738 -0.0014037555 -0.028477632 -0.020296326 -0.0076121846 -0.049795236 -0.04422504 -0.0434372 0.038515944 0.008225261 -0.024472676 -0.026970815 -0.05743622 -0.024804968 0.05575101 -0.03325028
속 -0.043981656 -0.027402323 -0.024558784 -0.026529685 -0.05928989 0.052097324 0.038905665 0.014268311 0.036753397 -0.01949375 -0.03325705 -0.014659945 0.017418286 -0.013001955 -0.03061859 0.043424968
인생 0.0056769564 -0.026140401 0.044051252 0.03015427 0.01228246 -0.05065149 -0.04411979 0.019161867 -0.01519688 0.008507791 0.035513714 -0.007808754 -0.07261506 0.053979952 0.07381199 -0.06746064
전개 -0.071082205 0.06803352 -0.04831207 -0.063321754 -0.04224074 0.058289777 0.08098937 0.0008175649 0.06641898 0.035383888 -0.024970742 0.07304464 0.011076954 -0.02906486 -0.069288746 0.03822352
짜증 -0.07714877 0.017427325 -0.08261763 -0.00904447 -0.025832772 0.018370058 0.003834921 0.025728501 0.07590374 -0.0030560994 -0.009075804 0.0144175235 0.03810867 -0.06256126 -0.029272262 0.00742006
소재 -0.015111132 0.042440157 -0.014800677 -0.019512815 0.023197759 0.010682126 -0.012952507 -0.037960477 0.012776392 0.041622307 0.038046353 -0.034235846 0.023161942 -0.053313907 -0.0600931 -0.008222124
아서 -0.012301661 0.010409396 -0.0009886343 0.04158119 -0.0025485463 -0.037046153 0.007419729 0.018467283 0.0028179851 -0.039356597 0.04492501 0.053951085 0.053667765 0.04108523 -0.03819083 0.0070794756
씨 -0.0034874165 0.042176496 0.034077395 0.012261207 0.016767846 -0.005828116 0.040175054 0.04712959 0.034065153 0.013418745 -0.06217972 -0.01090111 0.033277024 -0.045384195 -0.051374573 0.051686876
다른 0.00793465 -0.056604818 -0.0012238693 -0.01645905 0.017068224 0.0008651454 -0.054763637 -0.0024836727 0.04289458 0.013018259 -0.027295263 -0.045748357 0.041774143 -0.029421235 -0.02046682 -0.024318054
짱 0.105019525 -0.13079551 0.094540216 0.11542139 0.03583099 -0.09029747 -0.06418758 -0.1286472 -0.10420807 -0.054587647 0.051181883 -0.06888459 -0.1074269 0.11123394 0.11915771 -0.10668415
아요 0.004796996 -0.035346135 0.02758491 -0.0408129 -0.02213748 0.0088475635 -0.0024877957 0.015886076 -0.044639405 0.022446854 0.039963678 -0.050646517 0.018859332 -0.032146122 0.03191217 -0.028252319
뿐 -0.054329194 0.077786796 0.014393552 -0.065885 -0.024523897 0.019507824 -0.011808588 0.062467694 0.03311453 -0.010291642 0.01225344 0.054644417 0.07431498 -0.059150655 0.015919652 0.031346258
~~ 0.031388845 -0.05321099 -0.0048368946 0.07877337 0.08551879 -0.017315656 0.0010580329 -0.014842212 -0.03549762 0.008108929 0.012376299 -0.0611308 -0.08448763 -0.004046293 -0.0069554774 -0.05483112
필요 -0.034918692 0.03905647 0.011105515 -0.000620296 0.026950965 -0.014399281 -0.03037346 0.057224326 -0.015775805 0.04475806 -0.06730229 -0.012889899 -0.009244333 -0.049014922 -0.009049746 -0.008674329
별 0.03341484 0.009262838 -0.0033719179 0.024400597 -0.019380838 0.030137993 -0.037921235 0.03380698 0.031456336 0.016027482 -0.0356204 -0.011862978 0.021371542 -0.005518744 0.041106056 0.0046114028
낮 0.015459938 -0.025434917 -0.0064455103 -0.0073566246 0.044341773 0.03424956 -0.0054679606 0.024878176 -0.006734554 -0.044156227 0.01141327 -0.041765023 0.03491342 0.016872618 0.033680905 -0.014427018
오 0.0094405655 0.025208507 0.015458711 0.032783564 0.011832432 0.008341197 -0.016527634 0.032850858 0.033356015 -0.037905753 -0.044585925 0.012263283 0.0042953687 -0.0021311024 0.00048071388 -0.030782389
;; -0.076056615 0.10221744 0.0058687055 -0.072322756 -0.07735483 -0.0082195215 0.019365855 0.08382084 0.01884208 0.068601705 -0.08486553 0.021487555 0.04859924 -0.005234939 -0.05141731 0.064641416
은데 0.015293349 0.01873425 -0.0033276454 0.0015519485 -0.04791465 5.5134296e-05 0.0077056997 0.038740683 0.036956016 0.048983525 -0.03239181 -0.04301684 -0.006795384 0.034992184 0.02184489 0.02013563
아이 -0.023604712 -0.0068980786 0.057088543 0.03972983 0.039684244 0.018291138 -0.03186102 -0.015384631 0.03084405 0.000104654566 -0.014063277 0.024406955 0.0329049 0.05356667 0.004960553 -0.008810091
일본 -0.06278866 0.02304445 -0.049627796 -0.029440043 0.026648974 -0.014491924 0.055222724 0.0641235 0.028667247 -0.026586602 -0.04524137 -0.024274858 -0.011716471 0.028892092 -0.032361977 0.0023103547
유치 -0.060188923 -0.013955192 -0.01681013 -0.057210676 -0.004261899 -0.020681245 0.06456317 0.064704 -0.0069131358 0.050959792 0.004204658 0.07364678 -0.02297739 -0.049440913 -0.019317226 0.04449518
반전 0.033465337 0.041290883 0.014142793 0.004528975 -0.03950858 0.016951796 0.01467199 -0.0174217 0.004289769 -0.04724491 -0.023307921 -0.038968034 -0.0018946643 0.026620256 -0.012550751 0.026645878
수준 0.0007910448 0.066813014 -0.053311363 -0.0132329585 -0.063615195 0.019808674 0.032488998 0.038921706 0.05098613 0.07521714 -0.03884486 0.06648528 0.08355875 -0.048963413 0.005761094 0.021857344
음악 0.041215725 0.037444424 0.018412603 -0.009487733 0.03319448 -0.019316401 -0.048828863 0.044020433 -0.046317138 -0.045880716 -0.003088227 -0.052468494 -0.014151316 -0.041553106 -0.033214804 -0.01726595
다니 -0.036478985 0.0375144 0.034165654 -0.03065368 0.03666861 -0.0387941 -0.027359772 -0.039361514 0.021575753 0.043691996 0.040511634 -0.04443388 -0.005079448 -0.02177614 0.035846163 -0.040032912
) 0.00018420685 -0.009838196 0.0275302 0.038589958 -0.01684247 -0.037474927 0.011054919 -0.039441176 -0.026435748 -0.00909437 0.021498485 -0.0431846 -0.04088565 0.033188302 0.0013068306 -0.017385673
맞 0.009294685 -0.004075342 -0.027330857 -0.036256973 -0.02711646 0.003157007 0.021869397 0.031174507 0.019993585 -0.042528257 0.038262494 0.029431507 0.030125167 0.01600135 0.046546336 0.0402139
매력 -0.00061317376 -0.10060966 0.0457919 0.07101124 0.090222724 -0.07797137 -0.043873306 -0.08035629 -0.030108338 -0.021766942 0.058591686 -0.07348052 -0.021336881 0.06091382 0.010982893 -0.07296374
가장 0.025776774 -0.039515268 -0.028873451 -0.009932028 -0.0029446522 0.048235912 0.02847366 0.0116934115 0.015804742 -0.026400724 -0.033796825 0.04475686 0.038863152 0.028604792 -0.054597944 0.02782937
가슴 -0.03744074 -0.009172288 0.018835159 0.028541869 0.053475495 -0.048936855 0.044164293 0.017786514 0.03002968 -0.04065921 0.05080983 0.009685356 0.003810534 -0.030244203 0.04778726 -0.049231514
인간 0.0056701354 -0.06631832 0.012554965 0.043535467 0.021680616 -0.05787781 0.004740043 0.012739868 -0.014463487 -0.043041993 0.06457828 -0.035751466 0.016368628 -0.0074100625 0.022222845 0.00086881797
데 -0.029487478 0.0049074003 -0.025688823 -0.03394151 0.0071181236 -0.01216936 0.0096661365 0.029077193 0.0037193205 0.050833665 0.0066764755 -0.009551835 -0.031930245 0.016695926 -0.033931382 -0.026946036
웃 0.03705252 0.044919826 -0.002127269 0.023435466 -0.034444384 0.0016863161 0.011882298 0.010436387 0.045600403 0.009354851 0.038903616 -0.010528177 0.024929607 -0.012111232 0.026251698 0.03148581
ㄷ 0.010067671 -0.0133258095 0.028544903 0.05719454 0.07230388 0.0073904637 -0.017563593 -0.012295189 -0.07221733 0.001016045 -0.012749109 -0.00022059711 0.020800117 -0.019317994 0.072770625 -0.054213323
높 -0.042982507 0.008422114 0.022291724 -0.017951418 -0.048839357 -0.049671948 0.028460171 -0.01252811 0.030733373 -0.0126509555 -0.045786094 0.042347465 -0.04889934 0.017433453 -0.023934735 0.038599316
굿 0.07805689 -0.12037598 0.12031369 0.07113087 0.12780847 -0.12894058 -0.057325225 -0.061116684 -0.094843656 -0.14804825 0.08851751 -0.13937661 -0.050743256 0.08514775 0.10441963 -0.09362859
인지 0.029953528 -0.018106367 -0.01195966 -0.04032971 -0.04195599 0.0023271444 -0.001469455 -0.024983699 -0.027461896 0.012612969 -0.023028927 -0.024343403 -0.031019596 -0.0032358991 -0.06748543 0.02901103
밋 -0.01621605 -0.04464188 -0.006286107 -0.037219487 0.041686032 -0.039684463 -0.03686292 -0.041727055 0.00619217 0.013418827 -0.025258362 0.010900807 0.009336792 0.03541151 -0.021147681 0.0027218573
없이 0.02840567 0.0021445693 0.0264037 -0.02651235 0.012559565 0.06986449 0.036097366 0.004145987 0.00015735444 0.0271004 0.020448303 0.04534013 0.012395528 0.0050117527 0.014859361 0.043862768
ㅠ 0.091482624 -0.08162845 0.056827966 0.041340142 0.05152203 -0.090402655 -0.045226976 -0.07198205 -0.099499665 -0.09430467 0.07231911 -0.05128143 -0.045277845 0.035478167 0.061941814 -0.08446041
( -0.051989965 0.051765125 -0.04995341 0.011844358 -0.052488543 0.038024597 0.030677246 0.019026574 0.026203994 0.035676982 0.04279621 0.034001306 0.0550718 0.03723689 0.03578342 0.0054568243
만드 -0.031601332 0.029310714 -0.028482378 -0.047323238 -0.015853547 -0.019603014 0.044969212 0.03809193 -0.0014415979 0.049633514 -0.043569565 0.002653718 0.02268846 -0.010748338 -0.04903711 -0.0466702
원작 -0.022893779 0.01671895 -0.023302404 0.0042097797 -0.016247202 0.033084925 -0.056115266 0.038560376 -0.05507001 0.031813648 0.05565238 0.015055958 -0.007533694 -0.005112545 -0.038364526 0.01813014
눈물 -0.03421511 0.014160592 -0.046827026 0.02500127 0.012343437 -0.037147652 0.026549697 0.0483713 0.0521127 -0.030530816 0.01842972 0.033721253 -0.0134705445 -0.021213327 -0.016082639 0.051012885
준 -0.040492952 0.007148311 -0.069292046 -0.05474649 -0.014470983 -0.0044212956 -0.0015927956 0.0009572639 0.06884651 0.05487719 -0.055063043 0.019417034 0.05071316 0.0074493014 -0.025562389 -0.0055298894
보여 -0.017256347 -0.031810023 0.012510888 0.019332752 0.034871515 0.018317621 -0.0074473172 0.03715672 -0.0488723 0.015835134 0.004987133 -0.027958749 -0.045031525 -0.006510921 0.050772294 0.03482491
노 0.04906798 -0.04596479 -0.01451038 0.046050027 -0.04817944 0.018009892 -0.0046387305 0.045382045 0.0048920573 0.030918958 -0.029836448 -0.04689411 -0.031287953 0.006094795 -0.010740752 -0.020065913
급 0.03412408 0.008573679 -0.016299665 -0.028867481 0.026423125 0.033294074 0.028142413 0.003688101 -0.04363165 0.028985564 0.0075385747 0.024074925 0.04298555 -0.002160414 0.018175393 -0.04771611
용 -0.007320507 0.04172556 -0.017396575 0.039561402 -0.037116013 0.0063974364 0.013697409 0.017256992 -0.016103283 -0.010615964 -0.0182701 0.019268246 -0.01624326 0.055646356 -0.040104207 0.013940772
인가 -0.03932192 0.03335542 -0.015550148 -0.003977604 0.0213258 0.010306639 0.014308415 -0.03402245 0.016130539 0.009793537 -0.03037587 0.06082619 0.03726218 -0.0037348159 -0.059124906 -0.030850565
을까 -0.047543406 0.038703 -0.027269734 -0.0140352845 0.0027089007 -0.023393655 -0.041098904 0.043549012 0.008564901 -0.048722267 0.013578508 -0.015906382 -0.020209014 -0.003248334 -0.024095237 -0.0014728531
코미디 0.007543777 0.032068886 -0.07233978 -0.06343314 -0.046721537 0.02099282 0.017316705 -0.006668959 0.038602125 0.057445567 0.02526942 0.035555627 0.03432058 -0.00532246 -0.06270395 0.046341084
찍 -0.030101169 -0.037750054 -0.0356326 -0.034930468 0.048425626 0.0019231439 -0.012255836 -0.039922297 0.007829726 -0.010730527 -0.026978005 -0.035879146 0.03457171 0.017390516 -0.032835744 0.010585703
화 0.028099502 0.05053558 0.03375804 -0.004467115 0.038990356 0.03447953 -0.040590215 -0.034322392 -0.041285403 -0.031004328 -0.037555832 0.054288555 0.01344922 -0.053266887 0.032757293 0.024071213
쓰 -0.036938354 -0.03677712 0.013805879 -0.04207594 0.01281529 0.020758782 0.059277628 -0.0064718192 0.032521863 0.035566375 -0.052433893 -0.016306495 0.014695859 -0.014102472 -0.05941639 0.0371667
아직 0.0024441546 0.012134558 0.0011102769 0.012007626 -0.0001082403 0.028775577 0.030091573 0.023305777 -0.0012357112 0.013676183 -0.027156923 -0.04868336 -0.0069988794 0.00190136 0.051217563 -0.03292733
모든 0.008344908 -0.03207169 0.007944179 0.02310502 -0.043179203 0.0069168904 -0.03241765 -0.028324312 -0.02777093 0.03782214 0.03115244 0.024447337 -0.024828758 0.03932546 -0.025252216 -0.0023382376
추천 0.034068346 -0.016730366 0.07777035 0.06265705 0.0044154674 -0.038383573 -0.092695765 -0.073214695 -0.019606913 -0.06285014 0.06277565 -0.050884444 -0.025027521 0.096887864 0.06409004 -0.033569153
5 0.016587004 -0.023779126 0.039863642 0.05368894 0.031452682 -0.057873394 -0.009960804 -0.035341825 -0.039549675 -0.0005863953 0.02243037 -0.02921891 -0.040673718 0.014529996 -0.014874444 -0.038825974
신 -0.0015988371 -0.06371871 -0.016384812 0.018142303 0.014590307 -0.05989043 -0.054270994 -0.018536553 -0.041375827 0.007016329 0.064844385 -0.0032048542 -0.04639804 0.03388479 0.042183172 -0.02153154
아닌 0.03617254 -0.030379357 -0.015573459 -0.023747856 0.022508536 -0.04454955 -0.028566642 -0.055345148 -0.050967902 0.030228574 0.029873278 0.0121075045 0.0073777833 0.02735384 0.0073014772 0.037956312
마 -0.04509105 -0.0006919683 -0.04105999 0.006503671 -0.0011262186 -0.009097942 -0.018200537 0.060287837 0.0555366 -0.0045618745 0.01583204 0.0041824565 -0.016643634 -0.002584239 -0.031919405 -0.009764002
울 -0.03073636 0.051797424 -0.037979417 -0.009474836 0.019267589 0.030447587 0.012199078 -0.02392776 -0.031158816 -0.046781562 0.021278419 -0.006663384 -0.0063409028 -0.0064300313 -0.030998118 0.04424376
자체 0.051334955 0.00589552 0.004403096 0.019757895 -0.02542211 -0.032010254 -0.0041868757 0.03227376 -0.056698643 -0.008303045 0.040609244 -0.025491508 -0.0064999186 -0.038746938 0.008167565 0.022324407
4 -0.042153556 0.058830332 -0.0053851483 0.034648433 0.004469707 -0.007976701 -0.025715096 0.04899688 -0.0071156025 -0.026753735 0.0001970577 -0.01752127 0.022731371 0.007176927 -0.0543677 -0.028046306
실망 -0.120291404 0.16574492 -0.05561796 -0.12707148 -0.048596356 0.07568481 0.059402127 0.13027532 0.1289963 0.0804302 -0.1181849 0.05074361 0.054424517 -0.10976101 -0.10924565 0.07586655
처럼 0.051915865 -0.048200212 0.02162708 0.0298042 0.046713203 0.03469969 -0.021946399 -0.01700653 0.030823177 -0.03995317 -0.016857302 -0.029552143 -0.005409725 -0.030815085 0.021003487 -0.0172301
여 0.046866883 0.011888537 -0.017087828 0.05936985 -0.014230798 -0.03911596 -0.06286559 0.01814971 -0.05893011 -0.059061643 -0.030783108 -0.025622617 0.026541252 -0.017039001 0.018961439 -0.025629748
몇 0.041754022 0.00325528 0.044090282 -0.008073549 0.07396613 0.005321825 -0.006449653 -0.022706445 -0.0072162407 0.011791534 0.05101494 -0.022319725 -0.037176885 -0.003963407 -0.00050694984 -0.0069871577
눈 0.007986407 0.027619027 -0.020615837 -0.033186916 -0.047327355 0.020322947 0.014121028 -0.03369211 0.027079042 -0.033206265 -0.044548497 0.007242729 -0.007132859 -0.03995581 -0.016872857 -0.028237445
란 0.02877746 -0.018638356 0.013026454 -0.013030659 0.03529573 0.03836331 0.035677437 0.059212115 0.002963225 0.043619875 0.01712828 0.009217178 -0.0026613201 -0.023402194 0.017817093 0.05177072
대한 -0.046453647 0.025198903 0.0006097276 0.0021943264 0.008964666 0.07393826 0.05450094 0.04203996 0.02548711 0.07020746 -0.048659336 0.047650047 0.03599349 -0.08429835 -0.04418737 0.028122898
는다 0.0016685948 -0.041396867 0.012525227 0.015453074 -0.02886572 -0.001659561 -0.007683836 0.0014314055 -0.01772628 0.020999972 0.03632095 -0.028477788 -0.014337443 0.029618707 -0.0059649833 -0.03797543
스럽 -0.03732711 0.0068101063 0.014009479 -0.01932931 0.0426887 0.03925289 -0.04954797 -0.0079577565 -0.040826738 -0.03482349 -0.007008232 0.023792867 -0.027980758 0.043065693 -0.0041032434 0.024421904
대박 0.012789119 -0.0840137 0.06414324 0.046535183 0.021806126 -0.050299536 -0.009547145 -0.014623861 -0.006772294 -0.05091334 0.06642497 -0.080053404 -0.028032625 0.04503609 0.048369642 -0.079172365
죠 -0.025535261 -0.0052636955 0.043358818 0.034800008 -0.013410242 0.017359946 0.03442966 0.03173605 0.0023227222 -0.0057636406 -0.025383014 0.01681319 0.03148485 0.019916117 -0.049909547 -0.044467106
몰입 -0.03542995 0.014810873 0.050283257 -0.0011707287 0.043137558 -0.023319328 0.03999041 -0.022196757 0.04444406 0.013826946 -0.021283561 -0.04015254 0.014555466 -0.015470439 0.031239321 0.018073251
캐릭터 0.039363742 -0.014694906 -0.018558528 0.03362935 -0.031121619 0.047193352 0.050524544 0.031896204 0.027869638 0.05005611 0.014733699 -0.02173889 0.015025971 0.027746815 -0.052313924 0.04558014
모두 -0.012541122 0.022391379 -0.0966557 -0.09090219 -0.06610488 0.011745669 -0.0017121591 0.013197859 0.009237618 0.039768178 -0.077907935 0.019260075 0.031559527 -0.0043323436 -0.06694498 0.05980457
솔직히 0.0073027746 0.029665811 -0.001095383 -0.026654262 0.029119212 0.026806029 0.010186713 0.006640819 -0.044588346 0.038707636 -0.042523466 -0.04840902 -0.034551263 -0.031912535 0.040142894 0.039083455
그런 -0.013034513 0.0066234614 -0.03835309 -0.05661956 -0.058957703 -0.017500957 -0.011152711 0.056678016 0.040707227 -0.0019286955 0.03420975 -0.004530993 0.009150472 -0.016912673 -0.027900754 -0.013832796
나라 -0.0118187945 -0.0031182829 -0.043058906 0.0037887287 -0.0019343992 0.02516404 0.05070802 0.032589644 0.04507476 0.06572786 0.006442211 -0.023465343 -0.03187688 0.0020723073 -0.06548373 -0.003809079
건지 -0.021077767 0.015535805 -0.010484229 -0.027583614 -0.0063263774 0.015585851 0.03180042 0.057217956 0.04928106 0.031945936 -0.03260796 0.010632627 0.052375745 -0.037386622 -0.011300889 0.03805776
가족 0.022311302 -0.04717517 0.01904443 0.019865075 -0.021679014 0.040635884 -0.029301148 0.0029670862 0.044850465 -0.03621628 -0.029043661 0.019928342 0.026056772 -0.00029438414 0.032432225 -0.043897893
될 -0.019201644 -0.023864629 -0.029233558 0.024721636 0.017785942 -0.053285163 -0.015692307 0.0069238404 -0.044497594 0.023149973 0.010202164 -0.021768454 0.015091456 -0.004499575 0.035191182 0.033701055
다면 -0.010360796 0.0013054368 -0.037165597 -0.029636558 0.018685864 -0.02369507 0.004364465 -0.0050195446 0.030392477 -0.013201551 0.03990596 -0.039056957 0.032835186 -0.0030034294 -0.03523026 -0.005124194
아주 0.012828965 0.011176432 -0.061869163 0.004088761 -0.022456441 0.033403892 0.016327996 0.026594112 0.076643996 0.07138345 -0.06114684 0.02799004 0.025561804 0.016946377 -0.051111624 0.032132607
ㅎ 0.06837957 -0.19130068 0.09948582 0.075721346 0.13261452 -0.08765065 -0.13538551 -0.09086711 -0.06183668 -0.11375736 0.12566257 -0.091028824 -0.054608673 0.12004421 0.05930972 -0.07328473
; -0.0411648 -0.0085797785 0.018501924 -0.052297972 -0.064917974 0.059383903 0.0685991 0.039576914 0.07678599 0.05359054 -0.06846087 -0.019243209 -0.00024231029 -0.015393882 0.011189035 -0.017343316
연기력 -0.028597998 -0.0030838966 0.011017834 -0.026192717 0.061699994 -0.014265064 -0.033479452 -0.01083094 -0.019222328 -0.035409316 -0.030384885 -0.017304579 0.034461573 0.059892524 0.008347946 -0.0063446565
여운 0.07187915 -0.02046961 0.08477436 0.050751872 -0.0047436706 -0.03469043 -0.07045184 -0.005824883 -0.009597472 -0.03930836 -0.0016229099 -0.04410951 -0.05296335 0.00083476625 0.022449624 -0.06786594
그래도 -0.040941946 0.047091622 -0.05816965 -0.0627077 -0.03379066 0.06044384 0.06891922 0.054679826 0.05168955 0.049211163 -0.031713504 0.04008271 0.08379546 -0.11532836 -0.071461126 0.05805083
시리즈 -0.0036877855 0.02997971 0.010398896 0.048734475 0.03350539 -0.049256142 0.027395453 0.003265731 -0.045013238 -0.05466074 0.0015433255 -0.05328706 -0.05557068 0.021139778 0.022654919 -0.064193256
- -0.049154848 0.049861386 -0.0020674025 0.02153046 -0.04524606 -0.024815544 0.04476351 0.044732936 0.023079833 -0.0065276213 -0.033760425 -0.0029113335 0.05640865 -0.026685556 -0.028750349 0.058607142
모습 0.021449715 -0.040339336 0.08114074 -0.009881221 0.06497149 0.010865113 -0.032054823 -0.06536596 -0.000114123075 -0.062764324 0.07389054 -0.072332434 -0.020170275 0.0029812139 -0.012526022 0.012506871
전혀 0.025853086 -0.03838991 -0.0050835055 -0.00015280729 0.018234754 0.00937391 0.0053233188 0.014181572 -0.046297923 -0.046045214 0.027583065 -0.04151626 -0.006373416 0.03814886 0.03270022 -0.042254575
뭔가 -0.030372264 0.0028181612 -0.036366284 0.036854375 -0.0002472201 0.028784856 0.0045336913 -0.030256476 0.026460145 0.010845899 -0.020387288 -0.023889706 0.036874425 0.01565608 0.057808846 -0.027008284
후 -0.0484889 -0.04331852 -0.059321035 0.019975813 -0.021107303 0.005507305 0.012274741 0.005978917 0.036404513 0.00088918954 -0.031176265 -0.025776135 0.023484785 -0.022899501 0.028820906 -0.008895485
계속 -0.0118922675 -0.0033162052 0.032407977 -0.044022363 -0.010192362 0.04135418 0.056940757 0.01598228 0.025893867 -0.01846103 0.01561812 -0.0028226878 0.028250013 -0.044648 0.010055828 -0.007700132
근데 0.07558133 -0.06946063 0.045622148 0.0249089 0.07008146 -0.0399313 -0.06306515 -0.069464535 -0.07161838 -0.023081427 0.01971136 -0.034630243 0.009370652 0.042118084 0.034040693 0.005194586
표현 0.030860592 -0.0055556796 -0.019922694 -0.017232083 0.027372831 -0.050140757 0.008180817 0.0010167711 0.008304399 -0.06388945 0.023126038 -0.05001736 0.0066503207 0.012729784 0.058917016 -0.0640011
"" -0.04363096 -0.0038464265 -0.037208926 -0.049001034 0.04421382 -0.007589843 0.044008423 -0.034945797 -0.023854436 -0.011048111 0.0042293044 -0.01335566 -0.0041806903 -0.04031119 -0.029382728 -0.013301279
작 0.010874934 -0.012617436 -0.053722244 -0.008973735 -0.029759353 -7.564569e-05 0.05563097 -0.020759985 -0.018438892 -0.005467936 0.004692461 -0.016688172 -0.00925639 0.014254153 -0.024454474 0.043792527
극장 -0.035779733 -0.043412138 0.047313668 -0.01033316 0.040529124 -0.026253963 0.014342414 0.017746426 -0.043254323 -0.014318751 -0.03589676 0.013259998 0.04351007 -0.03661762 0.043426175 -0.014774108
공감 0.06554217 0.0037097537 0.04815831 0.00026089733 -0.010357534 -0.056758966 0.008080696 -0.052164327 -0.0010897625 -0.071800105 0.06331656 -0.019189099 -0.0127407815 0.008253503 -0.0029143598 -0.057576597
0 -0.0047401437 0.0144335525 -0.017538982 -0.01232741 -0.070937246 0.054722667 0.046646047 0.05739442 0.017431162 -0.02348966 -0.046215843 0.04080096 0.04356389 -0.020530844 -0.072318755 -0.020633832
비 0.022005577 -0.016238095 0.007050896 -0.047914643 -0.024390988 0.022364482 0.061086275 0.012537582 -0.010015684 -0.03109391 -0.026048977 0.03566616 -0.0022380603 0.035244316 0.015856713 -0.0014824067
먹 -0.004086267 -0.024242653 0.043818202 0.048020218 -0.04594946 -0.014856555 0.029715981 0.04872855 0.00060816854 -0.018322658 -0.023953725 -0.046788406 -0.03075099 -0.03190093 0.012873385 -0.0359823
7 -0.013342688 0.038231015 -0.024413625 -0.04461719 -0.020147132 0.04510456 0.03978501 0.0056970855 -0.04234139 -0.049519077 0.0193939 0.04446213 -0.022752125 -0.04351693 0.05276456 -0.04891976
이랑 0.033479657 0.018706273 0.027775884 -0.04645633 -0.049520254 0.04329096 0.059697334 0.040579066 0.018650929 -1.0374214e-05 -0.046516027 0.006739846 0.057351194 0.02400275 0.0008822787 0.012004935
된다 0.052788503 0.014882985 -0.024685677 0.048676543 0.065398574 -0.026008243 -0.056898393 -0.054158717 -0.07041248 -0.06599323 0.035604175 -0.070462964 -0.06821088 0.04025123 -0.013476288 -0.035687603
이걸 0.050717752 -0.01254917 0.005833665 0.07206799 0.016763324 -0.002572495 -0.06342025 0.019823946 -0.009762545 -0.044550877 0.01916244 -0.016604828 0.00087109895 0.005579893 0.075591944 0.004742021
대사 -0.03561013 -0.027400708 -0.013582491 0.019571135 -0.014181852 0.014218419 0.032847546 -0.024877906 -0.042467188 -0.0074532474 -0.03167957 -0.0017277922 -0.006385 0.037534557 0.04511036 -0.014129099
제목 -0.02465655 -0.04457618 -0.012626528 0.0029832157 0.0052352576 -0.015899122 0.0057749557 0.01457338 -0.036569398 0.028786581 0.033217482 0.020710291 0.019258998 0.008079398 -0.026357811 0.021230329
그렇 -0.03323376 -0.044677388 0.01733562 0.0069795474 0.04989252 -0.03781463 -0.03360088 -0.0034708492 -0.030332541 0.021018814 -0.010242842 -0.030629946 -0.03729304 0.0038963184 0.0042481795 -0.043018248
대단 0.057268005 -0.075107545 0.04592501 -0.0064337617 -0.026652679 0.025437204 -0.002630333 0.022594629 -0.041250132 -0.04849137 -0.009359213 -0.054717142 -0.034663122 -0.023015164 0.018125528 0.014930209
개봉 -0.0038241672 -0.015370891 0.04070239 -0.0061084256 -0.006311396 -0.018770726 0.0007504186 -0.014238609 -0.0016755083 -0.013690297 0.021446636 0.03509876 0.017806357 -0.0029508697 0.037992403 0.024375536
부분 -0.057626184 -0.006146404 0.027308796 -0.012686908 -0.028663395 0.003837512 0.03161338 0.0541411 0.023546023 0.045963846 0.035372153 -0.0120406505 0.02173965 -0.024223737 -0.043160427 0.010913674
진 0.04270787 0.047428988 -0.0048897816 -0.0412199 -0.0048444103 0.016346734 0.042846225 -0.0435878 -0.02299835 -0.03754038 -0.03132746 -0.015813574 -0.01623831 0.0351652 0.021702325 0.03347547
OO -0.062348522 0.043813113 -0.017094413 -0.017509937 -0.06385785 0.0026954764 0.06790811 0.011135663 0.08292209 0.07579434 -0.035762526 0.06138062 0.042717453 -0.035581477 -0.029930493 0.073876224
기분 -0.0012694907 0.059549138 -0.03233506 -0.015059876 0.009046731 0.013762183 0.00771742 -0.004573426 0.054384805 -0.008025072 0.007442482 0.048277576 0.025788467 0.0037955013 0.009152562 0.029886909
제 0.04593663 -0.07338132 0.010704747 -0.007018003 0.0081401635 -0.045195978 -0.004161097 -0.052810386 -0.0043440093 0.007211188 -0.02005778 -0.00080402906 -0.048088875 0.041116007 0.03900242 -0.061340116
이제 -0.009857587 0.010192104 0.013698937 0.018356862 -0.016034918 -0.045557525 -0.015505874 0.025259819 -0.0481245 -0.04339485 0.009211647 0.017277969 -0.042132203 -0.025601182 0.027745813 0.012812334
치 -0.030922718 0.017948516 0.03420847 0.021136498 0.0068925633 0.011314404 -0.0124612795 0.0032882865 0.022008965 0.027140845 -0.0025898966 -0.0025895822 -0.034955334 0.012404128 -0.010674987 -0.022597026
진심 0.017092839 0.036324486 0.020237966 0.0054416005 0.0046184966 0.00676575 -0.01409708 -0.031586036 0.040376503 0.020285107 -0.061247543 0.061301127 0.038372044 -0.057876706 0.03283452 0.037396885
바 -0.005077283 -0.017540375 -0.050897207 0.020698486 -0.05219114 0.031337064 0.05089692 0.019129554 -0.03702679 0.026716825 -0.038649004 0.017429361 0.012286797 -0.0565984 -0.026979268 0.027523419
해도 0.046883114 0.014129071 -0.010726103 0.018251887 -0.030742884 -0.014913751 -0.008734111 -0.0064051165 -0.055069778 0.03857897 -0.016974049 -0.054400142 -0.00912772 -0.023350518 -0.01714854 -0.04818879
작가 0.04632448 -0.056873284 0.009805432 -0.030874891 0.015636137 -0.004694751 0.03647865 -0.03167337 0.0035720903 -0.040434524 -0.034091596 -0.053130228 -0.02429306 0.029083736 -0.010571484 -0.027900701
타임 0.0012683439 -0.044733617 0.025589887 -0.022110742 0.02186745 -0.018515276 -0.04772882 -0.0031527919 -0.038590852 -0.035473175 -0.009464888 0.047347974 -0.044614013 0.007069029 -0.012294634 0.042126883
아쉽 0.036674637 -0.04393715 0.047083102 0.060516223 0.03387508 -0.010646136 -0.03314143 0.019547703 -0.004060782 -0.034233373 0.036240686 -0.03719399 -0.007314246 0.023844792 0.030286381 -0.034057654
어디 0.04477512 -0.079574786 0.04934552 0.010803735 0.06020597 -0.02244808 -0.049506746 0.009024705 -0.02847184 -0.0060632345 0.069202065 0.004472145 -0.0011621518 0.054088786 -0.0067372764 -0.03826916
" 0.01929355 0.019175198 0.025770653 -0.036425043 0.020568002 0.0028354153 0.0052629113 -0.017646682 0.032408323 -0.00085828453 -0.044322062 0.04165 -0.013242684 0.01753037 0.008780561 0.0051010028
물 -0.00164422 0.033382647 0.034806143 0.046213873 0.011576741 0.008200821 0.012195708 -0.05286988 -0.036723748 -0.019439282 0.044710327 0.021224925 -0.009997322 -0.015408264 -0.027857948 -0.017039433
삶 0.006311599 -0.025395557 0.02962549 -0.011975384 0.06983682 -0.04704973 -0.022223536 -0.013963861 0.0005981804 -0.03841773 0.012726135 0.0007571289 -0.0054079243 0.0473824 0.059894826 0.0007491498
나왔 -0.035585664 0.022154365 -0.016738452 0.042257015 -0.022858644 -0.017768644 -0.03340342 -0.017987154 -0.011060812 -0.04729692 -0.010105051 -0.008836366 0.011124231 0.044491183 0.0060532913 -0.014643751
친구 -0.009469257 -0.033404656 0.032425348 0.062318206 -0.0035301165 0.02239594 -0.05338726 -0.064920574 -0.056091443 -0.059124894 -0.020071926 0.00992301 -0.07217581 0.04390022 0.034739383 -0.057935145
웃기 -0.034467112 -0.0022404685 0.04518419 -0.019030768 -0.023216456 -0.029011667 -0.038843427 0.0044363732 -0.040499948 -0.017868377 0.00830231 0.018088238 -0.014362928 0.044505708 0.02855463 0.024146214
놓 0.020700667 0.041325513 0.039387476 -0.035185147 -0.0017415285 0.0035160892 0.049196754 -0.04508969 0.03474057 -0.041346777 0.029438924 -0.041759156 -0.048446596 -0.023010243 -0.018066335 0.038828995
/ 0.025478536 0.03468407 -0.052428026 -0.025729768 -0.028003348 0.0649829 -0.014887592 0.022994624 0.04517542 0.058360167 -0.056355543 -0.012214089 -0.01936048 0.027852667 -0.015955709 -0.0064796475
조금 -0.01855236 0.0023981384 -0.03186426 -0.02291308 0.0005769222 0.0038043081 -0.017145686 0.06072059 -0.011695152 -0.014569045 -0.009076726 0.033521786 0.014894451 -0.032310244 -0.014007301 0.035527468
막장 0.01552065 -0.025802553 0.023883166 -0.042923253 -0.036599405 -0.03179058 0.013407569 0.06316905 0.0031606804 0.040898107 0.027276995 0.02878682 0.01579355 0.025746752 -0.014149186 0.032642238
8 0.02735205 0.0039099352 0.06559926 0.06254691 0.035045024 -0.061728608 0.017882653 -0.0689709 0.009482713 -0.04139651 0.00029911153 0.01924016 0.025040284 0.0077975527 0.06661774 0.028554609
보이 0.0019752665 -0.012533355 -0.0004985196 -0.03941938 0.037655458 -0.009574796 -0.035114907 0.02072838 -0.02282705 -0.025533333 6.1395884e-05 -0.023583569 0.024520654 0.02278852 -0.045471523 -0.018154994
딱 0.0047614174 -0.054468505 -0.017562289 0.04832595 0.018244972 -0.0031259402 -0.02155232 -0.04880636 0.018594045 -0.055401366 0.034483388 -0.0106555475 -0.009358888 0.0038235255 0.029672312 -0.039647065
잔잔 -0.035337076 -0.016366137 0.009815805 0.015410634 -0.026716653 -0.035331815 -0.007860945 0.017955568 -0.026831817 -0.032578155 -0.026549984 0.01300848 0.030634206 0.0024824715 0.019625576 -0.055763353
싫 0.018598363 0.017454566 -0.03427681 -0.008645558 -0.04782657 0.01903495 0.003491017 0.043763503 -0.0065376237 -0.012375794 -0.03959308 0.052019972 0.00060040917 -0.021368932 0.017221313 -0.028200762
구 0.005919334 -0.030268362 0.0029528323 0.03662095 -0.010985812 0.025441844 -0.044771094 -0.008867999 0.028623594 -0.014620666 -0.024769904 -0.012285964 -0.056267574 0.00019927412 0.049841005 -0.00576467
요즘 0.034322556 0.0027162652 0.044505358 0.007905003 0.010982119 -0.03904034 -0.017837716 -0.026337683 -0.0051646912 0.0064845905 -0.030392807 0.011890073 -0.044383835 -0.012825619 0.045064967 -0.017299011
중간 -0.015001107 0.012559048 0.03123485 0.031221747 0.038830608 -0.043021902 -0.04006523 0.027440304 -0.0305222 -0.04319631 0.003740683 -0.059186492 -0.02359992 0.061247185 0.013651507 -0.014218298
찾 -0.032535575 0.041185465 -0.026885772 0.048399594 0.03695685 0.003225781 0.022648323 0.01619618 0.04045913 -0.045857966 0.03292126 -0.03793589 -0.007020343 0.030508507 -0.039404295 -0.043891836
봐야 -0.044224314 -0.023156874 -0.042304978 -0.047918726 0.021260172 -0.037763324 0.045975734 0.013963573 0.016257027 -0.018537577 0.036404222 -0.028314628 0.042051133 -0.0005989798 -0.03874456 0.015102193
가지 0.06307636 -0.082774304 0.0033801766 0.05762165 0.09430023 0.0008063188 -0.040403076 -0.0064962846 -0.027337957 -0.039415747 0.019904807 -0.0046519684 -0.08501521 0.024904406 0.00091649935 -0.041675292
씬 0.012471909 -0.01143288 0.035883397 -0.011233398 -0.0146323545 -0.014433677 0.007428504 -0.014355641 0.014250483 0.043568343 0.009427975 0.03650535 0.011505044 -0.048617337 -0.03403467 -0.029943977
영상 0.019462269 0.007792677 -0.02303119 -0.043995183 -0.002949774 -0.024896856 -0.019912094 0.017834548 -0.014172229 -0.028970186 -0.0032754217 0.028921884 -0.04619186 -0.012500401 -0.025048785 -0.03266685
긴장감 -0.033509426 -0.008180863 0.025106102 0.0060441215 0.011879176 0.005892456 -0.050753597 0.026588742 -0.03478976 0.036157258 0.019311523 -0.052575253 -0.036490954 0.033121247 0.018779296 -0.015205531
같이 0.016011477 -0.020425707 -0.04385153 -0.0059770118 -0.045741916 -0.009860618 -0.032244954 0.055484295 0.041191034 0.02684046 -0.052106794 0.019965438 0.054906424 -0.022087555 0.00091488636 0.011856615
라도 -0.053515293 -0.011233261 -0.030128445 -0.05286197 -0.056351945 0.026857171 -0.037199754 0.035441667 -0.003748675 -0.033542667 -0.01334666 0.043824043 -0.032836966 -0.05932847 0.010715608 0.010848294
.... -0.015352132 0.03419948 0.014478452 0.017914537 0.009657478 -0.018989025 0.016881527 -0.028659318 0.0028731516 -0.040823475 0.010564351 0.022517512 -0.039062157 0.039723936 -0.019499108 -0.036935005
믿 0.004954338 -0.014336038 0.01875129 -0.0018390194 0.024402265 -0.02901492 0.01434603 -0.032903302 -0.023009706 -0.024314439 -0.031456135 0.03943901 0.03232863 -0.025847137 0.021252941 -0.030235196
스릴러 -0.053544622 0.03901168 -0.052873727 -0.0356053 -0.00196748 0.03260922 -0.01083921 -0.02292598 0.029402856 -0.019768117 0.02499127 -0.033661816 0.038230836 0.04244882 -0.002599123 -0.029755237
아까운 0.04825922 -0.16682875 0.106110506 0.06769873 0.124763206 -0.07184896 -0.06784749 -0.1318525 -0.1404272 -0.13486099 0.05304579 -0.13927422 -0.044493087 0.06737182 0.12539883 -0.064840056
부족 -0.0737318 0.09577412 -0.11435692 -0.07928438 -0.04756889 0.10179685 0.06359588 0.11165119 0.07654047 0.05903332 -0.107707195 0.08742394 0.01785254 -0.060400445 -0.08633841 0.10379899
억지 -0.0092743 0.024208808 0.059361026 -0.006207129 -0.018318418 0.015486742 -0.019905433 -0.032482594 0.007629913 -0.012938877 0.013005985 -0.04209685 0.021575676 0.025142435 -0.008034012 -0.0240633
노래 0.029714217 -0.005318871 -0.0040007452 0.021105573 0.009132632 -0.066270985 -0.079916984 -0.06402125 -0.031247063 0.0028399883 0.07377028 -0.0047356687 -0.039930753 0.0045212153 0.06772141 -0.01868498
특히 -0.014878012 -0.016596803 0.054247696 -0.018271454 0.048996978 0.028522674 -0.022833731 0.028665334 -0.050083876 0.0011643145 -0.011179363 0.0034188833 0.023702327 -0.002993602 0.026270425 0.041000035
구나 0.030426862 0.042699605 -0.05400568 -0.029097062 -0.052746344 0.04440267 0.054297477 -0.020392906 0.05196896 0.051043093 0.007066733 -0.02354296 0.017895794 0.03387645 -0.0033561955 0.030018529
점수 0.028240884 -0.040776104 -0.03486506 -0.023639157 0.010608654 0.028658982 -0.018664796 -0.056702208 0.039497145 -0.035954874 -0.019053414 0.017896088 0.03507974 -0.0060429377 -0.02659566 0.0009858437
개인 0.03159348 -0.0036800473 0.03894486 0.025983663 -0.03848282 0.021879075 -0.03436171 0.03893839 -0.010847048 -0.0438716 0.0004142299 -0.04008842 0.017556371 0.01595993 0.04514763 -0.00557758
이유 0.033017226 -0.05156197 -0.00063245074 0.05906836 -0.027452128 -0.026900904 -0.0056576454 -0.025723519 0.030597074 0.034236126 0.010497741 -0.04100601 0.014506968 -0.031310715 -0.03628487 0.03400152
시작 0.0095243715 -0.081508674 0.10210004 0.06952164 0.04308313 -0.05077113 -0.050454125 -0.025674831 -0.08759381 -0.023891484 0.015030739 -0.048172254 -0.063777655 0.09087047 0.019047493 -0.0053513786
라면 -0.03740502 -0.009909998 -0.0057047326 -0.038447354 -0.022212675 -0.0030853138 -0.009047008 -0.015255818 0.01011934 -0.019705513 -0.020663913 -0.041044984 -0.023204893 -0.015912477 0.029770462 -0.00744788
만큼 -0.012887574 0.013271241 -0.042279232 -0.041261952 0.010956306 0.012865995 0.03434256 -0.008443585 -0.015044647 0.032982018 0.036650814 0.010484076 -0.015004127 -0.019267207 0.010851678 -0.016355233
제대로 0.015899396 -0.012196505 -0.037476715 0.034952387 -0.02053092 -0.038049232 0.03225574 -0.031394072 0.041785125 0.001508458 0.0061870283 0.03168789 0.016887762 0.046291143 -0.040743705 0.03777112
한테 0.038357712 0.020906927 -0.039397087 0.0030901236 0.040981382 0.006384499 0.0015294785 -0.038532037 -0.015025215 -0.038987987 0.046092443 -0.032991607 0.022735585 0.001931932 0.020751726 -0.00064190436
잇 -0.03264057 0.011086761 0.037094798 -0.007656878 0.007249783 -0.013504658 0.043298554 0.05122337 -0.032240596 0.034889143 -0.038969655 0.03174943 0.018015396 -0.04920951 -0.037418313 0.005833084
날 -0.018776262 -0.015262856 -0.010825719 -0.0545256 -0.030021533 0.034760375 0.014934452 0.010824595 0.040162724 -0.015826857 -0.04384367 -0.0356373 0.050365135 0.036764733 -0.02607565 0.008277211
나름 -0.037213642 0.10638099 -0.07110077 -0.07883253 -0.021563262 0.009108595 -0.00476364 0.06823391 0.080396 0.039954368 -0.07840648 0.057301745 0.037931737 -0.028290406 -0.06954064 0.054637548
ㅜㅜ 0.0019746004 -0.034697182 0.007187781 0.034726124 -0.0032498504 -0.06311005 -0.07745234 -0.08178539 0.00089152774 -0.047898088 0.037059907 -0.02546068 -0.0032911678 0.073435985 0.034086015 -0.0625302
시대 -0.025958812 -0.030333899 0.029772975 0.029755035 0.04088767 0.02824811 -0.026472742 0.028436089 -0.010992253 0.03340226 -0.021807976 -0.001199712 -0.026750855 0.018335404 0.029756019 0.015439757
사 -0.034533188 0.0049845446 -0.0056734984 -0.042165637 -0.037885144 0.022321012 0.024771564 -0.037941094 -0.025633844 0.009927734 -0.015415114 -0.034145527 0.01154071 -0.017362658 0.02904357 -0.017279694
명 -0.056167647 0.033490635 -0.024032459 0.015805388 0.005958416 0.020933975 -0.017319953 -0.009314942 -0.033057515 0.04403382 -0.036926202 -0.024153886 -0.019925844 -0.02069272 -0.031259336 -0.0059611737
제일 -0.0016127683 0.06410499 -0.009044162 0.025037965 -0.02871269 0.0027249893 0.012312289 0.011633593 0.05174941 -0.025651986 0.026244685 5.136995e-05 -0.010300435 0.015274333 -0.03183718 0.00855954
아름다운 -0.1253627 0.14672801 -0.12688857 -0.16548312 -0.13308087 0.16031137 0.13714644 0.1370109 0.09896497 0.16557597 -0.15835343 0.12395496 0.07668091 -0.16378228 -0.16324033 0.13445401
어떻게 -0.0257415 -0.003631809 -0.014463312 0.02257289 -0.03229223 -0.025950605 -0.015433753 -0.051791172 -0.057740927 -0.03510728 -0.0104799885 0.013440463 -0.02409698 -0.024691422 0.004146477 0.018349554
해요 0.076884605 -0.07353271 0.008385721 0.04639488 0.018419234 -0.032557856 -0.0002437066 -2.6486272e-05 -0.036756143 -0.028826278 -0.010267257 0.0069514443 0.013122972 0.06402935 0.05184766 0.0021742375
하지만 0.040100515 -0.0004242306 -0.010824164 0.02905498 0.021233387 0.01938314 0.0052569 0.027644994 0.027224885 -0.034361634 0.050376035 -0.00623831 0.04661802 -0.038769186 -0.0072935936 0.003571802
당시 -0.0076860627 0.021661682 0.024767227 0.014583325 0.032994155 -0.02727892 -0.038056523 -0.049889952 -0.031660378 -0.016941695 0.031922378 -0.037021056 0.0074495054 -0.03525924 0.007881302 -0.018896012
무섭 -0.029782478 -0.027437413 -0.010008362 0.007738351 0.044645432 -0.0002483131 -0.0071098115 0.02879183 0.035828613 0.040785924 -0.04336062 0.034656696 0.037436094 0.04144133 -0.050027467 0.02282118
차라리 0.0013566344 0.019924276 -0.03225248 -0.033540748 -0.034090914 -0.021282753 0.06599289 0.05472773 0.061834715 0.03795388 -0.06704709 -0.016608221 -0.0033359856 -0.012381379 -0.06614627 0.037344683
이것 -0.018355068 -0.04398785 -0.014370295 0.0045734397 0.031112278 0.03734483 0.010208671 0.04668812 0.035339747 -0.02795133 0.016858973 -0.040689524 -0.010687729 0.044355616 0.032641318 0.047158852
려고 0.015146926 -0.0225604 0.025961924 0.004720609 -0.033826318 -0.011114116 0.0011424377 0.03646258 0.032965586 0.027482018 -0.021702634 0.009907425 -0.02332079 0.023468275 0.011994938 0.045241497
엔딩 -0.002593078 -0.016442837 0.024116931 -0.0077843172 -0.037556972 0.01759608 0.024353936 0.03447628 0.052121926 0.025872849 0.03120919 -0.005767214 0.0044108853 0.008397016 0.00025198367 -0.025233565
오랜만 0.018804867 0.00057698035 0.02236549 -0.0017396372 -0.026950317 -0.008866576 0.023288991 0.02310012 -0.007454508 -0.006195807 0.014905226 0.035003297 -0.039835166 0.029670196 0.046690598 0.004975674
니까 0.04776439 0.049798697 -0.011353504 -0.04373236 -0.03927021 -0.019022986 -0.022688719 0.011985175 0.017654015 -0.032646134 0.03209874 0.011991145 0.02078895 -0.011010287 -0.0007151916 -0.00979908
봄 0.0028906034 -0.07459628 -0.0047919513 -0.0033602552 0.07841123 -0.048267677 -0.031853028 -0.05229212 -0.038235694 -0.055106644 -0.008940811 -0.032068435 -0.008036648 0.012573926 0.024360636 -0.021240324
의미 0.010536163 0.0315686 0.03183598 0.02357834 -0.022798873 -0.049970932 0.031640653 -0.034901626 -0.016163085 -0.034490354 -0.034269314 -0.0042195083 -0.035760384 0.021534417 -0.019394957 -0.032791015
나온 0.012191346 -0.07289354 0.026605787 0.054247685 -0.027801033 0.024278028 -0.0012259067 -0.0018384024 0.00042253593 0.0015291916 0.045008615 -0.019535093 -0.0024334334 0.04124343 -0.009835167 0.0064810654
세상 0.044638388 0.013532201 0.03820766 -0.022394387 -0.03249007 -0.036699917 -0.028578447 0.017327754 0.025293529 -0.022854267 0.003312471 0.008856982 0.025995541 -0.013916775 -0.02613218 -0.038964495
봐 0.0028019561 0.04039842 0.047432944 -0.017297704 -0.043622386 -0.003351045 0.031391002 0.024735207 -0.022028703 0.014361686 -0.0487097 0.051529694 0.009636043 0.037378527 -0.015485509 0.019503629
따뜻 -0.020393658 -0.04171121 -0.04709084 -0.023509491 -0.028542746 0.00073963404 -0.0030675903 0.00739491 -0.0008197203 0.03959981 -0.023200452 -0.03538177 0.030182544 0.019872848 -0.043313395 0.027616117
세 0.045863837 -0.016897889 0.042479444 -0.0128312865 0.030915046 0.004275152 -0.03661419 -0.034708902 -0.04587734 0.031994324 0.029060429 -0.04897106 -0.02071718 0.032735888 -0.03025273 0.025052072
팬 0.017251201 0.025321418 -0.058938604 -0.030975418 -0.07808783 0.03345215 0.043244887 0.07119602 0.057344392 0.011762001 -0.0086933635 0.029948642 0.07092435 -0.0060549113 0.015865343 0.004851271
훌륭 0.018206192 -0.04858389 0.07194224 0.061742205 0.056053925 -0.05230009 -0.013982805 0.017343983 -0.014013598 -0.027422061 0.06760195 -0.008639409 -0.061766583 0.045833256 0.051548503 -0.047660355
9 0.041518558 -0.07229112 0.037119493 0.0073675504 0.07130405 0.023378536 -0.066454425 -0.06461926 0.016273439 -0.00847574 -0.016112998 -0.030880675 -0.040316634 -0.015451337 0.011035577 -0.023195442
절대 -0.028425805 -0.056568336 -0.023290025 0.051801745 -0.02236636 -0.06040274 -0.012279116 0.019592348 0.037651706 -0.011521014 -0.018090596 -0.03153799 -0.006976326 0.034075152 0.052149624 0.027472328
못하 0.023580763 0.03605861 -0.038596906 0.029940333 0.023738015 -0.028070927 0.032952104 0.045803998 0.025653291 0.048637737 -0.025101854 -0.024233246 0.032211807 -0.0063544028 -0.01761756 -0.027155519
놈 0.020899791 -0.044152584 -0.034757968 -0.043045223 0.011120749 -0.0066147787 0.0073476927 0.020513574 0.03826377 -0.020446721 0.01222516 0.018054204 -0.040499765 -0.0045270096 0.006374325 0.030487452
강추 0.051671773 -0.1287025 0.050698217 0.0954797 0.11927525 -0.07691172 -0.0796462 -0.09450343 -0.09552038 -0.06771939 0.048207086 -0.12089395 -0.06669179 0.08996515 0.074751146 -0.05185636
느끼 -0.039993644 -0.024438329 -0.05351944 0.02557598 -0.028752679 -0.039712723 0.021479841 0.04835797 0.023235507 -0.030390264 0.00774921 -0.0070251217 0.016270528 0.028557004 -0.03675115 0.030215133
욕 -0.00027793393 -0.019515313 -0.028217772 -0.016700037 0.054562636 0.02549068 -0.0025428953 -0.035619482 -0.0005004992 -0.03948148 0.057322577 0.033291258 0.027213976 0.02772569 0.004384106 0.015075391
감 -0.0044689784 -0.00782759 -0.023107395 0.021189112 0.011926944 0.028198773 0.008092289 0.03573134 0.013916163 -0.015889563 -0.016377542 0.04124299 0.018417612 -0.002613887 0.03624037 0.026598312
빼 0.036008604 0.039810397 0.029281298 0.047516655 -0.009619446 -0.004085854 -0.023641158 -0.04637366 -0.012394468 -0.006259305 0.046351593 0.035482913 -0.0051620933 0.026001982 0.037756603 0.03641531
너무나 0.024252297 0.011458749 0.0064557395 -0.027607184 -0.033059154 -0.014640706 -0.022802038 0.016057733 0.039077286 -0.032009374 -0.05766193 -0.003068467 0.004016821 0.0056590186 -0.02562452 0.05605683
전쟁 0.0024079587 0.0020085634 0.01077094 5.795536e-05 0.015080727 -0.0528682 0.0034347384 -0.025087148 0.0061515123 0.021482604 -0.01673885 0.0055926037 0.03313522 -0.04230036 -0.019986581 0.041437652
됨 0.0066684014 -0.017684236 0.015808865 0.028491208 0.03857926 0.013796292 -0.003943693 -0.00570519 0.007769317 0.00546121 0.02234371 -0.006741559 -0.017325768 0.057945047 0.04479936 -0.06828533
어야 -0.0035197362 0.038627837 0.010615133 -0.037137628 -0.0234396 0.029674422 0.037130762 0.04438925 0.011232555 0.006545078 0.042757813 -0.011507809 0.025673676 0.033056762 0.039989565 0.014257539
해야 0.029558737 -0.04207069 0.03521724 0.03422805 -0.012200502 0.020401312 -0.009232017 -0.037509367 -0.013916458 0.0015266836 0.028726889 -0.060358517 0.01099986 0.0018493736 0.020206263 -0.005124614
던데 0.018163394 -0.0053448193 0.0067328587 0.023538064 -0.04464061 -0.016004492 -0.0019804612 -0.0065054893 -0.015382923 -0.04894909 -0.02669226 -0.035858653 -0.033081964 -0.010583449 -0.03651043 0.023037229
도대체 0.009370658 -0.019975055 0.069692895 0.017065316 0.072617136 -0.03986947 -0.096287966 -0.05968453 -0.014837328 -0.025186691 0.06252171 -0.0042328564 -0.049226727 0.058090363 0.058657005 -0.051760018
무엇 0.005034205 0.038801685 -0.007913011 -0.053941827 -0.0054567778 0.06595637 0.014561846 0.007640802 0.0024662984 0.020114353 -0.061964665 0.03466787 0.017135972 -0.04196797 -0.053420328 0.0059008426
답답 -0.054984745 0.00016593438 -0.03185671 0.010456684 0.016860347 0.004696648 0.06338357 0.021399047 0.0217788 0.00068710285 0.014813814 0.074653365 0.032994546 -0.06737072 -0.03817664 0.026638372
준다 -0.04530242 -0.033706468 0.0017311608 -0.035886206 -0.024148572 0.00085763104 0.03119722 0.016409628 -0.002149574 0.047892142 -0.049746886 0.024602234 0.0048345355 0.029141493 -0.02642059 -0.0013575801
ㅡ -0.001080573 -0.0032923187 -0.07651174 0.01036084 -0.061228223 -0.0011913722 0.04298976 0.0516819 0.02993229 0.036872108 -0.06859032 -0.0043726936 -0.01057788 -0.051751684 -0.023791809 0.06590921
드 0.010518933 -0.04954254 0.009476575 0.019212807 0.012448587 -0.047354266 -0.046229217 -0.020482223 0.021209924 0.032237228 0.03689975 0.039970648 0.04553003 0.032515768 -0.019476317 0.00972173
마다 -0.002301082 0.053342637 -0.009747631 -0.0024262888 -0.014482022 -0.030922191 0.03606139 0.052157 -0.030358749 -0.01620691 0.018554658 -0.026359443 -0.0053719454 -0.0074674026 -0.037541475 0.04557081
설정 -0.01304907 0.037917092 0.03477005 0.0022331858 0.04231203 -0.012210165 -0.019313022 0.0010507164 0.036191992 -0.008595948 -0.049653966 0.005111704 -0.04281023 0.026940823 -0.02989539 0.002308285
답 0.027794996 0.022247199 -0.011521054 -0.038472608 -0.038547397 0.015292821 0.018553406 0.04661004 -0.04008503 0.047074676 -0.009810442 0.024185944 0.029190464 -0.0037699786 -0.0050003813 0.017458407
그저 0.08501282 -0.1005456 0.101132885 0.004564032 0.0130776055 -0.011024984 -0.04806917 -0.06503584 -0.034861345 -0.08804811 0.071249224 -0.09118852 -0.02588363 0.011962724 0.08105089 -0.07177714
6 0.04650007 -0.036092732 0.051292278 -0.017110534 -0.00012246288 0.0005144522 -0.024133319 -0.02554614 -0.025864422 -0.012592959 0.006611192 0.030304013 -0.025936924 0.037659675 0.038162827 -0.037039027
어도 0.04643598 -0.04943031 -0.028737236 0.018741403 0.04296806 0.033830646 -0.045802224 -0.016605519 0.012067508 0.047247592 -0.01943028 -0.04202957 -0.023875749 -0.039920665 0.015860524 0.0100003965
형 0.023329895 -0.07241977 0.0622767 0.050782107 0.018139604 -0.020750716 -0.010895341 0.0073936684 -0.037929658 -0.00026695454 0.03591893 -0.0683987 -0.0151014775 0.039911225 0.023054648 0.0048741363
신선 0.045945514 0.014062698 -0.020446455 0.010558307 -0.03993432 0.03840406 0.015483259 -0.054147743 0.025930474 0.016518427 0.023703834 -0.03183007 -0.05329838 0.043993354 -0.01019382 -0.004542871
감정 -0.044331223 -0.029874409 -0.030234275 0.02236476 0.035159595 0.032178674 0.00085301924 -0.027871743 -0.04370709 -0.011297587 -0.049799625 0.0034564997 -0.020014644 0.036017243 -0.029354734 0.035875015
흥미 -0.0066658864 0.042265028 0.04292715 -0.013494141 -0.05270114 0.04927593 0.040188294 -0.008186144 0.019301075 0.03046575 -0.0039512543 0.0074562435 0.05333346 -0.0121648 -0.015932105 -0.014776824
글 -0.011277091 0.0042778845 -0.016186008 -0.034281764 0.04859426 -0.021450369 -0.022439845 0.0041395416 -0.0518487 -0.024693567 0.021356976 -0.021382967 -0.004733398 0.039408877 -0.004539835 -0.005792444
미국 -0.034424204 0.03906446 -0.045274843 -0.026035221 -0.028734202 0.044137776 0.040340696 -0.01008531 -0.016110683 -0.0070405873 0.03720179 -0.021433664 -0.030984253 0.03318188 0.030998839 -0.008069136
뻔 -0.0022432148 -0.022062741 -0.033575006 -0.008186531 -0.0018252754 -0.045345046 -0.019863032 -0.019869464 -0.034298804 0.018142466 -0.03849977 -0.04526956 -0.03476139 -0.043043938 -0.004202972 0.053497545
엄청 -0.06225075 0.047006506 -0.048448965 -0.010454112 -0.040075567 0.04945156 -0.001268373 -0.0039800126 0.047678158 -0.009611347 -0.0011636155 0.020981653 0.067438 -0.012631623 -0.06312752 -0.00829349
관객 0.06469656 -0.027728302 -0.024255771 0.03735037 0.045556318 -0.050199654 0.0055332654 0.009842243 -0.014530569 -0.06890984 0.06513658 -0.04770918 -0.03568098 -0.0043163565 0.033501044 -0.0423456
행복 0.036924854 -0.01774874 0.06009606 0.041327287 0.038846496 -0.048638854 0.007316297 -0.070730485 0.014645191 -0.08036007 0.013154204 -0.028072383 -0.0015261878 0.02693505 0.04300469 -0.08117893
시절 0.008567408 0.036536757 0.026915627 -0.03993002 0.044859715 -0.00017318575 0.000465532 -0.033249915 -0.0132663045 0.010353393 -0.020897185 -0.023856876 -0.017729465 -0.029800713 0.04277821 -0.02224956
더라 0.032468166 -0.04442606 0.013265695 0.025978174 0.020890761 0.0445461 0.026254129 -0.04831021 -0.02513876 0.049438152 0.031595614 0.0490405 0.032517042 0.018206287 0.02656417 0.0014731176
만화 0.0476205 -0.08836863 -0.0013929484 0.072071925 0.04770358 -0.023866495 0.017094838 -0.035126884 -0.035441782 0.0062268474 0.0069504944 -0.0012519492 -0.04014032 0.06571999 0.029188676 -0.079394616
수작 0.055472326 -0.16283937 0.09238241 0.07198222 0.05207664 -0.047283944 -0.10834423 -0.05258381 -0.05623746 -0.107108444 0.07297259 -0.09276343 -0.047660116 0.13547453 0.1276181 -0.06946378
군 -0.025702983 -0.038636412 0.020351017 -0.012199833 0.045111883 -0.050073687 -0.0034441773 0.022181038 -0.0121868225 -0.019823257 -0.01820482 -0.054007635 0.006479197 0.035941962 0.010767086 -0.05467577
앞 -0.02826084 0.042530973 -0.020673994 0.042656496 -0.04438537 0.02925491 -0.007886204 0.03234392 0.047342267 0.011774762 -0.039458934 0.02651147 0.0485096 -0.02047613 -0.040414605 0.051741574
자신 0.0043861554 -0.032413654 -0.05365449 -0.04772527 0.0122712655 0.013032482 -0.0036837743 0.009923676 0.0018273068 0.053032108 -0.027843166 0.06250604 -0.03696708 -0.054628808 -0.031546317 0.053228248
슬프 -0.015800953 0.030682657 -0.015424538 -0.047629345 -0.028292073 -0.027562631 0.0473529 0.01163435 -0.007166721 0.014148761 0.037769247 0.03214724 0.01706845 -0.0020310879 -0.006872572 0.04149672
라니 -0.051508807 -0.011807187 0.012012882 0.017396444 -0.031130001 -0.017464338 0.02316733 -0.028271716 0.039729074 0.0035319554 0.008709282 -0.04361504 0.0030444153 0.034051258 -0.03962814 0.03161727
배경 -0.058129206 -0.013027886 0.020080917 -0.059773635 -0.0086495755 0.039820675 0.02972915 0.0017984306 0.022347584 -0.014653026 -0.042447116 0.060968954 0.02490023 0.027013384 0.023439365 0.002059656
허접 -0.047177345 -0.02400329 -0.029609842 -0.031500354 0.03670636 -0.0026450432 0.004185621 -0.027590869 0.052348964 0.002460862 0.012960309 -0.013989787 0.027806452 0.016584603 -0.05714124 0.029417992
초반 -0.044229276 -0.016025187 -0.046825774 -0.02122815 0.04453883 -0.046059094 0.0057559735 0.053379245 -0.02433059 0.04194627 0.021709891 0.025863761 0.0016400805 0.04448982 -0.053031795 0.03350474
질 0.033857603 -0.035785653 -0.0025199698 0.023335345 0.05136921 0.024434058 -0.019860834 -0.00951992 0.011255242 -0.0163518 -0.0064739003 -0.048686817 -0.018100368 -0.03220713 -0.014904026 -0.006874968
어색 -0.0103380345 -0.04333897 -0.0066322777 0.037012447 0.018237496 -0.026945883 -0.041239835 0.057674263 0.013665452 -0.018679552 0.018402819 -0.021668948 0.045181964 -0.028395984 -0.041212883 0.04323482
시나리오 0.018456962 -0.00511859 -0.0114792995 -0.05130045 0.03015291 -0.03462853 0.04687363 0.041983873 -0.013173492 0.033851605 0.039254628 0.0110826725 0.039830904 0.017127529 0.013970107 0.013993317
사실 0.017031388 0.05264197 -0.025756976 0.0059714336 -0.011510746 0.048186064 0.0013307808 0.045378625 0.033686522 0.05142283 -0.04728295 -0.0345504 -0.04286546 -0.030989371 0.0070446474 0.021836843
웃음 -0.043757472 0.018117422 -0.04087737 0.010386242 0.010516495 -0.014287154 -0.0029691344 -0.013373196 -0.0050025247 0.0643259 -0.040833034 0.06367212 0.072929636 -0.027780795 -0.07151987 -0.0026681789
첨 -0.0018731984 -0.028183514 0.024530187 -0.026098218 0.0102770245 0.008460791 -0.02650376 -0.005117103 0.024072351 0.03490381 -0.025359862 -0.029003156 -0.043277577 0.05755149 -0.0027665852 0.013517288
분위기 -0.014572564 -0.021758653 -0.028909627 0.05600844 -0.028766844 -0.028743789 0.01249188 0.019117171 0.024167104 -0.03758489 0.029046673 0.013151518 0.0047278004 -0.030216124 0.024037357 0.012820039
소름 0.05223138 0.038271252 0.019695904 -0.027318526 0.016381046 0.03165514 -0.01591462 -0.040811125 0.012627477 0.038031876 -0.03745519 -0.037019372 -0.013190072 0.036882803 0.023057414 0.0033108783
멋진 -0.057325117 0.17201364 -0.12677489 -0.10840203 -0.06541972 0.12825201 0.118446365 0.07156892 0.1308719 0.12007317 -0.1480595 0.14860533 0.08523827 -0.05162001 -0.1289276 0.062363267
추억 -0.03868287 -0.015029788 0.014772255 -0.010709741 0.029740736 0.025074346 -0.02076887 -0.03217041 -0.05035067 -0.024376655 0.0038394216 0.011504492 -0.031890865 -0.010237845 -0.014119726 0.035737194
머 -0.008817583 -0.013123684 -0.06577941 0.018413376 0.0032002197 -0.019594865 0.06879955 0.043207657 -0.017127097 0.00443609 0.014187416 0.0029491636 0.0064600063 0.007905448 -0.023741584 -0.0077565038
멋있 0.04180627 0.04602014 -0.0369591 0.025380958 0.015739787 0.0067483187 0.021052707 -0.041097723 -0.015026141 0.030266192 -0.019052362 0.022441361 0.043124627 0.011750709 -0.042264115 -0.04943594
힘들 -0.010757906 0.0017472582 -0.01962378 -0.048374142 -0.04594954 -0.01154124 0.027542207 0.03691039 0.0076139253 0.014021201 -0.02368069 -0.011139941 0.009434327 -0.02497169 0.012674805 0.05079246
정신 -0.033908088 0.0007744896 0.046300717 0.0011639361 -0.04514412 0.03797759 0.042136315 0.027368547 -0.05029636 -0.033577576 0.036996104 -0.0014060184 0.048079994 0.034975044 -0.015920864 0.04556859
캐스팅 0.04596196 -0.03767527 0.00037581968 0.037459597 0.042223424 -0.030754719 0.00315579 -0.052223455 -0.054023564 0.026251322 0.040467862 -0.042391054 -0.034507267 -0.025943648 0.020604819 0.029674573
등 -0.05691485 0.014039743 -0.04523777 -0.022814833 -0.027713278 -0.04282612 -0.043451533 0.039071992 -0.039328896 -0.03557875 0.02719005 0.023922108 -0.00070132094 0.012156876 -0.02569031 0.051313054
밖에 0.043176357 -0.039670642 0.017094035 0.048083432 0.015452612 0.03805361 -0.054354373 -0.012348433 -0.025074124 0.035814464 0.036884766 0.00083501835 0.016358081 0.0185962 -0.03512601 -0.01125374
OOO -0.0075258 0.050392374 -0.0023506456 -0.082430445 -0.032846373 0.04353331 0.054883473 0.031391483 0.038992982 0.054138653 -0.049108535 0.06007923 0.047226217 -0.06818595 -0.01020639 0.06893439
결국 0.05297377 -0.0050646723 0.058518518 0.019643772 -0.009028998 0.023161363 -0.031050107 -0.057670034 -0.054864835 -0.022358522 -0.004335416 0.02781475 -0.06468982 -0.028793987 0.0057839146 -0.018344466
봐서 -0.01290918 -0.047862396 0.008690418 0.03096683 -0.029206764 0.037539914 -0.0044120606 -0.036811575 -0.0062017078 0.011216978 -0.036875445 0.0056889085 -0.050682645 0.0190746 -0.03843399 -0.027095392
류 0.0123992115 -0.03218169 0.03391905 -0.049909975 -0.04345459 0.04802098 -0.024977686 -0.044548344 -0.042142663 -0.04226922 0.008532399 -0.0286819 -0.011442966 -0.0027957559 -0.0110641075 0.029615212
오늘 0.0060459934 -0.00632987 -0.05194539 -0.03832023 -0.05131005 0.064099364 0.011633578 0.024887068 0.04943641 0.008142276 -0.010175881 0.004098484 0.020173665 0.024618737 0.020476624 0.03435878
졸작 -0.10805105 0.18979889 -0.15460992 -0.075184904 -0.08728375 0.13821931 0.13519429 0.15538068 0.09960093 0.11310652 -0.13788673 0.14626394 0.113592364 -0.10084134 -0.14595777 0.12154665
낫 0.02822856 -0.045778252 -0.009709774 0.05759368 -0.0007204535 0.02254067 0.015368178 -0.011886174 -0.033945452 -0.0011753693 0.036441695 0.016780328 -0.037257444 0.04757905 -0.028444346 0.023976026
킬링 -0.02445964 0.060420454 0.0058372356 0.011313554 0.024871048 -0.010511581 0.03345822 0.02213095 0.06597133 0.0012809864 -0.06380165 0.03476952 0.00093424856 -0.013709525 -0.064388156 0.062024683
역사 0.01696264 0.007658462 -0.015318171 -0.005881464 0.057274096 -0.06852492 -0.023457417 0.00733821 -0.010431691 -0.008876453 -0.013958 0.007308992 -0.028489236 0.019227153 0.049357202 0.0145306
함께 0.021504719 0.040519625 -0.0077187335 -0.022340111 -0.037237037 0.015115146 0.050581113 0.0774483 0.07555441 0.036451533 -0.0014089359 -0.000996517 -0.021296894 -0.07142023 0.019441092 -0.0055282395
잡 -0.031317584 0.034854565 -0.0024133865 -0.007136459 0.038522493 0.016356 -0.0076111294 0.044224393 -0.039443217 0.028643826 -0.022662148 0.042736102 0.036601227 -0.037664864 -0.042790208 0.040675763
엄마 0.014312574 0.04280804 -0.0040856283 -0.036988758 -0.042716272 -0.032969967 0.037068233 0.049700063 0.022724995 -0.025419455 -0.037564494 -0.02786872 0.05718694 -0.049652223 -0.00053075317 0.05764941
이딴 0.035234477 0.009451707 0.050999343 0.016843542 0.05800289 -0.061344434 -0.03366889 -0.054285 0.013046805 -0.0054909624 0.011872605 0.0033325194 0.019363912 0.05474152 -0.023896014 -0.046738233
한데 -0.0077776746 -0.021640893 0.013444825 0.019304391 0.038295656 0.029867955 0.046187803 -0.03537236 -0.039388746 0.0063748998 -0.010829562 0.001255386 0.03216539 0.010265907 0.039042857 -0.009527963
20 -0.01531506 0.007535196 0.023422591 0.02269094 0.030075027 -0.024187401 -0.031203004 0.007322161 0.034998626 -0.03443368 -0.0074775256 -0.0116525525 -0.011273223 -0.033054527 0.04187328 -0.016020803
집 0.043703813 -0.0023098153 0.06238424 0.059639107 -0.009029434 -0.05280134 0.014759624 -0.029619912 -0.05590293 -0.012038756 0.063067265 -0.022180758 -0.04733585 0.03788655 0.07626603 -0.0153226415
구성 0.008961157 0.032132197 0.03488329 0.011289793 -0.0059843315 -0.021959154 0.0153561495 0.015108502 0.046406157 0.04875004 -0.03762236 0.055950038 -0.035637215 0.03516023 0.023552135 0.060876723
